{"learner":{"attributes":{"best_iteration":"140","best_score":"0.21378627165374764","scikit_learn":"{\"_estimator_type\": \"regressor\"}"},"feature_names":[],"feature_types":[],"gradient_booster":{"model":{"gbtree_model_param":{"num_parallel_tree":"1","num_trees":"151"},"iteration_indptr":[0,1,2,3,4,5,6,7,8,9,10,11,12,13,14,15,16,17,18,19,20,21,22,23,24,25,26,27,28,29,30,31,32,33,34,35,36,37,38,39,40,41,42,43,44,45,46,47,48,49,50,51,52,53,54,55,56,57,58,59,60,61,62,63,64,65,66,67,68,69,70,71,72,73,74,75,76,77,78,79,80,81,82,83,84,85,86,87,88,89,90,91,92,93,94,95,96,97,98,99,100,101,102,103,104,105,106,107,108,109,110,111,112,113,114,115,116,117,118,119,120,121,122,123,124,125,126,127,128,129,130,131,132,133,134,135,136,137,138,139,140,141,142,143,144,145,146,147,148,149,150,151],"tree_info":[0,0,0,0,0,0,0,0,0,0,0,0,0,0,0,0,0,0,0,0,0,0,0,0,0,0,0,0,0,0,0,0,0,0,0,0,0,0,0,0,0,0,0,0,0,0,0,0,0,0,0,0,0,0,0,0,0,0,0,0,0,0,0,0,0,0,0,0,0,0,0,0,0,0,0,0,0,0,0,0,0,0,0,0,0,0,0,0,0,0,0,0,0,0,0,0,0,0,0,0,0,0,0,0,0,0,0,0,0,0,0,0,0,0,0,0,0,0,0,0,0,0,0,0,0,0,0,0,0,0,0,0,0,0,0,0,0,0,0,0,0,0,0,0,0,0,0,0,0,0,0],"trees":[{"base_weights":[-4.220766E-4,-8.538018E-3,1.515784E-1,-6.418985E-2,7.055312E-3,9.866609E-2,2.5960314E-1,-1.05738565E-1,-9.020973E-3,-1.7453492E-2,3.4597922E-2,1.2909068E-1,-3.7521277E-2,3.291734E-1,-9.136333E-2,-1.7516835E-2,-1.5081604E-1,2.21834E-2,-2.5173377E-2,5.7703532E-2,-3.0520108E-2,8.540397E-3,7.981535E-2,6.612362E-1,1.2002155E-1,-1.0936571E-2,-6.489714E-3,2.5154376E-1,4.9731076E-1,3.4860026E-3,-5.849664E-3,-5.1021423E-2,7.766002E-2,2.1407325E-2,-1.617133E-1,3.3966023E-2,-5.3733718E-2,1.1771329E-2,-3.645213E-2,1.6663226E-1,4.6524923E-2,-5.392017E-2,-9.092156E-4,3.1167993E-2,-2.272678E-2,1.5731058E-1,5.2113164E-2,1.1663499E-2,5.212742E-2,2.2617379E-1,9.1952264E-2,-7.6613105E-3,2.1455117E-2,3.0340046E-1,3.0392865E-2,5.942345E-1,2.1723485E-1,6.294145E-2,-6.488408E-2,-1.5168201E-2,1.5366378E-1,-1.485057E-1,1.3164584E-1,-1.388821E-1,-2.0880719E-1,1.21306874E-1,2.1692075E-2,-7.2789475E-2,1.42386025E-2,9.603336E-3,4.296015E-3,-3.866187E-2,2.0796907E-1,3.3328038E-1,4.7598105E-2,6.400515E-2,-2.1453355E-2,-7.552637E-2,-2.4244612E-2,1.624238E-2,-4.0017415E-2,5.0841622E-2,-9.302527E-3,1.8728128E-2,-4.611129E-2,2.7935398E-1,1.1053362E-1,4.1029718E-2,1.3214885E-1,3.9667836E-1,1.0330336E-1,4.198866E-2,1.698954E-1,-2.4000574E-3,1.9659306E-1,2.583917E-1,9.304916E-1,-1.28943445E-2,1.19530514E-1,3.3700988E-1,7.679541E-1,2.7561639E-2,3.816729E-2,-4.5067267E-3,7.6694167E-3,-9.6211035E-4,-4.3021417E-3,-3.10306E-3,5.128495E-3,-4.4845307E-4,1.1610787E-2,-2.6498404E-3,-1.1429085E-2,2.1086646E-2,1.6103769E-3,-7.952231E-3,-4.6284795E-3,-7.5053186E-3,-1.19628515E-2,1.2105375E-2,4.088146E-3,1.5344542E-3,-5.2319714E-3,-4.476731E-3,4.021144E-3,9.2403154E-4,-1.8774577E-3,-2.4149187E-3,3.7403274E-4,-1.2379482E-3,2.5253443E-2,3.669679E-2,9.899355E-3,-3.3898305E-3,3.3980252E-3,7.940452E-3,2.532547E-3,-2.5403902E-3,2.3261465E-3,-2.7205134E-3,-5.6571485E-3,1.6083736E-3,-1.9715303E-3,2.9969047E-4,6.4199823E-3,-4.2733345E-3,6.555672E-4,4.3242993E-3,1.3662756E-3,-8.480442E-4,3.994632E-3,1.3616572E-3,-5.178362E-3,-2.7712143E-3,2.0244361E-3,1.5966026E-2,3.91956E-3,7.406109E-3,1.4610052E-4,-2.830772E-3,2.4466715E-3,-2.5929933E-4,8.03512E-3,4.2312514E-2,1.7079191E-2,-5.535483E-4,9.076874E-3,9.942024E-3,7.0516224E-4,3.277869E-2,7.917554E-3,2.9578414E-3,-2.9333497E-3,2.6776583E-3,1.6535372E-2,1.5651723E-2,5.5859226E-4,6.516417E-2,2.656422E-2,1.2935909E-2,-1.7913528E-3,3.2776374E-2,-3.6916793E-3,4.346102E-2,1.6182183E-3,-9.046753E-3,8.13982E-3],"categories":[],"categories_nodes":[],"categories_segments":[],"categories_sizes":[],"default_left":[0,0,0,0,0,0,0,0,0,0,0,0,0,0,0,0,0,0,0,0,0,0,0,0,0,0,0,0,0,0,0,0,0,0,0,0,0,0,0,0,0,0,0,0,0,0,0,0,0,0,0,0,0,0,0,0,0,0,0,0,0,0,0,0,0,0,0,0,0,0,0,0,0,0,0,0,0,0,0,0,0,0,0,0,0,0,0,0,0,0,0,0,0,0,0,0,0,0,0,0,0,0,0,0,0,0,0,0,0,0,0,0,0,0,0,0,0,0,0,0,0,0,0,0,0,0,0,0,0,0,0,0,0,0,0,0,0,0,0,0,0,0,0,0,0,0,0,0,0,0,0,0,0,0,0,0,0,0,0,0,0,0,0,0,0,0,0,0,0,0,0,0,0,0,0,0,0,0,0,0,0,0,0,0,0,0,0],"id":0,"left_children":[1,3,5,7,9,11,13,15,17,19,21,23,25,27,29,31,33,35,37,39,41,43,45,47,49,-1,51,53,55,-1,-1,57,59,61,63,65,67,69,71,73,75,77,79,81,83,85,87,-1,-1,89,91,-1,93,95,97,99,101,103,105,107,109,111,113,115,117,119,121,123,-1,-1,125,127,129,131,133,135,137,139,141,143,145,147,149,151,153,155,157,159,161,163,165,167,169,171,173,175,177,-1,179,181,183,-1,185,-1,-1,-1,-1,-1,-1,-1,-1,-1,-1,-1,-1,-1,-1,-1,-1,-1,-1,-1,-1,-1,-1,-1,-1,-1,-1,-1,-1,-1,-1,-1,-1,-1,-1,-1,-1,-1,-1,-1,-1,-1,-1,-1,-1,-1,-1,-1,-1,-1,-1,-1,-1,-1,-1,-1,-1,-1,-1,-1,-1,-1,-1,-1,-1,-1,-1,-1,-1,-1,-1,-1,-1,-1,-1,-1,-1,-1,-1,-1,-1,-1,-1,-1,-1],"loss_changes":[2.6990585E1,1.8024605E1,6.3132534E0,1.0419367E1,1.0953071E1,3.0958533E0,8.917793E0,1.0309235E1,9.854245E-1,8.433624E0,9.001182E0,2.8645554E0,7.6896346E-1,3.8428497E0,2.599988E-1,2.8037827E0,3.2239914E0,5.9845865E-1,5.3712595E-1,1.5411263E0,5.0684905E0,3.4306736E0,5.9877796E0,1.3886929E0,1.7699537E0,0E0,4.8714963E-1,2.3990927E0,2.4497833E0,0E0,0E0,1.0309726E0,1.6179935E0,1.9488393E0,1.7063904E0,6.169945E-1,6.0127187E-1,4.061998E-1,5.411272E-1,2.3248816E0,1.3738315E0,2.6180143E0,2.1672308E0,2.2401888E0,1.9745673E0,4.165106E0,1.8210578E0,0E0,0E0,2.5777688E0,1.8504567E0,0E0,4.1826648E-1,4.5577526E0,1.084385E0,2.8691387E0,1.5339737E0,9.9683803E-1,5.584645E-1,5.805592E-1,1.6117492E0,3.0145282E-1,1.8037003E0,1.0030937E0,9.024887E-1,3.193668E-1,5.8060694E-1,2.2783908E-1,0E0,0E0,1.7341919E-1,4.3567634E-1,6.3479614E-1,2.5107841E0,1.690874E-1,1.1554391E0,4.7527504E-1,1.8716078E0,1.4773169E0,2.5808988E0,2.3795643E0,1.5843811E0,6.3047945E-1,7.6731145E-1,1.0523145E0,1.605422E0,2.1555328E0,1.3996539E0,9.811821E-1,9.9892044E-1,6.6415995E-1,1.2743679E0,9.390583E-1,3.117325E-1,2.1249402E-1,2.1579075E0,9.4462013E-1,0E0,7.0123255E-1,3.974226E0,3.0259743E0,0E0,5.2097315E-1,0E0,0E0,0E0,0E0,0E0,0E0,0E0,0E0,0E0,0E0,0E0,0E0,0E0,0E0,0E0,0E0,0E0,0E0,0E0,0E0,0E0,0E0,0E0,0E0,0E0,0E0,0E0,0E0,0E0,0E0,0E0,0E0,0E0,0E0,0E0,0E0,0E0,0E0,0E0,0E0,0E0,0E0,0E0,0E0,0E0,0E0,0E0,0E0,0E0,0E0,0E0,0E0,0E0,0E0,0E0,0E0,0E0,0E0,0E0,0E0,0E0,0E0,0E0,0E0,0E0,0E0,0E0,0E0,0E0,0E0,0E0,0E0,0E0,0E0,0E0,0E0,0E0,0E0,0E0,0E0,0E0,0E0,0E0,0E0],"parents":[2147483647,0,0,1,1,2,2,3,3,4,4,5,5,6,6,7,7,8,8,9,9,10,10,11,11,12,12,13,13,14,14,15,15,16,16,17,17,18,18,19,19,20,20,21,21,22,22,23,23,24,24,26,26,27,27,28,28,31,31,32,32,33,33,34,34,35,35,36,36,37,37,38,38,39,39,40,40,41,41,42,42,43,43,44,44,45,45,46,46,49,49,50,50,52,52,53,53,54,54,55,55,56,56,57,57,58,58,59,59,60,60,61,61,62,62,63,63,64,64,65,65,66,66,67,67,70,70,71,71,72,72,73,73,74,74,75,75,76,76,77,77,78,78,79,79,80,80,81,81,82,82,83,83,84,84,85,85,86,86,87,87,88,88,89,89,90,90,91,91,92,92,93,93,94,94,95,95,96,96,98,98,99,99,100,100,102,102],"right_children":[2,4,6,8,10,12,14,16,18,20,22,24,26,28,30,32,34,36,38,40,42,44,46,48,50,-1,52,54,56,-1,-1,58,60,62,64,66,68,70,72,74,76,78,80,82,84,86,88,-1,-1,90,92,-1,94,96,98,100,102,104,106,108,110,112,114,116,118,120,122,124,-1,-1,126,128,130,132,134,136,138,140,142,144,146,148,150,152,154,156,158,160,162,164,166,168,170,172,174,176,178,-1,180,182,184,-1,186,-1,-1,-1,-1,-1,-1,-1,-1,-1,-1,-1,-1,-1,-1,-1,-1,-1,-1,-1,-1,-1,-1,-1,-1,-1,-1,-1,-1,-1,-1,-1,-1,-1,-1,-1,-1,-1,-1,-1,-1,-1,-1,-1,-1,-1,-1,-1,-1,-1,-1,-1,-1,-1,-1,-1,-1,-1,-1,-1,-1,-1,-1,-1,-1,-1,-1,-1,-1,-1,-1,-1,-1,-1,-1,-1,-1,-1,-1,-1,-1,-1,-1,-1,-1],"split_conditions":[1.5640395E0,-1.5785813E-1,-7.53396E-3,-1.8830332E-1,-1.4776516E-1,1.0409307E-1,3.003362E-1,-5.0624084E-2,-4.2582244E-1,-8.679276E-1,-5.5431888E-2,-1.5497521E0,5.130861E-1,3.3123903E0,-1.4775345E-1,-9.736164E-2,-3.0489156E-1,2.6273873E-1,-2.7301607E-1,-1.4701765E-2,-2.2047655E-1,-2.0511782E-2,-2.2208321E-1,6.357972E-1,-2.2641884E-1,-1.0936571E-2,-1.3851782E-2,2.806556E0,4.114269E0,3.4860026E-3,-5.849664E-3,-1.6730396E-1,-5.572946E-2,-5.226966E-2,6.305071E-1,-8.8488385E-2,6.993205E-1,-2.8212902E-1,2.5495296E0,-7.5965977E-1,-2.5606187E-2,-1.634876E-1,3.411234E-1,1.759767E-1,-3.0599726E-2,-2.3727603E-1,-1.0529227E-2,1.1663499E-2,5.212742E-2,-4.920829E-2,6.564356E-2,-7.6613105E-3,-6.8238396E-3,2.6305182E0,1.6500336E0,-2.3016062E-2,1.2047082E-1,-9.0719365E-2,-3.094697E-1,5.3959798E-2,-1.2285913E-1,-2.0500917E-2,-2.5083292E-1,-6.632328E-2,-5.799058E-2,-2.545565E-1,8.65204E-1,3.7282E-3,1.42386025E-2,9.603336E-3,-4.0866893E-2,-7.0594445E-2,-2.5424818E-2,-1.0477891E-1,-4.5040634E-1,-1.8527295E-1,-7.846893E-2,4.1603637E-3,-1.8696994E-1,-2.430589E-2,-8.4730685E-3,-8.628615E-1,2.4651925E-1,4.6442416E-2,7.375106E-1,9.563833E-1,7.1078855E-1,-7.507606E-2,6.3847566E-1,-4.461336E-1,1.8359933E0,-7.520716E-1,-1.5748098E-1,-4.0535863E-2,1.4959407E0,1.7708896E-1,1.8231378E0,-1.28943445E-2,1.21897906E-1,4.69042E0,4.6681812E-1,2.7561639E-2,1.7006906E0,-4.5067267E-3,7.6694167E-3,-9.6211035E-4,-4.3021417E-3,-3.10306E-3,5.128495E-3,-4.4845307E-4,1.1610787E-2,-2.6498404E-3,-1.1429085E-2,2.1086646E-2,1.6103769E-3,-7.952231E-3,-4.6284795E-3,-7.5053186E-3,-1.19628515E-2,1.2105375E-2,4.088146E-3,1.5344542E-3,-5.2319714E-3,-4.476731E-3,4.021144E-3,9.2403154E-4,-1.8774577E-3,-2.4149187E-3,3.7403274E-4,-1.2379482E-3,2.5253443E-2,3.669679E-2,9.899355E-3,-3.3898305E-3,3.3980252E-3,7.940452E-3,2.532547E-3,-2.5403902E-3,2.3261465E-3,-2.7205134E-3,-5.6571485E-3,1.6083736E-3,-1.9715303E-3,2.9969047E-4,6.4199823E-3,-4.2733345E-3,6.555672E-4,4.3242993E-3,1.3662756E-3,-8.480442E-4,3.994632E-3,1.3616572E-3,-5.178362E-3,-2.7712143E-3,2.0244361E-3,1.5966026E-2,3.91956E-3,7.406109E-3,1.4610052E-4,-2.830772E-3,2.4466715E-3,-2.5929933E-4,8.03512E-3,4.2312514E-2,1.7079191E-2,-5.535483E-4,9.076874E-3,9.942024E-3,7.0516224E-4,3.277869E-2,7.917554E-3,2.9578414E-3,-2.9333497E-3,2.6776583E-3,1.6535372E-2,1.5651723E-2,5.5859226E-4,6.516417E-2,2.656422E-2,1.2935909E-2,-1.7913528E-3,3.2776374E-2,-3.6916793E-3,4.346102E-2,1.6182183E-3,-9.046753E-3,8.13982E-3],"split_indices":[3,34,42,41,9,32,52,25,1,36,38,15,40,35,31,11,27,11,19,16,18,24,19,4,19,0,16,2,43,0,0,39,38,38,2,38,27,10,4,22,31,50,3,10,37,10,31,0,0,43,10,0,24,29,41,49,5,7,26,9,9,24,10,53,20,34,4,42,0,0,52,8,31,11,37,8,43,3,11,31,28,3,34,39,2,4,40,43,29,21,36,14,9,52,21,50,41,0,9,27,7,0,8,0,0,0,0,0,0,0,0,0,0,0,0,0,0,0,0,0,0,0,0,0,0,0,0,0,0,0,0,0,0,0,0,0,0,0,0,0,0,0,0,0,0,0,0,0,0,0,0,0,0,0,0,0,0,0,0,0,0,0,0,0,0,0,0,0,0,0,0,0,0,0,0,0,0,0,0,0,0,0,0,0,0,0,0],"split_type":[0,0,0,0,0,0,0,0,0,0,0,0,0,0,0,0,0,0,0,0,0,0,0,0,0,0,0,0,0,0,0,0,0,0,0,0,0,0,0,0,0,0,0,0,0,0,0,0,0,0,0,0,0,0,0,0,0,0,0,0,0,0,0,0,0,0,0,0,0,0,0,0,0,0,0,0,0,0,0,0,0,0,0,0,0,0,0,0,0,0,0,0,0,0,0,0,0,0,0,0,0,0,0,0,0,0,0,0,0,0,0,0,0,0,0,0,0,0,0,0,0,0,0,0,0,0,0,0,0,0,0,0,0,0,0,0,0,0,0,0,0,0,0,0,0,0,0,0,0,0,0,0,0,0,0,0,0,0,0,0,0,0,0,0,0,0,0,0,0,0,0,0,0,0,0,0,0,0,0,0,0,0,0,0,0,0,0],"sum_hessian":[2.1877E4,2.0769E4,1.108E3,4.545E3,1.6224E4,7.45E2,3.63E2,2.592E3,1.953E3,8.585E3,7.639E3,6.09E2,1.36E2,3.03E2,6E1,8.77E2,1.715E3,6.66E2,1.287E3,1.271E3,7.314E3,4.847E3,2.792E3,9E0,6E2,1.9E1,1.17E2,2.09E2,9.4E1,8E0,5.2E1,6.49E2,2.28E2,1.02E2,1.613E3,5.77E2,8.9E1,3.01E2,9.86E2,1.17E2,1.154E3,4.085E3,3.229E3,2.812E3,2.035E3,7.34E2,2.058E3,5E0,4E0,1.24E2,4.76E2,1.8E1,9.9E1,1.69E2,4E1,6.9E1,2.5E1,7E1,5.79E2,1.03E2,1.25E2,4E1,6.2E1,1.089E3,5.24E2,7E1,5.07E2,8.5E1,4E0,1.1E1,2.9E2,9.78E2,8E0,4.8E1,6.9E1,9.18E2,2.36E2,2.363E3,1.722E3,2.245E3,9.84E2,1.892E3,9.2E2,7.34E2,1.301E3,2.02E2,5.32E2,1.809E3,2.49E2,5.1E1,7.3E1,2.91E2,1.85E2,8.8E1,1.1E1,1.59E2,1E1,9E0,3.1E1,2.9E1,4E1,8E0,1.7E1,2.6E1,4.4E1,1.84E2,3.95E2,7.4E1,2.9E1,4.1E1,8.4E1,1.9E1,2.1E1,1.5E1,4.7E1,7.57E2,3.32E2,1.81E2,3.43E2,1.6E1,5.4E1,4.74E2,3.3E1,7.7E1,8E0,2.17E2,7.3E1,8.09E2,1.69E2,5E0,3E0,1.1E1,3.7E1,1E1,5.9E1,1.12E2,8.06E2,1.65E2,7.1E1,1.515E3,8.48E2,3.65E2,1.357E3,2.058E3,1.87E2,5.3E2,4.54E2,7.51E2,1.141E3,8.48E2,7.2E1,6.87E2,4.7E1,1.175E3,1.26E2,1.68E2,3.4E1,3.94E2,1.38E2,1.35E2,1.674E3,4.3E1,2.06E2,4E0,4.7E1,3E1,4.3E1,4.3E1,2.48E2,3E0,1.82E2,4.2E1,4.6E1,6E0,5E0,1.3E2,2.9E1,4E0,6E0,1.6E1,1.5E1,1.6E1,1.3E1,3.5E1,5E0,6E0,1.1E1],"tree_param":{"num_deleted":"0","num_feature":"54","num_nodes":"187","size_leaf_vector":"1"}},{"base_weights":[1.4367054E-4,-9.229021E-3,1.1173063E-1,-5.2435424E-2,6.081844E-3,6.969733E-2,2.4028417E-1,7.897626E-3,-8.7057754E-2,-1.1089074E-2,4.0613394E-2,1.4395344E-1,3.0941226E-2,2.9308146E-1,-2.5626415E-2,4.9712047E-2,-2.0203294E-2,-2.0789301E-2,-1.3029021E-1,5.4065768E-2,-2.4774918E-2,1.3423019E-2,8.4911674E-2,2.0590267E-1,6.6414595E-2,-1.9140172E-1,6.431115E-2,1.9166003E-1,4.5962188E-1,1.6859783E-1,-6.0807087E-2,3.2388347E-1,4.312711E-2,-4.5556933E-2,2.6851354E-2,-4.113503E-2,-1.2543414E-3,5.990101E-2,-1.3904636E-1,9.020502E-2,-7.741559E-4,-4.2590544E-2,8.742617E-3,3.498888E-3,5.7062067E-2,1.6117613E-1,5.7632793E-2,-1.1398584E-2,2.500648E-1,2.8996171E-2,2.7249667E-1,-2.836837E-2,-2.188503E-1,9.2952006E-2,7.350136E-3,7.3199964E-1,1.5663053E-1,4.8305908E-1,-5.458147E-3,1.2142163E-3,2.075377E-2,4.0868176E-3,-8.756448E-2,3.963036E-3,1.83762E-2,4.669621E-4,7.487541E-2,8.328124E-2,-5.294312E-2,1.5917197E-3,1.2452305E-1,-5.462243E-2,4.0086646E-2,-1.2140114E-2,4.6914354E-2,-1.0705994E-1,1.7847866E-1,-1.19688995E-1,-1.935225E-1,5.907764E-2,1.3664246E-1,-2.1083212E-2,6.46432E-2,-6.24379E-2,-1.3937876E-2,-3.1057657E-3,5.8159433E-2,2.0646762E-2,-2.3506876E-2,8.985108E-2,5.553743E-3,2.1639432E-1,1.6760996E-2,3.276974E-2,1.1933327E-1,-1.0380395E-1,7.732465E-2,3.5443082E-1,1.5409093E-1,7.405494E-2,-8.425484E-2,1.4538568E-1,4.275352E-1,1.0241595E-2,-4.6485355E-3,-2.3156784E-1,-1.1264967E-1,2.7228778E-2,1.5166451E-1,2.3699768E-1,-3.3849191E-3,1.4860446E-2,8.32716E-1,2.492516E-1,5.7873476E-2,5.528676E-1,2.3049723E-1,-5.252817E-3,7.2114444E-3,-1.3249932E-3,3.4379151E-3,5.983528E-3,-5.8048795E-4,1.86764E-2,2.526867E-3,-6.103955E-4,-3.6238672E-3,-1.3578107E-3,2.5430259E-3,-6.732228E-4,1.2067253E-2,-2.8879354E-3,1.000253E-2,3.5866078E-3,-4.346984E-3,-8.76114E-5,-3.0175855E-3,-8.409369E-4,3.5455767E-3,-2.4694955E-4,-8.321236E-3,-7.4871937E-3,1.2450918E-2,5.669939E-3,-6.16167E-3,-7.910776E-3,-1.1561481E-2,-6.314934E-3,3.286597E-3,4.474589E-3,9.91135E-3,-2.5173405E-3,1.2605358E-3,2.7401212E-3,2.2105668E-2,-2.2871008E-3,-4.7728578E-3,-1.2767204E-3,2.4644402E-3,1.0068606E-3,-1.69762E-3,2.0471757E-2,2.5130117E-3,-2.2504832E-4,3.3094534E-3,-6.529102E-4,-4.5802756E-3,2.6272615E-2,3.6339469E-3,5.0112694E-3,-8.222474E-4,7.714635E-3,1.6913839E-2,1.9226717E-3,-4.1413484E-3,2.6712792E-3,-6.6792476E-4,9.1211125E-3,2.9823165E-3,3.2040712E-3,-7.353794E-3,7.691752E-3,-1.0678883E-2,1.9164125E-2,-3.357589E-3,-3.3600328E-3,1.0445433E-2,-1.0251718E-3,5.661598E-3,-6.893722E-3,2.7906187E-3,1.3503918E-2,-4.4571296E-3,3.4525823E-2,8.842867E-3,-2.47177E-3,-1.20081995E-2,-9.367847E-3,4.1802037E-3,9.330088E-3,-3.0578725E-4,8.859756E-3,-4.0990226E-3,2.0770194E-2,9.545927E-4,-3.366879E-3,1.8607642E-3,5.1506054E-2,2.1464331E-2,3.089629E-2,9.780657E-3,-1.1079781E-2,4.214829E-3,1.6352795E-2,3.452154E-2,2.187252E-2,-1.1242403E-3],"categories":[],"categories_nodes":[],"categories_segments":[],"categories_sizes":[],"default_left":[0,0,0,0,0,0,0,0,0,0,0,0,0,0,0,0,0,0,0,0,0,0,0,0,0,0,0,0,0,0,0,0,0,0,0,0,0,0,0,0,0,0,0,0,0,0,0,0,0,0,0,0,0,0,0,0,0,0,0,0,0,0,0,0,0,0,0,0,0,0,0,0,0,0,0,0,0,0,0,0,0,0,0,0,0,0,0,0,0,0,0,0,0,0,0,0,0,0,0,0,0,0,0,0,0,0,0,0,0,0,0,0,0,0,0,0,0,0,0,0,0,0,0,0,0,0,0,0,0,0,0,0,0,0,0,0,0,0,0,0,0,0,0,0,0,0,0,0,0,0,0,0,0,0,0,0,0,0,0,0,0,0,0,0,0,0,0,0,0,0,0,0,0,0,0,0,0,0,0,0,0,0,0,0,0,0,0,0,0,0,0,0,0,0,0,0,0,0,0,0,0,0,0,0,0,0,0,0,0,0,0,0,0,0,0,0,0],"id":1,"left_children":[1,3,5,7,9,11,13,15,17,19,21,23,25,27,29,31,33,35,37,39,41,43,45,47,49,51,53,55,57,59,61,63,65,67,69,71,73,75,77,79,81,83,85,87,89,91,93,95,97,99,101,103,105,107,109,111,113,115,-1,-1,-1,-1,117,-1,-1,119,121,123,125,127,129,131,133,135,137,139,141,143,145,147,149,151,153,155,157,159,161,163,165,167,169,171,173,175,177,179,181,183,185,187,189,191,193,-1,-1,195,197,199,201,203,205,-1,207,209,211,213,215,-1,-1,-1,-1,-1,-1,-1,-1,-1,-1,-1,-1,-1,-1,-1,-1,-1,-1,-1,-1,-1,-1,-1,-1,-1,-1,-1,-1,-1,-1,-1,-1,-1,-1,-1,-1,-1,-1,-1,-1,-1,-1,-1,-1,-1,-1,-1,-1,-1,-1,-1,-1,-1,-1,-1,-1,-1,-1,-1,-1,-1,-1,-1,-1,-1,-1,-1,-1,-1,-1,-1,-1,-1,-1,-1,-1,-1,-1,-1,-1,-1,-1,-1,-1,-1,-1,-1,-1,-1,-1,-1,-1,-1,-1,-1,-1,-1,-1,-1,-1],"loss_changes":[2.2864798E1,1.3342003E1,9.136835E0,1.1023661E1,8.830489E0,3.6734743E0,5.8619213E0,2.262925E0,9.603466E0,8.871069E0,5.956253E0,2.0902472E0,6.252165E0,5.789896E0,4.8855773E-1,1.3834127E0,1.3755667E0,5.2657354E-1,3.38731E0,3.4227667E0,4.9094257E0,1.3276227E0,3.9039593E0,2.334797E0,1.5035069E0,4.860444E-1,1.193511E0,4.011612E0,1.7990589E0,3.8119063E-1,2.3600273E-1,1.6302812E-1,1.025236E0,7.1717477E-1,9.96531E-1,7.1314895E-1,3.5555688E-1,1.8009131E0,2.0225945E0,1.4966679E0,9.1408676E-1,3.0518026E0,1.6712244E0,1.157751E0,9.588001E-1,3.9436722E0,2.1238332E0,3.5236374E-1,1.9687004E0,8.584323E-1,5.290556E-1,2.7515316E-1,1.0087156E-1,1.8750939E0,6.072609E-1,3.217864E-1,1.869853E0,2.0940647E0,0E0,0E0,0E0,0E0,2.2193152E-1,0E0,0E0,5.985007E-1,1.6827557E0,3.707792E-1,5.6328845E-1,4.5745426E-1,1.3412076E0,4.5644462E-1,3.80079E-1,2.768458E-1,1.9236949E-1,2.2954872E-1,1.2643831E0,1.1986828E0,6.383991E-1,7.792711E-1,1.1931248E0,7.125009E-1,5.812506E-1,1.7437592E0,1.6128547E0,1.6518602E0,1.5111101E0,1.7514395E0,6.897093E-1,2.5574427E0,4.6399704E-1,2.657545E0,3.013072E-1,9.4400334E-1,1.487824E0,1.6198404E-1,5.225108E-1,1.1934204E0,1.3120236E0,4.4686353E-1,3.6819178E-1,5.504668E-1,7.34884E-1,0E0,0E0,1.18074894E-1,1.9160277E-1,1.2287252E0,1.5475578E0,4.1970247E-1,6.1527795E-1,0E0,3.541727E-1,1.9752884E0,7.6450825E-1,2.8184032E0,1.5281438E0,0E0,0E0,0E0,0E0,0E0,0E0,0E0,0E0,0E0,0E0,0E0,0E0,0E0,0E0,0E0,0E0,0E0,0E0,0E0,0E0,0E0,0E0,0E0,0E0,0E0,0E0,0E0,0E0,0E0,0E0,0E0,0E0,0E0,0E0,0E0,0E0,0E0,0E0,0E0,0E0,0E0,0E0,0E0,0E0,0E0,0E0,0E0,0E0,0E0,0E0,0E0,0E0,0E0,0E0,0E0,0E0,0E0,0E0,0E0,0E0,0E0,0E0,0E0,0E0,0E0,0E0,0E0,0E0,0E0,0E0,0E0,0E0,0E0,0E0,0E0,0E0,0E0,0E0,0E0,0E0,0E0,0E0,0E0,0E0,0E0,0E0,0E0,0E0,0E0,0E0,0E0,0E0,0E0,0E0,0E0,0E0,0E0,0E0,0E0,0E0],"parents":[2147483647,0,0,1,1,2,2,3,3,4,4,5,5,6,6,7,7,8,8,9,9,10,10,11,11,12,12,13,13,14,14,15,15,16,16,17,17,18,18,19,19,20,20,21,21,22,22,23,23,24,24,25,25,26,26,27,27,28,28,29,29,30,30,31,31,32,32,33,33,34,34,35,35,36,36,37,37,38,38,39,39,40,40,41,41,42,42,43,43,44,44,45,45,46,46,47,47,48,48,49,49,50,50,51,51,52,52,53,53,54,54,55,55,56,56,57,57,62,62,65,65,66,66,67,67,68,68,69,69,70,70,71,71,72,72,73,73,74,74,75,75,76,76,77,77,78,78,79,79,80,80,81,81,82,82,83,83,84,84,85,85,86,86,87,87,88,88,89,89,90,90,91,91,92,92,93,93,94,94,95,95,96,96,97,97,98,98,99,99,100,100,101,101,102,102,105,105,106,106,107,107,108,108,109,109,110,110,112,112,113,113,114,114,115,115,116,116],"right_children":[2,4,6,8,10,12,14,16,18,20,22,24,26,28,30,32,34,36,38,40,42,44,46,48,50,52,54,56,58,60,62,64,66,68,70,72,74,76,78,80,82,84,86,88,90,92,94,96,98,100,102,104,106,108,110,112,114,116,-1,-1,-1,-1,118,-1,-1,120,122,124,126,128,130,132,134,136,138,140,142,144,146,148,150,152,154,156,158,160,162,164,166,168,170,172,174,176,178,180,182,184,186,188,190,192,194,-1,-1,196,198,200,202,204,206,-1,208,210,212,214,216,-1,-1,-1,-1,-1,-1,-1,-1,-1,-1,-1,-1,-1,-1,-1,-1,-1,-1,-1,-1,-1,-1,-1,-1,-1,-1,-1,-1,-1,-1,-1,-1,-1,-1,-1,-1,-1,-1,-1,-1,-1,-1,-1,-1,-1,-1,-1,-1,-1,-1,-1,-1,-1,-1,-1,-1,-1,-1,-1,-1,-1,-1,-1,-1,-1,-1,-1,-1,-1,-1,-1,-1,-1,-1,-1,-1,-1,-1,-1,-1,-1,-1,-1,-1,-1,-1,-1,-1,-1,-1,-1,-1,-1,-1,-1,-1,-1,-1,-1,-1],"split_conditions":[1.2482996E0,-1.5332226E-1,-3.0494656E-3,-5.0893564E-2,-8.148978E-2,7.4832374E-1,3.003362E-1,-1.5889035E-1,-3.0540248E-2,-8.8601816E-1,-5.6195002E-2,7.288847E-1,4.4241273E-1,2.797365E0,1.4660816E0,-3.538037E-1,-9.933875E-2,-2.7585068E-1,-3.1241682E-1,-5.142651E-1,-1.7983574E-1,-4.0670805E-2,-1.4588878E-1,-7.947567E-2,1.3580759E-1,-2.0496864E-2,4.797115E-1,-2.856485E-1,6.6752714E-1,3.2377822E0,-4.0001297E-1,-2.6267422E-2,-1.3209644E-1,-8.8488385E-2,-5.5431888E-2,8.472374E-1,-1.3328123E-1,-5.1185075E-2,-7.263526E-2,-6.0257055E-2,-1.08834855E-1,-1.6034588E-1,-2.4532145E-2,-2.0511782E-2,3.137065E-1,7.288847E-1,-1.8047249E-2,-8.852001E-2,-1.9626756E-1,5.6685084E-1,5.823185E-1,1.2900012E0,-6.762259E-2,-9.979921E-2,-4.4223264E-1,-1.6068403E-1,1.9010873E0,4.114269E0,-5.458147E-3,1.2142163E-3,2.075377E-2,4.0868176E-3,5.0559014E-1,3.963036E-3,1.83762E-2,-1.3254893E-2,-1.6343296E-1,-4.828245E-2,-1.404388E-1,-1.17101915E-1,-8.335748E-2,2.568925E0,1.5149603E0,-6.75596E-3,-1.038806E0,-1.0900487E0,-1.7318131E-1,-1.0414474E0,-6.733362E-2,-9.087675E-2,-1.1795096E-1,-7.903202E-2,-7.957123E-3,-5.907352E-2,-2.4231642E-2,-3.711364E-2,-6.058863E-3,-8.020131E-1,6.334636E-2,-5.0514853E-1,-7.829464E-2,6.5442827E-4,2.2930298E-2,2.9737988E-1,3.0077946E-1,-2.6764706E-1,1.238392E0,-4.0193353E-2,-4.6572134E-2,-2.1022198E-1,2.0128062E0,3.1335296E-3,-2.0098705E-2,1.0241595E-2,-4.6485355E-3,8.9608943E-1,-6.9611154E-2,-4.089759E-2,3.2855454E-1,1.7287711E0,4.0612668E-1,1.4860446E-2,-4.8189905E-2,8.696906E-3,-4.8854325E-2,-3.497674E-2,1.7960593E-1,-5.252817E-3,7.2114444E-3,-1.3249932E-3,3.4379151E-3,5.983528E-3,-5.8048795E-4,1.86764E-2,2.526867E-3,-6.103955E-4,-3.6238672E-3,-1.3578107E-3,2.5430259E-3,-6.732228E-4,1.2067253E-2,-2.8879354E-3,1.000253E-2,3.5866078E-3,-4.346984E-3,-8.76114E-5,-3.0175855E-3,-8.409369E-4,3.5455767E-3,-2.4694955E-4,-8.321236E-3,-7.4871937E-3,1.2450918E-2,5.669939E-3,-6.16167E-3,-7.910776E-3,-1.1561481E-2,-6.314934E-3,3.286597E-3,4.474589E-3,9.91135E-3,-2.5173405E-3,1.2605358E-3,2.7401212E-3,2.2105668E-2,-2.2871008E-3,-4.7728578E-3,-1.2767204E-3,2.4644402E-3,1.0068606E-3,-1.69762E-3,2.0471757E-2,2.5130117E-3,-2.2504832E-4,3.3094534E-3,-6.529102E-4,-4.5802756E-3,2.6272615E-2,3.6339469E-3,5.0112694E-3,-8.222474E-4,7.714635E-3,1.6913839E-2,1.9226717E-3,-4.1413484E-3,2.6712792E-3,-6.6792476E-4,9.1211125E-3,2.9823165E-3,3.2040712E-3,-7.353794E-3,7.691752E-3,-1.0678883E-2,1.9164125E-2,-3.357589E-3,-3.3600328E-3,1.0445433E-2,-1.0251718E-3,5.661598E-3,-6.893722E-3,2.7906187E-3,1.3503918E-2,-4.4571296E-3,3.4525823E-2,8.842867E-3,-2.47177E-3,-1.20081995E-2,-9.367847E-3,4.1802037E-3,9.330088E-3,-3.0578725E-4,8.859756E-3,-4.0990226E-3,2.0770194E-2,9.545927E-4,-3.366879E-3,1.8607642E-3,5.1506054E-2,2.1464331E-2,3.089629E-2,9.780657E-3,-1.1079781E-2,4.214829E-3,1.6352795E-2,3.452154E-2,2.187252E-2,-1.1242403E-3],"split_indices":[36,34,42,25,9,30,52,39,37,3,38,40,40,35,3,10,11,26,27,2,18,52,10,43,11,24,5,18,7,17,2,31,10,38,38,22,33,38,27,32,18,50,31,24,10,40,24,43,12,5,29,35,7,9,13,47,41,43,0,0,0,0,45,0,0,16,26,8,39,27,25,40,15,11,29,2,9,14,18,49,19,43,31,38,31,35,30,22,35,38,46,11,32,6,12,19,5,52,38,9,36,43,24,0,0,35,43,52,32,30,11,0,25,37,24,49,5,0,0,0,0,0,0,0,0,0,0,0,0,0,0,0,0,0,0,0,0,0,0,0,0,0,0,0,0,0,0,0,0,0,0,0,0,0,0,0,0,0,0,0,0,0,0,0,0,0,0,0,0,0,0,0,0,0,0,0,0,0,0,0,0,0,0,0,0,0,0,0,0,0,0,0,0,0,0,0,0,0,0,0,0,0,0,0,0,0,0,0,0,0,0,0,0,0,0,0,0],"split_type":[0,0,0,0,0,0,0,0,0,0,0,0,0,0,0,0,0,0,0,0,0,0,0,0,0,0,0,0,0,0,0,0,0,0,0,0,0,0,0,0,0,0,0,0,0,0,0,0,0,0,0,0,0,0,0,0,0,0,0,0,0,0,0,0,0,0,0,0,0,0,0,0,0,0,0,0,0,0,0,0,0,0,0,0,0,0,0,0,0,0,0,0,0,0,0,0,0,0,0,0,0,0,0,0,0,0,0,0,0,0,0,0,0,0,0,0,0,0,0,0,0,0,0,0,0,0,0,0,0,0,0,0,0,0,0,0,0,0,0,0,0,0,0,0,0,0,0,0,0,0,0,0,0,0,0,0,0,0,0,0,0,0,0,0,0,0,0,0,0,0,0,0,0,0,0,0,0,0,0,0,0,0,0,0,0,0,0,0,0,0,0,0,0,0,0,0,0,0,0,0,0,0,0,0,0,0,0,0,0,0,0,0,0,0,0,0,0],"sum_hessian":[2.186E4,2.0167E4,1.693E3,5.276E3,1.4891E4,1.277E3,4.16E2,1.924E3,3.352E3,9.946E3,4.945E3,4.37E2,8.4E2,3.47E2,6.9E1,7.73E2,1.151E3,1.324E3,2.028E3,1.726E3,8.22E3,3.065E3,1.88E3,2.42E2,1.95E2,1.09E2,7.31E2,2.17E2,1.3E2,1E1,5.9E1,1.7E1,7.56E2,7.48E2,4.03E2,6.48E2,6.76E2,8.9E1,1.939E3,1.04E3,6.86E2,5.367E3,2.853E3,2.498E3,5.67E2,4.94E2,1.386E3,4.1E1,2.01E2,1.66E2,2.9E1,1.6E1,9.3E1,4.86E2,2.45E2,1.2E1,2.05E2,1.25E2,5E0,7E0,3E0,9E0,5E1,3E0,1.4E1,3.23E2,4.33E2,4E1,7.08E2,3.21E2,8.2E1,5.56E2,9.2E1,5.52E2,1.24E2,3.7E1,5.2E1,1.433E3,5.06E2,6.24E2,4.16E2,5.24E2,1.62E2,3.17E3,2.197E3,2.302E3,5.51E2,1.528E3,9.7E2,3.46E2,2.21E2,3.57E2,1.37E2,9.89E2,3.97E2,2E1,2.1E1,9.5E1,1.06E2,1.19E2,4.7E1,1.7E1,1.2E1,3E0,1.3E1,8.2E1,1.1E1,2.3E2,2.56E2,1E1,2.35E2,3E0,9E0,1.05E2,1E2,9.7E1,2.8E1,4.7E1,3E0,2.32E2,9.1E1,2.85E2,1.48E2,3E0,3.7E1,2.3E2,4.78E2,2.03E2,1.18E2,3.8E1,4.4E1,5.5E2,6E0,7.4E1,1.8E1,4.55E2,9.7E1,3.4E1,9E1,1.4E1,2.3E1,9E0,4.3E1,2.1E1,1.412E3,2.64E2,2.42E2,2.1E1,6.03E2,2.37E2,1.79E2,3.21E2,2.03E2,1.59E2,3E0,2.107E3,1.063E3,1.857E3,3.4E2,1.313E3,9.89E2,1.1E1,5.4E2,9.85E2,5.43E2,8.42E2,1.28E2,1.2E1,3.34E2,4.1E1,1.8E2,2.38E2,1.19E2,1.13E2,2.4E1,6.83E2,3.06E2,1.92E2,2.05E2,4E0,1.6E1,1.7E1,4E0,8.9E1,6E0,2.1E1,8.5E1,3.5E1,8.4E1,3.4E1,1.3E1,1.1E1,6E0,5E0,7E0,4E0,7.8E1,8E0,3E0,3.9E1,1.91E2,2.31E2,2.5E1,5E0,5E0,9.1E1,1.44E2,5E0,4E0,1.2E1,9.3E1,8E0,9.2E1,3.8E1,5.9E1,1.5E1,1.3E1],"tree_param":{"num_deleted":"0","num_feature":"54","num_nodes":"217","size_leaf_vector":"1"}},{"base_weights":[-3.376143E-4,-9.435553E-3,1.07452564E-1,-5.055622E-2,5.1209955E-3,6.917858E-2,2.1902852E-1,1.7365214E-4,-8.5361026E-2,-1.7255435E-2,2.745469E-2,1.9574066E-1,4.444456E-2,2.7380452E-1,-1.2464407E-2,2.4797937E-2,-3.9489035E-2,-2.0842481E-2,-1.2836227E-1,-3.6175184E-2,1.8837884E-2,1.5167419E-2,5.933971E-2,2.5669026E-1,-2.9382164E-2,-1.2716007E-1,6.143484E-2,1.6337623E-1,3.7900165E-1,3.0837586E-2,-9.246959E-3,-1.2626019E-2,5.2672986E-2,-6.788726E-2,9.123366E-3,-3.245926E-2,1.1148665E-2,8.468301E-2,-1.3533053E-1,5.4892533E-2,-4.818663E-2,5.360849E-2,-1.4276188E-2,6.4658046E-2,3.920194E-3,4.4383258E-2,1.1008472E-1,2.3563083E-1,4.3752115E-2,-1.0413002E-1,1.6262256E-1,6.708301E-2,-2.0414045E-1,1.844558E-1,4.278431E-2,2.5894573E-1,4.638284E-2,-7.5057647E-3,4.0463352E-1,1.6992314E-1,-5.1266938E-3,-7.3141426E-2,2.2471E-2,2.2477083E-2,1.22460544E-1,4.1956056E-2,-7.689944E-2,-5.412641E-3,1.5260018E-1,-3.470861E-2,2.2774342E-1,2.578113E-2,-8.847526E-2,3.1465966E-1,-2.1370303E-2,-1.12293415E-1,-1.8774205E-1,3.0169468E-2,2.034689E-1,-5.637349E-2,9.210756E-3,4.928737E-2,5.836337E-1,-2.412539E-2,4.18768E-2,4.284921E-2,2.4545437E-1,2.9743066E-2,-1.1842397E-2,-1.2505147E-2,5.2693516E-2,1.5911423E-1,2.4709541E-2,3.890938E-1,1.4365117E-1,-8.1818765E-3,-1.1681441E-2,3.0309662E-1,-2.5889978E-3,-7.008182E-2,1.7433675E-1,-3.0048282E-3,-1.084525E-2,4.6333927E-1,1.3415082E-1,-1.5936332E-2,8.386164E-2,1.8890232E-1,6.862271E-1,8.344277E-2,-6.5820664E-3,4.2794997E-1,-6.196638E-3,-1.7006533E-3,2.2863421E-1,-3.6053795E-2,1.3765064E-1,-2.6014333E-3,-7.121668E-3,8.285174E-4,9.585865E-3,8.2586333E-4,2.0501768E-2,-4.2590682E-4,1.0853279E-2,3.8754859E-3,-5.4973653E-3,-3.302591E-3,-6.8725958E-3,1.1476363E-2,-4.8478716E-4,2.2004383E-2,1.7907234E-3,-2.8114924E-3,-5.305092E-4,-4.8673883E-4,2.3382766E-2,7.419531E-4,8.692566E-3,1.1473115E-3,-6.374673E-3,4.907781E-3,1.745597E-2,1.5760291E-2,-3.768632E-3,-6.3827233E-3,-2.1524173E-3,-6.8296413E-3,-1.0254086E-2,3.758986E-3,-1.4993929E-3,9.7389513E-4,1.4504616E-2,-7.700235E-4,-3.686548E-3,-2.535691E-3,2.7850426E-3,2.0369925E-3,8.392198E-3,4.1786112E-2,1.3814387E-2,-3.8273763E-3,-6.813155E-4,1.1872579E-2,1.4482253E-3,3.241085E-3,-1.4082834E-3,1.4190326E-2,-1.4792759E-3,2.565102E-3,-9.876023E-4,-1.9691677E-3,8.3058636E-4,7.362848E-4,-4.2610797E-3,7.422472E-3,1.8338468E-3,4.552039E-3,1.18936775E-2,1.1506527E-2,4.243623E-5,3.0944148E-2,1.4834553E-2,3.876831E-4,1.2013018E-2,-8.142541E-3,2.2175598E-3,2.8253531E-2,1.6449055E-3,-7.645953E-3,2.6024063E-3,1.2369541E-2,5.674082E-4,2.7969081E-2,4.1272226E-3,2.8366025E-3,1.4163514E-2,2.0321166E-2,-1.1023358E-3,-1.143368E-3,5.302208E-3,1.6413562E-2,1.9063769E-3,1.2673231E-2,6.6397704E-2,1.0162767E-2,1.5341659E-3,1.3879076E-2,2.5715409E-2,-5.7869975E-4,1.600795E-2,2.5845706E-3,-3.6093246E-3,-1.6779903E-3,1.079104E-2],"categories":[],"categories_nodes":[],"categories_segments":[],"categories_sizes":[],"default_left":[0,0,0,0,0,0,0,0,0,0,0,0,0,0,0,0,0,0,0,0,0,0,0,0,0,0,0,0,0,0,0,0,0,0,0,0,0,0,0,0,0,0,0,0,0,0,0,0,0,0,0,0,0,0,0,0,0,0,0,0,0,0,0,0,0,0,0,0,0,0,0,0,0,0,0,0,0,0,0,0,0,0,0,0,0,0,0,0,0,0,0,0,0,0,0,0,0,0,0,0,0,0,0,0,0,0,0,0,0,0,0,0,0,0,0,0,0,0,0,0,0,0,0,0,0,0,0,0,0,0,0,0,0,0,0,0,0,0,0,0,0,0,0,0,0,0,0,0,0,0,0,0,0,0,0,0,0,0,0,0,0,0,0,0,0,0,0,0,0,0,0,0,0,0,0,0,0,0,0,0,0,0,0,0,0,0,0,0,0,0,0,0,0,0,0,0,0,0,0,0,0,0,0,0,0,0,0,0,0,0,0,0,0,0,0],"id":2,"left_children":[1,3,5,7,9,11,13,15,17,19,21,23,25,27,29,31,33,35,37,39,41,43,45,47,49,51,53,55,57,59,-1,61,63,65,67,69,71,73,75,77,79,81,83,85,87,89,91,93,-1,95,97,99,101,103,105,107,109,-1,111,113,115,117,119,121,123,125,127,129,131,133,135,137,139,141,143,145,147,149,151,153,155,157,159,161,163,165,167,169,171,173,175,177,179,181,183,-1,185,187,-1,189,191,-1,-1,193,195,197,199,201,203,205,-1,207,-1,-1,209,211,213,-1,-1,-1,-1,-1,-1,-1,-1,-1,-1,-1,-1,-1,-1,-1,-1,-1,-1,-1,-1,-1,-1,-1,-1,-1,-1,-1,-1,-1,-1,-1,-1,-1,-1,-1,-1,-1,-1,-1,-1,-1,-1,-1,-1,-1,-1,-1,-1,-1,-1,-1,-1,-1,-1,-1,-1,-1,-1,-1,-1,-1,-1,-1,-1,-1,-1,-1,-1,-1,-1,-1,-1,-1,-1,-1,-1,-1,-1,-1,-1,-1,-1,-1,-1,-1,-1,-1,-1,-1,-1,-1,-1,-1,-1,-1,-1,-1,-1],"loss_changes":[2.143156E1,1.2063341E1,7.2488956E0,9.303189E0,7.439227E0,3.9606323E0,5.506645E0,2.0959263E0,8.667255E0,5.0785513E0,2.9178596E0,2.8478193E0,3.1041908E0,4.0155563E0,6.330572E-1,1.3818548E0,1.135395E0,4.65276E-1,2.7949963E0,5.3395653E0,2.946037E0,2.9938717E0,1.5676908E0,1.9164228E0,6.627713E-1,1.4491735E0,2.2107992E0,1.9223027E0,2.488388E0,3.4101477E-1,0E0,1.2037768E0,1.5966868E0,5.1699877E-1,6.3484234E-1,5.451992E-1,4.8916736E-1,1.4701116E0,2.1715775E0,2.0839481E0,2.0262766E0,2.8295286E0,7.260747E-1,3.916668E0,1.7847954E0,7.580161E-1,1.967629E0,2.188465E0,0E0,1.7963418E-1,4.0722826E-1,4.2413825E-1,1.13832E-1,1.719554E0,2.0299015E0,2.7135534E0,5.3219205E-1,0E0,2.16049E0,1.7540288E-1,2.4782574E-1,2.968818E-1,3.553434E-1,1.2197183E0,2.8394442E0,2.2455081E-1,3.0620933E-1,2.8096268E-1,9.243225E-1,4.718734E-1,4.6034327E-1,4.7051692E-1,1.8986654E-1,1.0748494E-1,7.8714556E-1,1.3389921E0,4.6245003E-1,1.326318E0,1.2853217E0,2.6821766E0,1.5044246E0,1.2487214E0,5.438838E-1,6.131858E-1,4.8808485E-1,1.3905581E0,1.1370726E0,1.7744734E0,2.1345432E0,4.0718168E-1,2.1386425E0,1.5814085E0,8.4776634E-1,1.0691385E0,1.3241608E0,0E0,1.2580849E-1,5.4769003E-1,0E0,1.3947892E-1,1.8770427E-1,0E0,0E0,6.487026E-1,1.2422956E0,9.0449095E-1,1.1743467E0,1.7315893E0,3.2737098E0,4.109657E-1,0E0,1.9868698E0,0E0,0E0,2.4554068E-1,1.4957309E-1,1.4107841E-1,0E0,0E0,0E0,0E0,0E0,0E0,0E0,0E0,0E0,0E0,0E0,0E0,0E0,0E0,0E0,0E0,0E0,0E0,0E0,0E0,0E0,0E0,0E0,0E0,0E0,0E0,0E0,0E0,0E0,0E0,0E0,0E0,0E0,0E0,0E0,0E0,0E0,0E0,0E0,0E0,0E0,0E0,0E0,0E0,0E0,0E0,0E0,0E0,0E0,0E0,0E0,0E0,0E0,0E0,0E0,0E0,0E0,0E0,0E0,0E0,0E0,0E0,0E0,0E0,0E0,0E0,0E0,0E0,0E0,0E0,0E0,0E0,0E0,0E0,0E0,0E0,0E0,0E0,0E0,0E0,0E0,0E0,0E0,0E0,0E0,0E0,0E0,0E0,0E0,0E0,0E0,0E0,0E0,0E0,0E0,0E0,0E0,0E0],"parents":[2147483647,0,0,1,1,2,2,3,3,4,4,5,5,6,6,7,7,8,8,9,9,10,10,11,11,12,12,13,13,14,14,15,15,16,16,17,17,18,18,19,19,20,20,21,21,22,22,23,23,24,24,25,25,26,26,27,27,28,28,29,29,31,31,32,32,33,33,34,34,35,35,36,36,37,37,38,38,39,39,40,40,41,41,42,42,43,43,44,44,45,45,46,46,47,47,49,49,50,50,51,51,52,52,53,53,54,54,55,55,56,56,58,58,59,59,60,60,61,61,62,62,63,63,64,64,65,65,66,66,67,67,68,68,69,69,70,70,71,71,72,72,73,73,74,74,75,75,76,76,77,77,78,78,79,79,80,80,81,81,82,82,83,83,84,84,85,85,86,86,87,87,88,88,89,89,90,90,91,91,92,92,93,93,94,94,96,96,97,97,99,99,100,100,103,103,104,104,105,105,106,106,107,107,108,108,109,109,111,111,114,114,115,115,116,116],"right_children":[2,4,6,8,10,12,14,16,18,20,22,24,26,28,30,32,34,36,38,40,42,44,46,48,50,52,54,56,58,60,-1,62,64,66,68,70,72,74,76,78,80,82,84,86,88,90,92,94,-1,96,98,100,102,104,106,108,110,-1,112,114,116,118,120,122,124,126,128,130,132,134,136,138,140,142,144,146,148,150,152,154,156,158,160,162,164,166,168,170,172,174,176,178,180,182,184,-1,186,188,-1,190,192,-1,-1,194,196,198,200,202,204,206,-1,208,-1,-1,210,212,214,-1,-1,-1,-1,-1,-1,-1,-1,-1,-1,-1,-1,-1,-1,-1,-1,-1,-1,-1,-1,-1,-1,-1,-1,-1,-1,-1,-1,-1,-1,-1,-1,-1,-1,-1,-1,-1,-1,-1,-1,-1,-1,-1,-1,-1,-1,-1,-1,-1,-1,-1,-1,-1,-1,-1,-1,-1,-1,-1,-1,-1,-1,-1,-1,-1,-1,-1,-1,-1,-1,-1,-1,-1,-1,-1,-1,-1,-1,-1,-1,-1,-1,-1,-1,-1,-1,-1,-1,-1,-1,-1,-1,-1,-1,-1,-1,-1,-1],"split_conditions":[1.2482996E0,-1.5332226E-1,-7.53396E-3,-4.9935557E-2,-1.7355953E-1,-6.557287E-1,4.6681812E-1,-1.3747022E-1,-3.05401E-2,-1.7388678E-1,-8.4945776E-2,1.6666034E0,-7.4133806E-2,2.3015623E0,4.69042E0,-4.0894758E-2,-1.10643595E-1,-1.23598345E-1,-1.050918E0,-8.034224E-1,-1.5627475E-1,-2.1509163E-1,8.086057E-1,1.3353678E0,-1.3757131E-2,2.7503717E-1,-4.0900182E-2,1.8231378E0,-1.6093874E0,4.443673E-2,-9.246959E-3,-2.9596302E-1,-5.6607198E-2,-7.927028E-2,3.0316156E-1,2.568925E0,4.3367258E-1,-2.6937255E-1,-9.851843E-2,3.621872E-1,3.3973935E-1,2.5844898E-2,-3.68202E-2,8.282708E-2,-7.339203E-1,-1.5000567E0,1.554917E0,-1.363266E-1,4.3752115E-2,-1.0204865E0,9.227155E-1,-9.062958E-2,-7.359656E-1,-2.0502107E-2,3.295245E-1,2.5223765E-1,2.1636932E-1,-7.5057647E-3,8.547518E0,3.5435537E-1,1.3288112E0,-1.9997676E-1,-4.702338E-2,2.3569007E-1,-1.4479299E-1,-2.229562E-1,-4.3020304E-3,-3.1517997E-1,-5.1702555E-2,-2.6849547E-1,1.6045626E-1,3.1335296E-3,-2.539828E-1,-1.5396878E-1,-3.18036E-1,-5.1185075E-2,-6.084054E-2,-2.051629E-2,-4.4223264E-1,-3.058826E-2,-2.7579704E-1,1.7307427E-2,-2.3822135E-1,-9.5025426E-1,-2.998915E-1,5.320171E-1,3.1425667E-1,1.24522276E-1,-1.4776516E-1,-6.169832E-1,-1.1571528E0,-6.3158855E-2,-2.3569666E-1,-2.4766858E-1,-1.5762153E-1,-8.1818765E-3,1.6246425E0,-1.322688E-1,-2.5889978E-3,-1.1042034E-2,6.539472E-1,-3.0048282E-3,-1.084525E-2,7.322268E-1,7.8434515E-1,-1.8090959E-1,-2.9946797E-2,3.51097E-1,5.7972126E-2,-1.5891016E-1,-6.5820664E-3,-3.497674E-2,-6.196638E-3,-1.7006533E-3,-1.5346354E-1,1.5702845E-1,-5.330972E-2,-2.6014333E-3,-7.121668E-3,8.285174E-4,9.585865E-3,8.2586333E-4,2.0501768E-2,-4.2590682E-4,1.0853279E-2,3.8754859E-3,-5.4973653E-3,-3.302591E-3,-6.8725958E-3,1.1476363E-2,-4.8478716E-4,2.2004383E-2,1.7907234E-3,-2.8114924E-3,-5.305092E-4,-4.8673883E-4,2.3382766E-2,7.419531E-4,8.692566E-3,1.1473115E-3,-6.374673E-3,4.907781E-3,1.745597E-2,1.5760291E-2,-3.768632E-3,-6.3827233E-3,-2.1524173E-3,-6.8296413E-3,-1.0254086E-2,3.758986E-3,-1.4993929E-3,9.7389513E-4,1.4504616E-2,-7.700235E-4,-3.686548E-3,-2.535691E-3,2.7850426E-3,2.0369925E-3,8.392198E-3,4.1786112E-2,1.3814387E-2,-3.8273763E-3,-6.813155E-4,1.1872579E-2,1.4482253E-3,3.241085E-3,-1.4082834E-3,1.4190326E-2,-1.4792759E-3,2.565102E-3,-9.876023E-4,-1.9691677E-3,8.3058636E-4,7.362848E-4,-4.2610797E-3,7.422472E-3,1.8338468E-3,4.552039E-3,1.18936775E-2,1.1506527E-2,4.243623E-5,3.0944148E-2,1.4834553E-2,3.876831E-4,1.2013018E-2,-8.142541E-3,2.2175598E-3,2.8253531E-2,1.6449055E-3,-7.645953E-3,2.6024063E-3,1.2369541E-2,5.674082E-4,2.7969081E-2,4.1272226E-3,2.8366025E-3,1.4163514E-2,2.0321166E-2,-1.1023358E-3,-1.143368E-3,5.302208E-3,1.6413562E-2,1.9063769E-3,1.2673231E-2,6.6397704E-2,1.0162767E-2,1.5341659E-3,1.3879076E-2,2.5715409E-2,-5.7869975E-4,1.600795E-2,2.5845706E-3,-3.6093246E-3,-1.6779903E-3,1.079104E-2],"split_indices":[36,34,42,25,27,15,7,39,37,18,49,30,43,3,27,52,11,18,0,0,39,10,0,18,16,30,52,41,14,52,0,41,38,38,35,40,13,27,27,36,2,31,20,12,3,2,14,8,0,0,1,43,40,24,12,39,38,0,8,0,51,27,32,46,9,21,39,26,38,26,1,43,28,8,26,38,20,24,13,37,28,25,27,41,12,4,13,10,9,40,36,49,18,19,21,0,29,8,0,25,6,0,0,45,0,50,37,5,25,10,0,49,0,0,6,32,5,0,0,0,0,0,0,0,0,0,0,0,0,0,0,0,0,0,0,0,0,0,0,0,0,0,0,0,0,0,0,0,0,0,0,0,0,0,0,0,0,0,0,0,0,0,0,0,0,0,0,0,0,0,0,0,0,0,0,0,0,0,0,0,0,0,0,0,0,0,0,0,0,0,0,0,0,0,0,0,0,0,0,0,0,0,0,0,0,0,0,0,0,0,0,0,0,0,0],"split_type":[0,0,0,0,0,0,0,0,0,0,0,0,0,0,0,0,0,0,0,0,0,0,0,0,0,0,0,0,0,0,0,0,0,0,0,0,0,0,0,0,0,0,0,0,0,0,0,0,0,0,0,0,0,0,0,0,0,0,0,0,0,0,0,0,0,0,0,0,0,0,0,0,0,0,0,0,0,0,0,0,0,0,0,0,0,0,0,0,0,0,0,0,0,0,0,0,0,0,0,0,0,0,0,0,0,0,0,0,0,0,0,0,0,0,0,0,0,0,0,0,0,0,0,0,0,0,0,0,0,0,0,0,0,0,0,0,0,0,0,0,0,0,0,0,0,0,0,0,0,0,0,0,0,0,0,0,0,0,0,0,0,0,0,0,0,0,0,0,0,0,0,0,0,0,0,0,0,0,0,0,0,0,0,0,0,0,0,0,0,0,0,0,0,0,0,0,0,0,0,0,0,0,0,0,0,0,0,0,0,0,0,0,0,0,0],"sum_hessian":[2.1852E4,2.0152E4,1.7E3,5.268E3,1.4884E4,1.267E3,4.33E2,2.144E3,3.124E3,7.435E3,7.449E3,2.06E2,1.061E3,3.5E2,8.3E1,1.323E3,8.21E2,1.25E3,1.874E3,4.878E3,2.557E3,5.378E3,2.071E3,1.62E2,4.4E1,9.5E1,9.66E2,1.72E2,1.78E2,6.7E1,1.6E1,5.65E2,7.58E2,5.18E2,3.03E2,9.17E2,3.33E2,5.9E1,1.815E3,5.68E2,4.31E3,1.247E3,1.31E3,9.95E2,4.383E3,1.601E3,4.7E2,1.58E2,4E0,3.2E1,1.2E1,2.7E1,6.8E1,1.26E2,8.4E2,9.4E1,7.8E1,8E0,1.7E2,1.3E1,5.4E1,2.07E2,3.58E2,5.3E2,2.28E2,3.9E1,4.79E2,2.76E2,2.7E1,9.1E2,7E0,2.91E2,4.2E1,1.8E1,4.1E1,1.263E3,5.52E2,4.88E2,8E1,3.772E3,5.38E2,1.238E3,9E0,1.115E3,1.95E2,8.89E2,1.06E2,1.661E3,2.722E3,2.04E2,1.397E3,2.98E2,1.72E2,5.8E1,1E2,1.9E1,1.3E1,7E0,5E0,1.2E1,1.5E1,6E0,6.2E1,1.8E1,1.08E2,3.46E2,4.94E2,8.2E1,1.2E1,6.5E1,1.3E1,1.63E2,7E0,3E0,1E1,4.5E1,9E0,1.6E2,4.7E1,3.47E2,1.1E1,5.23E2,7E0,9.6E1,1.32E2,3.2E1,7E0,4.08E2,7.1E1,4E0,2.72E2,7E0,2E1,4.8E2,4.3E2,4E0,3E0,2.72E2,1.9E1,1.1E1,3.1E1,3E0,1.5E1,5E0,3.6E1,1.033E3,2.3E2,1.42E2,4.1E2,2.79E2,2.09E2,2.6E1,5.4E1,1.123E3,2.649E3,2.35E2,3.03E2,1.156E3,8.2E1,4E0,5E0,1.85E2,9.3E2,1.1E1,1.84E2,6.79E2,2.1E2,9.3E1,1.3E1,1.157E3,5.04E2,1.383E3,1.339E3,1.49E2,5.5E1,1.99E2,1.198E3,1.61E2,1.37E2,1.7E1,1.55E2,1.5E1,4.3E1,4.2E1,5.8E1,3E0,1E1,3E0,4E0,7E0,5E0,1E1,5E0,1.4E1,4E0,7.2E1,3.6E1,4E0,3.42E2,8.5E1,4.09E2,4.2E1,4E1,8E0,4E0,1.9E1,4.6E1,6.1E1,1.02E2,3E0,7E0,1.3E1,3.2E1,3E0,6E0],"tree_param":{"num_deleted":"0","num_feature":"54","num_nodes":"215","size_leaf_vector":"1"}},{"base_weights":[3.0155922E-4,-8.767559E-3,1.0736174E-1,-5.3689584E-2,3.663765E-3,6.8976864E-2,2.2661474E-1,-9.192404E-2,-4.742993E-3,-1.2320475E-2,3.6273744E-2,1.5579146E-1,3.869658E-2,2.7786675E-1,-3.3672318E-2,-8.565578E-3,-1.26918E-1,-2.2499286E-2,2.4270376E-2,4.073071E-2,-2.4794003E-2,1.1373508E-2,7.710383E-2,2.4541129E-1,5.2534282E-2,-1.4772189E-1,6.870259E-2,1.8339671E-1,4.4551954E-1,1.7376375E-1,-7.177612E-2,-5.152877E-2,4.8013978E-2,3.0944727E-2,-1.3574477E-1,1.1133499E-2,-3.3950813E-2,3.4654398E-2,-5.0440572E-2,5.695255E-2,-1.6981995E-2,-4.4834517E-2,9.537628E-4,2.695702E-2,-1.4089719E-2,1.5113491E-1,4.922321E-2,3.6473987E-1,1.3731642E-1,1.2276557E-1,-3.1107299E-2,-3.5416342E-2,-1.9738615E-1,5.233199E-3,1.0670028E-1,6.90016E-1,1.5131404E-1,5.19606E-1,2.3412575E-1,2.14045E-3,1.9611618E-2,2.992978E-3,-9.064746E-2,-5.9270944E-2,1.9065574E-1,-2.8608412E-2,1.2433054E-1,1.8384833E-2,-5.0288327E-2,-1.1609133E-1,-1.8022518E-1,1.5508421E-1,6.1825076E-3,-3.6393765E-2,1.834467E-1,1.0112504E-1,2.39755E-2,-6.8841256E-2,1.3622959E-2,1.01343945E-1,3.196439E-2,1.8327286E-2,-2.043787E-2,-6.2025286E-2,-1.0349818E-2,-1.39738945E-2,5.5042304E-2,-9.4486435E-4,6.457644E-2,9.133332E-3,-5.0007712E-2,1.9417483E-1,2.0566044E-2,3.5565957E-2,1.3734438E-1,3.071225E-1,6.848506E-1,-5.7651806E-3,1.899395E-1,-4.2632785E-2,1.7431326E-1,-7.869438E-2,1.9091825E-1,-9.0907454E-2,1.7815189E-1,-1.0913021E-2,-9.245489E-2,-1.4534542E-1,1.8377367E-2,2.1584582E-1,7.415423E-2,4.384495E-1,4.5521766E-2,2.419902E-1,5.569538E-2,5.56983E-1,-5.1365867E-3,-1.3618543E-2,3.3084485E-1,-5.817845E-3,4.7471053E-3,-6.4812154E-3,-2.32372E-3,1.5075182E-2,-6.7063975E-3,1.1893E-2,-2.2255909E-3,1.0508556E-3,1.0579792E-2,-5.610358E-3,6.2799403E-3,-4.91966E-4,-6.0697417E-3,4.1629123E-3,-9.153316E-3,8.716033E-4,1.2197348E-2,-3.8395494E-3,6.600863E-4,3.8379055E-4,-2.3821567E-3,-3.9435775E-4,2.3620965E-2,6.653597E-3,-1.5252905E-3,2.1377609E-3,-1.2577878E-3,1.9080424E-3,-4.615772E-3,3.1997643E-3,7.3905997E-3,3.4046047E-3,6.70929E-4,-2.1481633E-3,1.3244281E-3,-2.3448558E-3,-4.5158225E-3,5.533464E-4,-3.7233715E-3,2.2670176E-2,-7.6230546E-4,5.263039E-3,2.529381E-4,-1.2946302E-3,1.1701676E-3,1.0607537E-2,2.744564E-3,1.5954666E-2,2.8758965E-4,-3.0053032E-3,2.3287348E-3,1.1928737E-2,3.5344127E-3,-2.1915355E-4,5.98004E-3,3.139323E-3,-8.3174775E-5,1.2353378E-2,3.3685495E-3,2.0578528E-2,6.722875E-3,4.8307292E-2,1.212655E-2,1.2624471E-2,8.2007825E-4,-5.943674E-3,4.8058764E-3,1.2661521E-2,4.250824E-3,3.8977526E-3,-4.8771743E-3,-1.3581496E-4,1.2464012E-2,3.009963E-3,-7.385692E-3,1.4170586E-2,1.8630844E-3,-7.0870197E-3,5.1579075E-3,-1.0483451E-2,-3.8478844E-4,1.3639611E-2,6.4250424E-5,1.4518497E-2,3.1632278E-3,5.589449E-3,-3.66477E-4,2.913743E-2,7.4231625E-3,1.7316038E-2,1.6214153E-3,-1.1088518E-2,4.056382E-3,5.4468095E-2,2.517188E-2,3.1559017E-2,1.0329678E-2,-6.086349E-3,7.575451E-3],"categories":[],"categories_nodes":[],"categories_segments":[],"categories_sizes":[],"default_left":[0,0,0,0,0,0,0,0,0,0,0,0,0,0,0,0,0,0,0,0,0,0,0,0,0,0,0,0,0,0,0,0,0,0,0,0,0,0,0,0,0,0,0,0,0,0,0,0,0,0,0,0,0,0,0,0,0,0,0,0,0,0,0,0,0,0,0,0,0,0,0,0,0,0,0,0,0,0,0,0,0,0,0,0,0,0,0,0,0,0,0,0,0,0,0,0,0,0,0,0,0,0,0,0,0,0,0,0,0,0,0,0,0,0,0,0,0,0,0,0,0,0,0,0,0,0,0,0,0,0,0,0,0,0,0,0,0,0,0,0,0,0,0,0,0,0,0,0,0,0,0,0,0,0,0,0,0,0,0,0,0,0,0,0,0,0,0,0,0,0,0,0,0,0,0,0,0,0,0,0,0,0,0,0,0,0,0,0,0,0,0,0,0,0,0,0,0,0,0,0,0,0,0,0,0,0,0,0,0,0,0,0,0,0,0,0,0,0,0],"id":3,"left_children":[1,3,5,7,9,11,13,15,17,19,21,23,25,27,29,31,33,35,37,39,41,43,45,47,49,51,53,55,57,59,61,63,65,67,69,71,73,75,77,79,81,83,85,87,89,91,93,95,97,99,101,103,105,107,109,111,113,115,117,-1,-1,-1,119,121,123,125,127,-1,129,131,133,135,137,139,141,143,145,147,-1,149,151,-1,153,155,157,159,161,163,165,167,169,171,173,175,177,179,181,-1,183,185,187,189,191,193,195,-1,197,199,201,203,205,207,-1,209,211,213,-1,-1,215,-1,217,-1,-1,-1,-1,-1,-1,-1,-1,-1,-1,-1,-1,-1,-1,-1,-1,-1,-1,-1,-1,-1,-1,-1,-1,-1,-1,-1,-1,-1,-1,-1,-1,-1,-1,-1,-1,-1,-1,-1,-1,-1,-1,-1,-1,-1,-1,-1,-1,-1,-1,-1,-1,-1,-1,-1,-1,-1,-1,-1,-1,-1,-1,-1,-1,-1,-1,-1,-1,-1,-1,-1,-1,-1,-1,-1,-1,-1,-1,-1,-1,-1,-1,-1,-1,-1,-1,-1,-1,-1,-1,-1,-1,-1,-1,-1,-1,-1,-1],"loss_changes":[2.1160667E1,1.1220379E1,7.7752914E0,8.149712E0,8.203813E0,3.3824573E0,5.532213E0,7.1310825E0,9.850358E-1,6.9902606E0,5.2624693E0,3.068654E0,5.363296E0,5.3982964E0,5.5785525E-1,1.762401E0,2.4036636E0,4.5716208E-1,5.649788E-1,1.8836784E0,4.412862E0,1.2769064E0,4.0401278E0,2.245904E0,9.20203E-1,7.348261E-1,1.9890862E0,3.5201683E0,1.820364E0,2.9791343E-1,1.5199041E-1,7.8381455E-1,1.8338425E0,2.5351863E0,1.4048862E0,2.1427621E-1,4.766922E-1,4.5044893E-1,5.475568E-1,1.7382979E0,5.9332854E-1,2.8502226E0,3.0237317E0,2.095168E0,1.0197581E0,3.008153E0,1.711297E0,1.3389568E0,1.2847972E0,7.3213315E-1,7.7574366E-1,5.1394314E-1,1.813345E-1,6.162326E-1,1.8169584E0,3.2167244E-1,1.8159623E0,2.1739807E0,1.755701E0,0E0,0E0,0E0,1.2808451E-1,3.5408807E-1,5.084607E-1,6.759152E-1,1.4110141E0,0E0,8.3089757E-1,6.3782215E-1,3.8803864E-1,1.1806899E-1,1.7165963E-1,4.3464708E-1,5.5662847E-1,3.7411696E-1,5.0946736E-1,2.170246E-1,0E0,9.711094E-1,6.7312396E-1,0E0,4.6517694E-1,1.369195E0,2.199302E0,1.7520767E0,2.0326457E0,6.973316E-1,1.2032433E0,7.7693415E-1,4.7095442E-1,2.1927004E0,3.3161536E-1,1.2526723E0,1.4497957E0,1.2611814E0,1.2587485E0,0E0,8.5338664E-1,2.3357266E-1,4.3652952E-1,1.8476611E-1,1.4758879E-1,3.007424E-1,1.2291029E-1,0E0,1.785168E-1,2.1973956E-1,1.2433348E0,1.3234067E0,1.2244012E0,2.482413E-1,0E0,2.35005E0,7.518759E-1,1.9031315E0,0E0,0E0,9.51797E-1,0E0,2.4118164E-1,0E0,0E0,0E0,0E0,0E0,0E0,0E0,0E0,0E0,0E0,0E0,0E0,0E0,0E0,0E0,0E0,0E0,0E0,0E0,0E0,0E0,0E0,0E0,0E0,0E0,0E0,0E0,0E0,0E0,0E0,0E0,0E0,0E0,0E0,0E0,0E0,0E0,0E0,0E0,0E0,0E0,0E0,0E0,0E0,0E0,0E0,0E0,0E0,0E0,0E0,0E0,0E0,0E0,0E0,0E0,0E0,0E0,0E0,0E0,0E0,0E0,0E0,0E0,0E0,0E0,0E0,0E0,0E0,0E0,0E0,0E0,0E0,0E0,0E0,0E0,0E0,0E0,0E0,0E0,0E0,0E0,0E0,0E0,0E0,0E0,0E0,0E0,0E0,0E0,0E0,0E0,0E0,0E0,0E0,0E0,0E0,0E0,0E0],"parents":[2147483647,0,0,1,1,2,2,3,3,4,4,5,5,6,6,7,7,8,8,9,9,10,10,11,11,12,12,13,13,14,14,15,15,16,16,17,17,18,18,19,19,20,20,21,21,22,22,23,23,24,24,25,25,26,26,27,27,28,28,29,29,30,30,31,31,32,32,33,33,34,34,35,35,36,36,37,37,38,38,39,39,40,40,41,41,42,42,43,43,44,44,45,45,46,46,47,47,48,48,49,49,50,50,51,51,52,52,53,53,54,54,55,55,56,56,57,57,58,58,62,62,63,63,64,64,65,65,66,66,68,68,69,69,70,70,71,71,72,72,73,73,74,74,75,75,76,76,77,77,79,79,80,80,82,82,83,83,84,84,85,85,86,86,87,87,88,88,89,89,90,90,91,91,92,92,93,93,94,94,95,95,96,96,98,98,99,99,100,100,101,101,102,102,103,103,104,104,106,106,107,107,108,108,109,109,110,110,111,111,113,113,114,114,115,115,118,118,120,120],"right_children":[2,4,6,8,10,12,14,16,18,20,22,24,26,28,30,32,34,36,38,40,42,44,46,48,50,52,54,56,58,60,62,64,66,68,70,72,74,76,78,80,82,84,86,88,90,92,94,96,98,100,102,104,106,108,110,112,114,116,118,-1,-1,-1,120,122,124,126,128,-1,130,132,134,136,138,140,142,144,146,148,-1,150,152,-1,154,156,158,160,162,164,166,168,170,172,174,176,178,180,182,-1,184,186,188,190,192,194,196,-1,198,200,202,204,206,208,-1,210,212,214,-1,-1,216,-1,218,-1,-1,-1,-1,-1,-1,-1,-1,-1,-1,-1,-1,-1,-1,-1,-1,-1,-1,-1,-1,-1,-1,-1,-1,-1,-1,-1,-1,-1,-1,-1,-1,-1,-1,-1,-1,-1,-1,-1,-1,-1,-1,-1,-1,-1,-1,-1,-1,-1,-1,-1,-1,-1,-1,-1,-1,-1,-1,-1,-1,-1,-1,-1,-1,-1,-1,-1,-1,-1,-1,-1,-1,-1,-1,-1,-1,-1,-1,-1,-1,-1,-1,-1,-1,-1,-1,-1,-1,-1,-1,-1,-1,-1,-1,-1,-1,-1,-1],"split_conditions":[1.2482996E0,-1.5832017E-1,-3.0494656E-3,-2.1253324E-1,-8.148978E-2,-1.8586731E-1,3.003362E-1,-5.2016437E-2,-1.4981592E-1,-7.8919387E-1,-5.6344725E-2,-1.0030309E-1,-4.9951E-3,2.797365E0,1.5698689E0,-1.448696E-1,-6.334778E-2,-2.7301607E-1,2.6273873E-1,-2.5606187E-2,-1.5980537E-1,-2.0511782E-2,-1.2598325E-1,-2.6090667E-1,-3.3190984E-2,5.49965E-1,-1.2629104E-1,-2.856485E-1,1.0334965E0,3.2377822E0,-1.4775345E-1,-2.66349E-1,-5.572946E-2,-2.4252154E-1,-8.587809E-2,-2.8212902E-1,2.7679453E0,-8.8488385E-2,6.993205E-1,-1.7694592E-1,-3.100985E-1,-1.927172E-1,-2.4532145E-2,-9.068196E-1,-3.0544288E-2,1.3188268E-2,-1.4710639E-2,-3.8170658E-2,-4.7077682E-2,-3.5734057E-2,-7.531744E-2,-4.8080176E-2,-6.537641E-2,3.30415E-1,8.100196E-1,-8.93746E-2,1.8231378E0,6.6752714E-1,7.002752E-2,2.14045E-3,1.9611618E-2,2.992978E-3,2.4951982E-1,-9.5025426E-1,-4.4900545E-1,-1.6906191E0,-1.0600261E-1,1.8384833E-2,-4.8830223E-1,-5.6390718E-2,7.826683E-2,2.4775647E-1,-3.8897887E-2,-4.060182E-2,-2.5424818E-2,4.4065997E-1,-1.404388E-1,-2.0752665E-1,1.3622959E-2,-1.7500041E-2,-1.2666774E0,1.8327286E-2,-7.846893E-2,-5.907352E-2,3.030669E-1,-9.002301E-2,-1.2972529E-1,-1.4822158E-1,-2.0522217E-1,-4.407126E-1,7.375106E-1,-1.6482641E-1,1.0479504E0,1.5117063E-1,7.947164E-2,6.6024673E-1,1.1016446E0,-5.7651806E-3,4.5942944E-1,-1.3327475E-2,1.5645219E0,-2.8945276E-1,-5.965277E-2,1.1085611E-1,3.4838143E-1,-1.0913021E-2,-1.9919498E-2,5.669693E-2,3.457916E-2,-6.5588884E-2,3.9233863E-1,-1.862794E-1,4.5521766E-2,6.993757E-1,-4.8854325E-2,-4.2763133E-2,-5.1365867E-3,-1.3618543E-2,4.685837E0,-5.817845E-3,3.4037068E0,-6.4812154E-3,-2.32372E-3,1.5075182E-2,-6.7063975E-3,1.1893E-2,-2.2255909E-3,1.0508556E-3,1.0579792E-2,-5.610358E-3,6.2799403E-3,-4.91966E-4,-6.0697417E-3,4.1629123E-3,-9.153316E-3,8.716033E-4,1.2197348E-2,-3.8395494E-3,6.600863E-4,3.8379055E-4,-2.3821567E-3,-3.9435775E-4,2.3620965E-2,6.653597E-3,-1.5252905E-3,2.1377609E-3,-1.2577878E-3,1.9080424E-3,-4.615772E-3,3.1997643E-3,7.3905997E-3,3.4046047E-3,6.70929E-4,-2.1481633E-3,1.3244281E-3,-2.3448558E-3,-4.5158225E-3,5.533464E-4,-3.7233715E-3,2.2670176E-2,-7.6230546E-4,5.263039E-3,2.529381E-4,-1.2946302E-3,1.1701676E-3,1.0607537E-2,2.744564E-3,1.5954666E-2,2.8758965E-4,-3.0053032E-3,2.3287348E-3,1.1928737E-2,3.5344127E-3,-2.1915355E-4,5.98004E-3,3.139323E-3,-8.3174775E-5,1.2353378E-2,3.3685495E-3,2.0578528E-2,6.722875E-3,4.8307292E-2,1.212655E-2,1.2624471E-2,8.2007825E-4,-5.943674E-3,4.8058764E-3,1.2661521E-2,4.250824E-3,3.8977526E-3,-4.8771743E-3,-1.3581496E-4,1.2464012E-2,3.009963E-3,-7.385692E-3,1.4170586E-2,1.8630844E-3,-7.0870197E-3,5.1579075E-3,-1.0483451E-2,-3.8478844E-4,1.3639611E-2,6.4250424E-5,1.4518497E-2,3.1632278E-3,5.589449E-3,-3.66477E-4,2.913743E-2,7.4231625E-3,1.7316038E-2,1.6214153E-3,-1.1088518E-2,4.056382E-3,5.4468095E-2,2.517188E-2,3.1559017E-2,1.0329678E-2,-6.086349E-3,7.575451E-3],"split_indices":[36,34,42,40,9,19,52,25,20,36,38,50,34,35,36,11,32,19,11,31,50,24,10,12,42,2,9,18,50,17,31,41,38,10,19,10,4,38,27,8,25,18,31,22,37,39,31,32,38,42,49,34,43,30,29,8,41,7,42,0,0,0,45,41,0,1,9,0,41,17,29,4,17,17,31,5,39,25,0,20,35,0,43,38,3,46,39,8,20,32,2,19,14,45,9,41,30,0,5,16,35,18,6,2,6,0,37,43,28,8,45,10,0,18,24,16,0,0,4,0,25,0,0,0,0,0,0,0,0,0,0,0,0,0,0,0,0,0,0,0,0,0,0,0,0,0,0,0,0,0,0,0,0,0,0,0,0,0,0,0,0,0,0,0,0,0,0,0,0,0,0,0,0,0,0,0,0,0,0,0,0,0,0,0,0,0,0,0,0,0,0,0,0,0,0,0,0,0,0,0,0,0,0,0,0,0,0,0,0,0,0,0,0,0,0,0,0,0,0],"split_type":[0,0,0,0,0,0,0,0,0,0,0,0,0,0,0,0,0,0,0,0,0,0,0,0,0,0,0,0,0,0,0,0,0,0,0,0,0,0,0,0,0,0,0,0,0,0,0,0,0,0,0,0,0,0,0,0,0,0,0,0,0,0,0,0,0,0,0,0,0,0,0,0,0,0,0,0,0,0,0,0,0,0,0,0,0,0,0,0,0,0,0,0,0,0,0,0,0,0,0,0,0,0,0,0,0,0,0,0,0,0,0,0,0,0,0,0,0,0,0,0,0,0,0,0,0,0,0,0,0,0,0,0,0,0,0,0,0,0,0,0,0,0,0,0,0,0,0,0,0,0,0,0,0,0,0,0,0,0,0,0,0,0,0,0,0,0,0,0,0,0,0,0,0,0,0,0,0,0,0,0,0,0,0,0,0,0,0,0,0,0,0,0,0,0,0,0,0,0,0,0,0,0,0,0,0,0,0,0,0,0,0,0,0,0,0,0,0,0,0],"sum_hessian":[2.1792E4,2.0091E4,1.701E3,4.354E3,1.5737E4,1.288E3,4.13E2,2.444E3,1.91E3,1.0561E4,5.176E3,3.32E2,9.56E2,3.45E2,6.8E1,7.23E2,1.721E3,1.185E3,7.25E2,2.01E3,8.551E3,3.216E3,1.96E3,1.77E2,1.55E2,1.32E2,8.24E2,2.22E2,1.23E2,1E1,5.8E1,4.11E2,3.12E2,9.1E1,1.63E3,3.01E2,8.84E2,6.37E2,8.8E1,1.569E3,4.41E2,4.808E3,3.743E3,1.995E3,1.221E3,5.35E2,1.425E3,8.3E1,9.4E1,8.4E1,7.1E1,4.1E1,9.1E1,3.09E2,5.15E2,1.2E1,2.1E2,9E1,3.3E1,7E0,3E0,7E0,5.1E1,3.99E2,1.2E1,1.56E2,1.56E2,1.7E1,7.4E1,1.133E3,4.97E2,9E0,2.92E2,8.75E2,9E0,8.7E1,5.5E2,8.4E1,4E0,5.64E2,1.005E3,3E0,4.38E2,3.208E3,1.6E3,2.934E3,8.09E2,1.146E3,8.49E2,7.42E2,4.79E2,4.02E2,1.33E2,1.235E3,1.9E2,7.2E1,1.1E1,1.6E1,7.8E1,2E1,6.4E1,5.9E1,1.2E1,3.3E1,8E0,7.5E1,1.6E1,2.4E1,2.85E2,1.17E2,3.98E2,7E0,5E0,1.07E2,1.03E2,8.5E1,5E0,5E0,2.8E1,4E1,1.1E1,6E1,3.39E2,9E0,3E0,8E0,1.48E2,7.2E1,8.4E1,5.5E1,1.9E1,5.4E1,1.079E3,5E0,4.92E2,4E0,5E0,2.2E1,2.7E2,1.78E2,6.97E2,6E0,3E0,7E1,1.7E1,3.98E2,1.52E2,1.5E1,6.9E1,3.14E2,2.5E2,3.4E2,6.65E2,2.96E2,1.42E2,2.092E3,1.116E3,1.2E3,4E2,7E0,2.927E3,4.03E2,4.06E2,5.66E2,5.8E2,5.1E1,7.98E2,7E0,7.35E2,4.34E2,4.5E1,2.95E2,1.07E2,1.07E2,2.6E1,7.13E2,5.22E2,7.3E1,1.17E2,4.4E1,2.8E1,6E0,5E0,5.7E1,2.1E1,1.3E1,7E0,3.3E1,3.1E1,6E0,5.3E1,3E0,9E0,9E0,2.4E1,4E0,4E0,1.3E1,3E0,1.6E1,8E0,1.7E1,2.68E2,7.8E1,3.9E1,2.72E2,1.26E2,4E0,3E0,7.1E1,3.6E1,8E0,9.5E1,6E0,7.9E1,7E0,2.1E1,6E0,5E0],"tree_param":{"num_deleted":"0","num_feature":"54","num_nodes":"219","size_leaf_vector":"1"}},{"base_weights":[-4.8498274E-5,-8.715853E-3,9.643654E-2,-4.717129E-2,5.1139E-3,6.7658685E-2,2.1873394E-1,2.8293878E-3,-7.380354E-2,-1.3006474E-2,2.7289366E-2,1.2906587E-1,2.159582E-2,2.8057873E-1,-4.0217534E-2,4.6476465E-2,-2.1499066E-2,-1.0998764E-1,-1.9734593E-2,-3.2368027E-2,2.1498796E-2,2.0244405E-2,8.712746E-2,2.4574696E-1,9.2744656E-2,-7.1947634E-2,5.229725E-2,1.5519157E-1,4.0041894E-1,1.3420333E-2,-6.943572E-2,2.0924816E-2,1.2569943E-1,-4.7519915E-2,1.1578071E-2,2.6975287E-2,-1.1968367E-1,-2.8821422E-2,1.7213173E-2,5.265351E-2,-4.3498944E-2,4.9972877E-2,-5.141535E-3,5.8710013E-2,9.752445E-3,4.0280696E-2,1.4122392E-1,1.408168E-1,3.137252E-1,3.9126027E-2,1.7849666E-1,-1.210198E-2,-2.025012E-1,-2.8026706E-2,7.2036766E-2,5.3011787E-1,1.2783088E-1,2.2687995E-1,4.7174978E-1,-8.223787E-2,6.8377415E-3,1.55055495E-2,2.3271505E-2,-2.157641E-2,1.9615743E-1,-6.480571E-2,9.662513E-3,4.3313038E-2,-4.1588496E-2,2.751006E-1,-4.7482513E-2,-9.962656E-2,-1.6578875E-1,1.5218427E-2,-4.1882258E-2,3.1391703E-2,-7.778851E-2,2.8270239E-2,1.9890793E-1,-5.2208856E-2,1.5033902E-2,4.4280704E-2,6.1521393E-1,-9.865534E-3,1.6020836E-1,3.9247062E-2,2.0092738E-1,-3.9108664E-2,1.5140414E-2,9.009992E-2,-4.829809E-2,2.953717E-1,1.1066857E-1,-1.1359242E-3,2.1144424E-1,3.4456155E-1,-2.0781567E-3,3.1755954E-2,3.0856067E-2,2.309119E-1,3.340558E-2,-4.2876806E-2,1.6872686E-1,-1.5303503E-1,-1.4308852E-2,-7.2755436E-3,-5.595481E-3,4.62094E-1,6.563898E-2,1.0460956E-2,3.278487E-2,2.0424591E-1,5.1794626E-2,3.4282273E-1,-1.900135E-1,5.470951E-1,1.0230155E-1,2.8606865E-3,-5.2617234E-3,6.059251E-4,1.7284496E-2,2.093159E-3,-7.919081E-3,1.1737932E-2,-3.0697072E-3,-3.4022264E-3,1.3796195E-2,2.2138509E-3,-4.7214376E-3,-2.698122E-5,5.300505E-3,2.8432352E-3,-3.6951744E-3,1.5940227E-2,1.6291387E-3,-5.5452734E-3,4.9049715E-3,-5.8875415E-3,-3.462356E-3,-5.891337E-3,-9.16861E-3,9.022946E-3,5.939728E-4,-2.6567003E-3,-1.4616182E-4,6.1700237E-4,6.045643E-3,-1.0424275E-3,-6.6785114E-3,3.8931423E-3,-1.3017836E-3,5.603642E-4,1.5224953E-2,-9.0617215E-4,-3.5103317E-3,3.091009E-3,-2.0172447E-3,1.8157788E-3,7.5409855E-3,1.3015747E-2,3.917281E-2,8.939034E-3,-6.296364E-4,1.1108377E-2,-3.0138872E-3,4.5870556E-3,4.0708596E-4,2.8344532E-3,1.2404789E-2,2.881372E-4,-6.7004855E-3,4.369198E-4,3.2467481E-3,1.6164985E-2,2.833748E-3,3.756861E-3,-3.907839E-3,7.4038724E-3,3.293227E-2,2.461362E-2,5.010516E-3,7.974876E-3,2.241963E-2,5.6217103E-3,1.9956565E-2,1.650304E-4,7.122314E-3,-4.862793E-3,1.2083734E-2,1.4467587E-2,-7.4945926E-4,1.4001683E-3,-3.6264209E-3,2.8864551E-2,3.4280557E-3,-8.80134E-3,2.8453914E-3,2.3422055E-3,-2.7536498E-3,3.9440844E-2,-3.0916536E-3,4.0933588E-3,-3.0818474E-3,7.041482E-3,3.968992E-2,-2.3798193E-4,1.3109664E-2,-4.5315675E-3,2.194713E-2,-1.8542673E-3,-1.4289237E-2,3.3334102E-2,1.0567129E-2,-7.075666E-3,1.8092006E-2],"categories":[],"categories_nodes":[],"categories_segments":[],"categories_sizes":[],"default_left":[0,0,0,0,0,0,0,0,0,0,0,0,0,0,0,0,0,0,0,0,0,0,0,0,0,0,0,0,0,0,0,0,0,0,0,0,0,0,0,0,0,0,0,0,0,0,0,0,0,0,0,0,0,0,0,0,0,0,0,0,0,0,0,0,0,0,0,0,0,0,0,0,0,0,0,0,0,0,0,0,0,0,0,0,0,0,0,0,0,0,0,0,0,0,0,0,0,0,0,0,0,0,0,0,0,0,0,0,0,0,0,0,0,0,0,0,0,0,0,0,0,0,0,0,0,0,0,0,0,0,0,0,0,0,0,0,0,0,0,0,0,0,0,0,0,0,0,0,0,0,0,0,0,0,0,0,0,0,0,0,0,0,0,0,0,0,0,0,0,0,0,0,0,0,0,0,0,0,0,0,0,0,0,0,0,0,0,0,0,0,0,0,0,0,0,0,0,0,0,0,0,0,0,0,0,0,0,0,0,0,0,0,0,0,0],"id":4,"left_children":[1,3,5,7,9,11,13,15,17,19,21,23,25,27,29,31,33,35,37,39,41,43,45,47,49,51,53,55,57,-1,59,61,63,65,67,69,71,73,75,77,79,81,83,85,87,89,91,93,95,97,99,101,103,105,107,109,111,113,115,117,-1,119,-1,121,123,125,127,129,131,133,135,137,139,141,143,145,147,149,151,153,155,157,159,161,163,165,167,169,171,173,175,177,179,-1,181,183,-1,-1,185,187,189,191,193,195,-1,-1,197,199,201,-1,-1,203,205,207,209,211,213,-1,-1,-1,-1,-1,-1,-1,-1,-1,-1,-1,-1,-1,-1,-1,-1,-1,-1,-1,-1,-1,-1,-1,-1,-1,-1,-1,-1,-1,-1,-1,-1,-1,-1,-1,-1,-1,-1,-1,-1,-1,-1,-1,-1,-1,-1,-1,-1,-1,-1,-1,-1,-1,-1,-1,-1,-1,-1,-1,-1,-1,-1,-1,-1,-1,-1,-1,-1,-1,-1,-1,-1,-1,-1,-1,-1,-1,-1,-1,-1,-1,-1,-1,-1,-1,-1,-1,-1,-1,-1,-1,-1,-1,-1,-1,-1,-1,-1],"loss_changes":[1.8292576E1,1.0674586E1,6.33078E0,7.0698338E0,5.932538E0,4.1297846E0,5.504362E0,1.9612037E0,6.774925E0,5.42881E0,2.7969537E0,2.6301966E0,2.4046857E0,4.1001797E0,6.228054E-1,1.3354172E0,1.0213346E0,2.7588234E0,4.6717197E-1,4.928134E0,2.2160072E0,2.397094E0,1.7657485E0,1.0115013E0,2.1954126E0,1.6148536E0,1.0009195E0,1.3376136E0,1.6383629E0,0E0,1.7490661E-1,1.1996386E0,1.67489E0,6.5695286E-1,8.8422734E-1,2.5625937E0,1.7756195E0,6.4255744E-1,3.7286258E-1,2.144772E0,2.3474684E0,4.515796E0,1.1810607E0,3.515739E0,1.2297633E0,1.6636122E0,1.4933648E0,6.9780874E-1,9.8938656E-1,1.4393389E0,1.391603E0,8.0302614E-1,2.2524786E-1,3.2860002E-1,1.2323928E0,2.2550058E-1,7.3895144E-1,2.1435795E0,2.6998138E0,1.9522873E-1,0E0,5.5051243E-1,0E0,4.6661022E-1,1.0980697E0,5.815916E-1,5.6265646E-1,9.0187126E-1,6.277792E-1,3.2877994E-1,9.988361E-1,7.368145E-1,4.725895E-1,1.3909994E-1,3.7727034E-1,4.0783417E-1,1.1155875E-1,1.39709E0,1.7010665E0,2.4568682E0,1.5493019E0,1.18171E0,6.319809E-1,7.5801516E-1,5.871594E-1,1.8296729E0,1.0268693E0,1.9766436E0,1.340245E0,1.8601987E0,5.071162E-1,2.7384005E0,1.0361972E0,0E0,4.454478E-1,9.938288E-1,0E0,0E0,9.004812E-1,5.003247E-1,6.236599E-1,2.6054144E-1,8.1982714E-1,2.1757662E-1,0E0,0E0,2.776054E-1,1.4182066E0,1.0357096E0,0E0,0E0,2.2809923E0,7.865781E-1,1.4563429E0,1.3586274E-1,3.151535E0,1.1902337E0,0E0,0E0,0E0,0E0,0E0,0E0,0E0,0E0,0E0,0E0,0E0,0E0,0E0,0E0,0E0,0E0,0E0,0E0,0E0,0E0,0E0,0E0,0E0,0E0,0E0,0E0,0E0,0E0,0E0,0E0,0E0,0E0,0E0,0E0,0E0,0E0,0E0,0E0,0E0,0E0,0E0,0E0,0E0,0E0,0E0,0E0,0E0,0E0,0E0,0E0,0E0,0E0,0E0,0E0,0E0,0E0,0E0,0E0,0E0,0E0,0E0,0E0,0E0,0E0,0E0,0E0,0E0,0E0,0E0,0E0,0E0,0E0,0E0,0E0,0E0,0E0,0E0,0E0,0E0,0E0,0E0,0E0,0E0,0E0,0E0,0E0,0E0,0E0,0E0,0E0,0E0,0E0,0E0,0E0,0E0,0E0,0E0,0E0],"parents":[2147483647,0,0,1,1,2,2,3,3,4,4,5,5,6,6,7,7,8,8,9,9,10,10,11,11,12,12,13,13,14,14,15,15,16,16,17,17,18,18,19,19,20,20,21,21,22,22,23,23,24,24,25,25,26,26,27,27,28,28,30,30,31,31,32,32,33,33,34,34,35,35,36,36,37,37,38,38,39,39,40,40,41,41,42,42,43,43,44,44,45,45,46,46,47,47,48,48,49,49,50,50,51,51,52,52,53,53,54,54,55,55,56,56,57,57,58,58,59,59,61,61,63,63,64,64,65,65,66,66,67,67,68,68,69,69,70,70,71,71,72,72,73,73,74,74,75,75,76,76,77,77,78,78,79,79,80,80,81,81,82,82,83,83,84,84,85,85,86,86,87,87,88,88,89,89,90,90,91,91,92,92,94,94,95,95,98,98,99,99,100,100,101,101,102,102,103,103,106,106,107,107,108,108,111,111,112,112,113,113,114,114,115,115,116,116],"right_children":[2,4,6,8,10,12,14,16,18,20,22,24,26,28,30,32,34,36,38,40,42,44,46,48,50,52,54,56,58,-1,60,62,64,66,68,70,72,74,76,78,80,82,84,86,88,90,92,94,96,98,100,102,104,106,108,110,112,114,116,118,-1,120,-1,122,124,126,128,130,132,134,136,138,140,142,144,146,148,150,152,154,156,158,160,162,164,166,168,170,172,174,176,178,180,-1,182,184,-1,-1,186,188,190,192,194,196,-1,-1,198,200,202,-1,-1,204,206,208,210,212,214,-1,-1,-1,-1,-1,-1,-1,-1,-1,-1,-1,-1,-1,-1,-1,-1,-1,-1,-1,-1,-1,-1,-1,-1,-1,-1,-1,-1,-1,-1,-1,-1,-1,-1,-1,-1,-1,-1,-1,-1,-1,-1,-1,-1,-1,-1,-1,-1,-1,-1,-1,-1,-1,-1,-1,-1,-1,-1,-1,-1,-1,-1,-1,-1,-1,-1,-1,-1,-1,-1,-1,-1,-1,-1,-1,-1,-1,-1,-1,-1,-1,-1,-1,-1,-1,-1,-1,-1,-1,-1,-1,-1,-1,-1,-1,-1,-1,-1],"split_conditions":[2.7421758E-1,-1.5332226E-1,1.1632475E-2,-2.0519368E-2,-1.5838864E-1,2.5013444E-1,3.003362E-1,-1.6186957E-1,-3.574024E-2,-1.7983574E-1,-3.9914824E-2,-6.557287E-1,-3.3928573E-2,2.5164149E0,1.4660816E0,-5.6607198E-2,-1.4557756E-1,-2.9280844E-1,-9.516537E-2,-8.034224E-1,-1.5627475E-1,-2.0518051E-1,5.0466305E-1,-4.7036508E-1,5.397708E-1,9.835538E-1,-3.9263242E-1,-2.867273E-1,-2.3016062E-2,1.3420333E-2,5.0559014E-1,2.3569007E-1,-1.8294166E-1,-1.4270377E-1,-9.6314326E-2,-5.397069E-2,-9.851843E-2,-2.8157398E-1,3.8539195E-1,3.621872E-1,3.3973935E-1,2.5844898E-2,2.1966597E-1,6.498774E-2,-1.7322674E-1,-6.0019076E-2,-3.4243503E-1,-4.108214E-1,-3.972465E-2,-1.4571133E0,5.918275E-1,1.8299936E-1,1.3353678E0,-8.972053E-2,-3.7910575E-1,-2.8908172E-1,5.438517E-1,4.1375456E0,2.3681848E-1,-1.4775345E-1,6.8377415E-3,3.0796547E0,2.3271505E-2,3.1190735E-1,-9.9798135E-2,-4.6572134E-2,-4.0873066E-2,-7.87275E-2,-3.2277104E-2,-2.5581518E-1,-4.0311538E-2,-1.6096021E-1,-6.084054E-2,-6.087097E-1,-1.14578776E-1,3.4930217E-1,-2.545565E-1,-2.0524941E-2,-3.552433E-1,-3.0563658E-2,-1.1960378E-1,1.7307427E-2,-1.2151778E-1,-4.547561E-1,-7.870827E-3,-7.1370673E-1,-2.6787844E-1,4.634057E-1,1.278609E0,-2.2178783E-1,-9.939598E-2,1.4057095E-1,-1.5018603E0,-1.1359242E-3,3.6701226E-1,-5.8565393E-2,-2.0781567E-3,3.1755954E-2,1.9158729E0,-4.1682714E-1,-1.5065795E-1,-2.1205122E0,-1.3308468E-1,3.3344772E0,-1.4308852E-2,-7.2755436E-3,1.5239655E0,-2.3036867E-1,3.2855454E-1,1.0460956E-2,3.278487E-2,5.7972126E-2,3.072632E0,1.4139217E0,3.6816898E-1,4.114269E0,2.8904104E-1,2.8606865E-3,-5.2617234E-3,6.059251E-4,1.7284496E-2,2.093159E-3,-7.919081E-3,1.1737932E-2,-3.0697072E-3,-3.4022264E-3,1.3796195E-2,2.2138509E-3,-4.7214376E-3,-2.698122E-5,5.300505E-3,2.8432352E-3,-3.6951744E-3,1.5940227E-2,1.6291387E-3,-5.5452734E-3,4.9049715E-3,-5.8875415E-3,-3.462356E-3,-5.891337E-3,-9.16861E-3,9.022946E-3,5.939728E-4,-2.6567003E-3,-1.4616182E-4,6.1700237E-4,6.045643E-3,-1.0424275E-3,-6.6785114E-3,3.8931423E-3,-1.3017836E-3,5.603642E-4,1.5224953E-2,-9.0617215E-4,-3.5103317E-3,3.091009E-3,-2.0172447E-3,1.8157788E-3,7.5409855E-3,1.3015747E-2,3.917281E-2,8.939034E-3,-6.296364E-4,1.1108377E-2,-3.0138872E-3,4.5870556E-3,4.0708596E-4,2.8344532E-3,1.2404789E-2,2.881372E-4,-6.7004855E-3,4.369198E-4,3.2467481E-3,1.6164985E-2,2.833748E-3,3.756861E-3,-3.907839E-3,7.4038724E-3,3.293227E-2,2.461362E-2,5.010516E-3,7.974876E-3,2.241963E-2,5.6217103E-3,1.9956565E-2,1.650304E-4,7.122314E-3,-4.862793E-3,1.2083734E-2,1.4467587E-2,-7.4945926E-4,1.4001683E-3,-3.6264209E-3,2.8864551E-2,3.4280557E-3,-8.80134E-3,2.8453914E-3,2.3422055E-3,-2.7536498E-3,3.9440844E-2,-3.0916536E-3,4.0933588E-3,-3.0818474E-3,7.041482E-3,3.968992E-2,-2.3798193E-4,1.3109664E-2,-4.5315675E-3,2.194713E-2,-1.8542673E-3,-1.4289237E-2,3.3334102E-2,1.0567129E-2,-7.075666E-3,1.8092006E-2],"split_indices":[33,34,42,24,27,26,52,39,42,18,52,15,39,36,3,38,50,27,8,0,39,10,36,22,12,1,45,18,49,0,45,46,9,20,39,17,27,19,13,36,2,31,20,12,39,39,5,13,52,2,5,4,18,17,45,18,21,19,49,31,0,8,0,30,26,38,52,9,37,12,25,8,20,23,18,30,34,24,13,37,34,25,13,10,16,3,21,22,2,9,47,13,15,0,27,32,0,0,36,10,8,30,19,30,0,0,4,5,32,0,0,25,23,28,5,43,5,0,0,0,0,0,0,0,0,0,0,0,0,0,0,0,0,0,0,0,0,0,0,0,0,0,0,0,0,0,0,0,0,0,0,0,0,0,0,0,0,0,0,0,0,0,0,0,0,0,0,0,0,0,0,0,0,0,0,0,0,0,0,0,0,0,0,0,0,0,0,0,0,0,0,0,0,0,0,0,0,0,0,0,0,0,0,0,0,0,0,0,0,0,0,0,0,0,0],"split_type":[0,0,0,0,0,0,0,0,0,0,0,0,0,0,0,0,0,0,0,0,0,0,0,0,0,0,0,0,0,0,0,0,0,0,0,0,0,0,0,0,0,0,0,0,0,0,0,0,0,0,0,0,0,0,0,0,0,0,0,0,0,0,0,0,0,0,0,0,0,0,0,0,0,0,0,0,0,0,0,0,0,0,0,0,0,0,0,0,0,0,0,0,0,0,0,0,0,0,0,0,0,0,0,0,0,0,0,0,0,0,0,0,0,0,0,0,0,0,0,0,0,0,0,0,0,0,0,0,0,0,0,0,0,0,0,0,0,0,0,0,0,0,0,0,0,0,0,0,0,0,0,0,0,0,0,0,0,0,0,0,0,0,0,0,0,0,0,0,0,0,0,0,0,0,0,0,0,0,0,0,0,0,0,0,0,0,0,0,0,0,0,0,0,0,0,0,0,0,0,0,0,0,0,0,0,0,0,0,0,0,0,0,0,0,0],"sum_hessian":[2.1872E4,2.007E4,1.802E3,5.308E3,1.4762E4,1.46E3,3.42E2,1.845E3,3.463E3,8.124E3,6.638E3,6.25E2,8.35E2,2.76E2,6.6E1,6.6E2,1.185E3,2.074E3,1.389E3,5.204E3,2.92E3,5.94E3,6.98E2,1.47E2,4.78E2,2.06E2,6.29E2,1.36E2,1.4E2,5E0,6.1E1,5E2,1.6E2,6.63E2,5.22E2,1.37E2,1.937E3,1.115E3,2.74E2,6.02E2,4.602E3,1.411E3,1.509E3,1.272E3,4.668E3,3.75E2,3.23E2,5.9E1,8.8E1,2.95E2,1.83E2,1.42E2,6.4E1,1.24E2,5.05E2,8E0,1.28E2,4.2E1,9.8E1,5.8E1,3E0,4.95E2,5E0,5.2E1,1.08E2,5.09E2,1.54E2,3.27E2,1.95E2,3.1E1,1.06E2,1.352E3,5.85E2,2.55E2,8.6E2,2.39E2,3.5E1,5.17E2,8.5E1,4.006E3,5.96E2,1.398E3,1.3E1,1.468E3,4.1E1,1.12E3,1.52E2,4.63E2,4.205E3,2.4E2,1.35E2,5.2E1,2.71E2,1.8E1,4.1E1,8.1E1,7E0,3E0,2.92E2,1.34E2,4.9E1,1.22E2,2E1,4.2E1,2.2E1,1.9E1,1.05E2,7E0,4.98E2,3E0,5E0,6.3E1,6.5E1,3.3E1,9E0,8.1E1,1.7E1,8E0,5E1,4.91E2,4E0,3.6E1,1.6E1,9.4E1,1.4E1,5.05E2,4E0,1.16E2,3.8E1,1.93E2,1.34E2,4.8E1,1.47E2,2.6E1,5E0,7.4E1,3.2E1,8.45E2,5.07E2,1.59E2,4.26E2,4E0,2.51E2,6.67E2,1.93E2,1.98E2,4.1E1,1.8E1,1.7E1,2.7E2,2.47E2,3.1E1,5.4E1,1.385E3,2.621E3,3.23E2,2.73E2,1.302E3,9.6E1,5E0,8E0,2E1,1.448E3,3.2E1,9E0,4.16E2,7.04E2,3.8E1,1.14E2,3.15E2,1.48E2,3.727E3,4.78E2,2.9E1,2.11E2,2.6E1,1.09E2,3.8E1,1.4E1,6E0,2.65E2,3.5E1,6E0,1.6E1,6.5E1,2.35E2,5.7E1,4E0,1.3E2,7E0,4.2E1,3.6E1,8.6E1,3E0,1.7E1,3.8E1,4E0,5.1E1,5.4E1,4E0,3E0,4.42E2,5.6E1,5.8E1,5E0,5.2E1,1.3E1,6E0,2.7E1,4E0,5E0,5.9E1,2.2E1,9E0,8E0],"tree_param":{"num_deleted":"0","num_feature":"54","num_nodes":"215","size_leaf_vector":"1"}},{"base_weights":[7.396843E-4,-7.1982746E-3,8.904577E-2,-4.8092384E-2,4.0494893E-3,5.861753E-2,1.8539535E-1,-8.0886155E-2,-5.0008344E-3,-9.702165E-3,3.219002E-2,1.7364047E-1,3.630092E-2,2.3203501E-1,-3.3250846E-2,-1.9745696E-2,-1.1846415E-1,3.0863946E-2,-1.6223913E-2,4.2445026E-2,-2.2162652E-2,9.211668E-3,7.352866E-2,2.4445458E-1,-1.843067E-2,-9.147529E-2,5.464541E-2,1.665683E-1,4.0828755E-1,1.2172938E-2,-4.7758788E-2,-3.939301E-2,7.749671E-2,4.7940843E-2,-1.2638848E-1,-1.9041453E-2,5.416102E-2,2.2559147E-2,-2.6558556E-2,9.6963085E-3,7.9272985E-2,-3.554817E-2,1.1189896E-2,2.7746726E-2,-2.017507E-2,1.4085078E-1,4.9133457E-2,3.3181965E-1,1.1432224E-1,-8.481122E-2,1.21890016E-1,8.430661E-2,-1.7142022E-1,1.8498172E-1,4.3818653E-2,2.347571E-1,7.59832E-2,4.7641313E-1,6.367963E-2,1.9343647E-3,-7.623587E-2,-4.553935E-2,1.3393585E-1,4.2067703E-2,2.3364408E-1,3.230136E-1,-2.6595451E-2,-1.05093144E-1,-1.5760949E-1,-3.3811774E-2,1.80785E-1,1.0315176E-1,7.928169E-3,1.3470948E-1,8.717065E-3,-2.8894613E-2,1.9310257E-1,-1.299075E-2,6.78E-2,5.1545773E-2,1.2908019E-1,2.1298975E-3,-4.7580827E-2,4.0825075E-3,8.652233E-2,5.6997437E-2,-1.1107977E-2,7.744172E-3,-4.729382E-2,9.077352E-2,2.7223396E-1,-6.6059664E-2,5.7361722E-2,2.885509E-1,6.794026E-1,4.411992E-2,3.5474893E-1,-1.3996217E-1,-3.5009473E-3,2.8569018E-2,-2.619385E-2,1.4632061E-2,5.1762365E-2,-9.694795E-3,-7.182274E-2,3.2925516E-1,6.9293566E-2,7.453766E-4,7.720928E-2,6.512998E-1,2.0332722E-1,4.1913714E-2,4.6880347E-1,5.8415073E-1,2.0068572E-1,-1.28898835E-2,1.8242632E-1,-5.28972E-3,1.1610369E-2,-4.0162415E-3,-9.242978E-4,1.416895E-2,6.7412545E-4,-9.052849E-3,3.0080045E-3,1.8646251E-2,-1.4086209E-3,5.190816E-3,1.845808E-2,-4.266428E-3,1.1071674E-2,3.8712383E-3,-5.4744557E-3,-7.224388E-3,-9.83511E-3,-3.9421392E-4,-5.346214E-3,-6.01818E-4,1.5566932E-2,1.5821477E-2,4.270194E-3,-9.4373955E-4,3.396814E-3,1.7315699E-3,1.3402804E-2,8.254808E-3,2.5649878E-4,-9.065346E-4,-2.8941452E-3,1.92508E-2,5.096165E-5,-1.9812884E-3,1.3501707E-3,3.304353E-2,2.984671E-3,7.1065635E-3,1.9774984E-3,2.1390345E-4,7.518144E-3,3.8296988E-3,-4.0990204E-4,-2.7274142E-3,2.8174068E-4,9.03296E-4,-2.5226276E-3,2.6465146E-2,3.66029E-3,1.762488E-2,2.6024242E-3,2.7707308E-3,-1.0559879E-3,-1.8638183E-4,6.439369E-3,-6.615031E-4,-3.7067642E-3,6.926176E-3,2.652176E-4,1.630294E-2,2.2429281E-3,2.2942272E-3,-7.5450107E-3,2.1046677E-3,6.079606E-3,1.0818806E-2,2.3088818E-2,2.0045051E-2,4.38862E-2,1.1239885E-2,-4.2763908E-4,7.307398E-4,2.6167726E-2,-2.2661544E-3,-9.518198E-3,-6.21538E-3,3.3630673E-3,-6.509287E-3,1.6455128E-3,-7.421061E-3,3.5736077E-3,-6.1388942E-3,5.2799145E-3,-2.3278182E-3,2.0572448E-2,1.0874193E-2,-2.0832245E-3,1.1437478E-2,-5.489559E-4,5.1381253E-3,-8.967886E-4,7.885665E-4,5.3617842E-2,2.8451417E-2,7.4078455E-3,-7.7670286E-3,3.935357E-3,4.12738E-2,9.1851E-4,3.108471E-2,-3.4361542E-3,-1.1054467E-2,1.9368155E-2,1.3728066E-2,-4.675887E-3,-7.406053E-3,4.1580037E-3],"categories":[],"categories_nodes":[],"categories_segments":[],"categories_sizes":[],"default_left":[0,0,0,0,0,0,0,0,0,0,0,0,0,0,0,0,0,0,0,0,0,0,0,0,0,0,0,0,0,0,0,0,0,0,0,0,0,0,0,0,0,0,0,0,0,0,0,0,0,0,0,0,0,0,0,0,0,0,0,0,0,0,0,0,0,0,0,0,0,0,0,0,0,0,0,0,0,0,0,0,0,0,0,0,0,0,0,0,0,0,0,0,0,0,0,0,0,0,0,0,0,0,0,0,0,0,0,0,0,0,0,0,0,0,0,0,0,0,0,0,0,0,0,0,0,0,0,0,0,0,0,0,0,0,0,0,0,0,0,0,0,0,0,0,0,0,0,0,0,0,0,0,0,0,0,0,0,0,0,0,0,0,0,0,0,0,0,0,0,0,0,0,0,0,0,0,0,0,0,0,0,0,0,0,0,0,0,0,0,0,0,0,0,0,0,0,0,0,0,0,0,0,0,0,0,0,0,0,0,0,0,0,0,0,0,0,0,0,0,0,0,0,0,0,0],"id":5,"left_children":[1,3,5,7,9,11,13,15,17,19,21,23,25,27,29,31,33,35,37,39,41,43,45,47,49,51,53,55,57,-1,59,61,63,65,67,69,71,73,75,77,79,81,83,85,87,89,91,93,95,97,99,101,103,105,107,109,111,113,115,-1,117,119,121,123,125,127,129,131,133,135,137,139,141,143,145,147,149,151,153,155,157,159,161,163,165,167,169,171,173,175,177,179,181,183,185,187,189,191,193,-1,195,-1,197,-1,199,201,203,205,207,209,211,213,215,217,219,-1,221,-1,223,-1,-1,-1,-1,-1,-1,-1,-1,-1,-1,-1,-1,-1,-1,-1,-1,-1,-1,-1,-1,-1,-1,-1,-1,-1,-1,-1,-1,-1,-1,-1,-1,-1,-1,-1,-1,-1,-1,-1,-1,-1,-1,-1,-1,-1,-1,-1,-1,-1,-1,-1,-1,-1,-1,-1,-1,-1,-1,-1,-1,-1,-1,-1,-1,-1,-1,-1,-1,-1,-1,-1,-1,-1,-1,-1,-1,-1,-1,-1,-1,-1,-1,-1,-1,-1,-1,-1,-1,-1,-1,-1,-1,-1,-1,-1,-1,-1,-1,-1,-1,-1,-1,-1,-1,-1,-1],"loss_changes":[1.5349083E1,9.241398E0,5.2838697E0,6.1241198E0,6.098325E0,3.5206475E0,4.423271E0,5.6518974E0,7.548105E-1,6.879505E0,4.9131236E0,3.0376058E0,2.7052753E0,4.051302E0,3.2074273E-1,1.795151E0,2.0156746E0,5.2073574E-1,5.729544E-1,2.4620233E0,3.815236E0,1.8121818E0,3.028119E0,1.815217E0,5.78526E-1,2.052118E0,1.4143035E0,1.6005077E0,2.2234192E0,0E0,1.8511757E-1,8.3812845E-1,8.6425024E-1,1.443794E0,9.508114E-1,4.2817733E-1,6.900015E-1,4.6609628E-1,5.844024E-1,1.4271753E0,1.3205018E0,2.7647357E0,1.3103473E0,2.31915E0,9.74799E-1,3.2057285E0,1.2909553E0,1.2627878E0,1.1152089E0,1.8785223E-1,1.3462119E0,2.9673648E-1,2.0992589E-1,1.2623711E0,1.3403856E0,1.818265E0,1.5060337E0,2.259266E0,6.959933E-1,0E0,1.4663818E-1,7.090193E-1,4.8220435E-1,5.35684E-1,1.0680215E0,1.1340773E-1,8.3467513E-1,7.049122E-1,2.732029E-1,2.5317064E-1,2.5548273E-1,5.331893E-1,2.5540867E-1,4.3110412E-1,1.5004748E-1,3.4748548E-1,4.419681E-1,8.3089614E-1,1.4221148E0,6.670126E-1,9.1040754E-1,1.1365302E0,1.7140408E0,1.7075795E0,1.2053716E0,1.6839056E0,5.8526087E-1,8.8223124E-1,5.9607077E-1,1.4562368E0,1.6375608E0,8.7118816E-1,1.2384009E0,1.0003042E0,2.0044804E-1,5.063124E-1,8.525791E-1,1.106216E-1,1.6223508E-1,0E0,1.02625996E-1,0E0,1.723766E-1,0E0,1.9377543E-1,1.0693941E0,7.325493E-1,1.0931909E0,1.2782557E0,2.6590252E0,2.7403126E0,7.815386E-1,1.4307506E0,1.4398613E0,1.9753022E0,0E0,3.5618973E-1,0E0,1.837488E-1,0E0,0E0,0E0,0E0,0E0,0E0,0E0,0E0,0E0,0E0,0E0,0E0,0E0,0E0,0E0,0E0,0E0,0E0,0E0,0E0,0E0,0E0,0E0,0E0,0E0,0E0,0E0,0E0,0E0,0E0,0E0,0E0,0E0,0E0,0E0,0E0,0E0,0E0,0E0,0E0,0E0,0E0,0E0,0E0,0E0,0E0,0E0,0E0,0E0,0E0,0E0,0E0,0E0,0E0,0E0,0E0,0E0,0E0,0E0,0E0,0E0,0E0,0E0,0E0,0E0,0E0,0E0,0E0,0E0,0E0,0E0,0E0,0E0,0E0,0E0,0E0,0E0,0E0,0E0,0E0,0E0,0E0,0E0,0E0,0E0,0E0,0E0,0E0,0E0,0E0,0E0,0E0,0E0,0E0,0E0,0E0,0E0,0E0,0E0,0E0,0E0,0E0,0E0,0E0,0E0,0E0],"parents":[2147483647,0,0,1,1,2,2,3,3,4,4,5,5,6,6,7,7,8,8,9,9,10,10,11,11,12,12,13,13,14,14,15,15,16,16,17,17,18,18,19,19,20,20,21,21,22,22,23,23,24,24,25,25,26,26,27,27,28,28,30,30,31,31,32,32,33,33,34,34,35,35,36,36,37,37,38,38,39,39,40,40,41,41,42,42,43,43,44,44,45,45,46,46,47,47,48,48,49,49,50,50,51,51,52,52,53,53,54,54,55,55,56,56,57,57,58,58,60,60,61,61,62,62,63,63,64,64,65,65,66,66,67,67,68,68,69,69,70,70,71,71,72,72,73,73,74,74,75,75,76,76,77,77,78,78,79,79,80,80,81,81,82,82,83,83,84,84,85,85,86,86,87,87,88,88,89,89,90,90,91,91,92,92,93,93,94,94,95,95,96,96,97,97,98,98,100,100,102,102,104,104,105,105,106,106,107,107,108,108,109,109,110,110,111,111,112,112,113,113,114,114,116,116,118,118],"right_children":[2,4,6,8,10,12,14,16,18,20,22,24,26,28,30,32,34,36,38,40,42,44,46,48,50,52,54,56,58,-1,60,62,64,66,68,70,72,74,76,78,80,82,84,86,88,90,92,94,96,98,100,102,104,106,108,110,112,114,116,-1,118,120,122,124,126,128,130,132,134,136,138,140,142,144,146,148,150,152,154,156,158,160,162,164,166,168,170,172,174,176,178,180,182,184,186,188,190,192,194,-1,196,-1,198,-1,200,202,204,206,208,210,212,214,216,218,220,-1,222,-1,224,-1,-1,-1,-1,-1,-1,-1,-1,-1,-1,-1,-1,-1,-1,-1,-1,-1,-1,-1,-1,-1,-1,-1,-1,-1,-1,-1,-1,-1,-1,-1,-1,-1,-1,-1,-1,-1,-1,-1,-1,-1,-1,-1,-1,-1,-1,-1,-1,-1,-1,-1,-1,-1,-1,-1,-1,-1,-1,-1,-1,-1,-1,-1,-1,-1,-1,-1,-1,-1,-1,-1,-1,-1,-1,-1,-1,-1,-1,-1,-1,-1,-1,-1,-1,-1,-1,-1,-1,-1,-1,-1,-1,-1,-1,-1,-1,-1,-1,-1,-1,-1,-1,-1,-1,-1,-1],"split_conditions":[1.2151214E0,-1.5832017E-1,-3.0494656E-3,-1.8830332E-1,-8.148978E-2,-6.557287E-1,3.003362E-1,-4.9935557E-2,-8.679276E-1,-7.8919387E-1,-5.557746E-2,1.3455144E0,-5.2721415E-2,3.3123903E0,1.6488296E-1,-3.289242E-2,-3.1241682E-1,-9.912849E-1,-2.7301607E-1,-9.295458E-2,-1.5189506E-1,-2.0511782E-2,-2.2208321E-1,-1.0494751E-1,1.5166253E0,2.8282744E-1,-3.0397606E-1,2.2461135E0,3.6535702E0,1.2172938E-2,4.4170976E-1,3.48324E-1,1.7061357E-1,-5.9080087E-2,-1.2472527E-1,5.7701194E-1,-2.5659988E-2,-2.5210798E-1,2.5646422E0,-1.3676685E-1,-6.0257055E-2,-1.8523891E-1,1.12789655E-2,4.843308E-2,-1.2328439E-1,4.660006E-3,-9.9870086E-2,2.0258214E0,3.966735E-1,-9.7438514E-1,1.9988972E0,-3.2697034E-1,8.2066216E-2,-4.795091E-2,3.6065257E-1,-5.713845E-1,3.274913E0,4.114269E0,7.002752E-2,1.9343647E-3,1.8598318E-1,-1.6433826E-1,-6.590946E-2,-1.3294919E0,2.1572487E-1,9.490787E-2,4.2866853E-1,-3.6235246E-1,3.0145246E-1,-5.474496E-2,-8.900392E-2,-1.07981764E-1,-1.8853E-1,-5.505508E-1,-2.8212902E-1,3.7476897E-1,3.0861695E0,-7.903202E-2,-2.0752665E-1,-1.5327397E-2,-1.0899893E0,-5.9174076E-2,-4.055514E-2,5.390631E-1,-8.814296E-1,-1.67662E-1,-1.2260425E0,-3.754132E-2,-6.132905E-2,-5.474496E-2,7.1078855E-1,4.7971252E-1,-6.986338E-2,5.4630388E-2,-1.4303087E-2,-8.9334756E-2,-2.3728402E-2,1.6950431E0,1.5645219E0,2.8569018E-2,-1.2270974E0,1.4632061E-2,-1.4030691E-2,-9.694795E-3,1.3381469E0,-4.471702E-2,1.4131222E0,-3.133289E-1,2.462911E0,5.9165854E-2,-3.2887027E-1,-7.1374424E-2,2.3185847E0,1.4379047E0,1.7006906E0,-1.28898835E-2,3.2240102E-1,-5.28972E-3,1.3055848E0,-4.0162415E-3,-9.242978E-4,1.416895E-2,6.7412545E-4,-9.052849E-3,3.0080045E-3,1.8646251E-2,-1.4086209E-3,5.190816E-3,1.845808E-2,-4.266428E-3,1.1071674E-2,3.8712383E-3,-5.4744557E-3,-7.224388E-3,-9.83511E-3,-3.9421392E-4,-5.346214E-3,-6.01818E-4,1.5566932E-2,1.5821477E-2,4.270194E-3,-9.4373955E-4,3.396814E-3,1.7315699E-3,1.3402804E-2,8.254808E-3,2.5649878E-4,-9.065346E-4,-2.8941452E-3,1.92508E-2,5.096165E-5,-1.9812884E-3,1.3501707E-3,3.304353E-2,2.984671E-3,7.1065635E-3,1.9774984E-3,2.1390345E-4,7.518144E-3,3.8296988E-3,-4.0990204E-4,-2.7274142E-3,2.8174068E-4,9.03296E-4,-2.5226276E-3,2.6465146E-2,3.66029E-3,1.762488E-2,2.6024242E-3,2.7707308E-3,-1.0559879E-3,-1.8638183E-4,6.439369E-3,-6.615031E-4,-3.7067642E-3,6.926176E-3,2.652176E-4,1.630294E-2,2.2429281E-3,2.2942272E-3,-7.5450107E-3,2.1046677E-3,6.079606E-3,1.0818806E-2,2.3088818E-2,2.0045051E-2,4.38862E-2,1.1239885E-2,-4.2763908E-4,7.307398E-4,2.6167726E-2,-2.2661544E-3,-9.518198E-3,-6.21538E-3,3.3630673E-3,-6.509287E-3,1.6455128E-3,-7.421061E-3,3.5736077E-3,-6.1388942E-3,5.2799145E-3,-2.3278182E-3,2.0572448E-2,1.0874193E-2,-2.0832245E-3,1.1437478E-2,-5.489559E-4,5.1381253E-3,-8.967886E-4,7.885665E-4,5.3617842E-2,2.8451417E-2,7.4078455E-3,-7.7670286E-3,3.935357E-3,4.12738E-2,9.1851E-4,3.108471E-2,-3.4361542E-3,-1.1054467E-2,1.9368155E-2,1.3728066E-2,-4.675887E-3,-7.406053E-3,4.1580037E-3],"split_indices":[36,34,42,41,9,15,52,25,36,36,38,2,34,35,37,11,27,2,19,27,18,24,19,50,40,30,19,4,9,0,32,18,9,17,19,27,31,27,41,18,32,11,32,19,11,11,41,3,20,15,41,19,4,43,12,6,36,43,42,0,45,47,17,0,10,1,22,12,19,43,7,25,19,3,10,0,41,43,25,16,40,25,52,36,17,32,40,51,38,43,40,1,7,5,16,46,6,36,35,0,0,0,16,0,3,38,30,26,29,11,10,25,33,37,8,0,6,0,8,0,0,0,0,0,0,0,0,0,0,0,0,0,0,0,0,0,0,0,0,0,0,0,0,0,0,0,0,0,0,0,0,0,0,0,0,0,0,0,0,0,0,0,0,0,0,0,0,0,0,0,0,0,0,0,0,0,0,0,0,0,0,0,0,0,0,0,0,0,0,0,0,0,0,0,0,0,0,0,0,0,0,0,0,0,0,0,0,0,0,0,0,0,0,0,0,0,0,0,0,0,0,0,0,0,0],"split_type":[0,0,0,0,0,0,0,0,0,0,0,0,0,0,0,0,0,0,0,0,0,0,0,0,0,0,0,0,0,0,0,0,0,0,0,0,0,0,0,0,0,0,0,0,0,0,0,0,0,0,0,0,0,0,0,0,0,0,0,0,0,0,0,0,0,0,0,0,0,0,0,0,0,0,0,0,0,0,0,0,0,0,0,0,0,0,0,0,0,0,0,0,0,0,0,0,0,0,0,0,0,0,0,0,0,0,0,0,0,0,0,0,0,0,0,0,0,0,0,0,0,0,0,0,0,0,0,0,0,0,0,0,0,0,0,0,0,0,0,0,0,0,0,0,0,0,0,0,0,0,0,0,0,0,0,0,0,0,0,0,0,0,0,0,0,0,0,0,0,0,0,0,0,0,0,0,0,0,0,0,0,0,0,0,0,0,0,0,0,0,0,0,0,0,0,0,0,0,0,0,0,0,0,0,0,0,0,0,0,0,0,0,0,0,0,0,0,0,0,0,0,0,0,0,0],"sum_hessian":[2.1895E4,2.009E4,1.805E3,4.333E3,1.5757E4,1.373E3,4.32E2,2.46E3,1.873E3,1.0585E4,5.172E3,2.22E2,1.151E3,3.56E2,7.6E1,9.37E2,1.523E3,4.46E2,1.427E3,2.041E3,8.544E3,3.325E3,1.847E3,1.62E2,6E1,1.44E2,1.007E3,2.61E2,9.5E1,3E0,7.3E1,7.8E2,1.57E2,6.9E1,1.454E3,1.42E2,3.04E2,3E2,1.127E3,1.081E3,9.6E2,6.097E3,2.447E3,2.039E3,1.286E3,4.9E2,1.357E3,9.6E1,6.6E1,4.1E1,1.9E1,4.5E1,9.9E1,7.6E1,9.31E2,1.48E2,1.13E2,7.9E1,1.6E1,1.8E1,5.5E1,7.54E2,2.6E1,1.29E2,2.8E1,1.4E1,5.5E1,8.67E2,5.87E2,1.33E2,9E0,1.47E2,1.57E2,3.2E1,2.68E2,1.116E3,1.1E1,7.78E2,3.03E2,6.18E2,3.42E2,1.476E3,4.621E3,2.237E3,2.1E2,1.163E3,8.76E2,6.34E2,6.52E2,3.56E2,1.34E2,9E1,1.267E3,8.7E1,9E0,5.2E1,1.4E1,2.4E1,1.7E1,4E0,1.5E1,5E0,4E1,8E1,1.9E1,3.3E1,4.3E1,4.07E2,5.24E2,9E0,1.39E2,1.05E2,8E0,5.6E1,2.3E1,4E0,1.2E1,4.1E1,1.4E1,3.29E2,4.25E2,1.1E1,1.5E1,9E0,1.2E2,1.8E1,1E1,3E0,1.1E1,4.5E1,1E1,2E1,8.47E2,4.43E2,1.44E2,9.9E1,3.4E1,4E0,5E0,1E1,1.37E2,1.09E2,4.8E1,1.9E1,1.3E1,5E0,2.63E2,8.15E2,3.01E2,5E0,6E0,4.67E2,3.11E2,3E0,3E2,7.1E1,5.47E2,5E1,2.92E2,1.79E2,1.297E3,4.086E3,5.35E2,1.781E3,4.56E2,5E0,2.05E2,1.8E1,1.145E3,1.14E2,7.62E2,5.8E2,5.4E1,2.88E2,3.64E2,2.28E2,1.28E2,1.08E2,2.6E1,3.9E1,5.1E1,1.025E3,2.42E2,6.3E1,2.4E1,5E0,4E0,1.1E1,4.1E1,5E0,9E0,9E0,1.5E1,6E0,1.1E1,5E0,1E1,3E0,3.7E1,1.5E1,4E0,6E0,2.7E1,1.8E1,2.5E1,1.9E1,3.88E2,4.13E2,1.11E2,4E0,5E0,1.7E1,1.22E2,1.6E1,8.9E1,4E0,4E0,5.3E1,3E0,7E0,1.6E1,9E0,3E0,4E0,1E1],"tree_param":{"num_deleted":"0","num_feature":"54","num_nodes":"225","size_leaf_vector":"1"}},{"base_weights":[-1.607393E-4,-7.884539E-3,8.5983135E-2,-4.324537E-2,4.844265E-3,5.8384527E-2,2.0322756E-1,4.7256515E-4,-7.275893E-2,-8.546568E-3,3.244256E-2,1.11317605E-1,1.7308006E-2,2.5908536E-1,-2.565648E-2,4.206499E-2,-2.0484738E-2,-1.6840387E-2,-1.0732438E-1,2.3647055E-2,-2.551638E-2,1.0976574E-1,1.983073E-2,-8.5917686E-4,1.4654845E-1,-7.641655E-2,4.9440116E-2,1.8702205E-1,4.0758818E-1,1.4109581E-2,-4.930623E-2,1.8640794E-2,1.0380074E-1,-4.4627592E-2,1.0856131E-2,1.0088311E-2,-2.6564209E-2,2.0258654E-2,-1.1500692E-1,4.3204725E-2,-1.2252494E-2,-4.198564E-2,3.6951175E-3,1.9160393E-1,4.83678E-2,2.472718E-3,4.822514E-2,1.4117825E-1,-3.3804987E-2,1.8224588E-1,6.0997274E-2,-1.53645575E-2,-1.9321948E-1,6.358191E-2,-6.654294E-2,2.8051773E-1,7.633139E-2,4.862431E-1,1.6074178E-1,3.5777574E-3,-7.301306E-2,1.3709237E-2,2.1982392E-2,-3.4348145E-2,1.6311328E-1,-4.701299E-2,1.4023282E-2,-9.456739E-2,2.1904409E-2,5.553421E-2,-2.2969465E-3,-5.4920238E-2,-1.3795382E-2,2.9614997E-1,-3.9290648E-2,-1.0631623E-1,-1.825684E-1,4.0624384E-2,4.4652244E-1,-3.8987797E-2,6.888543E-2,-6.0027637E-2,-1.5118857E-2,-1.3577834E-2,3.5277866E-2,8.5817106E-2,2.8906095E-1,3.193411E-2,1.7575009E-1,2.3451868E-1,7.448112E-4,3.2600415E-1,4.497659E-2,-5.58541E-2,2.6468992E-1,-5.4999776E-2,2.8304374E-1,2.2444993E-1,9.6239105E-2,2.7678777E-2,4.659082E-2,-4.1998222E-2,1.550585E-1,-1.5230143E-1,-1.2987762E-2,-2.7121384E-2,8.626792E-2,-3.4943946E-2,-9.755615E-3,4.803707E-1,1.5747194E-1,2.3165476E-1,2.5749567E-3,5.3779566E-1,-3.2464214E-2,4.7174054E-1,-7.2881766E-2,-4.382868E-3,6.5977476E-3,1.2446857E-3,-3.146287E-3,-5.8752787E-3,2.92981E-3,-2.1797658E-3,9.724144E-3,-3.1141785E-3,-9.3617324E-5,-1.0093553E-2,-2.9926968E-3,4.303194E-3,3.0890624E-5,1.2786192E-3,9.786093E-3,-3.0999614E-3,3.7638078E-4,-3.0782067E-3,1.6599922E-3,2.3739967E-5,-2.181445E-3,1.6988266E-2,4.8675435E-3,-5.39327E-3,7.577365E-3,-6.3225813E-3,-3.9577074E-3,-9.947441E-3,-2.4006674E-3,1.175614E-3,4.5245197E-3,5.4266076E-3,3.4322433E-2,1.8853588E-3,-2.4735758E-3,4.646847E-3,-3.128035E-3,3.465262E-3,-3.1819236E-3,8.3744206E-5,-3.1494375E-3,-1.508352E-3,1.2525475E-3,2.5260986E-3,-1.8794164E-3,1.1940751E-2,-7.9955667E-4,1.644679E-2,3.3006088E-3,-1.2133209E-3,3.2264148E-3,1.6336933E-2,4.9548916E-4,3.1088848E-2,-5.1824437E-3,2.4472753E-4,-4.4451747E-3,2.0204127E-2,2.1091928E-3,1.6514199E-3,5.8258483E-3,3.3964363E-3,-7.6987254E-3,1.9388115E-2,4.9266405E-3,1.0785562E-3,-5.4844418E-3,-5.0996747E-3,2.672324E-2,1.747146E-2,9.459043E-3,2.674669E-3,2.2756001E-2,1.5386518E-3,1.986811E-2,1.7456126E-3,-3.7491403E-3,2.6043213E-3,2.640911E-2,-1.1030748E-2,-2.4523723E-3,8.0915634E-4,-3.4584147E-3,3.7578158E-3,1.33190425E-2,-3.613319E-3,8.192238E-3,1.576476E-2,5.831886E-2,5.0178976E-3,2.2792585E-2,2.5342122E-2,6.6782646E-3,-6.5151155E-3,4.7389655E-3,1.36504E-2,3.4008145E-2,1.052398E-2,-1.3364598E-2,8.183234E-3,3.249235E-2,2.7080467E-3,-7.4739465E-3],"categories":[],"categories_nodes":[],"categories_segments":[],"categories_sizes":[],"default_left":[0,0,0,0,0,0,0,0,0,0,0,0,0,0,0,0,0,0,0,0,0,0,0,0,0,0,0,0,0,0,0,0,0,0,0,0,0,0,0,0,0,0,0,0,0,0,0,0,0,0,0,0,0,0,0,0,0,0,0,0,0,0,0,0,0,0,0,0,0,0,0,0,0,0,0,0,0,0,0,0,0,0,0,0,0,0,0,0,0,0,0,0,0,0,0,0,0,0,0,0,0,0,0,0,0,0,0,0,0,0,0,0,0,0,0,0,0,0,0,0,0,0,0,0,0,0,0,0,0,0,0,0,0,0,0,0,0,0,0,0,0,0,0,0,0,0,0,0,0,0,0,0,0,0,0,0,0,0,0,0,0,0,0,0,0,0,0,0,0,0,0,0,0,0,0,0,0,0,0,0,0,0,0,0,0,0,0,0,0,0,0,0,0,0,0,0,0,0,0,0,0,0,0,0,0,0,0,0,0,0,0,0,0,0,0,0,0,0,0,0,0],"id":6,"left_children":[1,3,5,7,9,11,13,15,17,19,21,23,25,27,29,31,33,35,37,39,41,43,45,47,49,51,53,55,57,-1,59,61,63,65,67,69,71,73,75,77,79,81,83,85,87,89,91,93,95,97,99,101,103,105,107,109,111,113,115,-1,117,119,-1,121,123,125,-1,127,129,131,133,135,137,139,141,143,145,147,149,151,153,155,157,159,161,163,165,167,169,171,173,175,177,179,181,183,185,187,189,-1,191,193,195,197,-1,199,201,203,-1,205,207,209,211,213,215,217,219,-1,-1,-1,-1,-1,-1,-1,-1,-1,-1,-1,-1,-1,-1,-1,-1,-1,-1,-1,-1,-1,-1,-1,-1,-1,-1,-1,-1,-1,-1,-1,-1,-1,-1,-1,-1,-1,-1,-1,-1,-1,-1,-1,-1,-1,-1,-1,-1,-1,-1,-1,-1,-1,-1,-1,-1,-1,-1,-1,-1,-1,-1,-1,-1,-1,-1,-1,-1,-1,-1,-1,-1,-1,-1,-1,-1,-1,-1,-1,-1,-1,-1,-1,-1,-1,-1,-1,-1,-1,-1,-1,-1,-1,-1,-1,-1,-1,-1,-1,-1,-1,-1,-1,-1],"loss_changes":[1.45307665E1,9.021135E0,5.8028374E0,6.844925E0,5.446914E0,3.1638641E0,4.3791018E0,1.8653532E0,6.119526E0,5.4222803E0,4.6933475E0,2.51365E0,2.4762754E0,2.8667145E0,5.089898E-1,1.0349263E0,1.0772089E0,3.1736812E-1,1.9205074E0,2.4059637E0,3.12677E0,3.3824034E0,2.0408576E0,7.207418E-1,1.4669981E0,1.4945524E0,1.008039E0,1.9138689E0,1.6498365E0,0E0,1.8859984E-1,1.0756834E0,1.6198132E0,6.3666844E-1,7.242153E-1,1.813682E-1,3.2148755E-1,1.851699E0,1.0644817E0,2.2901273E0,2.6253052E0,2.0136318E0,1.279195E0,2.954687E0,8.0451834E-1,1.0306774E0,1.4029753E0,7.205221E-1,8.550101E-1,1.2161732E0,9.960766E-1,6.3743186E-1,1.5645981E-1,1.1258414E0,2.653804E-1,2.4080524E0,9.9608403E-1,1.8090878E0,1.7054837E0,0E0,1.7365387E-1,4.4384152E-1,0E0,4.7062615E-1,9.033208E-1,5.506531E-1,0E0,2.0768523E-1,7.6749074E-1,2.8481406E-1,1.494501E-1,1.6363108E-1,2.6184452E-1,1.4033735E-1,1.2334065E0,8.858433E-1,4.510975E-1,1.8794262E0,1.0607965E0,7.335495E-1,9.542575E-1,1.1653728E0,1.3434467E0,9.722402E-1,9.227356E-1,2.1845217E0,1.3123922E0,6.317087E-1,1.0985217E0,2.552652E0,9.5019484E-1,3.8183856E-1,1.3244774E0,1.5620676E-1,3.2988107E-1,4.965018E-1,8.2896364E-1,9.3889713E-1,1.7244854E0,0E0,7.701E-1,3.0957788E-1,7.02494E-1,3.2070065E-1,0E0,2.0140964E-1,8.545668E-1,4.1990077E-1,0E0,3.9354763E0,1.0449178E0,6.8810785E-1,7.474618E-1,2.1138344E0,4.5560914E-1,4.423461E-1,1.4433147E-1,0E0,0E0,0E0,0E0,0E0,0E0,0E0,0E0,0E0,0E0,0E0,0E0,0E0,0E0,0E0,0E0,0E0,0E0,0E0,0E0,0E0,0E0,0E0,0E0,0E0,0E0,0E0,0E0,0E0,0E0,0E0,0E0,0E0,0E0,0E0,0E0,0E0,0E0,0E0,0E0,0E0,0E0,0E0,0E0,0E0,0E0,0E0,0E0,0E0,0E0,0E0,0E0,0E0,0E0,0E0,0E0,0E0,0E0,0E0,0E0,0E0,0E0,0E0,0E0,0E0,0E0,0E0,0E0,0E0,0E0,0E0,0E0,0E0,0E0,0E0,0E0,0E0,0E0,0E0,0E0,0E0,0E0,0E0,0E0,0E0,0E0,0E0,0E0,0E0,0E0,0E0,0E0,0E0,0E0,0E0,0E0,0E0,0E0,0E0,0E0,0E0,0E0,0E0,0E0],"parents":[2147483647,0,0,1,1,2,2,3,3,4,4,5,5,6,6,7,7,8,8,9,9,10,10,11,11,12,12,13,13,14,14,15,15,16,16,17,17,18,18,19,19,20,20,21,21,22,22,23,23,24,24,25,25,26,26,27,27,28,28,30,30,31,31,32,32,33,33,34,34,35,35,36,36,37,37,38,38,39,39,40,40,41,41,42,42,43,43,44,44,45,45,46,46,47,47,48,48,49,49,50,50,51,51,52,52,53,53,54,54,55,55,56,56,57,57,58,58,60,60,61,61,63,63,64,64,65,65,67,67,68,68,69,69,70,70,71,71,72,72,73,73,74,74,75,75,76,76,77,77,78,78,79,79,80,80,81,81,82,82,83,83,84,84,85,85,86,86,87,87,88,88,89,89,90,90,91,91,92,92,93,93,94,94,95,95,96,96,97,97,98,98,100,100,101,101,102,102,103,103,105,105,106,106,107,107,109,109,110,110,111,111,112,112,113,113,114,114,115,115,116,116],"right_children":[2,4,6,8,10,12,14,16,18,20,22,24,26,28,30,32,34,36,38,40,42,44,46,48,50,52,54,56,58,-1,60,62,64,66,68,70,72,74,76,78,80,82,84,86,88,90,92,94,96,98,100,102,104,106,108,110,112,114,116,-1,118,120,-1,122,124,126,-1,128,130,132,134,136,138,140,142,144,146,148,150,152,154,156,158,160,162,164,166,168,170,172,174,176,178,180,182,184,186,188,190,-1,192,194,196,198,-1,200,202,204,-1,206,208,210,212,214,216,218,220,-1,-1,-1,-1,-1,-1,-1,-1,-1,-1,-1,-1,-1,-1,-1,-1,-1,-1,-1,-1,-1,-1,-1,-1,-1,-1,-1,-1,-1,-1,-1,-1,-1,-1,-1,-1,-1,-1,-1,-1,-1,-1,-1,-1,-1,-1,-1,-1,-1,-1,-1,-1,-1,-1,-1,-1,-1,-1,-1,-1,-1,-1,-1,-1,-1,-1,-1,-1,-1,-1,-1,-1,-1,-1,-1,-1,-1,-1,-1,-1,-1,-1,-1,-1,-1,-1,-1,-1,-1,-1,-1,-1,-1,-1,-1,-1,-1,-1,-1,-1,-1,-1,-1,-1],"split_conditions":[2.7421758E-1,-1.5332226E-1,1.1632475E-2,-4.9935557E-2,-8.148978E-2,2.5013444E-1,3.003362E-1,-1.6365358E-1,-2.3752081E-1,-3.058826E-2,-2.3251265E-1,-1.9448186E-1,-3.3928573E-2,3.3123903E0,2.63883E-1,-3.0457078E-2,-1.4557756E-1,-2.7301607E-1,-6.221719E-2,-1.117909E-1,-4.9626213E-2,-1.7602964E-1,-5.557746E-2,-2.6010078E-1,-6.2228464E-2,7.941453E-1,2.3150632E-1,2.2461135E0,4.114269E0,1.4109581E-2,-1.9134526E-1,2.4549793E-1,-1.7318131E-1,-4.6572134E-2,-9.4787663E-1,-9.607633E-1,-4.0900107E-2,-2.4252154E-1,2.4114908E-1,1.3328902E-2,-4.5449276E-2,-2.218545E-1,-2.4532145E-2,5.8395218E-2,9.477942E-1,-5.0514853E-1,-2.8945276E-1,1.5640395E0,2.856105E-1,7.041391E-1,-8.6123085E-1,1.9087568E-1,2.158209E0,-3.9263242E-1,-7.53396E-3,-3.4725662E-2,-3.8673203E-2,4.6681812E-1,1.2701195E-1,3.5777574E-3,5.0559014E-1,1.9062333E-1,2.1982392E-2,-1.563739E-1,-1.7883085E-1,-1.5208569E-1,1.4023282E-2,-2.8589427E-1,-2.3565218E-1,-3.6771864E-2,-7.555079E-2,1.0016645E0,5.3580034E-1,-5.8747387E-1,3.0125862E-2,-1.6468287E-1,2.0458493E0,-4.504368E-2,-1.2151778E-1,-2.6764706E-1,-8.85272E-2,-3.0667362E-1,2.073514E-1,-1.1810519E-1,1.2115462E0,-3.5166636E-1,-4.307416E-2,-7.558877E-2,1.1582154E-1,2.6849145E-1,2.8435066E-1,-1.5114795E-1,-1.4710639E-2,-4.9468625E-1,-1.3404855E-1,-2.3569666E-1,-4.40034E-2,-2.3251265E-1,2.3015623E0,2.7678777E-2,8.8457024E-1,-2.1205122E0,1.6129038E0,3.51097E-1,-1.2987762E-2,2.7157077E-1,-8.793109E-3,2.379895E0,-9.755615E-3,2.4999542E0,3.4953406E-1,1.013696E0,2.5844898E-2,-2.3016062E-2,2.7679453E0,2.1776626E0,3.3344772E0,-4.382868E-3,6.5977476E-3,1.2446857E-3,-3.146287E-3,-5.8752787E-3,2.92981E-3,-2.1797658E-3,9.724144E-3,-3.1141785E-3,-9.3617324E-5,-1.0093553E-2,-2.9926968E-3,4.303194E-3,3.0890624E-5,1.2786192E-3,9.786093E-3,-3.0999614E-3,3.7638078E-4,-3.0782067E-3,1.6599922E-3,2.3739967E-5,-2.181445E-3,1.6988266E-2,4.8675435E-3,-5.39327E-3,7.577365E-3,-6.3225813E-3,-3.9577074E-3,-9.947441E-3,-2.4006674E-3,1.175614E-3,4.5245197E-3,5.4266076E-3,3.4322433E-2,1.8853588E-3,-2.4735758E-3,4.646847E-3,-3.128035E-3,3.465262E-3,-3.1819236E-3,8.3744206E-5,-3.1494375E-3,-1.508352E-3,1.2525475E-3,2.5260986E-3,-1.8794164E-3,1.1940751E-2,-7.9955667E-4,1.644679E-2,3.3006088E-3,-1.2133209E-3,3.2264148E-3,1.6336933E-2,4.9548916E-4,3.1088848E-2,-5.1824437E-3,2.4472753E-4,-4.4451747E-3,2.0204127E-2,2.1091928E-3,1.6514199E-3,5.8258483E-3,3.3964363E-3,-7.6987254E-3,1.9388115E-2,4.9266405E-3,1.0785562E-3,-5.4844418E-3,-5.0996747E-3,2.672324E-2,1.747146E-2,9.459043E-3,2.674669E-3,2.2756001E-2,1.5386518E-3,1.986811E-2,1.7456126E-3,-3.7491403E-3,2.6043213E-3,2.640911E-2,-1.1030748E-2,-2.4523723E-3,8.0915634E-4,-3.4584147E-3,3.7578158E-3,1.33190425E-2,-3.613319E-3,8.192238E-3,1.576476E-2,5.831886E-2,5.0178976E-3,2.2792585E-2,2.5342122E-2,6.6782646E-3,-6.5151155E-3,4.7389655E-3,1.36504E-2,3.4008145E-2,1.052398E-2,-1.3364598E-2,8.183234E-3,3.249235E-2,2.7080467E-3,-7.4739465E-3],"split_indices":[33,34,42,25,9,26,52,39,36,37,10,9,39,35,34,37,50,19,32,39,32,19,38,19,47,22,8,4,43,0,2,7,9,38,4,6,52,10,19,31,27,18,31,2,3,38,18,3,19,2,11,4,1,45,42,18,52,7,5,0,45,19,0,47,8,20,0,11,27,25,32,1,0,30,12,47,2,20,13,19,50,12,3,10,40,12,39,27,28,10,35,21,31,20,50,18,28,10,3,0,27,30,3,5,0,39,37,21,0,35,47,2,31,49,4,50,30,0,0,0,0,0,0,0,0,0,0,0,0,0,0,0,0,0,0,0,0,0,0,0,0,0,0,0,0,0,0,0,0,0,0,0,0,0,0,0,0,0,0,0,0,0,0,0,0,0,0,0,0,0,0,0,0,0,0,0,0,0,0,0,0,0,0,0,0,0,0,0,0,0,0,0,0,0,0,0,0,0,0,0,0,0,0,0,0,0,0,0,0,0,0,0,0,0,0,0,0,0,0,0,0],"split_type":[0,0,0,0,0,0,0,0,0,0,0,0,0,0,0,0,0,0,0,0,0,0,0,0,0,0,0,0,0,0,0,0,0,0,0,0,0,0,0,0,0,0,0,0,0,0,0,0,0,0,0,0,0,0,0,0,0,0,0,0,0,0,0,0,0,0,0,0,0,0,0,0,0,0,0,0,0,0,0,0,0,0,0,0,0,0,0,0,0,0,0,0,0,0,0,0,0,0,0,0,0,0,0,0,0,0,0,0,0,0,0,0,0,0,0,0,0,0,0,0,0,0,0,0,0,0,0,0,0,0,0,0,0,0,0,0,0,0,0,0,0,0,0,0,0,0,0,0,0,0,0,0,0,0,0,0,0,0,0,0,0,0,0,0,0,0,0,0,0,0,0,0,0,0,0,0,0,0,0,0,0,0,0,0,0,0,0,0,0,0,0,0,0,0,0,0,0,0,0,0,0,0,0,0,0,0,0,0,0,0,0,0,0,0,0,0,0,0,0,0,0],"sum_hessian":[2.1837E4,2.0041E4,1.796E3,5.304E3,1.4737E4,1.455E3,3.41E2,2.138E3,3.166E3,9.923E3,4.814E3,6.35E2,8.2E2,2.74E2,6.7E1,7.16E2,1.422E3,1.21E3,1.956E3,3.425E3,6.498E3,6.74E2,4.14E3,1.52E2,4.83E2,2.09E2,6.11E2,1.86E2,8.8E1,4E0,6.3E1,5.2E2,1.96E2,8.03E2,6.19E2,3.21E2,8.89E2,1.11E2,1.845E3,2.217E3,1.208E3,4.155E3,2.343E3,2.88E2,3.86E2,2.57E3,1.57E3,2.8E1,1.24E2,3.4E2,1.43E2,1.38E2,7.1E1,5.45E2,6.6E1,1E2,8.6E1,6.6E1,2.2E1,1E1,5.3E1,5.15E2,5E0,5.9E1,1.37E2,7.98E2,5E0,5.8E1,5.61E2,6.8E1,2.53E2,2.75E2,6.14E2,1.9E1,9.2E1,1.637E3,2.08E2,2.204E3,1.3E1,9.09E2,2.99E2,2.485E3,1.67E3,1.515E3,8.28E2,1.39E2,1.49E2,3.43E2,4.3E1,1.8E1,2.552E3,1.7E1,1.553E3,1.1E1,1.7E1,1.17E2,7E0,2.27E2,1.13E2,3E0,1.4E2,1.2E2,1.8E1,4.6E1,2.5E1,1.09E2,4.36E2,5.4E1,1.2E1,3.7E1,6.3E1,2.7E1,5.9E1,6E1,6E0,9E0,1.3E1,5E1,3E0,4.5E2,6.5E1,3.1E1,2.8E1,1.8E1,1.19E2,5.96E2,2.02E2,1.3E1,4.5E1,1.39E2,4.22E2,5.7E1,1.1E1,3.5E1,2.18E2,2.56E2,1.9E1,4.16E2,1.98E2,1.5E1,4E0,6.8E1,2.4E1,9.38E2,6.99E2,1.85E2,2.3E1,1.642E3,5.62E2,6E0,7E0,1.09E2,8E2,2.53E2,4.6E1,6.7E1,2.418E3,1.237E3,4.33E2,1.06E3,4.55E2,6.85E2,1.43E2,5.5E1,8.4E1,1.26E2,2.3E1,1.26E2,2.17E2,2.2E1,2.1E1,8E0,1E1,2.44E3,1.12E2,1.3E1,4E0,1.332E3,2.21E2,5E0,6E0,9E0,8E0,4.9E1,6.8E1,3E0,4E0,4.8E1,1.79E2,1.02E2,1.1E1,1.35E2,5E0,3.6E1,8.4E1,1.5E1,3E0,2.7E1,1.9E1,5.4E1,5.5E1,4.12E2,2.4E1,4.6E1,8E0,3.1E1,6E0,5.4E1,9E0,6E0,2.1E1,2.4E1,3.5E1,2.2E1,3.8E1,3E0,3E0,4E0,5E0,5E0,8E0],"tree_param":{"num_deleted":"0","num_feature":"54","num_nodes":"221","size_leaf_vector":"1"}},{"base_weights":[1.4901733E-4,-7.013413E-3,8.46589E-2,-4.071207E-2,4.873246E-3,5.6744304E-2,1.7198272E-1,7.133553E-4,-6.8730325E-2,-8.174978E-3,3.0895248E-2,7.239605E-2,-7.608138E-2,2.2699367E-1,8.45542E-3,2.1219926E-2,-2.7215652E-2,-1.8260987E-2,-1.0217933E-1,-2.6270477E-2,2.2559071E-2,9.107741E-3,6.580066E-2,1.4020409E-1,3.822258E-2,-1.0291743E-3,-1.234235E-1,1.14001215E-1,3.2491437E-1,1.0996735E-1,-6.372168E-2,2.2904274E-1,1.5980475E-2,-5.2419554E-2,2.0058157E-2,-1.9810535E-2,1.9760561E-1,5.4782316E-2,-1.0907947E-1,4.5217336E-3,-3.9539758E-2,1.10747695E-1,1.5563625E-2,2.2926139E-2,-1.4750621E-2,1.288435E-1,4.1953217E-2,2.4946085E-1,8.79416E-2,-1.4384115E-1,6.306627E-2,8.943613E-2,-1.018932E-1,-1.4109272E-1,6.6624316E-3,4.18006E-1,7.832126E-2,4.0933427E-1,1.3359159E-1,-3.2514303E-3,1.6334936E-1,-1.4756851E-1,-1.0489741E-2,-1.3835536E-3,1.4074618E-2,9.175433E-2,3.911713E-3,-5.787734E-2,9.012896E-2,8.5186034E-2,-1.0918244E-2,1.0298227E-3,-3.2499652E-2,2.1279497E-2,6.340895E-4,-1.0736127E-1,1.3940945E-1,-9.209775E-2,-1.4580585E-1,3.1247448E-2,-2.0933378E-2,-5.2213166E-2,-3.0601567E-3,1.00220084E-1,3.9288934E-2,2.8559625E-2,-1.6375398E-2,5.0103392E-2,-1.1333136E-2,9.71149E-3,-3.8970146E-2,1.7066951E-1,5.837396E-3,2.1045314E-2,9.446082E-2,3.1884894E-1,8.767559E-3,2.9654628E-2,1.8022428E-1,7.316779E-3,-1.6199136E-1,1.466615E-2,9.336809E-2,2.132743E-1,1.3033185E-2,-8.451049E-3,1.0445664E-1,-9.861739E-3,-7.289913E-2,-3.8145934E-3,8.545271E-3,3.8633168E-2,4.903132E-2,4.537685E-1,4.3542415E-2,7.161342E-2,4.5589903E-1,-1.9377945E-1,2.366474E-1,2.1950458E-1,-2.3296587E-3,-5.2202507E-3,-1.686424E-2,1.121208E-1,-5.1010262E-2,1.2156058E-4,9.632315E-3,-1.6120299E-3,1.1513237E-3,-4.6626115E-3,-2.2257103E-3,-1.6296359E-3,1.3550751E-2,8.885518E-3,-8.314896E-4,2.4868972E-3,-1.865286E-3,-9.789622E-5,6.9480375E-3,-8.9519325E-4,-3.66614E-3,-7.1752295E-3,1.0784667E-3,-9.529905E-3,1.1029395E-2,5.127722E-4,-4.8891543E-3,4.8995297E-3,-7.4949497E-3,-7.2146946E-4,2.5917822E-3,1.6046709E-3,-1.9772567E-3,-3.690176E-5,-2.9806625E-3,-7.805762E-4,1.8789072E-3,-4.2035445E-3,5.9802905E-3,2.442063E-3,-7.6941025E-5,-2.3594603E-3,2.486018E-3,4.058014E-3,9.390588E-4,2.7960732E-3,-1.0694097E-3,2.3974488E-4,1.7417852E-2,-3.0594666E-3,-2.4361197E-4,9.531428E-3,-1.2721029E-3,-1.7048077E-4,1.5360883E-2,5.888117E-3,5.8191596E-4,1.6371941E-2,3.925344E-3,1.3361475E-2,3.159169E-2,1.3573564E-2,-2.2061944E-3,5.7845036E-3,-1.215233E-3,1.2228264E-2,4.914628E-4,1.2469542E-3,-8.559486E-3,6.1532794E-3,-6.3158263E-4,6.517404E-3,-6.330483E-4,1.3953427E-2,1.4183641E-3,-4.736622E-3,7.164929E-3,1.2334924E-2,-3.1949678E-3,-6.5990626E-3,-8.099693E-4,9.91497E-3,-5.043044E-3,4.4012677E-2,-2.4172298E-3,-2.450358E-3,6.20157E-3,1.5414357E-2,-3.8776074E-3,1.4994775E-2,2.8416231E-2,-2.624658E-3,-1.5369149E-2,-6.350907E-3,1.8948471E-2,6.2069055E-3,1.7346708E-2,-5.5868565E-3,1.3999114E-2,4.6210587E-3,-5.3684055E-3],"categories":[],"categories_nodes":[],"categories_segments":[],"categories_sizes":[],"default_left":[0,0,0,0,0,0,0,0,0,0,0,0,0,0,0,0,0,0,0,0,0,0,0,0,0,0,0,0,0,0,0,0,0,0,0,0,0,0,0,0,0,0,0,0,0,0,0,0,0,0,0,0,0,0,0,0,0,0,0,0,0,0,0,0,0,0,0,0,0,0,0,0,0,0,0,0,0,0,0,0,0,0,0,0,0,0,0,0,0,0,0,0,0,0,0,0,0,0,0,0,0,0,0,0,0,0,0,0,0,0,0,0,0,0,0,0,0,0,0,0,0,0,0,0,0,0,0,0,0,0,0,0,0,0,0,0,0,0,0,0,0,0,0,0,0,0,0,0,0,0,0,0,0,0,0,0,0,0,0,0,0,0,0,0,0,0,0,0,0,0,0,0,0,0,0,0,0,0,0,0,0,0,0,0,0,0,0,0,0,0,0,0,0,0,0,0,0,0,0,0,0,0,0,0,0,0,0,0,0,0,0,0,0,0,0,0,0,0,0,0,0],"id":7,"left_children":[1,3,5,7,9,11,13,15,17,19,21,23,25,27,29,31,33,35,37,39,41,43,45,47,49,51,53,55,57,59,61,63,65,67,69,71,73,75,77,79,81,83,85,87,89,91,93,95,97,99,101,103,105,107,109,111,113,115,117,-1,119,121,123,-1,-1,125,127,129,131,133,135,137,139,-1,-1,141,143,145,147,149,151,153,155,157,-1,159,161,163,165,167,169,171,173,175,177,179,181,183,185,-1,187,189,191,193,195,-1,197,-1,199,-1,-1,201,-1,203,205,207,209,211,213,215,-1,-1,-1,217,219,-1,-1,-1,-1,-1,-1,-1,-1,-1,-1,-1,-1,-1,-1,-1,-1,-1,-1,-1,-1,-1,-1,-1,-1,-1,-1,-1,-1,-1,-1,-1,-1,-1,-1,-1,-1,-1,-1,-1,-1,-1,-1,-1,-1,-1,-1,-1,-1,-1,-1,-1,-1,-1,-1,-1,-1,-1,-1,-1,-1,-1,-1,-1,-1,-1,-1,-1,-1,-1,-1,-1,-1,-1,-1,-1,-1,-1,-1,-1,-1,-1,-1,-1,-1,-1,-1,-1,-1,-1,-1,-1,-1,-1,-1,-1,-1],"loss_changes":[1.3224498E1,8.067966E0,4.1512403E0,6.0958767E0,5.056017E0,2.697753E0,3.7133436E0,1.2147611E0,5.2871084E0,5.516468E0,3.7813764E0,2.6803174E0,4.866519E-1,3.3818283E0,7.7632517E-1,1.328037E0,1.0710046E0,4.2203417E-1,2.0464554E0,2.5510097E0,2.26607E0,1.0101613E0,2.8676128E0,2.193554E0,3.5009305E0,5.0184643E-1,1.9401526E-1,1.5400583E0,2.6103058E0,4.2165434E-1,2.7517852E-1,4.1172528E-1,1.0915499E0,4.611236E-1,6.323848E-1,3.2847506E-1,3.7404034E-1,1.112707E0,1.1123085E0,1.2803099E0,2.0169463E0,1.839994E0,1.4146438E0,1.8068494E0,6.663043E-1,2.6949081E0,1.5217917E0,2.0848608E0,1.4146795E0,5.1351476E-1,9.959271E-1,2.716068E-1,3.7780243E-1,2.689327E-1,1.6290997E-1,3.1637588E0,1.6907904E0,1.7601032E0,1.8002068E0,0E0,4.1106594E-1,1.6131747E-1,1.9948077E-1,0E0,0E0,1.477497E0,7.132074E-1,2.6293528E-1,4.9720323E-1,9.5441985E-1,3.4277555E-1,1.9437246E-1,4.5868033E-1,0E0,0E0,1.3357475E-1,1.4618874E0,7.20829E-1,5.8248997E-1,8.6403865E-1,9.526618E-1,1.2333746E0,5.7492125E-1,9.6394324E-1,0E0,1.4785748E0,2.0104947E0,1.0510137E0,5.820938E-1,9.307196E-1,4.277615E-1,1.5353022E0,3.7448764E-1,9.0298724E-1,1.4424756E0,1.3982973E0,4.1492698E-1,7.5952494E-1,1.1158612E0,0E0,1.5558076E-1,7.7978903E-1,1.640609E0,1.2590754E-1,2.802995E-1,0E0,1.8339474E-1,0E0,1.1510992E-1,0E0,0E0,2.4272555E-1,0E0,2.3981364E0,9.074341E-1,5.5346185E-1,1.5834408E0,1.9252262E-1,2.1184413E0,2.8505003E-1,0E0,0E0,0E0,4.0705562E-1,2.5242773E-1,0E0,0E0,0E0,0E0,0E0,0E0,0E0,0E0,0E0,0E0,0E0,0E0,0E0,0E0,0E0,0E0,0E0,0E0,0E0,0E0,0E0,0E0,0E0,0E0,0E0,0E0,0E0,0E0,0E0,0E0,0E0,0E0,0E0,0E0,0E0,0E0,0E0,0E0,0E0,0E0,0E0,0E0,0E0,0E0,0E0,0E0,0E0,0E0,0E0,0E0,0E0,0E0,0E0,0E0,0E0,0E0,0E0,0E0,0E0,0E0,0E0,0E0,0E0,0E0,0E0,0E0,0E0,0E0,0E0,0E0,0E0,0E0,0E0,0E0,0E0,0E0,0E0,0E0,0E0,0E0,0E0,0E0,0E0,0E0,0E0,0E0,0E0,0E0,0E0,0E0,0E0,0E0,0E0,0E0,0E0,0E0],"parents":[2147483647,0,0,1,1,2,2,3,3,4,4,5,5,6,6,7,7,8,8,9,9,10,10,11,11,12,12,13,13,14,14,15,15,16,16,17,17,18,18,19,19,20,20,21,21,22,22,23,23,24,24,25,25,26,26,27,27,28,28,29,29,30,30,31,31,32,32,33,33,34,34,35,35,36,36,37,37,38,38,39,39,40,40,41,41,42,42,43,43,44,44,45,45,46,46,47,47,48,48,49,49,50,50,51,51,52,52,53,53,54,54,55,55,56,56,57,57,58,58,60,60,61,61,62,62,65,65,66,66,67,67,68,68,69,69,70,70,71,71,72,72,75,75,76,76,77,77,78,78,79,79,80,80,81,81,82,82,83,83,85,85,86,86,87,87,88,88,89,89,90,90,91,91,92,92,93,93,94,94,95,95,96,96,97,97,98,98,100,100,101,101,102,102,103,103,104,104,106,106,108,108,111,111,113,113,114,114,115,115,116,116,117,117,118,118,119,119,123,123,124,124],"right_children":[2,4,6,8,10,12,14,16,18,20,22,24,26,28,30,32,34,36,38,40,42,44,46,48,50,52,54,56,58,60,62,64,66,68,70,72,74,76,78,80,82,84,86,88,90,92,94,96,98,100,102,104,106,108,110,112,114,116,118,-1,120,122,124,-1,-1,126,128,130,132,134,136,138,140,-1,-1,142,144,146,148,150,152,154,156,158,-1,160,162,164,166,168,170,172,174,176,178,180,182,184,186,-1,188,190,192,194,196,-1,198,-1,200,-1,-1,202,-1,204,206,208,210,212,214,216,-1,-1,-1,218,220,-1,-1,-1,-1,-1,-1,-1,-1,-1,-1,-1,-1,-1,-1,-1,-1,-1,-1,-1,-1,-1,-1,-1,-1,-1,-1,-1,-1,-1,-1,-1,-1,-1,-1,-1,-1,-1,-1,-1,-1,-1,-1,-1,-1,-1,-1,-1,-1,-1,-1,-1,-1,-1,-1,-1,-1,-1,-1,-1,-1,-1,-1,-1,-1,-1,-1,-1,-1,-1,-1,-1,-1,-1,-1,-1,-1,-1,-1,-1,-1,-1,-1,-1,-1,-1,-1,-1,-1,-1,-1,-1,-1,-1,-1,-1,-1],"split_conditions":[1.2482996E0,-1.5332226E-1,-3.0494656E-3,-4.9935557E-2,-8.148978E-2,1.0608882E0,-3.2929637E-2,-1.4271438E-1,-3.05401E-2,-1.7983574E-1,-5.6344725E-2,-6.497833E-2,-1.3103914E-1,2.3015623E0,1.5702845E-1,-3.4141198E-1,-9.933875E-2,2.5495296E0,-3.1241682E-1,-3.0607471E-2,-3.4408428E-2,-2.0511782E-2,-1.2598325E-1,-3.4554058E-1,5.1702726E-1,1.238392E0,2.7177043E0,-1.1703223E0,1.9792336E0,-6.261088E-1,1.0456093E-1,-2.0937808E-1,-7.267822E-2,1.7207816E-2,-8.214346E-2,-1.6329876E-1,3.0900798E0,-5.1185075E-2,-9.851843E-2,-5.6701466E-2,-4.878943E-2,1.8548388E-2,3.2279918E-1,4.843308E-2,-1.2328439E-1,1.3188268E-2,-1.8047249E-2,-3.464088E-2,6.028453E-1,-4.421571E-2,-1.2629104E-1,-3.9823428E-2,-1.3278646E-2,1.8855497E-1,2.096536E-2,6.686073E-2,-5.713845E-1,-3.1738958E-1,-7.1722935E-3,-3.2514303E-3,1.1145405E0,2.379895E0,8.155546E-2,-1.3835536E-3,1.4074618E-2,-1.3722064E-1,-2.9596302E-1,-8.5376304E-1,-1.4479299E-1,-7.511518E-1,-8.7914735E-2,8.4391546E-1,5.3580034E-1,2.1279497E-2,6.340895E-4,-4.0159382E-2,-1.9848281E-1,-5.2568335E-2,-7.637279E-1,-8.30128E-1,-1.8382579E-1,-6.0725194E-1,-1.5604095E-1,-1.6271224E0,3.9288934E-2,-1.306718E-1,1.0292917E0,-6.3051425E-2,-1.2260425E0,2.2012117E0,-4.9456883E-2,7.750445E-1,1.9101704E0,-1.4200905E-1,-3.9646798E-1,1.7887482E-1,-1.4464843E0,-2.1929213E-1,-5.6682784E-2,7.316779E-3,-9.14409E-2,-4.089759E-2,2.462911E0,-1.3317832E-1,1.0909182E0,-8.451049E-3,-8.958696E-2,-9.861739E-3,1.3820206E0,-3.8145934E-3,8.545271E-3,-4.3917537E-1,4.903132E-2,1.5929614E0,3.182919E-3,2.4999542E0,-3.5868987E-2,3.6816898E-1,2.7679453E0,-6.7504905E-2,-2.3296587E-3,-5.2202507E-3,-1.686424E-2,2.7046556E0,1.8285089E0,1.2156058E-4,9.632315E-3,-1.6120299E-3,1.1513237E-3,-4.6626115E-3,-2.2257103E-3,-1.6296359E-3,1.3550751E-2,8.885518E-3,-8.314896E-4,2.4868972E-3,-1.865286E-3,-9.789622E-5,6.9480375E-3,-8.9519325E-4,-3.66614E-3,-7.1752295E-3,1.0784667E-3,-9.529905E-3,1.1029395E-2,5.127722E-4,-4.8891543E-3,4.8995297E-3,-7.4949497E-3,-7.2146946E-4,2.5917822E-3,1.6046709E-3,-1.9772567E-3,-3.690176E-5,-2.9806625E-3,-7.805762E-4,1.8789072E-3,-4.2035445E-3,5.9802905E-3,2.442063E-3,-7.6941025E-5,-2.3594603E-3,2.486018E-3,4.058014E-3,9.390588E-4,2.7960732E-3,-1.0694097E-3,2.3974488E-4,1.7417852E-2,-3.0594666E-3,-2.4361197E-4,9.531428E-3,-1.2721029E-3,-1.7048077E-4,1.5360883E-2,5.888117E-3,5.8191596E-4,1.6371941E-2,3.925344E-3,1.3361475E-2,3.159169E-2,1.3573564E-2,-2.2061944E-3,5.7845036E-3,-1.215233E-3,1.2228264E-2,4.914628E-4,1.2469542E-3,-8.559486E-3,6.1532794E-3,-6.3158263E-4,6.517404E-3,-6.330483E-4,1.3953427E-2,1.4183641E-3,-4.736622E-3,7.164929E-3,1.2334924E-2,-3.1949678E-3,-6.5990626E-3,-8.099693E-4,9.91497E-3,-5.043044E-3,4.4012677E-2,-2.4172298E-3,-2.450358E-3,6.20157E-3,1.5414357E-2,-3.8776074E-3,1.4994775E-2,2.8416231E-2,-2.624658E-3,-1.5369149E-2,-6.350907E-3,1.8948471E-2,6.2069055E-3,1.7346708E-2,-5.5868565E-3,1.3999114E-2,4.6210587E-3,-5.3684055E-3],"split_indices":[36,34,42,25,9,45,51,39,37,18,38,26,19,3,32,10,11,4,27,37,37,24,10,15,4,5,5,14,43,29,5,21,17,33,43,11,4,38,27,32,32,41,3,19,11,39,24,43,12,32,9,17,16,28,10,6,6,6,52,0,28,21,45,0,0,13,41,4,9,15,25,2,0,0,0,26,9,17,11,41,8,35,9,1,0,39,29,38,40,8,32,22,1,34,5,27,0,19,8,0,7,52,29,8,3,0,7,0,6,0,0,5,0,4,16,35,7,5,4,10,0,0,0,1,3,0,0,0,0,0,0,0,0,0,0,0,0,0,0,0,0,0,0,0,0,0,0,0,0,0,0,0,0,0,0,0,0,0,0,0,0,0,0,0,0,0,0,0,0,0,0,0,0,0,0,0,0,0,0,0,0,0,0,0,0,0,0,0,0,0,0,0,0,0,0,0,0,0,0,0,0,0,0,0,0,0,0,0,0,0,0,0,0,0,0,0,0,0,0,0,0],"split_type":[0,0,0,0,0,0,0,0,0,0,0,0,0,0,0,0,0,0,0,0,0,0,0,0,0,0,0,0,0,0,0,0,0,0,0,0,0,0,0,0,0,0,0,0,0,0,0,0,0,0,0,0,0,0,0,0,0,0,0,0,0,0,0,0,0,0,0,0,0,0,0,0,0,0,0,0,0,0,0,0,0,0,0,0,0,0,0,0,0,0,0,0,0,0,0,0,0,0,0,0,0,0,0,0,0,0,0,0,0,0,0,0,0,0,0,0,0,0,0,0,0,0,0,0,0,0,0,0,0,0,0,0,0,0,0,0,0,0,0,0,0,0,0,0,0,0,0,0,0,0,0,0,0,0,0,0,0,0,0,0,0,0,0,0,0,0,0,0,0,0,0,0,0,0,0,0,0,0,0,0,0,0,0,0,0,0,0,0,0,0,0,0,0,0,0,0,0,0,0,0,0,0,0,0,0,0,0,0,0,0,0,0,0,0,0,0,0,0,0,0,0],"sum_hessian":[2.1846E4,2.014E4,1.706E3,5.251E3,1.4889E4,1.294E3,4.12E2,2.119E3,3.132E3,9.917E3,4.972E3,1.158E3,1.36E2,3.08E2,1.04E2,1.222E3,8.97E2,1.249E3,1.883E3,6.242E3,3.675E3,3.062E3,1.91E3,3.87E2,7.71E2,5.3E1,8.3E1,1.44E2,1.64E2,4.3E1,6.1E1,2.9E1,1.193E3,5.85E2,3.12E2,1.241E3,8E0,7.9E1,1.804E3,1.88E3,4.362E3,2.69E2,3.406E3,1.939E3,1.123E3,5.23E2,1.387E3,1.24E2,2.63E2,9.2E1,6.79E2,2.8E1,2.5E1,7.3E1,1E1,1.4E1,1.3E2,1.13E2,5.1E1,1E1,3.3E1,2.3E1,3.8E1,5E0,2.4E1,1.63E2,1.03E3,5.64E2,2.1E1,1E2,2.12E2,4.7E2,7.71E2,3E0,5E0,2.7E1,5.2E1,1.236E3,5.68E2,9.17E2,9.63E2,3.237E3,1.125E3,2.66E2,3E0,2.421E3,9.85E2,