{"learner":{"attributes":{"best_iteration":"132","best_score":"0.20868781316321408","scikit_learn":"{\"_estimator_type\": \"regressor\"}"},"feature_names":[],"feature_types":[],"gradient_booster":{"model":{"gbtree_model_param":{"num_parallel_tree":"1","num_trees":"143"},"iteration_indptr":[0,1,2,3,4,5,6,7,8,9,10,11,12,13,14,15,16,17,18,19,20,21,22,23,24,25,26,27,28,29,30,31,32,33,34,35,36,37,38,39,40,41,42,43,44,45,46,47,48,49,50,51,52,53,54,55,56,57,58,59,60,61,62,63,64,65,66,67,68,69,70,71,72,73,74,75,76,77,78,79,80,81,82,83,84,85,86,87,88,89,90,91,92,93,94,95,96,97,98,99,100,101,102,103,104,105,106,107,108,109,110,111,112,113,114,115,116,117,118,119,120,121,122,123,124,125,126,127,128,129,130,131,132,133,134,135,136,137,138,139,140,141,142,143],"tree_info":[0,0,0,0,0,0,0,0,0,0,0,0,0,0,0,0,0,0,0,0,0,0,0,0,0,0,0,0,0,0,0,0,0,0,0,0,0,0,0,0,0,0,0,0,0,0,0,0,0,0,0,0,0,0,0,0,0,0,0,0,0,0,0,0,0,0,0,0,0,0,0,0,0,0,0,0,0,0,0,0,0,0,0,0,0,0,0,0,0,0,0,0,0,0,0,0,0,0,0,0,0,0,0,0,0,0,0,0,0,0,0,0,0,0,0,0,0,0,0,0,0,0,0,0,0,0,0,0,0,0,0,0,0,0,0,0,0,0,0,0,0,0,0],"trees":[{"base_weights":[1.1829188E-4,-2.5352467E-2,4.8141163E-2,1.2640425E-2,-4.8847068E-2,2.8372198E-2,1.6700326E-1,-2.9792296E-2,3.6748234E-2,-4.49337E-3,-7.701827E-2,-1.7064974E-2,4.2350672E-2,6.6098705E-2,2.0662878E-1,-5.3583484E-2,1.9572658E-2,1.9168863E-2,1.0030231E-1,-1.7398544E-2,5.3545747E-2,-1.1688593E-1,-6.2576365E-3,4.5862548E-2,-2.7958037E-2,-7.3803393E-3,5.3250592E-2,2.295706E-1,1.573243E-2,1.4428164E-1,2.7884802E-1,3.9163213E-2,-6.4655736E-2,2.1378153E-3,1.602491E-1,-8.683075E-3,3.962511E-2,-9.812605E-3,1.610443E-1,1.3832608E-2,-2.900632E-2,-2.3539435E-2,7.487507E-2,-1.5936136E-1,-8.314925E-2,-5.1199548E-2,5.102961E-2,7.018223E-2,-6.2351834E-2,-3.631444E-2,7.524743E-2,7.3174655E-2,-3.5067596E-2,7.745625E-3,6.289881E-2,3.2061404E-1,-6.8022613E-3,-5.1856223E-2,1.1242408E-1,1.9780941E-1,-1.1194471E-2,4.1157523E-1,1.6704503E-1,1.5902881E-1,1.7227093E-2,-7.9907335E-2,-2.1891238E-2,-2.4338712E-3,1.8639605E-2,2.7224478E-1,-1.1339305E-2,4.062767E-2,-2.0316614E-2,6.30928E-2,8.4065436E-4,6.948715E-2,-3.3899907E-2,2.2132502E-1,5.6421362E-2,5.9782643E-2,2.4540687E-3,-3.0944562E-2,1.2277045E-1,2.5070882E-3,-1.9887981E-3,8.432524E-2,-1.0389299E-1,-1.2950175E-1,-2.2043402E-1,2.3993634E-1,-8.8734604E-2,2.7060544E-1,-6.05537E-2,8.715761E-2,-1.07890956E-1,2.6982945E-1,5.7231933E-2,-1.3854278E-2,-7.014724E-3,-5.1037356E-2,1.1275919E-2,2.1307906E-2,1.5985435E-1,5.46748E-2,5.193183E-1,-6.2415857E-2,3.800369E-2,5.040332E-2,-2.8428715E-2,8.956189E-2,4.451629E-2,4.2420316E-1,1.4749663E-1,1.1251102E-2,-7.458575E-2,2.6257172E-2,-6.84455E-2,-8.592857E-2,1.5266569E-1,1.5997545E-1,5.22675E-1,2.1477837E-2,-3.227679E-2,1.7180632E-1,5.813908E-1,2.3863052E-1,2.878661E-2,1.70813E-2,2.5520872E-3,-1.8734204E-3,3.7185126E-3,-5.561039E-3,-2.3097764E-3,-2.5024095E-3,1.2770342E-3,-1.2520571E-3,2.3823981E-3,1.8245606E-2,1.5163437E-3,1.1444369E-2,-2.9465535E-3,2.815321E-4,7.1821683E-3,6.328376E-4,-1.8451501E-3,4.505269E-3,-6.827065E-4,-1.1553441E-3,1.8379212E-3,1.5450148E-3,1.0116699E-2,3.825359E-3,-2.5443006E-3,1.204382E-2,-4.436962E-3,1.8291706E-3,1.780376E-2,7.8680655E-3,1.036992E-3,-3.6592467E-4,3.9043282E-3,-1.876383E-3,6.601118E-4,1.152859E-2,2.6068052E-3,3.996911E-3,2.8497223E-2,2.5494916E-3,-8.347898E-3,5.4061157E-3,-7.0118546E-3,-9.563136E-3,-1.3675819E-2,2.4978062E-2,2.3101044E-3,-3.4255285E-3,-7.966599E-3,1.6194083E-2,-3.5603612E-3,-4.3054107E-3,4.331679E-4,2.5019115E-3,8.0274E-3,7.3626894E-3,-6.774557E-3,3.7071686E-2,1.4933292E-5,3.891569E-3,-2.048326E-3,1.1358993E-3,-6.0795946E-3,-7.862368E-4,-3.3689756E-3,-5.9423973E-3,1.2372707E-3,2.581145E-4,1.0055318E-2,1.0590805E-2,-5.0260643E-3,4.2691897E-3,-1.9781473E-3,6.1479965E-3,4.9201313E-2,-4.0810965E-3,3.0375163E-3,6.8826E-3,5.8134354E-4,2.3354048E-2,2.059429E-3,-4.007384E-3,1.6058531E-3,8.0698106E-4,5.356971E-3,-1.6708983E-3,3.0005355E-3,2.938358E-2,1.3220632E-2,-2.7634131E-3,1.3826321E-2,-9.970066E-3,5.811433E-4,6.40001E-4,-7.2615645E-3,3.538991E-3,-6.2282323E-3,1.7024819E-2,5.753238E-3,2.1315308E-3,1.2015243E-2,1.7958809E-2,4.5029845E-2,-3.4373202E-3,3.4583693E-3,2.5701081E-2,5.254575E-3,3.4816664E-2,1.6081398E-2,7.0794313E-3,2.9180888E-2,8.493228E-3,-2.3547332E-3],"categories":[],"categories_nodes":[],"categories_segments":[],"categories_sizes":[],"default_left":[0,0,0,0,0,0,0,0,0,0,0,0,0,0,0,0,0,0,0,0,0,0,0,0,0,0,0,0,0,0,0,0,0,0,0,0,0,0,0,0,0,0,0,0,0,0,0,0,0,0,0,0,0,0,0,0,0,0,0,0,0,0,0,0,0,0,0,0,0,0,0,0,0,0,0,0,0,0,0,0,0,0,0,0,0,0,0,0,0,0,0,0,0,0,0,0,0,0,0,0,0,0,0,0,0,0,0,0,0,0,0,0,0,0,0,0,0,0,0,0,0,0,0,0,0,0,0,0,0,0,0,0,0,0,0,0,0,0,0,0,0,0,0,0,0,0,0,0,0,0,0,0,0,0,0,0,0,0,0,0,0,0,0,0,0,0,0,0,0,0,0,0,0,0,0,0,0,0,0,0,0,0,0,0,0,0,0,0,0,0,0,0,0,0,0,0,0,0,0,0,0,0,0,0,0,0,0,0,0,0,0,0,0,0,0,0,0,0,0,0,0,0,0,0,0,0,0,0,0,0,0,0,0,0,0,0,0,0,0,0,0],"id":0,"left_children":[1,3,5,7,9,11,13,15,17,19,21,23,25,27,29,31,33,35,37,39,41,43,45,47,49,51,53,55,57,59,61,63,65,67,69,71,73,75,77,79,81,83,85,87,89,91,93,95,97,99,101,103,105,107,109,111,113,115,117,119,121,123,125,127,129,131,133,135,-1,137,139,141,143,145,147,149,151,153,155,157,159,161,163,-1,-1,165,167,169,171,173,175,177,179,181,183,185,187,189,-1,191,193,195,197,199,201,203,205,207,209,211,213,215,217,-1,219,-1,221,223,225,227,229,-1,231,233,235,237,239,-1,-1,-1,-1,-1,-1,-1,-1,-1,-1,-1,-1,-1,-1,-1,-1,-1,-1,-1,-1,-1,-1,-1,-1,-1,-1,-1,-1,-1,-1,-1,-1,-1,-1,-1,-1,-1,-1,-1,-1,-1,-1,-1,-1,-1,-1,-1,-1,-1,-1,-1,-1,-1,-1,-1,-1,-1,-1,-1,-1,-1,-1,-1,-1,-1,-1,-1,-1,-1,-1,-1,-1,-1,-1,-1,-1,-1,-1,-1,-1,-1,-1,-1,-1,-1,-1,-1,-1,-1,-1,-1,-1,-1,-1,-1,-1,-1,-1,-1,-1,-1,-1,-1,-1,-1,-1,-1,-1,-1,-1,-1,-1,-1,-1],"loss_changes":[2.673502E1,1.2749127E1,1.7794851E1,5.5844097E0,1.1026464E1,4.1266074E0,4.304613E0,2.3241124E0,3.8871918E0,2.5692694E0,1.5224533E1,1.0493711E0,2.693367E0,2.5158305E0,3.449337E0,1.3734632E0,1.579178E0,1.554611E0,5.0447855E0,1.0176442E0,1.0277275E0,4.9333954E0,5.012781E0,5.991492E-1,1.1273365E0,1.9964961E0,1.7886076E0,1.5516357E0,1.5416155E0,3.4809313E0,5.2437153E0,3.732627E-1,7.7635765E-1,9.73559E-1,1.3675057E0,6.639746E-1,1.4316626E0,5.161771E-1,3.0525913E0,3.9773783E-1,6.05692E-1,1.6469483E-1,8.348713E-1,2.7561035E0,3.4968538E0,3.3005285E0,4.924112E0,4.6287286E-1,1.568175E-1,8.4628284E-1,4.4383228E-1,1.861679E0,1.3332884E0,1.1032163E0,1.6438456E0,8.699517E-1,3.4677455E-1,1.3664533E0,7.8737545E-1,3.7388716E0,1.017407E0,6.5369053E0,1.9330006E0,4.163618E-1,3.840943E-1,9.227638E-1,4.219728E-1,6.4429045E-1,0E0,9.529023E-1,3.450401E-1,7.9595006E-1,5.1237386E-1,2.032901E0,5.1177377E-1,3.166947E-1,3.9209813E-1,1.8885269E0,1.0510423E0,5.7200783E-1,4.521758E-1,5.878439E-1,1.8595532E-1,0E0,0E0,9.450846E-1,2.5270522E-1,2.6375675E0,7.2192574E-1,1.6367612E0,2.6932697E0,5.875876E-1,1.8774519E0,1.8934617E0,1.1396358E0,1.3980088E0,3.5718447E-1,1.0914796E-1,0E0,5.310123E-1,5.042139E-1,1.7604221E-1,5.354156E-1,6.4294016E-1,1.5367224E0,1.1522454E0,4.7676933E-1,1.2401428E0,1.2144125E0,1.7676601E0,2.4074368E0,6.8047523E-1,5.647001E-1,0E0,1.8524066E-1,0E0,8.50295E-1,1.1174482E-1,5.328922E-1,2.6291041E0,1.6538E0,0E0,3.8951647E-1,1.5213087E0,2.6125298E0,4.2360554E0,7.3595154E-1,0E0,0E0,0E0,0E0,0E0,0E0,0E0,0E0,0E0,0E0,0E0,0E0,0E0,0E0,0E0,0E0,0E0,0E0,0E0,0E0,0E0,0E0,0E0,0E0,0E0,0E0,0E0,0E0,0E0,0E0,0E0,0E0,0E0,0E0,0E0,0E0,0E0,0E0,0E0,0E0,0E0,0E0,0E0,0E0,0E0,0E0,0E0,0E0,0E0,0E0,0E0,0E0,0E0,0E0,0E0,0E0,0E0,0E0,0E0,0E0,0E0,0E0,0E0,0E0,0E0,0E0,0E0,0E0,0E0,0E0,0E0,0E0,0E0,0E0,0E0,0E0,0E0,0E0,0E0,0E0,0E0,0E0,0E0,0E0,0E0,0E0,0E0,0E0,0E0,0E0,0E0,0E0,0E0,0E0,0E0,0E0,0E0,0E0,0E0,0E0,0E0,0E0,0E0,0E0,0E0,0E0,0E0,0E0,0E0,0E0,0E0,0E0,0E0,0E0],"parents":[2147483647,0,0,1,1,2,2,3,3,4,4,5,5,6,6,7,7,8,8,9,9,10,10,11,11,12,12,13,13,14,14,15,15,16,16,17,17,18,18,19,19,20,20,21,21,22,22,23,23,24,24,25,25,26,26,27,27,28,28,29,29,30,30,31,31,32,32,33,33,34,34,35,35,36,36,37,37,38,38,39,39,40,40,41,41,42,42,43,43,44,44,45,45,46,46,47,47,48,48,49,49,50,50,51,51,52,52,53,53,54,54,55,55,56,56,57,57,58,58,59,59,60,60,61,61,62,62,63,63,64,64,65,65,66,66,67,67,69,69,70,70,71,71,72,72,73,73,74,74,75,75,76,76,77,77,78,78,79,79,80,80,81,81,82,82,85,85,86,86,87,87,88,88,89,89,90,90,91,91,92,92,93,93,94,94,95,95,96,96,97,97,99,99,100,100,101,101,102,102,103,103,104,104,105,105,106,106,107,107,108,108,109,109,110,110,111,111,112,112,114,114,116,116,117,117,118,118,119,119,120,120,122,122,123,123,124,124,125,125,126,126],"right_children":[2,4,6,8,10,12,14,16,18,20,22,24,26,28,30,32,34,36,38,40,42,44,46,48,50,52,54,56,58,60,62,64,66,68,70,72,74,76,78,80,82,84,86,88,90,92,94,96,98,100,102,104,106,108,110,112,114,116,118,120,122,124,126,128,130,132,134,136,-1,138,140,142,144,146,148,150,152,154,156,158,160,162,164,-1,-1,166,168,170,172,174,176,178,180,182,184,186,188,190,-1,192,194,196,198,200,202,204,206,208,210,212,214,216,218,-1,220,-1,222,224,226,228,230,-1,232,234,236,238,240,-1,-1,-1,-1,-1,-1,-1,-1,-1,-1,-1,-1,-1,-1,-1,-1,-1,-1,-1,-1,-1,-1,-1,-1,-1,-1,-1,-1,-1,-1,-1,-1,-1,-1,-1,-1,-1,-1,-1,-1,-1,-1,-1,-1,-1,-1,-1,-1,-1,-1,-1,-1,-1,-1,-1,-1,-1,-1,-1,-1,-1,-1,-1,-1,-1,-1,-1,-1,-1,-1,-1,-1,-1,-1,-1,-1,-1,-1,-1,-1,-1,-1,-1,-1,-1,-1,-1,-1,-1,-1,-1,-1,-1,-1,-1,-1,-1,-1,-1,-1,-1,-1,-1,-1,-1,-1,-1,-1,-1,-1,-1,-1,-1,-1],"split_conditions":[-8.39998E-2,-5.1879987E-2,-2.1281324E-2,-3.946706E-1,-3.22951E-2,-1.0613056E-1,5.017083E-2,-8.0371596E-2,-5.4486636E-2,8.127746E-1,-7.727056E-2,-2.6408342E-1,-2.0968746E-1,-7.89666E-1,3.1956434E-2,-6.575305E-1,-3.204999E-2,-1.9034839E-1,-1.8437248E-1,-1.8212987E-1,-2.5770304E-1,-1.598944E-1,4.0173024E-1,5.121437E-1,1.1127826E-3,-5.092068E-1,-1.2202587E0,-2.3724383E-1,1.3444296E-1,1.8328133E-1,-3.605602E-2,-1.4495414E-2,-1.4855164E-1,8.543977E-1,-1.6345459E-1,-1.025345E0,1.6620906E-2,-6.777905E-2,-1.9250302E-1,-6.7616716E-2,-8.1792414E-2,-1.0624411E0,4.9914414E-1,6.025781E-1,-3.7871748E-1,-3.9246687E-1,-8.947342E-2,-5.2877676E-2,-4.4340122E-2,-3.6090355E-2,4.3469438E-1,-4.0091876E-2,-6.881535E-2,1.5997498E-1,-2.6748639E-2,-1.1439237E-2,-3.5449678E-1,-4.0413097E-1,5.870174E-1,2.9375672E0,-3.2301895E-2,1.2881509E-2,6.8536514E-1,-5.8830522E-2,-8.094956E-2,-1.6519801E-1,-1.9603229E-1,1.4085327E-1,1.8639605E-2,-6.358901E-2,-1.8668618E0,-4.4141868E-1,-8.2569593E-1,2.0548915E-2,-3.7207447E-2,-1.3527945E-2,-4.4930935E-1,9.9660057E-1,2.0106353E-2,-2.7728972E-1,-1.5323274E-1,-1.1507382E-1,-1.7647474E-1,2.5070882E-3,-1.9887981E-3,1.3778228E-1,-4.9457842E-1,-3.2367384E-1,8.0348976E-2,-2.1587275E-1,3.0711776E-1,1.5244387E-1,-2.8305141E-2,-4.1570485E-2,-1.8407592E-1,1.5258387E-1,-2.636924E-2,9.4964975E-1,-7.014724E-3,-1.7054285E-1,-1.289385E0,-1.0372745E-2,8.190077E-2,7.496126E-2,-8.3445966E-2,1.601512E0,-1.8400384E-2,-1.6902349E0,5.771158E-1,-1.0502706E0,-5.635887E-2,-1.9467546E-2,5.6142163E-1,1.1251102E-2,-5.400022E-2,2.6257172E-2,-1.9639252E-1,-3.8028534E-3,-4.5461375E-1,-4.835834E-2,1.6427822E-1,2.1477837E-2,5.7097745E-1,-2.9966104E-1,2.4237216E0,1.329083E0,6.153061E-1,1.70813E-2,2.5520872E-3,-1.8734204E-3,3.7185126E-3,-5.561039E-3,-2.3097764E-3,-2.5024095E-3,1.2770342E-3,-1.2520571E-3,2.3823981E-3,1.8245606E-2,1.5163437E-3,1.1444369E-2,-2.9465535E-3,2.815321E-4,7.1821683E-3,6.328376E-4,-1.8451501E-3,4.505269E-3,-6.827065E-4,-1.1553441E-3,1.8379212E-3,1.5450148E-3,1.0116699E-2,3.825359E-3,-2.5443006E-3,1.204382E-2,-4.436962E-3,1.8291706E-3,1.780376E-2,7.8680655E-3,1.036992E-3,-3.6592467E-4,3.9043282E-3,-1.876383E-3,6.601118E-4,1.152859E-2,2.6068052E-3,3.996911E-3,2.8497223E-2,2.5494916E-3,-8.347898E-3,5.4061157E-3,-7.0118546E-3,-9.563136E-3,-1.3675819E-2,2.4978062E-2,2.3101044E-3,-3.4255285E-3,-7.966599E-3,1.6194083E-2,-3.5603612E-3,-4.3054107E-3,4.331679E-4,2.5019115E-3,8.0274E-3,7.3626894E-3,-6.774557E-3,3.7071686E-2,1.4933292E-5,3.891569E-3,-2.048326E-3,1.1358993E-3,-6.0795946E-3,-7.862368E-4,-3.3689756E-3,-5.9423973E-3,1.2372707E-3,2.581145E-4,1.0055318E-2,1.0590805E-2,-5.0260643E-3,4.2691897E-3,-1.9781473E-3,6.1479965E-3,4.9201313E-2,-4.0810965E-3,3.0375163E-3,6.8826E-3,5.8134354E-4,2.3354048E-2,2.059429E-3,-4.007384E-3,1.6058531E-3,8.0698106E-4,5.356971E-3,-1.6708983E-3,3.0005355E-3,2.938358E-2,1.3220632E-2,-2.7634131E-3,1.3826321E-2,-9.970066E-3,5.811433E-4,6.40001E-4,-7.2615645E-3,3.538991E-3,-6.2282323E-3,1.7024819E-2,5.753238E-3,2.1315308E-3,1.2015243E-2,1.7958809E-2,4.5029845E-2,-3.4373202E-3,3.4583693E-3,2.5701081E-2,5.254575E-3,3.4816664E-2,1.6081398E-2,7.0794313E-3,2.9180888E-2,8.493228E-3,-2.3547332E-3],"split_indices":[34,25,37,4,37,33,27,11,32,1,43,19,9,14,37,3,37,33,9,11,11,34,2,6,27,2,2,26,12,50,51,16,19,14,18,14,4,38,20,38,20,6,11,2,12,12,33,42,43,9,35,52,18,10,31,10,10,19,3,36,34,38,31,32,43,47,27,13,0,46,1,29,22,19,20,16,14,30,7,5,20,50,45,0,0,32,20,12,18,19,3,5,25,52,19,1,31,5,0,11,40,16,25,21,12,3,2,40,26,4,38,9,3,0,8,0,19,37,45,9,43,0,5,10,12,12,33,0,0,0,0,0,0,0,0,0,0,0,0,0,0,0,0,0,0,0,0,0,0,0,0,0,0,0,0,0,0,0,0,0,0,0,0,0,0,0,0,0,0,0,0,0,0,0,0,0,0,0,0,0,0,0,0,0,0,0,0,0,0,0,0,0,0,0,0,0,0,0,0,0,0,0,0,0,0,0,0,0,0,0,0,0,0,0,0,0,0,0,0,0,0,0,0,0,0,0,0,0,0,0,0,0,0,0,0,0,0,0,0,0,0],"split_type":[0,0,0,0,0,0,0,0,0,0,0,0,0,0,0,0,0,0,0,0,0,0,0,0,0,0,0,0,0,0,0,0,0,0,0,0,0,0,0,0,0,0,0,0,0,0,0,0,0,0,0,0,0,0,0,0,0,0,0,0,0,0,0,0,0,0,0,0,0,0,0,0,0,0,0,0,0,0,0,0,0,0,0,0,0,0,0,0,0,0,0,0,0,0,0,0,0,0,0,0,0,0,0,0,0,0,0,0,0,0,0,0,0,0,0,0,0,0,0,0,0,0,0,0,0,0,0,0,0,0,0,0,0,0,0,0,0,0,0,0,0,0,0,0,0,0,0,0,0,0,0,0,0,0,0,0,0,0,0,0,0,0,0,0,0,0,0,0,0,0,0,0,0,0,0,0,0,0,0,0,0,0,0,0,0,0,0,0,0,0,0,0,0,0,0,0,0,0,0,0,0,0,0,0,0,0,0,0,0,0,0,0,0,0,0,0,0,0,0,0,0,0,0,0,0,0,0,0,0,0,0,0,0,0,0,0,0,0,0,0,0],"sum_hessian":[2.1855E4,1.4281E4,7.574E3,5.457E3,8.824E3,6.495E3,1.079E3,1.977E3,3.48E3,3.428E3,5.396E3,1.528E3,4.967E3,3.05E2,7.74E2,1.334E3,6.43E2,2.727E3,7.53E2,2.805E3,6.23E2,3.451E3,1.945E3,2.25E2,1.303E3,8.93E2,4.074E3,7.1E1,2.34E2,4.17E2,3.57E2,1.42E2,1.192E3,5.73E2,7E1,1.155E3,1.572E3,2.68E2,4.85E2,7.6E2,2.045E3,1.35E2,4.88E2,1.526E3,1.925E3,1.09E3,8.55E2,1.84E2,4.1E1,1.206E3,9.7E1,2.28E2,6.65E2,7.13E2,3.361E3,5.1E1,2E1,1.38E2,9.6E1,3.1E2,1.07E2,1.62E2,1.95E2,2.1E1,1.21E2,8.78E2,3.14E2,5.67E2,6E0,4.2E1,2.8E1,2.2E2,9.35E2,9.79E2,5.93E2,6.2E1,2.06E2,3.07E2,1.78E2,1.5E2,6.1E2,2.02E3,2.5E1,2.4E1,1.11E2,4.64E2,2.4E1,1.027E3,4.99E2,3.2E1,1.893E3,3E1,1.06E3,6.97E2,1.58E2,1E1,1.74E2,2.6E1,1.5E1,9.21E2,2.85E2,6E1,3.7E1,2.2E2,8E0,4.84E2,1.81E2,3.27E2,3.86E2,1.37E3,1.991E3,3.1E1,2E1,4E0,1.6E1,3E0,1.35E2,1.6E1,8E1,2.79E2,3.1E1,4E0,1.03E2,6.8E1,9.4E1,1.28E2,6.7E1,7E0,1.4E1,6.2E1,5.9E1,4.54E2,4.24E2,1.97E2,1.17E2,3.91E2,1.76E2,3E1,1.2E1,4E0,2.4E1,1.65E2,5.5E1,3.13E2,6.22E2,7.24E2,2.55E2,3.56E2,2.37E2,4.9E1,1.3E1,2.7E1,1.79E2,2.89E2,1.8E1,1.68E2,1E1,4.2E1,1.08E2,5.41E2,6.9E1,1.758E3,2.62E2,9E0,1.6E1,4.61E2,3E0,7E0,1.7E1,4.4E1,9.83E2,3.25E2,1.74E2,1.3E1,1.9E1,1.473E3,4.2E2,2.6E1,4E0,7.74E2,2.86E2,4.64E2,2.33E2,1.5E1,1.43E2,3E0,7E0,1.44E2,3E1,2E1,6E0,2.92E2,6.29E2,2.6E1,2.59E2,5.6E1,4E0,3.1E1,6E0,1.66E2,5.4E1,5E0,3E0,4.19E2,6.5E1,3.7E1,1.44E2,6E0,3.21E2,2.08E2,1.78E2,2.65E2,1.105E3,3.3E2,1.661E3,1.4E1,1.7E1,8E0,1.2E1,6E0,1E1,6.6E1,6.9E1,3E0,1.3E1,1.2E1,6.8E1,1.14E2,1.65E2,2.3E1,8E0,7.6E1,2.7E1,1E1,5.8E1,6.4E1,3E1,1.01E2,2.7E1,2.3E1,4.4E1],"tree_param":{"num_deleted":"0","num_feature":"54","num_nodes":"241","size_leaf_vector":"1"}},{"base_weights":[1.7824901E-4,-2.3011945E-2,4.5927327E-2,1.721069E-2,-4.3487288E-2,2.6655335E-2,1.5908253E-1,5.549939E-2,-1.1032488E-2,-4.186787E-3,-7.1079776E-2,1.3545839E-2,7.1260415E-2,9.842186E-2,2.0779322E-1,3.5408705E-2,1.4364988E-1,-3.0666417E-2,2.2815378E-2,-1.8600889E-2,3.264726E-2,-1.0692516E-1,-9.2502395E-3,1.10497825E-1,6.380276E-3,-3.9568115E-2,8.2880415E-2,2.2721114E-2,1.645338E-1,2.2775859E-1,8.717584E-3,-2.5594002E-2,5.232462E-2,1.2568543E-2,2.0737064E-1,-5.836558E-2,4.2684837E-3,7.174247E-3,1.7556752E-1,-2.8306136E-2,2.8412212E-2,4.61523E-2,-2.9369064E-2,-1.970143E-1,-9.151121E-2,-4.327235E-2,4.6128266E-2,6.2367488E-2,2.7587637E-1,4.809216E-2,-1.4038118E-2,6.810275E-2,-6.686368E-2,1.0735679E-1,3.946309E-2,-3.3986773E-2,1.1946568E-1,7.52533E-2,2.361843E-1,1.365151E-1,2.8621688E-1,-6.490045E-2,2.28949E-1,-3.2219313E-2,2.309237E-2,7.9835564E-2,-4.5418728E-4,1.8621646E-1,-1.7815668E-2,2.7038788E-2,2.4516454E-1,5.5384703E-2,-6.432235E-2,-1.0632686E-2,8.4267765E-2,4.143499E-3,2.624825E-1,1.3634239E-1,4.9926943E-1,-9.33618E-2,-2.2113033E-2,-2.6943434E-2,6.44096E-2,3.1037813E-2,1.1326302E-1,-1.20164305E-2,-1.0808616E-1,-2.5630125E-1,-1.7280312E-1,7.0150085E-2,-9.740864E-2,1.6912621E-1,-5.4736692E-2,8.364372E-2,-9.958676E-2,1.3518962E-2,1.514222E-1,3.6628193E-1,2.5962943E-2,7.628202E-2,-5.844023E-3,-2.3373531E-2,2.8200453E-2,1.4748326E-1,-3.2517E-5,-2.5967248E-3,-8.222962E-3,3.2310482E-2,1.0394434E-1,-5.539666E-2,6.10204E-2,-9.9020535E-3,-8.575336E-3,3.058293E-1,3.3863615E-2,3.4918663E-1,3.3825055E-2,3.3914044E-1,2.9641375E-2,1.8672964E-1,-7.118016E-2,2.0933525E-1,4.7741005E-1,-9.319619E-3,-7.731841E-3,2.9789764E-2,2.2630967E-2,4.6658717E-4,-2.9573757E-3,2.7426576E-2,3.6877429E-3,-1.6490623E-4,1.064584E-2,1.3398482E-2,-4.814317E-3,1.0165781E-2,-2.1102927E-3,-9.976982E-4,1.7182473E-2,-3.3855475E-3,1.353947E-2,1.3941033E-3,1.4866601E-2,-7.590399E-4,-3.9128163E-3,-1.8235398E-3,1.1703235E-3,9.741663E-3,2.1846227E-3,-7.764439E-4,1.5447702E-3,5.9498445E-4,2.0198636E-2,4.9110944E-3,1.9539561E-2,3.0308237E-2,9.369262E-3,-4.9972683E-3,1.3122419E-2,-1.7235829E-3,3.2744496E-4,-3.8915554E-3,-5.6969235E-4,8.177874E-3,1.9254739E-3,3.0140989E-3,-5.0579885E-4,3.8649344E-3,1.45162E-2,-1.0807299E-3,8.952471E-3,-9.608113E-3,-1.4075507E-4,-1.0674997E-2,-1.4955479E-2,-8.817992E-3,9.969696E-3,7.4940505E-3,-4.6737557E-3,-2.914893E-3,-5.7420773E-3,1.3189425E-2,-9.6600765E-4,-3.6482997E-3,1.6853086E-3,2.3120868E-3,7.3211053E-3,-6.6972175E-3,1.9389527E-3,8.211149E-3,-8.146263E-4,1.872967E-2,3.1279207E-3,-7.2684805E-3,2.0463092E-2,9.489054E-3,-4.472338E-3,5.0036577E-3,-1.0378503E-3,-2.2731822E-3,1.6289505E-3,1.5423043E-3,-1.5812491E-3,4.33378E-3,4.2018696E-4,1.2917782E-3,1.4254983E-2,4.1345386E-3,8.8536935E-3,1.4912124E-3,-8.303582E-3,2.6020405E-3,1.7916512E-2,-2.6550777E-3,3.8267279E-3,2.2154637E-2,-1.3393164E-4,2.965242E-4,2.0473912E-2,2.3589749E-2,7.083176E-3,5.012452E-3,-2.5531827E-3,5.778264E-3,3.2573774E-2,1.2686654E-2,-3.9953683E-3,7.888227E-3,1.8312722E-2,1.5655417E-3,-8.758107E-3,2.0996599E-2,6.8175765E-3,1.9082127E-2,3.430487E-2,-4.5545357E-3,1.460305E-2,5.766358E-3,-4.6565332E-3],"categories":[],"categories_nodes":[],"categories_segments":[],"categories_sizes":[],"default_left":[0,0,0,0,0,0,0,0,0,0,0,0,0,0,0,0,0,0,0,0,0,0,0,0,0,0,0,0,0,0,0,0,0,0,0,0,0,0,0,0,0,0,0,0,0,0,0,0,0,0,0,0,0,0,0,0,0,0,0,0,0,0,0,0,0,0,0,0,0,0,0,0,0,0,0,0,0,0,0,0,0,0,0,0,0,0,0,0,0,0,0,0,0,0,0,0,0,0,0,0,0,0,0,0,0,0,0,0,0,0,0,0,0,0,0,0,0,0,0,0,0,0,0,0,0,0,0,0,0,0,0,0,0,0,0,0,0,0,0,0,0,0,0,0,0,0,0,0,0,0,0,0,0,0,0,0,0,0,0,0,0,0,0,0,0,0,0,0,0,0,0,0,0,0,0,0,0,0,0,0,0,0,0,0,0,0,0,0,0,0,0,0,0,0,0,0,0,0,0,0,0,0,0,0,0,0,0,0,0,0,0,0,0,0,0,0,0,0,0,0,0,0,0,0,0,0,0,0,0,0,0,0,0,0,0,0,0,0,0],"id":1,"left_children":[1,3,5,7,9,11,13,15,17,19,21,23,25,27,29,31,33,35,37,39,41,43,45,47,49,51,53,55,57,59,61,63,65,67,69,71,73,75,77,79,81,83,85,87,89,91,93,95,97,99,101,103,105,107,109,111,113,115,117,119,121,123,125,127,-1,129,131,133,135,137,139,141,143,145,147,149,151,153,155,157,159,161,163,165,167,169,171,173,175,177,179,181,183,185,187,189,191,193,195,197,199,201,203,205,-1,-1,-1,-1,207,209,211,-1,213,215,217,219,221,223,225,227,229,231,233,235,-1,-1,237,-1,-1,-1,-1,-1,-1,-1,-1,-1,-1,-1,-1,-1,-1,-1,-1,-1,-1,-1,-1,-1,-1,-1,-1,-1,-1,-1,-1,-1,-1,-1,-1,-1,-1,-1,-1,-1,-1,-1,-1,-1,-1,-1,-1,-1,-1,-1,-1,-1,-1,-1,-1,-1,-1,-1,-1,-1,-1,-1,-1,-1,-1,-1,-1,-1,-1,-1,-1,-1,-1,-1,-1,-1,-1,-1,-1,-1,-1,-1,-1,-1,-1,-1,-1,-1,-1,-1,-1,-1,-1,-1,-1,-1,-1,-1,-1,-1,-1,-1,-1,-1,-1,-1,-1,-1,-1,-1,-1,-1,-1,-1,-1],"loss_changes":[2.317177E1,1.1937604E1,1.6017555E1,5.2886314E0,1.041535E1,3.6706805E0,3.1382523E0,3.671516E0,1.8714547E0,2.1046817E0,1.2505615E1,3.3714447E0,1.8397212E0,2.3885183E0,2.3509865E0,1.7473421E0,3.2131448E0,1.7246325E0,2.46919E0,1.3007281E0,9.3520486E-1,4.942154E0,3.905838E0,2.6413422E0,3.8511643E0,4.0424895E-1,1.3677073E0,1.2329644E0,1.6134601E0,2.8305874E0,9.0657413E-1,1.2033182E0,1.9239292E0,6.733892E-1,1.7585707E0,6.770816E-1,9.414494E-1,7.2548705E-1,1.1508644E0,9.495771E-1,9.741528E-1,9.256239E-1,2.7189097E-1,7.0355797E-1,2.916563E0,3.1358097E0,4.32145E0,1.1290027E0,1.6850071E0,2.2598395E0,1.1977981E0,1.5291026E-1,1.502743E-1,1.4498472E0,9.583584E-1,5.9027916E-1,1.3137518E0,1.2932754E0,2.9882922E0,2.2243073E0,4.7067146E0,2.0803896E-1,1.0461345E0,4.0782985E-1,0E0,2.4418964E0,2.768025E-1,4.6461624E-1,5.964653E-1,6.9126385E-1,1.7340555E0,3.2441926E-1,6.4588904E-1,5.866057E-1,5.4777956E-1,4.8938793E-1,3.8519806E-1,8.054912E-1,2.1980333E-1,5.064423E-1,7.646369E-1,1.5183069E-1,7.5381243E-1,9.0203756E-1,1.0473626E0,3.0646062E-1,3.180871E-1,2.091465E-1,5.289421E-1,1.4229767E0,2.0012493E0,1.182455E0,1.967794E0,1.4677963E0,7.753285E-1,7.6194376E-1,1.8010957E0,1.2689848E0,4.1400552E-1,2.2553372E0,7.793795E-1,1.1136354E0,6.359602E-1,2.1026364E-1,0E0,0E0,0E0,0E0,1.2614079E0,8.2552135E-1,9.9851584E-1,0E0,4.7397715E-1,1.1022055E0,6.06113E-1,3.1482458E-1,5.7462233E-1,6.488765E0,1.1986252E0,8.314104E-1,4.5308763E-1,3.5547237E0,1.5968037E0,6.919982E-1,0E0,0E0,1.1804713E-1,0E0,0E0,0E0,0E0,0E0,0E0,0E0,0E0,0E0,0E0,0E0,0E0,0E0,0E0,0E0,0E0,0E0,0E0,0E0,0E0,0E0,0E0,0E0,0E0,0E0,0E0,0E0,0E0,0E0,0E0,0E0,0E0,0E0,0E0,0E0,0E0,0E0,0E0,0E0,0E0,0E0,0E0,0E0,0E0,0E0,0E0,0E0,0E0,0E0,0E0,0E0,0E0,0E0,0E0,0E0,0E0,0E0,0E0,0E0,0E0,0E0,0E0,0E0,0E0,0E0,0E0,0E0,0E0,0E0,0E0,0E0,0E0,0E0,0E0,0E0,0E0,0E0,0E0,0E0,0E0,0E0,0E0,0E0,0E0,0E0,0E0,0E0,0E0,0E0,0E0,0E0,0E0,0E0,0E0,0E0,0E0,0E0,0E0,0E0,0E0,0E0,0E0,0E0,0E0,0E0,0E0,0E0,0E0,0E0,0E0,0E0,0E0],"parents":[2147483647,0,0,1,1,2,2,3,3,4,4,5,5,6,6,7,7,8,8,9,9,10,10,11,11,12,12,13,13,14,14,15,15,16,16,17,17,18,18,19,19,20,20,21,21,22,22,23,23,24,24,25,25,26,26,27,27,28,28,29,29,30,30,31,31,32,32,33,33,34,34,35,35,36,36,37,37,38,38,39,39,40,40,41,41,42,42,43,43,44,44,45,45,46,46,47,47,48,48,49,49,50,50,51,51,52,52,53,53,54,54,55,55,56,56,57,57,58,58,59,59,60,60,61,61,62,62,63,63,65,65,66,66,67,67,68,68,69,69,70,70,71,71,72,72,73,73,74,74,75,75,76,76,77,77,78,78,79,79,80,80,81,81,82,82,83,83,84,84,85,85,86,86,87,87,88,88,89,89,90,90,91,91,92,92,93,93,94,94,95,95,96,96,97,97,98,98,99,99,100,100,101,101,102,102,103,103,108,108,109,109,110,110,112,112,113,113,114,114,115,115,116,116,117,117,118,118,119,119,120,120,121,121,122,122,123,123,126,126],"right_children":[2,4,6,8,10,12,14,16,18,20,22,24,26,28,30,32,34,36,38,40,42,44,46,48,50,52,54,56,58,60,62,64,66,68,70,72,74,76,78,80,82,84,86,88,90,92,94,96,98,100,102,104,106,108,110,112,114,116,118,120,122,124,126,128,-1,130,132,134,136,138,140,142,144,146,148,150,152,154,156,158,160,162,164,166,168,170,172,174,176,178,180,182,184,186,188,190,192,194,196,198,200,202,204,206,-1,-1,-1,-1,208,210,212,-1,214,216,218,220,222,224,226,228,230,232,234,236,-1,-1,238,-1,-1,-1,-1,-1,-1,-1,-1,-1,-1,-1,-1,-1,-1,-1,-1,-1,-1,-1,-1,-1,-1,-1,-1,-1,-1,-1,-1,-1,-1,-1,-1,-1,-1,-1,-1,-1,-1,-1,-1,-1,-1,-1,-1,-1,-1,-1,-1,-1,-1,-1,-1,-1,-1,-1,-1,-1,-1,-1,-1,-1,-1,-1,-1,-1,-1,-1,-1,-1,-1,-1,-1,-1,-1,-1,-1,-1,-1,-1,-1,-1,-1,-1,-1,-1,-1,-1,-1,-1,-1,-1,-1,-1,-1,-1,-1,-1,-1,-1,-1,-1,-1,-1,-1,-1,-1,-1,-1,-1,-1,-1,-1],"split_conditions":[-7.958653E-2,-5.2873254E-2,-2.1281324E-2,-1.6844887E-1,-3.229438E-2,7.302491E-1,-5.097389E-2,1.6528876E-1,-8.0371596E-2,-1.7182212E-1,-7.727056E-2,-4.995328E-1,-6.467886E-1,1.3163419E0,2.4875405E-1,-2.0771715E-1,-1.6337976E-1,-4.7656298E-1,-3.510065E-1,-1.4270079E-1,1.3413578E0,-2.7371222E-1,-1.7648381E-1,-4.040764E-1,-1.0407045E0,-3.717599E-1,-1.4470467E-2,-2.1578364E-2,-1.2715566E-2,-5.499995E-2,2.3054118E0,-3.188199E-3,-1.5502481E-1,-2.3229074E-1,-7.113125E-2,-7.491934E-1,-4.1136242E-2,8.1027716E-1,7.620231E-1,-8.248041E-1,-1.0540311E0,2.4636297E-1,2.985996E-1,-4.0749466E-1,-5.950528E-2,-3.0154663E-1,-8.947342E-2,7.863643E-2,-8.159455E-1,1.8719886E-1,1.0306087E0,-2.7527327E-2,-5.749924E-1,-2.0437594E-1,-4.113275E-2,-5.655337E-2,-1.3291784E-1,1.5021485E0,-3.605602E-2,-5.5670973E-2,2.1194952E0,3.535842E0,3.1799443E0,-8.5209954E-1,2.309237E-2,-1.0046568E-1,1.1123928E0,-3.1832337E-2,-1.245528E0,-1.5889229E-1,-5.72306E-1,-4.121488E-2,-2.0580417E-1,-1.7578965E-1,-3.7687656E-2,-1.5862197E-1,-3.836212E-1,1.4601531E0,-1.6588457E-1,-4.1763447E-2,-1.7514138E-1,-3.885372E-1,-2.5666177E-1,-3.8707543E-2,-7.587583E-2,2.1519876E-1,7.0272845E-1,1.0020494E0,-2.5565967E-1,-7.8145176E-1,8.292496E-3,1.17203355E-1,8.765259E-1,-7.249785E-2,-5.4040123E-2,-8.845542E-2,1.5807919E-1,-3.1884715E-1,-1.4493735E-1,-2.6769891E-2,1.9243631E-1,-2.6408342E-1,1.7389456E-2,2.7116338E-2,-3.2517E-5,-2.5967248E-3,-8.222962E-3,3.2310482E-2,1.3056499E0,1.1092733E0,-7.253897E-2,-9.9020535E-3,-1.4062841E-1,9.861005E-2,1.189717E0,-1.2204919E-1,-2.105032E-2,2.4280136E0,1.6572075E0,2.9375672E0,2.9387074E0,-1.5686682E-3,9.8621595E-1,2.2099946E0,-7.731841E-3,2.9789764E-2,4.7142906E0,4.6658717E-4,-2.9573757E-3,2.7426576E-2,3.6877429E-3,-1.6490623E-4,1.064584E-2,1.3398482E-2,-4.814317E-3,1.0165781E-2,-2.1102927E-3,-9.976982E-4,1.7182473E-2,-3.3855475E-3,1.353947E-2,1.3941033E-3,1.4866601E-2,-7.590399E-4,-3.9128163E-3,-1.8235398E-3,1.1703235E-3,9.741663E-3,2.1846227E-3,-7.764439E-4,1.5447702E-3,5.9498445E-4,2.0198636E-2,4.9110944E-3,1.9539561E-2,3.0308237E-2,9.369262E-3,-4.9972683E-3,1.3122419E-2,-1.7235829E-3,3.2744496E-4,-3.8915554E-3,-5.6969235E-4,8.177874E-3,1.9254739E-3,3.0140989E-3,-5.0579885E-4,3.8649344E-3,1.45162E-2,-1.0807299E-3,8.952471E-3,-9.608113E-3,-1.4075507E-4,-1.0674997E-2,-1.4955479E-2,-8.817992E-3,9.969696E-3,7.4940505E-3,-4.6737557E-3,-2.914893E-3,-5.7420773E-3,1.3189425E-2,-9.6600765E-4,-3.6482997E-3,1.6853086E-3,2.3120868E-3,7.3211053E-3,-6.6972175E-3,1.9389527E-3,8.211149E-3,-8.146263E-4,1.872967E-2,3.1279207E-3,-7.2684805E-3,2.0463092E-2,9.489054E-3,-4.472338E-3,5.0036577E-3,-1.0378503E-3,-2.2731822E-3,1.6289505E-3,1.5423043E-3,-1.5812491E-3,4.33378E-3,4.2018696E-4,1.2917782E-3,1.4254983E-2,4.1345386E-3,8.8536935E-3,1.4912124E-3,-8.303582E-3,2.6020405E-3,1.7916512E-2,-2.6550777E-3,3.8267279E-3,2.2154637E-2,-1.3393164E-4,2.965242E-4,2.0473912E-2,2.3589749E-2,7.083176E-3,5.012452E-3,-2.5531827E-3,5.778264E-3,3.2573774E-2,1.2686654E-2,-3.9953683E-3,7.888227E-3,1.8312722E-2,1.5655417E-3,-8.758107E-3,2.0996599E-2,6.8175765E-3,1.9082127E-2,3.430487E-2,-4.5545357E-3,1.460305E-2,5.766358E-3,-4.6565332E-3],"split_indices":[34,25,37,39,37,0,9,35,11,18,43,12,13,36,52,33,9,4,2,27,15,28,26,13,3,6,32,32,31,46,14,16,26,11,53,3,52,36,6,4,2,18,11,28,17,12,33,20,0,11,29,31,12,43,43,38,19,35,51,53,3,35,0,22,0,37,10,32,1,28,11,52,10,18,51,50,20,0,18,12,50,14,12,29,46,11,11,22,4,0,3,29,1,27,28,9,28,2,19,31,33,19,34,39,0,0,0,0,3,35,49,0,9,27,37,13,31,36,3,36,2,16,38,2,0,0,3,0,0,0,0,0,0,0,0,0,0,0,0,0,0,0,0,0,0,0,0,0,0,0,0,0,0,0,0,0,0,0,0,0,0,0,0,0,0,0,0,0,0,0,0,0,0,0,0,0,0,0,0,0,0,0,0,0,0,0,0,0,0,0,0,0,0,0,0,0,0,0,0,0,0,0,0,0,0,0,0,0,0,0,0,0,0,0,0,0,0,0,0,0,0,0,0,0,0,0,0,0,0,0,0,0,0,0,0,0,0,0,0],"split_type":[0,0,0,0,0,0,0,0,0,0,0,0,0,0,0,0,0,0,0,0,0,0,0,0,0,0,0,0,0,0,0,0,0,0,0,0,0,0,0,0,0,0,0,0,0,0,0,0,0,0,0,0,0,0,0,0,0,0,0,0,0,0,0,0,0,0,0,0,0,0,0,0,0,0,0,0,0,0,0,0,0,0,0,0,0,0,0,0,0,0,0,0,0,0,0,0,0,0,0,0,0,0,0,0,0,0,0,0,0,0,0,0,0,0,0,0,0,0,0,0,0,0,0,0,0,0,0,0,0,0,0,0,0,0,0,0,0,0,0,0,0,0,0,0,0,0,0,0,0,0,0,0,0,0,0,0,0,0,0,0,0,0,0,0,0,0,0,0,0,0,0,0,0,0,0,0,0,0,0,0,0,0,0,0,0,0,0,0,0,0,0,0,0,0,0,0,0,0,0,0,0,0,0,0,0,0,0,0,0,0,0,0,0,0,0,0,0,0,0,0,0,0,0,0,0,0,0,0,0,0,0,0,0,0,0,0,0,0,0],"sum_hessian":[2.1839E4,1.4493E4,7.346E3,4.889E3,9.604E3,6.278E3,1.068E3,2.075E3,2.814E3,3.962E3,5.642E3,4.853E3,1.425E3,4.77E2,5.91E2,1.691E3,3.84E2,1.781E3,1.033E3,2.848E3,1.114E3,3.571E3,2.071E3,3.33E2,4.52E3,1.35E2,1.29E3,2.23E2,2.54E2,5.37E2,5.4E1,3.67E2,1.324E3,1.26E2,2.58E2,9.93E2,7.88E2,9.38E2,9.5E1,2.361E3,4.87E2,9.15E2,1.99E2,5.2E2,3.051E3,1.283E3,7.88E2,2.59E2,7.4E1,1.485E3,3.035E3,2.7E1,1.08E2,8.24E2,4.66E2,1.41E2,8.2E1,1.14E2,1.4E2,2.11E2,3.26E2,4.1E1,1.3E1,3.63E2,4E0,8.7E2,4.54E2,1.8E1,1.08E2,4.5E1,2.13E2,4.9E1,9.44E2,6.65E2,1.23E2,9.28E2,1E1,8.6E1,9E0,2.04E2,2.157E3,1.92E2,2.95E2,7.48E2,1.67E2,1.64E2,3.5E1,1.48E2,3.72E2,1.07E2,2.944E3,6.5E1,1.218E3,6.27E2,1.61E2,1.68E2,9.1E1,5.4E1,2E1,9.75E2,5.1E2,2.486E3,5.49E2,1.2E1,1.5E1,9.5E1,1.3E1,4E0,8.2E2,8.6E1,3.8E2,1.8E1,1.23E2,2.5E1,5.7E1,1.4E1,1E2,9.3E1,4.7E1,1.7E2,4.1E1,2.34E2,9.2E1,2.6E1,1.5E1,4E0,9E0,1.43E2,2.2E2,1E1,8.6E2,4.49E2,5E0,1.4E1,4E0,1E1,9.8E1,4E1,5E0,1.6E1,1.97E2,4.5E1,4E0,2.09E2,7.35E2,3.78E2,2.87E2,3.2E1,9.1E1,5.35E2,3.93E2,4E0,6E0,7.6E1,1E1,6E0,3E0,2.01E2,3E0,1.507E3,6.5E2,4.4E1,1.48E2,6E1,2.35E2,4.37E2,3.11E2,1.4E2,2.7E1,1.57E2,7E0,1.9E1,1.6E1,7.7E1,7.1E1,3.69E2,3E0,7.2E1,3.5E1,9.09E2,2.035E3,4.3E1,2.2E1,1.01E3,2.08E2,3.94E2,2.33E2,1.29E2,3.2E1,2.7E1,1.41E2,2.5E1,6.6E1,4E0,5E1,8E0,1.2E1,7.83E2,1.92E2,2.51E2,2.59E2,3.28E2,2.158E3,1.38E2,4.11E2,7E0,5E0,6.37E2,1.83E2,4.9E1,3.7E1,3.7E2,1E1,8.1E1,4.2E1,1.7E1,8E0,5.4E1,3E0,8E0,6E0,5.6E1,4.4E1,5.5E1,3.8E1,1.5E1,3.2E1,1.48E2,2.2E1,2.1E1,2E1,5.9E1,1.75E2,6.5E1,2.7E1,2.1E1,5E0,5E0,4E0],"tree_param":{"num_deleted":"0","num_feature":"54","num_nodes":"239","size_leaf_vector":"1"}},{"base_weights":[-1.4041417E-4,-2.1610394E-2,4.230482E-2,1.1841915E-2,-4.2785507E-2,2.4650695E-2,1.4563268E-1,4.213713E-2,-2.0164093E-2,-8.3757855E-2,-1.669607E-2,-1.281437E-2,3.9863244E-2,1.617158E-1,-1.1990739E-2,2.7222652E-2,1.2059747E-1,-3.714636E-2,8.4539E-3,-1.293342E-1,-1.5250171E-2,-3.7941832E-2,1.7181233E-2,-1.4258006E-2,3.2127596E-2,6.5547295E-2,1.8557684E-2,1.3811854E-1,3.5502157E-1,-6.947727E-2,5.9814513E-2,-6.270675E-3,4.737581E-2,3.1530613E-1,8.668685E-2,-4.7237247E-2,5.8635913E-2,-1.2374389E-1,1.7590798E-2,-2.0587759E-1,-1.11653015E-1,-2.3668148E-2,2.2193642E-2,5.8135204E-2,-4.588137E-2,-3.3863712E-2,4.2164676E-2,-2.464353E-2,7.860529E-2,9.286139E-2,-3.9290404E-3,-6.641045E-4,6.616067E-2,1.0784778E-1,2.111557E-1,2.2265424E-1,4.7130722E-1,-6.60965E-4,-6.053442E-3,3.156123E-1,-1.29019385E-2,6.030824E-2,-2.587711E-2,7.019603E-2,-1.004853E-2,1.0081367E-1,3.9641923E-1,-5.493744E-4,1.3477196E-1,-7.074846E-2,-1.922217E-2,-5.743526E-2,8.8313654E-2,-1.3969588E-1,4.9404767E-3,-2.5436033E-2,5.6546066E-2,-2.4693833E-1,-1.786746E-1,5.921999E-2,-1.2234297E-1,7.510606E-4,-3.7034422E-2,4.0944837E-2,-9.249262E-2,1.819883E-1,1.480658E-2,-5.885939E-2,6.041983E-3,-2.1584542E-2,-1.6686876E-1,3.923709E-2,4.2702075E-2,2.4164207E-2,-3.8740344E-2,2.612976E-2,1.6416478E-1,7.365699E-2,2.2138421E-1,1.649843E-2,-8.9688696E-2,-5.8277645E-3,1.07781164E-1,8.915049E-2,-8.470088E-3,2.2903135E-1,8.9037105E-2,1.8041033E-1,7.2313666E-1,4.694344E-1,-7.4533224E-2,5.645971E-1,-6.824046E-2,-3.5347436E-3,4.055017E-3,3.1105622E-3,2.370889E-2,-4.0658163E-3,1.14394E-1,-1.1527005E-4,9.32382E-3,9.3342824E-4,-2.1157884E-3,8.220072E-4,4.535937E-3,-1.0914826E-3,2.8402668E-3,1.5551004E-2,5.005097E-4,-1.228856E-4,2.1124318E-2,-1.4641228E-3,2.7683353E-2,8.42702E-3,-2.7854454E-3,-3.6767942E-3,1.14864595E-2,5.2363076E-3,-1.1949358E-3,4.771475E-3,-4.6800096E-3,5.851882E-4,6.2807514E-3,-1.4153245E-2,-5.815114E-3,1.9100131E-3,-2.8324588E-3,4.198887E-3,7.931619E-4,-1.043951E-2,-1.4321263E-2,-4.1859974E-3,-9.498919E-3,1.567376E-2,-8.255965E-4,2.5928118E-3,-6.343887E-3,3.4003687E-4,-3.993305E-3,-2.3822584E-3,9.724304E-4,9.0815005E-4,5.7817376E-3,5.4755276E-3,-5.708752E-3,2.8120165E-3,1.2864607E-2,7.998708E-3,-1.5019131E-3,-6.0028466E-4,-4.730555E-3,2.5641096E-3,-3.7914563E-3,-1.6135514E-3,4.5459415E-3,3.2919452E-3,-9.266281E-3,2.7846291E-3,-2.328167E-3,3.2923536E-3,-1.9049563E-3,1.1366194E-3,-2.4427774E-3,-6.136653E-4,4.6127904E-3,1.0303174E-2,-6.902789E-3,6.35532E-3,8.206474E-4,1.7089581E-2,7.0113437E-3,-2.2498216E-4,8.141923E-3,6.1958083E-3,-6.3682618E-3,3.4172912E-3,-7.42247E-4,8.508671E-3,-4.9101766E-3,2.3621968E-4,6.663445E-3,-6.8158507E-3,1.1538906E-3,6.20453E-3,2.1349264E-2,1.1898385E-3,7.884943E-3,2.5696268E-2,7.634041E-3,1.2662207E-2,4.4288468E-2,8.492977E-3,3.1321414E-2,1.1187912E-3,-1.35574145E-2,3.953182E-2,1.7580887E-2,-9.477754E-3,6.5395804E-3,-2.2328966E-3,1.8890435E-2],"categories":[],"categories_nodes":[],"categories_segments":[],"categories_sizes":[],"default_left":[0,0,0,0,0,0,0,0,0,0,0,0,0,0,0,0,0,0,0,0,0,0,0,0,0,0,0,0,0,0,0,0,0,0,0,0,0,0,0,0,0,0,0,0,0,0,0,0,0,0,0,0,0,0,0,0,0,0,0,0,0,0,0,0,0,0,0,0,0,0,0,0,0,0,0,0,0,0,0,0,0,0,0,0,0,0,0,0,0,0,0,0,0,0,0,0,0,0,0,0,0,0,0,0,0,0,0,0,0,0,0,0,0,0,0,0,0,0,0,0,0,0,0,0,0,0,0,0,0,0,0,0,0,0,0,0,0,0,0,0,0,0,0,0,0,0,0,0,0,0,0,0,0,0,0,0,0,0,0,0,0,0,0,0,0,0,0,0,0,0,0,0,0,0,0,0,0,0,0,0,0,0,0,0,0,0,0,0,0,0,0,0,0,0,0,0,0,0,0,0,0,0,0,0,0,0,0,0,0,0,0,0,0,0,0,0,0,0,0,0,0],"id":2,"left_children":[1,3,5,7,9,11,13,15,17,19,21,23,25,27,29,31,33,35,37,39,41,43,45,47,-1,49,51,53,55,57,59,61,63,65,67,69,71,73,75,77,79,81,83,85,87,89,91,93,95,97,99,101,103,105,107,109,111,113,-1,115,117,119,121,123,125,127,129,131,133,135,137,139,141,143,-1,145,147,149,151,153,155,157,159,161,163,165,167,169,171,173,175,177,-1,179,181,183,185,187,189,191,193,195,197,199,201,203,205,207,209,211,213,215,217,-1,-1,-1,-1,-1,219,-1,-1,-1,-1,-1,-1,-1,-1,-1,-1,-1,-1,-1,-1,-1,-1,-1,-1,-1,-1,-1,-1,-1,-1,-1,-1,-1,-1,-1,-1,-1,-1,-1,-1,-1,-1,-1,-1,-1,-1,-1,-1,-1,-1,-1,-1,-1,-1,-1,-1,-1,-1,-1,-1,-1,-1,-1,-1,-1,-1,-1,-1,-1,-1,-1,-1,-1,-1,-1,-1,-1,-1,-1,-1,-1,-1,-1,-1,-1,-1,-1,-1,-1,-1,-1,-1,-1,-1,-1,-1,-1,-1,-1,-1,-1,-1,-1,-1,-1,-1,-1,-1],"loss_changes":[1.9896381E1,1.0270967E1,1.3374822E1,5.451134E0,9.489767E0,3.5711794E0,2.7144718E0,3.3762407E0,1.3290336E0,1.0782553E1,3.9060106E0,1.7216213E0,2.4371653E0,4.380167E0,4.1693926E-1,1.639188E0,3.0165076E0,1.6613321E0,1.2330041E0,2.783924E0,4.3581808E-1,2.5466285E0,2.6693106E0,1.7446694E0,0E0,3.8336859E0,2.2299347E0,1.8940716E0,1.5112648E0,1.9873908E-1,8.411039E-1,1.1933682E0,1.9873259E0,1.1431093E0,1.6528108E0,1.0215523E0,5.7000804E-1,2.4811447E-1,1.6004584E0,3.8926315E-1,3.0887623E0,3.6820012E-1,5.500152E-1,1.3657331E0,2.0765262E0,1.120034E0,3.3059492E0,1.1196787E0,8.1285036E-1,3.5625887E0,1.0017877E0,9.7330385E-1,1.2034943E0,1.3815279E0,3.852024E0,3.7753272E0,2.8069153E0,1.4888497E-1,0E0,3.7230748E-1,3.2282156E-1,1.6435981E0,5.177733E-1,1.195498E0,3.4148908E-1,3.7863606E-1,5.1052E-1,2.261546E0,1.643178E0,7.23793E-1,4.1405433E-1,1.9689593E-1,3.728825E-1,1.7502177E-1,0E0,9.039392E-1,5.5778265E-1,1.6916275E-1,2.3847818E-1,1.9306995E0,1.2610245E0,1.9562626E-1,4.3783605E-1,3.705443E-1,1.7018044E-1,6.105039E-1,1.2417085E0,4.127987E0,2.2891736E0,7.615636E-1,2.613145E-1,1.980649E0,0E0,9.497982E-1,7.858335E-1,2.9062876E-1,9.02171E-1,3.8622646E0,1.789197E0,1.4203932E0,9.0105045E-1,1.110614E0,1.0320079E0,1.9958339E0,6.7267394E-1,1.6504374E0,2.388309E0,2.1411042E0,8.45562E-1,1.210474E0,4.633579E-1,1.9846582E0,2.421017E-1,0E0,0E0,0E0,0E0,0E0,5.6152815E-1,0E0,0E0,0E0,0E0,0E0,0E0,0E0,0E0,0E0,0E0,0E0,0E0,0E0,0E0,0E0,0E0,0E0,0E0,0E0,0E0,0E0,0E0,0E0,0E0,0E0,0E0,0E0,0E0,0E0,0E0,0E0,0E0,0E0,0E0,0E0,0E0,0E0,0E0,0E0,0E0,0E0,0E0,0E0,0E0,0E0,0E0,0E0,0E0,0E0,0E0,0E0,0E0,0E0,0E0,0E0,0E0,0E0,0E0,0E0,0E0,0E0,0E0,0E0,0E0,0E0,0E0,0E0,0E0,0E0,0E0,0E0,0E0,0E0,0E0,0E0,0E0,0E0,0E0,0E0,0E0,0E0,0E0,0E0,0E0,0E0,0E0,0E0,0E0,0E0,0E0,0E0,0E0,0E0,0E0,0E0,0E0,0E0,0E0,0E0,0E0,0E0,0E0],"parents":[2147483647,0,0,1,1,2,2,3,3,4,4,5,5,6,6,7,7,8,8,9,9,10,10,11,11,12,12,13,13,14,14,15,15,16,16,17,17,18,18,19,19,20,20,21,21,22,22,23,23,25,25,26,26,27,27,28,28,29,29,30,30,31,31,32,32,33,33,34,34,35,35,36,36,37,37,38,38,39,39,40,40,41,41,42,42,43,43,44,44,45,45,46,46,47,47,48,48,49,49,50,50,51,51,52,52,53,53,54,54,55,55,56,56,57,57,59,59,60,60,61,61,62,62,63,63,64,64,65,65,66,66,67,67,68,68,69,69,70,70,71,71,72,72,73,73,75,75,76,76,77,77,78,78,79,79,80,80,81,81,82,82,83,83,84,84,85,85,86,86,87,87,88,88,89,89,90,90,91,91,93,93,94,94,95,95,96,96,97,97,98,98,99,99,100,100,101,101,102,102,103,103,104,104,105,105,106,106,107,107,108,108,109,109,110,110,111,111,112,112,118,118],"right_children":[2,4,6,8,10,12,14,16,18,20,22,24,26,28,30,32,34,36,38,40,42,44,46,48,-1,50,52,54,56,58,60,62,64,66,68,70,72,74,76,78,80,82,84,86,88,90,92,94,96,98,100,102,104,106,108,110,112,114,-1,116,118,120,122,124,126,128,130,132,134,136,138,140,142,144,-1,146,148,150,152,154,156,158,160,162,164,166,168,170,172,174,176,178,-1,180,182,184,186,188,190,192,194,196,198,200,202,204,206,208,210,212,214,216,218,-1,-1,-1,-1,-1,220,-1,-1,-1,-1,-1,-1,-1,-1,-1,-1,-1,-1,-1,-1,-1,-1,-1,-1,-1,-1,-1,-1,-1,-1,-1,-1,-1,-1,-1,-1,-1,-1,-1,-1,-1,-1,-1,-1,-1,-1,-1,-1,-1,-1,-1,-1,-1,-1,-1,-1,-1,-1,-1,-1,-1,-1,-1,-1,-1,-1,-1,-1,-1,-1,-1,-1,-1,-1,-1,-1,-1,-1,-1,-1,-1,-1,-1,-1,-1,-1,-1,-1,-1,-1,-1,-1,-1,-1,-1,-1,-1,-1,-1,-1,-1,-1,-1,-1,-1,-1,-1,-1],"split_conditions":[-7.958653E-2,-5.1785555E-2,-2.1281324E-2,-1.6234015E-1,-1.5028675E-1,-8.31029E-2,2.4875405E-1,-2.666079E-2,-1.4791271E-1,-1.61191E-1,-4.2394467E-2,4.666851E-2,-5.8443025E-2,2.3493183E0,1.0020494E0,-1.9422317E-1,-2.7524292E-1,-1.1650165E-1,-1.1270355E0,-3.0754888E-1,-7.054281E-2,-2.6091203E-1,-9.397537E-2,1.1127826E-3,3.2127596E-2,1.2270275E-1,4.4937202E-1,4.7904357E-2,1.3111913E-1,3.2697678E0,8.5727483E-1,-8.7235963E-1,-1.0888213E-1,-3.7538636E-1,-5.6177128E-2,-1.4855164E-1,-6.1155297E-2,1.2367175E-1,-9.31437E-2,-4.0749466E-1,-5.5904593E-2,-2.491436E-1,4.699519E-1,-1.4387298E-1,3.71923E-1,6.1211455E-1,2.1648324E0,-7.308169E-1,2.5577915E-1,1.1869043E0,1.0805444E0,1.0004154E0,1.2394885E-1,-9.6314013E-1,5.9215474E-1,1.476855E-1,6.952002E-1,5.407757E-1,-6.053442E-3,3.1122178E-1,3.3541662E-1,-4.4141868E-1,-8.5209954E-1,-1.5115832E-1,3.3899295E-1,2.6067218E-2,4.1136935E-1,-5.9666198E-2,7.3798853E-1,-5.0218436E-3,-6.890428E-2,-7.270482E-2,-1.3474494E-1,-2.530281E-1,4.9404767E-3,-7.056861E-2,3.022561E-1,1.0020494E0,-4.7891936E-1,-2.6693198E-1,-3.583301E-1,-3.9602086E-2,-2.8685909E-2,-2.6527314E-2,-3.092873E-2,-1.7276236E-1,-4.5950633E-2,-2.5277087E-1,-1.6568036E-1,1.0156696E0,-1.2374952E0,5.701701E-1,4.2702075E-2,-7.593332E-2,-2.6408342E-1,8.98384E-2,2.1215663E0,-2.1936226E-1,-1.3776959E-2,1.6787444E0,-1.7608264E-1,-1.4610473E0,2.1664097E0,-9.126058E-1,-3.1461094E-2,-4.9812965E-2,7.1925837E-1,1.0464313E-2,1.1387822E-1,-6.4087614E-2,2.1648324E0,6.02936E-1,7.321872E-2,-3.5347436E-3,4.055017E-3,3.1105622E-3,2.370889E-2,-4.0658163E-3,3.1328616E0,-1.1527005E-4,9.32382E-3,9.3342824E-4,-2.1157884E-3,8.220072E-4,4.535937E-3,-1.0914826E-3,2.8402668E-3,1.5551004E-2,5.005097E-4,-1.228856E-4,2.1124318E-2,-1.4641228E-3,2.7683353E-2,8.42702E-3,-2.7854454E-3,-3.6767942E-3,1.14864595E-2,5.2363076E-3,-1.1949358E-3,4.771475E-3,-4.6800096E-3,5.851882E-4,6.2807514E-3,-1.4153245E-2,-5.815114E-3,1.9100131E-3,-2.8324588E-3,4.198887E-3,7.931619E-4,-1.043951E-2,-1.4321263E-2,-4.1859974E-3,-9.498919E-3,1.567376E-2,-8.255965E-4,2.5928118E-3,-6.343887E-3,3.4003687E-4,-3.993305E-3,-2.3822584E-3,9.724304E-4,9.0815005E-4,5.7817376E-3,5.4755276E-3,-5.708752E-3,2.8120165E-3,1.2864607E-2,7.998708E-3,-1.5019131E-3,-6.0028466E-4,-4.730555E-3,2.5641096E-3,-3.7914563E-3,-1.6135514E-3,4.5459415E-3,3.2919452E-3,-9.266281E-3,2.7846291E-3,-2.328167E-3,3.2923536E-3,-1.9049563E-3,1.1366194E-3,-2.4427774E-3,-6.136653E-4,4.6127904E-3,1.0303174E-2,-6.902789E-3,6.35532E-3,8.206474E-4,1.7089581E-2,7.0113437E-3,-2.2498216E-4,8.141923E-3,6.1958083E-3,-6.3682618E-3,3.4172912E-3,-7.42247E-4,8.508671E-3,-4.9101766E-3,2.3621968E-4,6.663445E-3,-6.8158507E-3,1.1538906E-3,6.20453E-3,2.1349264E-2,1.1898385E-3,7.884943E-3,2.5696268E-2,7.634041E-3,1.2662207E-2,4.4288468E-2,8.492977E-3,3.1321414E-2,1.1187912E-3,-1.35574145E-2,3.953182E-2,1.7580887E-2,-9.477754E-3,6.5395804E-3,-2.2328966E-3,1.8890435E-2],"split_indices":[34,25,37,39,34,33,52,31,50,40,25,16,39,34,22,33,10,33,40,28,53,12,7,27,0,19,12,37,37,50,21,14,26,19,35,19,25,11,7,28,17,19,13,22,2,3,25,29,15,3,35,33,17,0,43,47,6,34,0,26,6,29,22,11,14,5,15,53,30,17,17,32,11,27,0,53,41,22,21,27,27,11,18,31,31,28,17,35,33,30,5,36,0,11,19,27,15,22,16,30,50,3,28,30,45,7,14,46,45,50,25,42,18,0,0,0,0,0,47,0,0,0,0,0,0,0,0,0,0,0,0,0,0,0,0,0,0,0,0,0,0,0,0,0,0,0,0,0,0,0,0,0,0,0,0,0,0,0,0,0,0,0,0,0,0,0,0,0,0,0,0,0,0,0,0,0,0,0,0,0,0,0,0,0,0,0,0,0,0,0,0,0,0,0,0,0,0,0,0,0,0,0,0,0,0,0,0,0,0,0,0,0,0,0,0,0,0,0,0,0,0],"split_type":[0,0,0,0,0,0,0,0,0,0,0,0,0,0,0,0,0,0,0,0,0,0,0,0,0,0,0,0,0,0,0,0,0,0,0,0,0,0,0,0,0,0,0,0,0,0,0,0,0,0,0,0,0,0,0,0,0,0,0,0,0,0,0,0,0,0,0,0,0,0,0,0,0,0,0,0,0,0,0,0,0,0,0,0,0,0,0,0,0,0,0,0,0,0,0,0,0,0,0,0,0,0,0,0,0,0,0,0,0,0,0,0,0,0,0,0,0,0,0,0,0,0,0,0,0,0,0,0,0,0,0,0,0,0,0,0,0,0,0,0,0,0,0,0,0,0,0,0,0,0,0,0,0,0,0,0,0,0,0,0,0,0,0,0,0,0,0,0,0,0,0,0,0,0,0,0,0,0,0,0,0,0,0,0,0,0,0,0,0,0,0,0,0,0,0,0,0,0,0,0,0,0,0,0,0,0,0,0,0,0,0,0,0,0,0,0,0,0,0,0,0],"sum_hessian":[2.1831E4,1.4498E4,7.333E3,5.62E3,8.878E3,6.264E3,1.069E3,2.887E3,2.733E3,3.453E3,5.425E3,1.809E3,4.455E3,9.7E2,9.9E1,2.427E3,4.6E2,1.715E3,1.018E3,2.073E3,1.38E3,3.334E3,2.091E3,1.806E3,3E0,2.019E3,2.436E3,8.66E2,1.04E2,5.5E1,4.4E1,9.12E2,1.515E3,6.7E1,3.93E2,1.552E3,1.63E2,6.5E1,9.53E2,3.87E2,1.686E3,1.127E3,2.53E2,2.54E2,3.08E3,6.87E2,1.404E3,1.625E3,1.81E2,1.449E3,5.7E2,1.736E3,7E2,6.14E2,2.52E2,5E1,5.4E1,2.4E1,3.1E1,9E0,3.5E1,2.07E2,7.05E2,1.084E3,4.31E2,1.9E1,4.8E1,1.4E2,2.53E2,8.43E2,7.09E2,3.3E1,1.3E2,6.1E1,4E0,4.53E2,5E2,1.51E2,2.36E2,9.9E1,1.587E3,3.99E2,7.28E2,2.18E2,3.5E1,6.5E1,1.89E2,2.464E3,6.16E2,6.3E2,5.7E1,1.4E3,4E0,3.64E2,1.261E3,1.13E2,6.8E1,1.262E3,1.87E2,4.61E2,1.09E2,1.658E3,7.8E1,5.35E2,1.65E2,8.1E1,5.33E2,2.39E2,1.3E1,2.7E1,2.3E1,4.6E1,8E0,1.3E1,1.1E1,4E0,5E0,2.3E1,1.2E1,1.39E2,6.8E1,1.9E2,5.15E2,3E2,7.84E2,3.67E2,6.4E1,5E0,1.4E1,3E0,4.5E1,1.34E2,6E0,2.15E2,3.8E1,8.36E2,7E0,2.5E1,6.84E2,6E0,2.7E1,4.3E1,8.7E1,7E0,5.4E1,1.49E2,3.04E2,2.98E2,2.02E2,8E1,7.1E1,2.6E1,2.1E2,2.2E1,7.7E1,4E1,1.547E3,3.72E2,2.7E1,6.13E2,1.15E2,1.68E2,5E1,3E0,3.2E1,2.5E1,4E1,4.4E1,1.45E2,1.067E3,1.397E3,3.97E2,2.19E2,5.76E2,5.4E1,4E0,5.3E1,1.175E3,2.25E2,2.18E2,1.46E2,1.78E2,1.083E3,7.2E1,4.1E1,6E1,8E0,6.52E2,6.1E2,7.4E1,1.13E2,4.04E2,5.7E1,1.6E1,9.3E1,1.79E2,1.479E3,6E1,1.8E1,1.84E2,3.51E2,3.2E1,1.33E2,5.4E1,2.7E1,2.74E2,2.59E2,1.7E1,2.22E2,4E0,9E0,1E1,1.7E1,1.6E1,7E0,2.1E1,2.5E1,5E0,3E0,8E0,4E0],"tree_param":{"num_deleted":"0","num_feature":"54","num_nodes":"221","size_leaf_vector":"1"}},{"base_weights":[-3.1860828E-4,-2.1406207E-2,3.904958E-2,1.44688515E-2,-3.934337E-2,2.258489E-2,1.392143E-1,-3.1291384E-2,3.3812415E-2,-2.9143556E-3,-6.3243814E-2,-1.0417209E-2,3.9644662E-2,6.251316E-2,1.7521702E-1,-5.364797E-2,1.8189127E-2,1.9650161E-2,1.0660306E-1,-1.4813757E-2,4.0646408E-2,-9.479295E-2,-5.728565E-3,-2.027801E-2,1.4476486E-1,9.591787E-2,2.8491808E-2,-1.6568044E-2,1.3299514E-1,1.4279296E-1,2.5968027E-1,1.2989663E-1,-5.785529E-2,-2.0448595E-2,9.250987E-2,2.4780842E-2,-5.7422973E-2,7.240317E-2,2.6437962E-1,-1.9500902E-2,9.372671E-2,6.0008287E-2,-1.9721108E-2,-7.829282E-2,-1.7470741E-1,-4.3287806E-2,4.5114093E-2,-3.1115962E-2,2.7099703E-2,1.7824054E-1,-3.223702E-2,1.4067307E-1,2.0516602E-2,-6.663639E-3,3.914546E-2,1.6409154E-1,-4.5919836E-2,9.697148E-2,2.988257E-1,1.5792342E-1,-2.7575057E-2,3.2795396E-1,-2.332017E-2,3.0676238E-4,1.2655012E-2,-9.8739285E-3,-7.004409E-2,-2.8240198E-2,1.6176093E-1,3.1284586E-1,3.481883E-2,-8.7013235E-3,3.7786525E-2,-7.7222005E-2,4.018647E-2,1.2853196E-1,2.0898774E-3,3.1173512E-1,4.1853763E-2,-8.725684E-2,-1.4132026E-2,1.19575016E-1,-3.1561186E-4,2.30753E-2,8.801494E-2,5.9495732E-2,-4.1059084E-2,-8.217042E-2,1.072902E-1,-8.966863E-3,-1.812566E-1,-5.0902177E-2,1.7766261E-1,7.4986145E-2,-8.808318E-2,-1.0275641E-1,-2.5473854E-2,6.534131E-2,-1.5194001E-2,8.3041325E-2,2.4834242E-1,6.3480474E-3,-1.3227592E-1,1.223407E-1,3.1877723E-1,-1.5457335E-1,8.262716E-2,-2.2569485E-2,7.683243E-2,-1.2214794E-2,4.854103E-2,3.1041884E-1,-4.9009845E-3,-9.323118E-3,-2.8958753E-2,3.5597232E-1,7.407875E-2,5.1897067E-1,-6.284543E-2,-8.868261E-3,1.783595E-1,-1.4330225E-1,7.4835196E-2,1.636553E-1,5.211246E-1,1.07630186E-1,-8.328569E-2,-9.1183195E-3,-2.2283768E-5,-1.1439491E-3,-4.1751913E-3,-2.154654E-3,3.980925E-3,1.3097897E-2,-1.5453259E-3,2.4448805E-2,1.0284487E-2,-2.0006145E-3,6.199155E-3,-2.0021491E-4,-7.655695E-3,2.462872E-3,-5.391533E-4,-5.217354E-3,-1.0116436E-3,3.7428357E-3,-7.4068047E-3,-1.6050649E-4,7.967665E-3,2.9259569E-3,-3.793056E-3,-5.5811886E-4,1.7164148E-2,7.5571383E-3,-3.0345856E-3,-5.092503E-3,1.6958565E-3,7.0391702E-3,-8.1436615E-4,8.866096E-4,7.289871E-3,2.5969667E-3,-1.5726226E-3,-3.3924354E-3,5.0182613E-3,1.3613835E-2,7.107419E-5,-1.2252916E-3,-4.7548027E-3,-5.965713E-3,-2.9800537E-3,2.1565808E-2,1.1295812E-3,-4.7931327E-3,1.1408706E-2,-1.0445986E-2,-7.4366303E-3,-2.6795322E-3,1.932623E-2,1.3200452E-2,-6.9746557E-3,1.4585179E-3,5.915489E-3,5.8191908E-3,-5.678032E-3,-5.544022E-3,5.638586E-3,5.662378E-4,-1.7636151E-3,-9.6527627E-4,4.638565E-3,5.132241E-4,-3.800905E-3,7.949193E-3,-1.2893017E-3,2.0266061E-3,1.3865292E-2,3.0217909E-3,-9.516392E-3,4.1592135E-3,9.070495E-3,5.481439E-3,2.775896E-2,4.259446E-3,-8.919108E-3,1.5297924E-2,5.305146E-4,7.453148E-4,-2.4383059E-3,6.5306635E-3,-5.243814E-4,-2.9021981E-3,1.7268345E-3,2.1600217E-2,2.3433985E-3,2.5577923E-2,7.93466E-3,-4.8274705E-3,5.3090154E-4,3.4975294E-2,5.330899E-4,4.8683244E-3,-6.3238363E-3,8.583264E-3,3.4638815E-2,6.627532E-3,-8.220799E-3,-2.4707576E-3,1.3521721E-2,3.842667E-2,8.483465E-3,3.238622E-3,-1.0618693E-2,-8.4583083E-4,7.6886313E-3,1.656848E-2,-4.6231044E-3,4.8611354E-2,2.33512E-2,1.3203464E-2,-1.1576457E-3,2.848775E-3,-5.4518264E-3],"categories":[],"categories_nodes":[],"categories_segments":[],"categories_sizes":[],"default_left":[0,0,0,0,0,0,0,0,0,0,0,0,0,0,0,0,0,0,0,0,0,0,0,0,0,0,0,0,0,0,0,0,0,0,0,0,0,0,0,0,0,0,0,0,0,0,0,0,0,0,0,0,0,0,0,0,0,0,0,0,0,0,0,0,0,0,0,0,0,0,0,0,0,0,0,0,0,0,0,0,0,0,0,0,0,0,0,0,0,0,0,0,0,0,0,0,0,0,0,0,0,0,0,0,0,0,0,0,0,0,0,0,0,0,0,0,0,0,0,0,0,0,0,0,0,0,0,0,0,0,0,0,0,0,0,0,0,0,0,0,0,0,0,0,0,0,0,0,0,0,0,0,0,0,0,0,0,0,0,0,0,0,0,0,0,0,0,0,0,0,0,0,0,0,0,0,0,0,0,0,0,0,0,0,0,0,0,0,0,0,0,0,0,0,0,0,0,0,0,0,0,0,0,0,0,0,0,0,0,0,0,0,0,0,0,0,0,0,0,0,0,0,0,0,0,0,0,0,0,0,0,0,0,0,0,0,0,0,0,0,0,0,0],"id":3,"left_children":[1,3,5,7,9,11,13,15,17,19,21,23,25,27,29,31,33,35,37,39,41,43,45,47,49,51,53,55,57,59,61,63,65,67,69,71,73,75,77,79,81,83,85,87,89,91,93,95,97,99,101,103,105,107,109,111,113,115,117,119,121,123,125,-1,-1,127,129,131,133,135,137,139,141,143,145,147,149,151,153,155,157,159,-1,161,163,165,167,169,171,173,175,177,179,181,183,185,187,189,191,193,195,-1,197,199,201,203,205,207,209,211,213,215,-1,-1,217,219,221,223,225,227,229,231,233,235,237,239,241,-1,-1,-1,-1,-1,-1,-1,-1,-1,-1,-1,-1,-1,-1,-1,-1,-1,-1,-1,-1,-1,-1,-1,-1,-1,-1,-1,-1,-1,-1,-1,-1,-1,-1,-1,-1,-1,-1,-1,-1,-1,-1,-1,-1,-1,-1,-1,-1,-1,-1,-1,-1,-1,-1,-1,-1,-1,-1,-1,-1,-1,-1,-1,-1,-1,-1,-1,-1,-1,-1,-1,-1,-1,-1,-1,-1,-1,-1,-1,-1,-1,-1,-1,-1,-1,-1,-1,-1,-1,-1,-1,-1,-1,-1,-1,-1,-1,-1,-1,-1,-1,-1,-1,-1,-1,-1,-1,-1,-1,-1,-1,-1,-1,-1,-1,-1],"loss_changes":[1.8076357E1,9.12471E0,1.2522388E1,4.1852384E0,8.230257E0,3.6734788E0,2.9493217E0,1.555208E0,3.4235177E0,1.9423299E0,1.0356941E1,3.406144E0,2.6966038E0,1.9195908E0,1.9593906E0,7.550349E-1,1.2596455E0,1.1019258E0,2.9000626E0,1.499064E0,9.4092166E-1,4.8466797E0,3.8650973E0,1.075038E0,7.938056E-1,2.3964548E0,1.3452117E0,8.718723E-1,1.0582585E0,1.3679819E0,3.8912668E0,3.338999E-1,5.531478E-1,4.1486266E-1,1.8958188E0,1.1368753E0,3.393709E-1,1.7599151E0,9.985838E-1,1.025335E0,3.1622696E-1,6.278999E-1,3.337469E-1,2.2086887E0,6.8221855E-1,1.9673545E0,3.4284387E0,6.8574035E-1,6.317707E-1,7.268255E-1,3.6716568E-1,1.417223E0,2.905505E0,1.1120052E0,1.3305254E0,9.125699E-1,3.3070952E-1,8.689445E-1,2.5804577E0,1.6581469E0,5.321967E-1,5.056217E0,3.230643E-1,0E0,0E0,3.137951E-1,4.7738576E-1,4.487903E-1,2.3975268E-1,4.8449922E-1,8.056323E-1,4.9523118E-1,1.0479505E0,2.2203481E-1,2.0696464E-1,1.0075073E0,8.7978405E-1,8.085823E-1,2.1090077E-1,3.6949623E-1,8.7574625E-1,2.5645924E-1,0E0,4.1714075E-1,6.728456E-1,5.1861095E-1,1.3631514E-1,2.5036316E0,1.7192615E0,5.370372E-1,5.1415443E-1,1.3448997E0,1.1048524E0,1.391938E0,8.3628607E-1,2.2962308E-1,5.70099E-1,4.777726E-1,2.8879932E-1,4.0906614E-1,3.7396955E-1,0E0,1.6812466E-1,9.2396307E-1,1.9663038E0,4.1478753E-1,3.165228E0,6.908896E-1,6.306535E-1,9.1688704E-1,1.4745812E0,3.765899E-1,0E0,0E0,3.4075275E-1,1.4160509E0,6.66182E-1,1.0883465E0,2.7979776E-1,6.249057E-1,2.0903406E0,3.1556913E-1,1.7642497E-1,3.8535936E0,1.3519096E0,2.7208865E-1,1.0734406E-1,0E0,0E0,0E0,0E0,0E0,0E0,0E0,0E0,0E0,0E0,0E0,0E0,0E0,0E0,0E0,0E0,0E0,0E0,0E0,0E0,0E0,0E0,0E0,0E0,0E0,0E0,0E0,0E0,0E0,0E0,0E0,0E0,0E0,0E0,0E0,0E0,0E0,0E0,0E0,0E0,0E0,0E0,0E0,0E0,0E0,0E0,0E0,0E0,0E0,0E0,0E0,0E0,0E0,0E0,0E0,0E0,0E0,0E0,0E0,0E0,0E0,0E0,0E0,0E0,0E0,0E0,0E0,0E0,0E0,0E0,0E0,0E0,0E0,0E0,0E0,0E0,0E0,0E0,0E0,0E0,0E0,0E0,0E0,0E0,0E0,0E0,0E0,0E0,0E0,0E0,0E0,0E0,0E0,0E0,0E0,0E0,0E0,0E0,0E0,0E0,0E0,0E0,0E0,0E0,0E0,0E0,0E0,0E0,0E0,0E0,0E0,0E0,0E0,0E0,0E0,0E0],"parents":[2147483647,0,0,1,1,2,2,3,3,4,4,5,5,6,6,7,7,8,8,9,9,10,10,11,11,12,12,13,13,14,14,15,15,16,16,17,17,18,18,19,19,20,20,21,21,22,22,23,23,24,24,25,25,26,26,27,27,28,28,29,29,30,30,31,31,32,32,33,33,34,34,35,35,36,36,37,37,38,38,39,39,40,40,41,41,42,42,43,43,44,44,45,45,46,46,47,47,48,48,49,49,50,50,51,51,52,52,53,53,54,54,55,55,56,56,57,57,58,58,59,59,60,60,61,61,62,62,65,65,66,66,67,67,68,68,69,69,70,70,71,71,72,72,73,73,74,74,75,75,76,76,77,77,78,78,79,79,80,80,81,81,83,83,84,84,85,85,86,86,87,87,88,88,89,89,90,90,91,91,92,92,93,93,94,94,95,95,96,96,97,97,98,98,99,99,100,100,102,102,103,103,104,104,105,105,106,106,107,107,108,108,109,109,110,110,111,111,114,114,115,115,116,116,117,117,118,118,119,119,120,120,121,121,122,122,123,123,124,124,125,125,126,126],"right_children":[2,4,6,8,10,12,14,16,18,20,22,24,26,28,30,32,34,36,38,40,42,44,46,48,50,52,54,56,58,60,62,64,66,68,70,72,74,76,78,80,82,84,86,88,90,92,94,96,98,100,102,104,106,108,110,112,114,116,118,120,122,124,126,-1,-1,128,130,132,134,136,138,140,142,144,146,148,150,152,154,156,158,160,-1,162,164,166,168,170,172,174,176,178,180,182,184,186,188,190,192,194,196,-1,198,200,202,204,206,208,210,212,214,216,-1,-1,218,220,222,224,226,228,230,232,234,236,238,240,242,-1,-1,-1,-1,-1,-1,-1,-1,-1,-1,-1,-1,-1,-1,-1,-1,-1,-1,-1,-1,-1,-1,-1,-1,-1,-1,-1,-1,-1,-1,-1,-1,-1,-1,-1,-1,-1,-1,-1,-1,-1,-1,-1,-1,-1,-1,-1,-1,-1,-1,-1,-1,-1,-1,-1,-1,-1,-1,-1,-1,-1,-1,-1,-1,-1,-1,-1,-1,-1,-1,-1,-1,-1,-1,-1,-1,-1,-1,-1,-1,-1,-1,-1,-1,-1,-1,-1,-1,-1,-1,-1,-1,-1,-1,-1,-1,-1,-1,-1,-1,-1,-1,-1,-1,-1,-1,-1,-1,-1,-1,-1,-1,-1,-1,-1,-1],"split_conditions":[-8.39998E-2,-5.2967906E-2,-2.1281324E-2,-4.6924382E-1,-3.229551E-2,-1.1288798E-1,-1.3230403E-1,-7.593332E-2,-2.666079E-2,-1.12860754E-1,-7.727056E-2,1.3904747E-1,-4.157528E-2,-1.834221E-2,1.1818734E0,-8.4031075E-1,5.025753E-2,-2.1324119E-2,5.9312975E-1,-8.1792414E-2,1.3027484E0,-5.3668868E-2,4.0173024E-1,1.0709291E-2,-3.4585547E-2,2.9430372E-1,6.6507957E-3,-6.8350986E-2,2.3493183E0,1.4209024E0,4.6997428E-1,-1.7307696E-1,-7.000676E-1,-8.711767E-2,-1.3923445E-1,-2.1057436E-1,-1.14319496E-1,-4.5950633E-2,-7.033807E-2,-8.248041E-1,-1.8332426E-1,-1.5028675E-1,-3.107125E-1,6.3330546E-2,-1.0333482E0,4.1803896E-2,-8.947342E-2,-1.4147217E0,8.7777816E-2,-5.1306266E-2,-1.9575046E-1,-7.338915E-2,-5.462403E-2,7.3567337E-1,-1.1277764E0,-3.950174E-2,-5.655337E-2,-3.5449678E-1,4.0857366E-1,5.57251E-1,1.3364153E0,-4.167156E-2,3.535842E0,3.0676238E-4,1.2655012E-2,-4.1783705E-1,-1.4455915E-2,-5.7207666E-2,-1.8222602E-1,-2.0514065E-1,-1.6526273E-1,-3.0076417E-1,2.0548915E-2,-4.1669752E-2,-4.8546143E-2,-2.072904E-1,-5.581701E-2,-3.8850185E-2,5.020704E-1,-1.9855602E-2,-5.617662E-2,-7.774225E-1,-3.1561186E-4,-1.2766793E-1,-2.3658136E-1,-2.3364547E-1,3.6240223E-1,-1.598944E-1,-1.4107658E-2,-2.4217081E-1,-1.8570997E-1,1.9761075E-1,-7.004192E-2,7.3309153E-1,-1.8407592E-1,1.2748664E-2,-2.4437924E-1,-2.0362595E-1,1.1507457E-2,8.0348976E-2,-6.019716E-1,6.3480474E-3,-6.8428926E-2,-6.461608E-2,-1.1859993E0,-2.2822273E-1,-7.107877E-2,-7.308169E-1,1.3748199E0,1.9243631E-1,-5.9355445E-2,-2.4870333E-1,-4.9009845E-3,-9.323118E-3,-4.375453E-2,1.0332452E0,3.761192E-2,-7.945841E-2,1.9239473E0,1.6228527E-1,5.3975755E-1,5.683765E-1,9.1911006E-1,1.8328133E-1,-2.7102245E-2,2.4875405E-1,1.0920445E-1,-9.1183195E-3,-2.2283768E-5,-1.1439491E-3,-4.1751913E-3,-2.154654E-3,3.980925E-3,1.3097897E-2,-1.5453259E-3,2.4448805E-2,1.0284487E-2,-2.0006145E-3,6.199155E-3,-2.0021491E-4,-7.655695E-3,2.462872E-3,-5.391533E-4,-5.217354E-3,-1.0116436E-3,3.7428357E-3,-7.4068047E-3,-1.6050649E-4,7.967665E-3,2.9259569E-3,-3.793056E-3,-5.5811886E-4,1.7164148E-2,7.5571383E-3,-3.0345856E-3,-5.092503E-3,1.6958565E-3,7.0391702E-3,-8.1436615E-4,8.866096E-4,7.289871E-3,2.5969667E-3,-1.5726226E-3,-3.3924354E-3,5.0182613E-3,1.3613835E-2,7.107419E-5,-1.2252916E-3,-4.7548027E-3,-5.965713E-3,-2.9800537E-3,2.1565808E-2,1.1295812E-3,-4.7931327E-3,1.1408706E-2,-1.0445986E-2,-7.4366303E-3,-2.6795322E-3,1.932623E-2,1.3200452E-2,-6.9746557E-3,1.4585179E-3,5.915489E-3,5.8191908E-3,-5.678032E-3,-5.544022E-3,5.638586E-3,5.662378E-4,-1.7636151E-3,-9.6527627E-4,4.638565E-3,5.132241E-4,-3.800905E-3,7.949193E-3,-1.2893017E-3,2.0266061E-3,1.3865292E-2,3.0217909E-3,-9.516392E-3,4.1592135E-3,9.070495E-3,5.481439E-3,2.775896E-2,4.259446E-3,-8.919108E-3,1.5297924E-2,5.305146E-4,7.453148E-4,-2.4383059E-3,6.5306635E-3,-5.243814E-4,-2.9021981E-3,1.7268345E-3,2.1600217E-2,2.3433985E-3,2.5577923E-2,7.93466E-3,-4.8274705E-3,5.3090154E-4,3.4975294E-2,5.330899E-4,4.8683244E-3,-6.3238363E-3,8.583264E-3,3.4638815E-2,6.627532E-3,-8.220799E-3,-2.4707576E-3,1.3521721E-2,3.842667E-2,8.483465E-3,3.238622E-3,-1.0618693E-2,-8.4583083E-4,7.6886313E-3,1.656848E-2,-4.6231044E-3,4.8611354E-2,2.33512E-2,1.3203464E-2,-1.1576457E-3,2.848775E-3,-5.4518264E-3],"split_indices":[34,25,37,4,37,27,9,11,31,18,43,20,28,32,33,3,9,24,0,20,15,27,2,33,42,2,27,49,34,27,7,19,30,34,19,28,20,17,43,4,2,34,26,33,15,33,33,4,34,38,30,49,38,14,14,32,38,10,37,36,4,7,35,0,0,13,16,38,50,19,50,29,19,52,43,33,25,42,2,21,42,15,0,28,28,30,2,34,16,4,21,24,53,2,19,24,19,9,2,18,29,0,33,38,35,10,53,29,0,33,16,18,0,0,17,19,53,7,2,27,3,33,10,50,7,52,24,0,0,0,0,0,0,0,0,0,0,0,0,0,0,0,0,0,0,0,0,0,0,0,0,0,0,0,0,0,0,0,0,0,0,0,0,0,0,0,0,0,0,0,0,0,0,0,0,0,0,0,0,0,0,0,0,0,0,0,0,0,0,0,0,0,0,0,0,0,0,0,0,0,0,0,0,0,0,0,0,0,0,0,0,0,0,0,0,0,0,0,0,0,0,0,0,0,0,0,0,0,0,0,0,0,0,0,0,0,0,0,0,0,0,0,0],"split_type":[0,0,0,0,0,0,0,0,0,0,0,0,0,0,0,0,0,0,0,0,0,0,0,0,0,0,0,0,0,0,0,0,0,0,0,0,0,0,0,0,0,0,0,0,0,0,0,0,0,0,0,0,0,0,0,0,0,0,0,0,0,0,0,0,0,0,0,0,0,0,0,0,0,0,0,0,0,0,0,0,0,0,0,0,0,0,0,0,0,0,0,0,0,0,0,0,0,0,0,0,0,0,0,0,0,0,0,0,0,0,0,0,0,0,0,0,0,0,0,0,0,0,0,0,0,0,0,0,0,0,0,0,0,0,0,0,0,0,0,0,0,0,0,0,0,0,0,0,0,0,0,0,0,0,0,0,0,0,0,0,0,0,0,0,0,0,0,0,0,0,0,0,0,0,0,0,0,0,0,0,0,0,0,0,0,0,0,0,0,0,0,0,0,0,0,0,0,0,0,0,0,0,0,0,0,0,0,0,0,0,0,0,0,0,0,0,0,0,0,0,0,0,0,0,0,0,0,0,0,0,0,0,0,0,0,0,0,0,0,0,0,0,0],"sum_hessian":[2.1772E4,1.4178E4,7.594E3,4.726E3,9.452E3,6.523E3,1.071E3,1.404E3,3.322E3,3.745E3,5.707E3,2.223E3,4.3E3,3.43E2,7.28E2,9.67E2,4.37E2,2.782E3,5.4E2,2.942E3,8.03E2,3.685E3,2.022E3,2.091E3,1.32E2,7.1E2,3.59E3,1.62E2,1.81E2,5.28E2,2E2,2.1E1,9.46E2,2.88E2,1.49E2,2.609E3,1.73E2,4.45E2,9.5E1,2.821E3,1.21E2,6.08E2,1.95E2,3.056E3,6.29E2,1.163E3,8.59E2,1.702E3,3.89E2,1.11E2,2.1E1,4.45E2,2.65E2,8.35E2,2.755E3,2.2E1,1.4E2,1.5E2,3.1E1,4.85E2,4.3E1,1.61E2,3.9E1,1.1E1,1E1,1.92E2,7.54E2,2.77E2,1.1E1,3E1,1.19E2,7.3E2,1.879E3,1.44E2,2.9E1,2.47E2,1.98E2,7.8E1,1.7E1,2.06E2,2.615E3,9.6E1,2.5E1,2.63E2,3.45E2,4.1E1,1.54E2,2.994E3,6.2E1,2.4E1,6.05E2,1.125E3,3.8E1,7.02E2,1.57E2,1.23E2,1.579E3,2.04E2,1.85E2,4.8E1,6.3E1,8E0,1.3E1,4.05E2,4E1,6.9E1,1.96E2,7.02E2,1.33E2,4.26E2,2.329E3,1.4E1,8E0,1.4E1,1.26E2,1.1E1,1.39E2,1.9E1,1.2E1,5.3E1,4.32E2,2E1,2.3E1,8.8E1,7.3E1,1.2E1,2.7E1,9E0,1.83E2,1.68E2,5.86E2,2.44E2,3.3E1,7E0,4E0,1E1,2E1,6.5E1,5.4E1,7.08E2,2.2E1,1.52E3,3.59E2,9.7E1,4.7E1,2.5E1,4E0,4.7E1,2E2,1.15E2,8.3E1,7E0,7.1E1,8E0,9E0,1.84E2,2.2E1,3.5E1,2.58E3,2E1,7.6E1,1.72E2,9.1E1,2.5E1,3.2E2,8E0,3.3E1,1.19E2,3.5E1,1.13E3,1.864E3,1.2E1,5E1,1.8E1,6E0,3.24E2,2.81E2,1.119E3,6E0,3E1,8E0,3.42E2,3.6E2,1.7E1,1.4E2,1.19E2,4E0,3.32E2,1.247E3,5E1,1.54E2,1.31E2,5.4E1,2.8E1,2E1,8E0,5.5E1,3E0,1E1,2.45E2,1.6E2,2.2E1,1.8E1,6E0,6.3E1,4.7E1,1.49E2,2.89E2,4.13E2,8.2E1,5.1E1,2.15E2,2.11E2,9E0,2.32E3,5E0,9E0,4.6E1,8E1,5E0,6E0,1.25E2,1.4E1,7E0,1.2E1,4E0,8E0,4.7E1,6E0,5E0,4.27E2,5E0,1.5E1,1.1E1,1.2E1,5.3E1,3.5E1,6E0,6.7E1,5E0,7E0,4E0,2.3E1],"tree_param":{"num_deleted":"0","num_feature":"54","num_nodes":"243","size_leaf_vector":"1"}},{"base_weights":[5.392676E-4,-1.9229583E-2,3.945123E-2,-6.277032E-2,-5.685864E-3,2.9132351E-2,1.8538433E-1,-1.626177E-1,-4.8176542E-2,3.8582608E-2,-2.138336E-2,1.9288654E-2,8.97843E-2,2.3345906E-1,-4.9022883E-3,-2.1069678E-2,-1.737223E-1,-2.5670924E-3,-6.830744E-2,2.0520622E-2,1.1657001E-1,5.0560865E-3,-3.9434094E-2,4.9939226E-2,-8.274297E-4,1.1649461E-1,3.02153E-3,1.5920627E-1,4.4860905E-1,-3.6096923E-2,1.2834337E-1,-6.39309E-2,8.3904214E-2,-1.5913591E-1,-2.721347E-1,1.539021E-1,-8.196392E-3,-4.0854223E-2,-9.979822E-2,-9.410176E-3,4.1330066E-2,-1.1507029E-3,1.5658629E-1,-1.3185347E-2,3.177657E-2,-4.9755607E-2,6.677717E-2,4.1543838E-2,1.643291E-1,-2.9881177E-2,2.0418085E-2,9.7043686E-2,3.257523E-1,4.7980096E-2,-5.8827974E-2,3.62325E-1,1.1538018E-1,-1.24250185E-2,4.8833296E-1,1.1912263E-1,-6.481804E-2,3.428461E-1,-1.2676856E-3,-9.486905E-4,-9.781993E-3,-3.2008756E-3,1.2231472E-2,-1.6308199E-1,3.045085E-3,-1.4194108E-2,-3.1565842E-3,3.119801E-2,3.30839E-1,6.0166776E-2,-1.7231472E-2,-6.0112745E-2,5.0815153E-3,1.3512953E-2,-1.09045126E-1,1.4031303E-2,-2.9414108E-2,5.590449E-2,-1.807591E-2,-9.814079E-2,3.9028533E-2,-9.073936E-2,1.6963616E-1,-1.937674E-2,4.7712434E-2,7.0448504E-3,5.1061254E-2,5.7793193E-2,-5.9737958E-2,1.2600277E-1,-1.3256504E-3,1.0453967E-1,2.8483693E-2,2.5017178E-1,4.396344E-4,-3.408316E-2,9.349843E-2,2.2071073E-2,-1.3210991E-2,2.0138453E-1,7.097199E-2,2.1592742E-1,6.8687135E-1,-1.4562276E-1,6.85539E-2,-8.120208E-3,-1.5944479E-2,4.5899004E-1,-7.990061E-2,-1.2056804E-2,1.2871322E-1,2.3398077E-1,5.8734083E-1,-7.183939E-3,2.5188756E-1,-7.398169E-3,-3.0263549E-2,-1.3528718E-4,2.7535915E-2,-8.687381E-3,-4.1446867E-3,5.350345E-3,-3.6673471E-3,-2.065069E-3,2.2330564E-2,1.3583098E-3,7.6636695E-3,2.632653E-3,-1.3171958E-3,8.758533E-5,-3.4781524E-3,-9.0661924E-4,9.758269E-3,-8.468075E-4,5.4592197E-3,6.984701E-3,-5.628985E-3,-9.284154E-4,4.491508E-3,-1.8172546E-3,3.8817865E-3,2.010053E-3,5.854418E-3,-1.2727441E-3,6.039019E-3,1.3983236E-3,-7.5643733E-3,3.6328982E-3,-4.872031E-3,-6.534524E-3,1.5460079E-3,4.353694E-3,1.0217526E-2,1.5609917E-2,-1.0240831E-3,3.8315568E-3,-2.8432372E-3,7.8844436E-4,-4.704057E-3,2.3647614E-3,3.03253E-2,1.5835178E-3,1.2461869E-2,-2.546181E-3,-7.207425E-3,2.6845852E-2,5.341961E-3,7.506574E-4,-8.413542E-3,4.7529223E-3,3.3589587E-2,-1.9525745E-3,1.8116568E-3,3.63114E-2,8.447591E-3,-4.570746E-3,4.455581E-3,-7.6983706E-3,-1.5645408E-3,8.504027E-3,-3.258284E-3,1.5263655E-4,2.4639159E-3,1.5074859E-2,4.523634E-3,7.7226775E-4,5.4992298E-3,3.5514005E-2,7.1804128E-3,4.4512402E-2,1.3366393E-2,2.2523077E-3,-1.0366403E-2,2.4027915E-3,1.33651225E-2,-3.7223403E-3,2.1506704E-3,1.3974952E-2,4.1894656E-2,4.366013E-3,-8.202051E-3,1.8569687E-2,5.3898557E-3,2.6931053E-2,4.259679E-3,4.5454975E-2,2.3428574E-2,2.783736E-3,2.4161747E-2,3.7912175E-3,-2.9340566E-3],"categories":[],"categories_nodes":[],"categories_segments":[],"categories_sizes":[],"default_left":[0,0,0,0,0,0,0,0,0,0,0,0,0,0,0,0,0,0,0,0,0,0,0,0,0,0,0,0,0,0,0,0,0,0,0,0,0,0,0,0,0,0,0,0,0,0,0,0,0,0,0,0,0,0,0,0,0,0,0,0,0,0,0,0,0,0,0,0,0,0,0,0,0,0,0,0,0,0,0,0,0,0,0,0,0,0,0,0,0,0,0,0,0,0,0,0,0,0,0,0,0,0,0,0,0,0,0,0,0,0,0,0,0,0,0,0,0,0,0,0,0,0,0,0,0,0,0,0,0,0,0,0,0,0,0,0,0,0,0,0,0,0,0,0,0,0,0,0,0,0,0,0,0,0,0,0,0,0,0,0,0,0,0,0,0,0,0,0,0,0,0,0,0,0,0,0,0,0,0,0,0,0,0,0,0,0,0,0,0,0,0,0,0,0,0,0,0,0,0,0,0,0,0,0,0,0,0,0,0,0,0,0,0,0,0],"id":4,"left_children":[1,3,5,7,9,11,13,15,17,19,21,23,25,27,29,31,33,35,37,39,41,43,45,47,49,51,53,55,57,59,61,63,65,67,69,71,73,75,77,79,81,83,85,87,89,91,93,95,97,99,101,103,105,107,109,111,113,-1,115,117,119,121,-1,-1,-1,-1,-1,123,-1,-1,-1,125,127,129,131,133,135,137,139,141,143,145,147,149,151,153,155,157,159,161,163,165,167,169,171,173,175,177,179,181,183,185,-1,187,189,191,193,195,197,-1,199,201,203,-1,205,207,209,-1,211,-1,213,-1,-1,-1,-1,-1,-1,-1,-1,-1,-1,-1,-1,-1,-1,-1,-1,-1,-1,-1,-1,-1,-1,-1,-1,-1,-1,-1,-1,-1,-1,-1,-1,-1,-1,-1,-1,-1,-1,-1,-1,-1,-1,-1,-1,-1,-1,-1,-1,-1,-1,-1,-1,-1,-1,-1,-1,-1,-1,-1,-1,-1,-1,-1,-1,-1,-1,-1,-1,-1,-1,-1,-1,-1,-1,-1,-1,-1,-1,-1,-1,-1,-1,-1,-1,-1,-1,-1,-1,-1,-1,-1,-1,-1,-1],"loss_changes":[1.6810297E1,8.545037E0,1.1080787E1,5.00185E0,7.6822953E0,4.1041093E0,4.4470596E0,6.84803E-1,2.7552195E0,4.074118E0,3.8950486E0,3.6488996E0,2.22441E0,6.1270676E0,4.161312E-1,1.5384127E-1,5.394993E-1,8.116085E-1,1.7958603E0,1.4646935E0,2.5628252E0,1.6147537E0,5.320189E0,2.2451878E0,2.206704E0,2.9559546E0,6.3403356E-1,2.5397463E0,2.8628483E0,3.6882576E-1,6.3509285E-1,1.3839799E-1,2.534081E-1,3.1904125E-1,1.0729575E-1,6.8442667E-1,5.501425E-1,9.8581064E-1,1.0167713E0,4.5292222E-1,1.2018859E0,5.455116E-1,1.3257866E0,7.4332035E-1,6.406522E-1,4.749793E0,1.7345421E0,1.7955201E0,2.250884E0,7.8602993E-1,9.7742015E-1,1.8164983E0,2.310597E0,5.357586E-1,4.2381468E-1,2.2168083E0,1.1718645E0,0E0,2.229763E0,4.897715E-1,1.9376218E-1,5.761352E-1,0E0,0E0,0E0,0E0,0E0,2.8493786E-1,0E0,0E0,0E0,1.6635734E-1,5.785315E-1,3.153837E-1,5.019268E-1,4.590621E-1,1.4596928E0,2.1741927E-1,8.0347824E-1,1.1012689E0,3.8938305E-1,1.06562E0,2.838195E-1,2.7902046E-1,4.614285E-1,1.06110066E-1,1.08852E0,6.614537E-1,5.547687E-1,5.2199745E-1,1.5506387E0,1.8725071E0,3.0029774E0,1.7537892E0,5.507907E-1,1.9529815E0,9.497434E-1,3.9371552E0,4.6426198E-1,4.8426425E-1,6.186249E-1,1.0626645E0,0E0,1.4606161E0,1.1680703E0,1.6498055E0,9.5656633E-1,1.6228798E-1,4.7603005E-1,0E0,2.4119517E-1,2.6222172E0,1.5502444E-1,0E0,1.1375809E0,1.2232572E0,2.1344318E0,0E0,3.8163596E-1,0E0,1.5518753E-1,0E0,0E0,0E0,0E0,0E0,0E0,0E0,0E0,0E0,0E0,0E0,0E0,0E0,0E0,0E0,0E0,0E0,0E0,0E0,0E0,0E0,0E0,0E0,0E0,0E0,0E0,0E0,0E0,0E0,0E0,0E0,0E0,0E0,0E0,0E0,0E0,0E0,0E0,0E0,0E0,0E0,0E0,0E0,0E0,0E0,0E0,0E0,0E0,0E0,0E0,0E0,0E0,0E0,0E0,0E0,0E0,0E0,0E0,0E0,0E0,0E0,0E0,0E0,0E0,0E0,0E0,0E0,0E0,0E0,0E0,0E0,0E0,0E0,0E0,0E0,0E0,0E0,0E0,0E0,0E0,0E0,0E0,0E0,0E0,0E0,0E0,0E0,0E0,0E0,0E0,0E0,0E0,0E0,0E0],"parents":[2147483647,0,0,1,1,2,2,3,3,4,4,5,5,6,6,7,7,8,8,9,9,10,10,11,11,12,12,13,13,14,14,15,15,16,16,17,17,18,18,19,19,20,20,21,21,22,22,23,23,24,24,25,25,26,26,27,27,28,28,29,29,30,30,31,31,32,32,33,33,34,34,35,35,36,36,37,37,38,38,39,39,40,40,41,41,42,42,43,43,44,44,45,45,46,46,47,47,48,48,49,49,50,50,51,51,52,52,53,53,54,54,55,55,56,56,58,58,59,59,60,60,61,61,67,67,71,71,72,72,73,73,74,74,75,75,76,76,77,77,78,78,79,79,80,80,81,81,82,82,83,83,84,84,85,85,86,86,87,87,88,88,89,89,90,90,91,91,92,92,93,93,94,94,95,95,96,96,97,97,98,98,99,99,100,100,101,101,103,103,104,104,105,105,106,106,107,107,108,108,110,110,111,111,112,112,114,114,115,115,116,116,118,118,120,120],"right_children":[2,4,6,8,10,12,14,16,18,20,22,24,26,28,30,32,34,36,38,40,42,44,46,48,50,52,54,56,58,60,62,64,66,68,70,72,74,76,78,80,82,84,86,88,90,92,94,96,98,100,102,104,106,108,110,112,114,-1,116,118,120,122,-1,-1,-1,-1,-1,124,-1,-1,-1,126,128,130,132,134,136,138,140,142,144,146,148,150,152,154,156,158,160,162,164,166,168,170,172,174,176,178,180,182,184,186,-1,188,190,192,194,196,198,-1,200,202,204,-1,206,208,210,-1,212,-1,214,-1,-1,-1,-1,-1,-1,-1,-1,-1,-1,-1,-1,-1,-1,-1,-1,-1,-1,-1,-1,-1,-1,-1,-1,-1,-1,-1,-1,-1,-1,-1,-1,-1,-1,-1,-1,-1,-1,-1,-1,-1,-1,-1,-1,-1,-1,-1,-1,-1,-1,-1,-1,-1,-1,-1,-1,-1,-1,-1,-1,-1,-1,-1,-1,-1,-1,-1,-1,-1,-1,-1,-1,-1,-1,-1,-1,-1,-1,-1,-1,-1,-1,-1,-1,-1,-1,-1,-1,-1,-1,-1,-1,-1,-1],"split_conditions":[-7.958653E-2,-4.8700756E-1,3.1956434E-2,-3.0754888E-1,-2.1400843E-2,1.4853222E0,2.4875405E-1,-3.1833932E-1,-3.2365676E-2,-5.388624E-2,-3.22951E-2,-7.8519955E-2,9.051311E-2,1.7527947E-1,2.2345293E0,-2.7019486E-1,4.9991086E-1,-1.6686793E-1,-5.1102657E-2,-1.9034839E-1,-1.9820909E-1,-1.9582742E-1,-6.592313E-2,-4.0526453E-2,-7.546686E-2,-8.988105E-3,2.373426E0,1.0916911E-2,-4.167156E-2,1.6898835E-2,4.3324103E0,-2.8156406E-1,-2.1141646E-2,1.9179769E0,-1.6185446E-1,-6.821411E-1,-2.065528E-1,-9.703808E-2,-4.8138526E-1,-6.1155297E-2,1.6772671E-1,-1.3966095E-2,-1.856164E-1,-5.8432057E-2,-1.5028675E-1,-8.2985216E-1,4.1111603E-1,-2.2453707E-1,1.6515338E-1,2.1154101E-1,2.6139398E0,-4.6193972E-2,1.6181867E0,-2.212846E-1,1.6093162E0,1.5861934E0,-6.47189E-1,-1.24250185E-2,1.6011205E-1,1.0571504E0,2.206516E0,3.2487223E0,-1.2676856E-3,-9.486905E-4,-9.781993E-3,-3.2008756E-3,1.2231472E-2,-1.0372745E-2,3.045085E-3,-1.4194108E-2,-3.1565842E-3,-6.337526E-1,-3.717599E-1,-5.4248786E-1,-2.0141797E-1,-2.3271689E-1,3.4821182E-1,-2.130357E-2,-3.3128873E-1,-4.747618E-1,-4.0936347E-2,1.9965164E-2,-8.988105E-3,-3.38499E-1,-9.051338E-2,-2.351943E-1,-4.1879695E-2,-6.034264E-2,5.2289295E-1,4.699519E-1,-2.659795E-2,-4.134174E-2,1.6818305E-2,5.398528E-1,5.327115E-1,1.5021485E0,-1.2221476E0,-1.8873678E-1,-3.4175288E-2,-1.8284526E0,6.252812E-1,-2.8334592E-2,-1.3210991E-2,7.285389E-1,-1.1651299E-1,1.5499855E0,3.5245142E0,-1.8869485E-1,1.6995946E0,-8.120208E-3,7.6898205E-1,-8.786681E-2,1.7896956E0,-1.2056804E-2,-2.7866843E-1,7.734212E-2,2.1664097E0,-7.183939E-3,-6.738471E-2,-7.398169E-3,-2.3633996E-1,-1.3528718E-4,2.7535915E-2,-8.687381E-3,-4.1446867E-3,5.350345E-3,-3.6673471E-3,-2.065069E-3,2.2330564E-2,1.3583098E-3,7.6636695E-3,2.632653E-3,-1.3171958E-3,8.758533E-5,-3.4781524E-3,-9.0661924E-4,9.758269E-3,-8.468075E-4,5.4592197E-3,6.984701E-3,-5.628985E-3,-9.284154E-4,4.491508E-3,-1.8172546E-3,3.8817865E-3,2.010053E-3,5.854418E-3,-1.2727441E-3,6.039019E-3,1.3983236E-3,-7.5643733E-3,3.6328982E-3,-4.872031E-3,-6.534524E-3,1.5460079E-3,4.353694E-3,1.0217526E-2,1.5609917E-2,-1.0240831E-3,3.8315568E-3,-2.8432372E-3,7.8844436E-4,-4.704057E-3,2.3647614E-3,3.03253E-2,1.5835178E-3,1.2461869E-2,-2.546181E-3,-7.207425E-3,2.6845852E-2,5.341961E-3,7.506574E-4,-8.413542E-3,4.7529223E-3,3.3589587E-2,-1.9525745E-3,1.8116568E-3,3.63114E-2,8.447591E-3,-4.570746E-3,4.455581E-3,-7.6983706E-3,-1.5645408E-3,8.504027E-3,-3.258284E-3,1.5263655E-4,2.4639159E-3,1.5074859E-2,4.523634E-3,7.7226775E-4,5.4992298E-3,3.5514005E-2,7.1804128E-3,4.4512402E-2,1.3366393E-2,2.2523077E-3,-1.0366403E-2,2.4027915E-3,1.33651225E-2,-3.7223403E-3,2.1506704E-3,1.3974952E-2,4.1894656E-2,4.366013E-3,-8.202051E-3,1.8569687E-2,5.3898557E-3,2.6931053E-2,4.259679E-3,4.5454975E-2,2.3428574E-2,2.783736E-3,2.4161747E-2,3.7912175E-3,-2.9340566E-3],"split_indices":[34,41,37,28,24,36,52,36,37,32,37,39,47,8,0,27,19,17,25,33,9,18,28,52,27,42,30,49,7,39,2,27,24,30,34,2,12,11,35,25,19,16,47,33,34,0,40,10,18,20,39,32,34,6,40,22,30,0,39,8,42,8,0,0,0,0,0,16,0,0,0,22,6,40,20,10,36,24,12,2,52,20,42,0,12,11,35,42,15,13,42,52,27,2,13,35,0,32,31,40,21,17,0,41,9,36,3,10,11,0,10,50,1,0,18,7,28,0,6,0,32,0,0,0,0,0,0,0,0,0,0,0,0,0,0,0,0,0,0,0,0,0,0,0,0,0,0,0,0,0,0,0,0,0,0,0,0,0,0,0,0,0,0,0,0,0,0,0,0,0,0,0,0,0,0,0,0,0,0,0,0,0,0,0,0,0,0,0,0,0,0,0,0,0,0,0,0,0,0,0,0,0,0,0,0,0,0,0,0,0,0,0,0,0,0],"split_type":[0,0,0,0,0,0,0,0,0,0,0,0,0,0,0,0,0,0,0,0,0,0,0,0,0,0,0,0,0,0,0,0,0,0,0,0,0,0,0,0,0,0,0,0,0,0,0,0,0,0,0,0,0,0,0,0,0,0,0,0,0,0,0,0,0,0,0,0,0,0,0,0,0,0,0,0,0,0,0,0,0,0,0,0,0,0,0,0,0,0,0,0,0,0,0,0,0,0,0,0,0,0,0,0,0,0,0,0,0,0,0,0,0,0,0,0,0,0,0,0,0,0,0,0,0,0,0,0,0,0,0,0,0,0,0,0,0,0,0,0,0,0,0,0,0,0,0,0,0,0,0,0,0,0,0,0,0,0,0,0,0,0,0,0,0,0,0,0,0,0,0,0,0,0,0,0,0,0,0,0,0,0,0,0,0,0,0,0,0,0,0,0,0,0,0,0,0,0,0,0,0,0,0,0,0,0,0,0,0,0,0,0,0,0,0],"sum_hessian":[2.1851E4,1.449E4,7.361E3,3.437E3,1.1053E4,6.876E3,4.85E2,4.37E2,3E3,2.893E3,8.16E3,5.917E3,9.59E2,3.87E2,9.8E1,3.2E1,4.05E2,9.19E2,2.081E3,2.35E3,5.43E2,3.311E3,4.849E3,2.344E3,3.573E3,7.33E2,2.26E2,2.89E2,9.8E1,8E1,1.8E1,2.3E1,9E0,3.55E2,5E1,3.1E1,8.88E2,1.113E3,9.68E2,9.64E2,1.386E3,1.38E2,4.05E2,1.968E3,1.343E3,4.42E3,4.29E2,2.185E3,1.59E2,1.509E3,2.064E3,6.72E2,6.1E1,1.31E2,9.5E1,5E1,2.39E2,5E0,9.3E1,1.2E1,6.8E1,7E0,1.1E1,1.8E1,5E0,5E0,4E0,3.49E2,6E0,4.7E1,3E0,1.9E1,1.2E1,1.03E2,7.85E2,7.84E2,3.29E2,7.3E1,8.95E2,4.44E2,5.2E2,1.113E3,2.73E2,4E1,9.8E1,2E1,3.85E2,1.787E3,1.81E2,5.89E2,7.54E2,3.75E2,4.045E3,2.29E2,2E2,3.74E2,1.811E3,1.04E2,5.5E1,1.46E3,4.9E1,2.053E3,1.1E1,1.33E2,5.39E2,4.8E1,1.3E1,1.2E1,1.19E2,2.7E1,6.8E1,4.1E1,9E0,8E0,2.31E2,2.7E1,6.6E1,4E0,8E0,1.9E1,4.9E1,3E0,4E0,3.07E2,4.2E1,1.1E1,8E0,3E0,9E0,7.7E1,2.6E1,9E1,6.95E2,1.04E2,6.8E2,2.94E2,3.5E1,5.6E1,1.7E1,1.2E1,8.83E2,3.11E2,1.33E2,4.89E2,3.1E1,8.87E2,2.26E2,2.6E2,1.3E1,1.2E1,2.8E1,7.9E1,1.9E1,1.5E1,5E0,1.15E2,2.7E2,5E0,1.782E3,1.42E2,3.9E1,5.43E2,4.6E1,7.5E2,4E0,3.31E2,4.4E1,3.664E3,3.81E2,9E0,2.2E2,1.83E2,1.7E1,3.69E2,5E0,1.86E2,1.625E3,1.4E1,9E1,2.7E1,2.8E1,3.2E1,1.428E3,3.3E1,1.6E1,1.209E3,8.44E2,6.9E1,6.4E1,2.23E2,3.16E2,5E0,4.3E1,8E0,5E0,3E0,9E0,1.09E2,1E1,3.4E1,3.4E1,2.9E1,1.2E1,3E0,6E0,1.7E1,2.14E2,8E0,1.9E1,1.6E1,5E1,5E0,3E0,1E1,3.9E1],"tree_param":{"num_deleted":"0","num_feature":"54","num_nodes":"215","size_leaf_vector":"1"}},{"base_weights":[-7.6054025E-4,-8.052738E-3,8.9986786E-2,-5.621957E-2,-1.2973485E-4,5.247009E-2,2.0493807E-1,-8.331863E-3,-9.902756E-2,-1.5884161E-2,2.7614387E-2,1.186235E-1,2.3471441E-2,2.554968E-1,8.762042E-3,-3.346003E-2,8.963956E-3,-1.4145815E-1,-5.3976335E-2,5.0517898E-2,-2.98702E-2,-1.8532826E-2,4.609997E-2,3.5477832E-2,1.6330089E-1,-1.5284178E-1,5.135395E-2,1.5356827E-1,3.539391E-1,1.8376683E-1,-3.9099295E-2,-1.0358722E-1,-2.3206163E-2,2.6511948E-3,8.0403045E-2,-6.634531E-2,-1.6879933E-1,-7.307768E-2,1.7847888E-2,6.061901E-1,4.817994E-2,-5.0024256E-2,-4.9860994E-3,-8.513338E-2,-1.2651306E-3,2.1836037E-2,8.371525E-2,-4.2982455E-3,3.0480415E-1,2.6034367E-1,7.261344E-2,-1.778337E-1,1.603441E-2,5.791267E-2,-1.3073376E-1,4.3962103E-1,1.0406251E-1,1.7015418E-1,4.2597345E-1,1.3190585E-3,2.6026124E-1,5.4195702E-2,-9.3701094E-2,-1.0908734E-2,-7.104438E-2,-3.0450175E-2,1.2964366E-1,-4.129299E-3,4.538905E-2,1.8750198E-1,4.1960115E-3,-3.773513E-2,-6.457367E-3,-1.3356526E-1,-1.914566E-1,-5.2361242E-2,-1.280775E-1,5.6694984E-2,-4.1337192E-2,5.221649E-2,6.7220167E-3,1.8070418E-2,7.481801E-2,-8.835792E-3,-6.0263313E-2,-1.5173777E-2,4.6928514E-2,-4.1346277E-5,-1.1120016E-1,-2.2393512E-2,3.74449E-2,5.723955E-2,-1.2329621E-4,1.6058496E-1,5.8798105E-2,2.252614E-1,-2.8079923E-2,3.916304E-1,-3.764443E-3,3.921444E-1,2.038964E-1,1.2154754E-1,-6.481063E-2,1.561963E-2,-1.9446398E-1,-1.13115646E-1,1.2506857E-2,3.839984E-1,5.273532E-2,6.7206444E-3,-1.00132255E-2,7.047725E-1,2.4446903E-2,5.156901E-1,7.083151E-2,3.7918502E-1,-8.461652E-2,-2.9124131E-2,4.6959347E-1,1.5795799E-2,3.4986378E-3,1.1911234E-1,-2.754525E-3,-1.7142418E-1,-2.2041837E-2,1.7104547E-4,-5.4687886E-3,-5.565469E-4,-4.004236E-3,-8.856963E-5,1.598311E-2,6.6841545E-4,-1.5283059E-3,9.7429035E-3,7.480629E-4,6.033051E-3,1.8061945E-2,3.1756803E-3,-3.4268193E-3,-2.515008E-3,3.7257567E-3,1.4061684E-3,-6.9051394E-3,-1.0088761E-2,-3.6208604E-3,-2.7803523E-3,9.124487E-3,-5.4308814E-3,-1.0374288E-2,2.1975413E-3,1.6622543E-2,5.8591953E-3,-3.3495936E-3,-1.9737445E-4,3.4893174E-3,4.4062114E-3,-8.478157E-4,-1.0296142E-3,3.8806729E-3,-3.5489902E-3,-3.3987287E-4,4.0230887E-5,-2.8991855E-3,6.3145794E-3,1.0242988E-3,-3.4781247E-3,2.8355727E-3,-8.688056E-3,-4.111252E-3,1.2788086E-3,-1.8457331E-3,4.4553042E-3,-2.1021122E-3,4.048943E-3,-6.591368E-5,3.0111556E-4,-2.735713E-3,1.2029264E-3,1.1038852E-2,9.6518155E-3,2.3877213E-3,1.49846375E-2,1.0041666E-3,-6.665581E-3,7.6065E-4,2.255118E-2,6.5195756E-3,1.0909404E-2,2.9897159E-2,2.5682065E-3,1.3382907E-2,2.370969E-3,1.1982952E-2,-5.0760903E-3,1.179518E-2,7.206687E-3,-5.80092E-3,-1.2839705E-2,-8.206504E-3,3.1657735E-4,-1.0685512E-2,-5.286624E-3,4.0486477E-2,2.1932616E-3,1.1588228E-2,1.3194824E-2,5.539745E-2,1.3010901E-2,-5.6885933E-3,5.7812452E-2,3.7993179E-3,2.4928716E-3,1.7014261E-2,4.0555723E-2,1.188601E-2,-8.2618016E-4,-1.5641386E-2,1.2243025E-2,-8.123796E-3,2.4741216E-2,-1.4592954E-3,-3.4726579E-3,8.398501E-3,-4.1985745E-3,-1.3449033E-2,3.0310676E-3,-5.1434105E-3],"categories":[],"categories_nodes":[],"categories_segments":[],"categories_sizes":[],"default_left":[0,0,0,0,0,0,0,0,0,0,0,0,0,0,0,0,0,0,0,0,0,0,0,0,0,0,0,0,0,0,0,0,0,0,0,0,0,0,0,0,0,0,0,0,0,0,0,0,0,0,0,0,0,0,0,0,0,0,0,0,0,0,0,0,0,0,0,0,0,0,0,0,0,0,0,0,0,0,0,0,0,0,0,0,0,0,0,0,0,0,0,0,0,0,0,0,0,0,0,0,0,0,0,0,0,0,0,0,0,0,0,0,0,0,0,0,0,0,0,0,0,0,0,0,0,0,0,0,0,0,0,0,0,0,0,0,0,0,0,0,0,0,0,0,0,0,0,0,0,0,0,0,0,0,0,0,0,0,0,0,0,0,0,0,0,0,0,0,0,0,0,0,0,0,0,0,0,0,0,0,0,0,0,0,0,0,0,0,0,0,0,0,0,0,0,0,0,0,0,0,0,0,0,0,0,0,0,0,0,0,0,0,0,0,0,0,0,0,0,0,0,0,0,0,0,0,0],"id":5,"left_children":[1,3,5,7,9,11,13,15,17,19,21,23,25,27,29,31,33,35,37,39,41,43,45,47,49,51,53,55,57,59,61,63,65,67,69,71,73,75,77,79,81,83,85,87,89,91,93,95,97,99,101,103,105,107,109,111,113,115,117,-1,119,121,123,-1,125,127,129,131,133,135,137,139,-1,141,143,145,147,149,151,-1,-1,153,155,157,159,161,163,165,167,169,171,173,175,177,179,181,183,185,-1,187,189,191,193,195,197,199,-1,201,203,-1,-1,205,207,209,211,213,215,217,219,-1,-1,221,-1,223,225,-1,-1,-1,-1,-1,-1,-1,-1,-1,-1,-1,-1,-1,-1,-1,-1,-1,-1,-1,-1,-1,-1,-1,-1,-1,-1,-1,-1,-1,-1,-1,-1,-1,-1,-1,-1,-1,-1,-1,-1,-1,-1,-1,-1,-1,-1,-1,-1,-1,-1,-1,-1,-1,-1,-1,-1,-1,-1,-1,-1,-1,-1,-1,-1,-1,-1,-1,-1,-1,-1,-1,-1,-1,-1,-1,-1,-1,-1,-1,-1,-1,-1,-1,-1,-1,-1,-1,-1,-1,-1,-1,-1,-1,-1,-1,-1,-1,-1,-1,-1,-1,-1],"loss_changes":[1.4475128E1,7.726774E0,7.0058355E0,5.8621073E0,7.6006064E0,2.3529613E0,3.965126E0,5.87461E-1,2.878806E0,1.0301741E1,5.3734145E0,1.3835163E0,4.2110763E0,3.136486E0,7.0239E-1,3.938064E-1,3.6102012E-1,1.584506E0,1.0083075E0,2.4781318E0,4.594637E0,2.0722606E0,4.102559E0,1.4153923E0,2.1196327E0,4.96655E-1,8.90131E-1,2.1917307E0,2.0589695E0,2.0983821E-1,3.4128714E-1,2.4553001E-1,5.3764033E-1,2.1375805E-1,5.297233E-1,3.7065315E-1,4.2866516E-1,6.5414596E-1,3.587147E-1,1.5131385E0,1.541008E0,2.1342697E0,2.1696875E0,8.229015E-1,1.1720431E0,2.126299E0,3.367363E0,6.3960576E-1,5.905205E-1,7.9049826E-1,8.6191744E-1,3.3118987E-1,5.120445E-1,1.1851676E0,5.062502E-1,2.5147038E0,1.8237898E0,2.5350676E0,2.2965832E0,0E0,1.0497999E-1,1.8392429E-1,2.3014385E-1,0E0,1.6021815E-1,4.411622E-1,5.4993486E-1,2.9507276E-1,4.5643392E-1,2.699567E-1,1.7261113E-1,2.0826015E-1,0E0,1.6969204E-1,4.0793133E-1,3.32592E-1,2.2161698E-1,3.1573057E-1,2.5999245E-1,0E0,0E0,1.029639E0,1.247088E0,1.0270854E0,2.3223238E0,2.3455992E0,1.4097444E0,3.5115072E-1,5.005224E-1,6.4666915E-1,2.0815845E0,1.4555645E0,5.6697994E-1,3.5365658E0,1.9669328E0,1.6196966E-1,4.8494145E-1,1.5841174E-1,0E0,1.0867362E0,8.0321264E-1,8.1164193E-1,3.992948E-1,1.6897826E-1,1.3557935E-1,1.3352627E-1,0E0,2.3790452E0,1.1077893E0,0E0,0E0,2.1961288E0,3.5548544E-1,2.728703E0,7.0078015E-1,1.395855E0,3.367014E-1,4.4168374E-1,1.3358288E0,0E0,0E0,1.59072E-1,0E0,1.4804476E-1,1.5990742E-1,0E0,0E0,0E0,0E0,0E0,0E0,0E0,0E0,0E0,0E0,0E0,0E0,0E0,0E0,0E0,0E0,0E0,0E0,0E0,0E0,0E0,0E0,0E0,0E0,0E0,0E0,0E0,0E0,0E0,0E0,0E0,0E0,0E0,0E0,0E0,0E0,0E0,0E0,0E0,0E0,0E0,0E0,0E0,0E0,0E0,0E0,0E0,0E0,0E0,0E0,0E0,0E0,0E0,0E0,0E0,0E0,0E0,0E0,0E0,0E0,0E0,0E0,0E0,0E0,0E0,0E0,0E0,0E0,0E0,0E0,0E0,0E0,0E0,0E0,0E0,0E0,0E0,0E0,0E0,0E0,0E0,0E0,0E0,0E0,0E0,0E0,0E0,0E0,0E0,0E0,0E0,0E0,0E0,0E0,0E0,0E0,0E0,0E0,0E0,0E0,0E0,0E0],"parents":[2147483647,0,0,1,1,2,2,3,3,4,4,5,5,6,6,7,7,8,8,9,9,10,10,11,11,12,12,13,13,14,14,15,15,16,16,17,17,18,18,19,19,20,20,21,21,22,22,23,23,24,24,25,25,26,26,27,27,28,28,29,29,30,30,31,31,32,32,33,33,34,34,35,35,36,36,37,37,38,38,39,39,40,40,41,41,42,42,43,43,44,44,45,45,46,46,47,47,48,48,49,49,50,50,51,51,52,52,53,53,54,54,55,55,56,56,57,57,58,58,60,60,61,61,62,62,64,64,65,65,66,66,67,67,68,68,69,69,70,70,71,71,73,73,74,74,75,75,76,76,77,77,78,78,81,81,82,82,83,83,84,84,85,85,86,86,87,87,88,88,89,89,90,90,91,91,92,92,93,93,94,94,95,95,96,96,97,97,99,99,100,100,101,101,102,102,103,103,104,104,105,105,107,107,108,108,111,111,112,112,113,113,114,114,115,115,116,116,117,117,118,118,121,121,123,123,124,124],"right_children":[2,4,6,8,10,12,14,16,18,20,22,24,26,28,30,32,34,36,38,40,42,44,46,48,50,52,54,56,58,60,62,64,66,68,70,72,74,76,78,80,82,84,86,88,90,92,94,96,98,100,102,104,106,108,110,112,114,116,118,-1,120,122,124,-1,126,128,130,132,134,136,138,140,-1,142,144,146,148,150,152,-1,-1,154,156,158,160,162,164,166,168,170,172,174,176,178,180,182,184,186,-1,188,190,192,194,196,198,200,-1,202,204,-1,-1,206,208,210,212,214,216,218,220,-1,-1,222,-1,224,226,-1,-1,-1,-1,-1,-1,-1,-1,-1,-1,-1,-1,-1,-1,-1,-1,-1,-1,-1,-1,-1,-1,-1,-1,-1,-1,-1,-1,-1,-1,-1,-1,-1,-1,-1,-1,-1,-1,-1,-1,-1,-1,-1,-1,-1,-1,-1,-1,-1,-1,-1,-1,-1,-1,-1,-1,-1,-1,-1,-1,-1,-1,-1,-1,-1,-1,-1,-1,-1,-1,-1,-1,-1,-1,-1,-1,-1,-1,-1,-1,-1,-1,-1,-1,-1,-1,-1,-1,-1,-1,-1,-1,-1,-1,-1,-1,-1,-1,-1,-1,-1,-1],"split_conditions":[1.3163419E0,-2.3386925E-1,8.016435E-4,-2.6067661E-2,-1.0525065E-1,6.20286E-1,4.845943E-1,-2.3142055E-1,-2.1454652E-1,-7.8388995E-1,-1.81756E-1,-1.4511639E-1,4.808106E-1,2.2426622E0,6.153061E-1,-2.403973E-1,-4.4051617E-1,-2.4020325E-1,-2.5636094E-2,-1.7586656E-1,-2.1802345E-1,-2.2460093E-1,-3.204999E-2,5.020704E-1,-1.1980101E-1,-3.4772385E-2,-5.0068344E-3,-2.5763206E-2,-3.7906587E-2,1.4530563E0,6.8536514E-1,-8.526116E-1,1.6645275E0,2.838171E-2,-2.656848E-1,3.226703E-2,5.518147E-1,-1.0305437E-1,8.403094E-1,1.0709291E-2,-1.1676816E-1,-3.236081E-2,-2.5652057E-2,-5.2386755E-1,-1.04399666E-1,-1.3514502E-1,-1.8820083E-1,-3.1420878E-1,5.3940433E-1,-2.1382351E-1,6.066913E-1,-2.1543497E-2,-3.7288148E-2,-1.8790342E-2,3.4372765E-1,7.261901E-1,-5.732408E-1,1.476855E-1,-6.6880174E-2,1.3190585E-3,3.5301962E-1,3.2487223E0,2.724674E-1,-1.0908734E-2,-1.5927696E-1,-3.229223E-2,-3.9052296E-1,-4.162954E-2,7.143196E-2,3.677907E-1,-3.5248366E-1,7.4727553E-1,-6.457367E-3,-1.5548387E0,7.121192E-1,1.1694112E-1,3.7589407E-1,8.4475434E-1,-1.7796847E-1,5.221649E-2,6.7220167E-3,-1.2975606E-1,2.2292133E-1,-8.426345E-2,4.3721437E-1,2.88468E-1,-2.1918231E-1,-2.504649E-1,-2.5788346E-1,-1.915439E-1,4.836493E-2,-2.1305028E-2,2.0606284E0,-2.4397951E-1,-4.995328E-1,-1.453411E-1,-1.4010938E-2,1.4259013E0,-3.764443E-3,-2.6020938E-1,3.7168416E-1,6.628354E-1,1.3261035E-1,6.7759556E-1,7.837459E-2,-7.856111E-2,1.2506857E-2,-1.8654484E-1,-7.4351974E-2,6.7206444E-3,-1.00132255E-2,8.637457E-2,-2.212846E-1,1.6324055E0,1.1103469E0,-7.056976E-2,1.2885754E0,-1.8869485E-1,1.3218539E0,1.5795799E-2,3.4986378E-3,-9.0339893E-1,-2.754525E-3,-2.503069E-2,5.0235605E0,1.7104547E-4,-5.4687886E-3,-5.565469E-4,-4.004236E-3,-8.856963E-5,1.598311E-2,6.6841545E-4,-1.5283059E-3,9.7429035E-3,7.480629E-4,6.033051E-3,1.8061945E-2,3.1756803E-3,-3.4268193E-3,-2.515008E-3,3.7257567E-3,1.4061684E-3,-6.9051394E-3,-1.0088761E-2,-3.6208604E-3,-2.7803523E-3,9.124487E-3,-5.4308814E-3,-1.0374288E-2,2.1975413E-3,1.6622543E-2,5.8591953E-3,-3.3495936E-3,-1.9737445E-4,3.4893174E-3,4.4062114E-3,-8.478157E-4,-1.0296142E-3,3.8806729E-3,-3.5489902E-3,-3.3987287E-4,4.0230887E-5,-2.8991855E-3,6.3145794E-3,1.0242988E-3,-3.4781247E-3,2.8355727E-3,-8.688056E-3,-4.111252E-3,1.2788086E-3,-1.8457331E-3,4.4553042E-3,-2.1021122E-3,4.048943E-3,-6.591368E-5,3.0111556E-4,-2.735713E-3,1.2029264E-3,1.1038852E-2,9.6518155E-3,2.3877213E-3,1.49846375E-2,1.0041666E-3,-6.665581E-3,7.6065E-4,2.255118E-2,6.5195756E-3,1.0909404E-2,2.9897159E-2,2.5682065E-3,1.3382907E-2,2.370969E-3,1.1982952E-2,-5.0760903E-3,1.179518E-2,7.206687E-3,-5.80092E-3,-1.2839705E-2,-8.206504E-3,3.1657735E-4,-1.0685512E-2,-5.286624E-3,4.0486477E-2,2.1932616E-3,1.1588228E-2,1.3194824E-2,5.539745E-2,1.3010901E-2,-5.6885933E-3,5.7812452E-2,3.7993179E-3,2.4928716E-3,1.7014261E-2,4.0555723E-2,1.188601E-2,-8.2618016E-4,-1.5641386E-2,1.2243025E-2,-8.123796E-3,2.4741216E-2,-1.4592954E-3,-3.4726579E-3,8.398501E-3,-4.1985745E-3,-1.3449033E-2,3.0310676E-3,-5.1434105E-3],"split_indices":[36,28,42,2,9,29,49,18,21,36,8,9,4,36,33,21,2,27,17,24,18,27,37,2,50,42,31,16,46,35,31,15,41,8,19,39,2,27,2,33,27,37,31,36,33,18,20,26,1,18,5,24,47,16,33,27,6,47,24,0,6,8,5,0,50,37,2,52,50,5,29,6,0,45,6,20,22,29,33,0,0,18,19,8,30,35,9,18,18,20,19,24,14,21,12,18,45,40,0,18,33,1,27,27,6,10,0,17,46,0,0,28,6,4,17,49,47,10,6,0,0,2,0,10,36,0,0,0,0,0,0,0,0,0,0,0,0,0,0,0,0,0,0,0,0,0,0,0,0,0,0,0,0,0,0,0,0,0,0,0,0,0,0,0,0,0,0,0,0,0,0,0,0,0,0,0,0,0,0,0,0,0,0,0,0,0,0,0,0,0,0,0,0,0,0,0,0,0,0,0,0,0,0,0,0,0,0,0,0,0,0,0,0,0,0,0,0,0,0,0,0,0,0,0,0,0,0],"split_type":[0,0,0,0,0,0,0,0,0,0,0,0,0,0,0,0,0,0,0,0,0,0,0,0,0,0,0,0,0,0,0,0,0,0,0,0,0,0,0,0,0,0,0,0,0,0,0,0,0,0,0,0,0,0,0,0,0,0,0,0,0,0,0,0,0,0,0,0,0,0,0,0,0,0,0,0,0,0,0,0,0,0,0,0,0,0,0,0,0,0,0,0,0,0,0,0,0,0,0,0,0,0,0,0,0,0,0,0,0,0,0,0,0,0,0,0,0,0,0,0,0,0,0,0,0,0,0,0,0,0,0,0,0,0,0,0,0,0,0,0,0,0,0,0,0,0,0,0,0,0,0,0,0,0,0,0,0,0,0,0,0,0,0,0,0,0,0,0,0,0,0,0,0,0,0,0,0,0,0,0,0,0,0,0,0,0,0,0,0,0,0,0,0,0,0,0,0,0,0,0,0,0,0,0,0,0,0,0,0,0,0,0,0,0,0,0,0,0,0,0,0,0,0,0,0,0,0],"sum_hessian":[2.1872E4,2.0246E4,1.626E3,2.859E3,1.7387E4,1.227E3,3.99E2,1.35E3,1.509E3,1.109E4,6.297E3,3.73E2,8.54E2,3.17E2,8.2E1,5.5E2,8E2,7.76E2,7.33E2,1.929E3,9.161E3,1.801E3,4.496E3,1.31E2,2.42E2,1.16E2,7.38E2,1.57E2,1.6E2,1.7E1,6.5E1,6.9E1,4.81E2,7.36E2,6.4E1,2.08E2,5.68E2,5.79E2,1.54E2,7E0,1.922E3,5.061E3,4.1E3,3.7E2,1.431E3,2.734E3,1.762E3,1.15E2,1.6E1,1.16E2,1.26E2,1.01E2,1.5E1,7.13E2,2.5E1,2.2E1,1.35E2,4.6E1,1.14E2,6E0,1.1E1,2.4E1,4.1E1,1.4E1,5.5E1,4.6E2,2.1E1,6.36E2,1E2,2.6E1,3.8E1,1.44E2,6.4E1,2.25E2,3.43E2,4.22E2,1.57E2,9.3E1,6.1E1,3E0,4E0,9.03E2,1.019E3,1.008E3,4.053E3,3.428E3,6.72E2,8.7E1,2.83E2,9.26E2,5.05E2,1.046E3,1.688E3,4.3E2,1.332E3,1E1,1.05E2,1.3E1,3E0,3.3E1,8.3E1,9.3E1,3.3E1,8E0,9.3E1,1E1,5E0,1E1,7.03E2,5E0,2E1,1.3E1,9E0,9E0,1.26E2,2.5E1,2.1E1,1E1,1.04E2,8E0,3E0,1.5E1,9E0,1.9E1,2.2E1,1.9E1,3.6E1,3.32E2,1.28E2,1.3E1,8E0,3.83E2,2.53E2,1.6E1,8.4E1,2E1,6E0,2.1E1,1.7E1,1.3E2,1.4E1,6E0,2.19E2,3.15E2,2.8E1,4.17E2,5E0,1.28E2,2.9E1,9E1,3E0,8E0,5.3E1,6.34E2,2.69E2,8.9E2,1.29E2,8.88E2,1.2E2,3.376E3,6.77E2,2.497E3,9.31E2,1.67E2,5.05E2,3.9E1,4.8E1,8.8E1,1.95E2,2.15E2,7.11E2,3.06E2,1.99E2,7.44E2,3.02E2,1.518E3,1.7E2,1.32E2,2.98E2,1E2,1.232E3,7E0,3E0,3E1,7.5E1,1E1,3E0,1.9E1,1.4E1,2.5E1,5.8E1,5.8E1,3.5E1,3E1,3E0,4E0,4E0,2.8E1,6.5E1,5E0,5E0,5E0,5E0,6.71E2,3.2E1,7E0,6E0,3E0,6E0,3E0,6E0,1.18E2,8E0,5E0,2E1,1.7E1,4E0,3E0,7E0,9.9E1,5E0,3E0,1.2E1,1.1E1,8E0,1.1E1,1.1E1],"tree_param":{"num_deleted":"0","num_feature":"54","num_nodes":"227","size_leaf_vector":"1"}},{"base_weights":[3.023274E-4,-1.8378746E-2,3.7271682E-2,8.546519E-3,-3.9134543E-2,2.1680273E-2,1.273097E-1,-3.3703793E-3,6.1860252E-2,-2.3888104E-4,-5.9212703E-2,9.249158E-3,5.6321967E-2,6.0455177E-2,1.6088533E-1,3.325703E-2,-2.0146208E-2,-3.108396E-2,9.9962205E-2,-1.2099724E-2,4.285066E-2,-9.111276E-2,-6.3932245E-3,7.8962326E-2,1.8698788E-3,-3.4535583E-2,6.56373E-2,1.9322126E-1,2.6941847E-2,1.7920314E-1,3.2503027E-2,3.1420436E-2,4.5223388E-1,1.8975971E-2,-3.4262154E-2,-9.304693E-2,-5.1788427E-3,1.0440156E-3,1.4250211E-1,-8.426967E-2,-7.6095043E-3,6.947392E-2,-2.0956863E-2,-7.594989E-2,-1.5775129E-1,-4.2397346E-2,4.25097E-2,-2.977598E-3,1.2625733E-1,3.3499368E-2,-2.2983635E-2,5.053938E-2,-5.726459E-2,1.3269514E-1,5.3412408E-2,4.748864E-1,1.24279045E-1,-1.3123861E-1,4.9080733E-2,1.3025759E-1,3.024851E-1,1.8575896E-1,-1.9053346E-2,4.9000967E-2,-7.2076465E-3,-8.855091E-4,4.0455975E-2,-8.3168164E-2,2.9108457E-2,-5.4200243E-2,-1.3452075E-2,1.2030412E-2,-1.2149122E-1,1.2764907E-1,-2.067192E-2,-2.6218474E-2,1.6156079E-1,3.4385398E-2,1.7022797E-1,-1.288308E-1,2.8808538E-2,-1.3865345E-2,3.7532654E-2,6.509801E-2,2.568821E-2,-5.2277846E-3,-1.2166728E-1,1.6059616E-1,-8.004245E-2,1.1973773E-2,-1.6398412E-1,2.3360635E-1,-4.9604446E-2,7.1897514E-2,-8.50999E-2,-1.8320823E-2,2.0930856E-1,1.8362968E-1,-1.6253246E-2,4.9959652E-2,-2.6619744E-2,-3.2659866E-2,1.782918E-2,1.3059707E-1,-7.133898E-5,-6.8228934E-3,-8.0883905E-2,1.800261E-1,-7.535714E-3,7.651397E-2,2.7357874E-2,3.5236526E-2,2.1441197E-1,2.3902419E-1,-6.621782E-3,3.01375E-2,-1.7123069E-1,6.3909955E-2,-9.671806E-3,1.5909764E-1,-4.3899305E-2,1.9896315E-1,5.2446216E-1,-8.634435E-3,2.703105E-1,-8.518172E-2,4.7619414E-2,1.1415596E-3,4.613524E-3,8.7301276E-4,-2.1172788E-3,-6.6042035E-3,-1.2417828E-3,1.1291241E-3,8.638756E-3,1.3606732E-2,-2.8192098E-3,-1.0035257E-3,6.822364E-3,7.113505E-3,-6.5571466E-3,2.947981E-3,-6.6021043E-3,1.9441573E-2,2.2381966E-4,-1.640371E-3,7.125643E-3,6.54344E-4,-3.832657E-3,1.5438519E-3,1.3843163E-2,3.501047E-3,-6.677558E-3,1.2012725E-2,6.067851E-3,-1.3429977E-2,-5.326691E-3,-7.6812776E-3,4.646735E-3,8.07492E-4,-1.2232866E-3,2.1070788E-2,1.5594825E-3,4.114102E-3,-1.1244266E-3,-9.315679E-4,5.6190114E-3,1.21876E-3,-9.8105995E-3,2.0237647E-2,1.0761603E-3,-5.6512957E-3,-3.045962E-3,-3.7587981E-3,9.238827E-3,-7.3331045E-3,-1.0107124E-2,1.4878131E-2,1.0265638E-3,-3.1485537E-3,9.099193E-4,2.871501E-4,5.4928367E-3,8.3192075E-3,-5.2260906E-3,-1.6490038E-3,4.301487E-3,2.8569404E-2,1.0526297E-4,1.1263471E-2,1.3662861E-3,-3.5420011E-3,6.6679283E-3,-1.036444E-4,3.890631E-3,-2.7783585E-3,1.9969966E-3,5.939835E-3,-1.7838117E-3,9.566913E-3,4.4133817E-4,1.0777475E-2,-2.2194981E-4,8.994729E-3,-1.6283175E-3,-2.2534204E-3,-6.006777E-3,5.5209617E-3,1.4373171E-2,-8.813907E-3,7.4466027E-4,2.2839801E-3,5.8931024E-3,2.026092E-3,-4.3444014E-3,1.5900461E-2,1.5656209E-3,2.0427832E-3,1.5168902E-2,-3.7479028E-3,9.106535E-3,-6.439095E-3,1.1062619E-2,1.8294646E-3,-9.83086E-3,4.3366994E-3,-5.0135483E-3,4.843283E-3,1.2311961E-2,-4.2239483E-3,1.5220031E-2,4.2525977E-2,8.495743E-3,3.8302135E-2,9.7130295E-3,2.0077081E-2,3.9941217E-3,-3.1517183E-3,-1.2053258E-2,8.056886E-3,-2.8227933E-3],"categories":[],"categories_nodes":[],"categories_segments":[],"categories_sizes":[],"default_left":[0,0,0,0,0,0,0,0,0,0,0,0,0,0,0,0,0,0,0,0,0,0,0,0,0,0,0,0,0,0,0,0,0,0,0,0,0,0,0,0,0,0,0,0,0,0,0,0,0,0,0,0,0,0,0,0,0,0,0,0,0,0,0,0,0,0,0,0,0,0,0,0,0,0,0,0,0,0,0,0,0,0,0,0,0,0,0,0,0,0,0,0,0,0,0,0,0,0,0,0,0,0,0,0,0,0,0,0,0,0,0,0,0,0,0,0,0,0,0,0,0,0,0,0,0,0,0,0,0,0,0,0,0,0,0,0,0,0,0,0,0,0,0,0,0,0,0,0,0,0,0,0,0,0,0,0,0,0,0,0,0,0,0,0,0,0,0,0,0,0,0,0,0,0,0,0,0,0,0,0,0,0,0,0,0,0,0,0,0,0,0,0,0,0,0,0,0,0,0,0,0,0,0,0,0,0,0,0,0,0,0,0,0,0,0,0,0,0,0,0,0,0,0,0,0,0,0,0,0,0,0,0,0,0,0,0,0,0,0,0,0],"id":6,"left_children":[1,3,5,7,9,11,13,15,17,19,21,23,25,27,29,31,33,35,37,39,41,43,45,47,49,51,53,55,57,59,61,63,65,67,69,71,73,75,77,79,81,83,85,87,89,91,93,95,97,99,101,103,105,107,109,111,113,115,117,119,121,123,125,127,129,-1,-1,131,133,135,137,139,141,143,145,147,149,151,153,155,157,159,161,163,-1,165,167,169,171,173,175,177,179,181,183,185,187,189,191,193,195,197,199,201,-1,203,205,207,209,211,213,-1,215,217,219,221,223,225,-1,227,229,231,233,-1,235,237,239,-1,-1,-1,-1,-1,-1,-1,-1,-1,-1,-1,-1,-1,-1,-1,-1,-1,-1,-1,-1,-1,-1,-1,-1,-1,-1,-1,-1,-1,-1,-1,-1,-1,-1,-1,-1,-1,-1,-1,-1,-1,-1,-1,-1,-1,-1,-1,-1,-1,-1,-1,-1,-1,-1,-1,-1,-1,-1,-1,-1,-1,-1,-1,-1,-1,-1,-1,-1,-1,-1,-1,-1,-1,-1,-1,-1,-1,-1,-1,-1,-1,-1,-1,-1,-1,-1,-1,-1,-1,-1,-1,-1,-1,-1,-1,-1,-1,-1,-1,-1,-1,-1,-1,-1,-1,-1,-1,-1,-1,-1,-1,-1,-1,-1],"loss_changes":[1.5070172E1,8.101503E0,1.0280218E1,4.0098033E0,6.392869E0,2.6887932E0,2.4167747E0,3.170644E0,4.0862913E0,1.4254047E0,9.096432E0,2.3647E0,1.3979282E0,1.6099387E0,1.6850338E0,1.2331328E0,1.9550508E0,5.3885126E-1,3.4419708E0,7.080756E-1,1.0241123E0,3.3891315E0,3.58308E0,1.7055295E0,3.2693899E0,3.0067918E-1,1.219295E0,1.358541E0,1.0255055E0,3.756052E0,7.225595E-1,1.0971032E0,1.1883435E0,9.742614E-1,1.0784602E0,2.9735774E-1,4.9242207E-1,1.0851294E0,1.7087917E0,6.486897E-1,5.822689E-1,7.9282975E-1,2.8133053E-1,2.669259E0,6.610136E-1,2.3429136E0,3.2425127E0,5.314937E-1,2.2841349E0,1.812257E0,9.2033744E-1,1.3747594E-1,1.4479873E-1,1.5279264E0,7.6051426E-1,6.870568E-1,9.0279686E-1,2.3749614E-1,9.3302464E-1,2.2772431E0,3.986002E0,7.437475E-1,3.0827466E-1,1.2548058E0,4.3932956E-1,0E0,0E0,2.3925757E-1,7.977166E-1,9.6180844E-1,1.2666736E0,4.288885E-1,1.5629005E-1,8.025228E-1,4.284659E-1,4.2126185E-1,5.339049E-1,7.155235E-1,1.5279722E0,2.5809598E-1,4.4713265E-1,5.7628745E-1,5.980342E-1,6.3699806E-1,0E0,2.4643078E-1,2.6606333E-1,1.587202E0,1.6948757E0,3.6026418E-1,3.676033E-1,4.027151E-1,1.0370414E0,1.7622132E0,8.086475E-1,2.3535186E-1,8.2406175E-1,1.2890277E0,6.709602E-1,2.082749E0,7.613514E-1,8.644848E-1,6.965256E-1,1.5008816E-1,0E0,1.9812866E-1,1.1126846E-1,1.2545395E0,2.2592326E-1,8.5010195E-1,9.0136683E-1,0E0,1.4179122E-1,3.9569855E-1,3.8771278E-1,2.714682E-1,1.6019303E-1,9.1553617E-1,0E0,2.0802698E0,9.444186E-1,2.183455E0,4.318325E0,0E0,4.4273555E-1,1.0563883E-1,4.2260286E-1,0E0,0E0,0E0,0E0,0E0,0E0,0E0,0E0,0E0,0E0,0E0,0E0,0E0,0E0,0E0,0E0,0E0,0E0,0E0,0E0,0E0,0E0,0E0,0E0,0E0,0E0,0E0,0E0,0E0,0E0,0E0,0E0,0E0,0E0,0E0,0E0,0E0,0E0,0E0,0E0,0E0,0E0,0E0,0E0,0E0,0E0,0E0,0E0,0E0,0E0,0E0,0E0,0E0,0E0,0E0,0E0,0E0,0E0,0E0,0E0,0E0,0E0,0E0,0E0,0E0,0E0,0E0,0E0,0E0,0E0,0E0,0E0,0E0,0E0,0E0,0E0,0E0,0E0,0E0,0E0,0E0,0E0,0E0,0E0,0E0,0E0,0E0,0E0,0E0,0E0,0E0,0E0,0E0,0E0,0E0,0E0,0E0,0E0,0E0,0E0,0E0,0E0,0E0,0E0,0E0,0E0,0E0,0E0,0E0,0E0,0E0,0E0,0E0,0E0],"parents":[2147483647,0,0,1,1,2,2,3,3,4,4,5,5,6,6,7,7,8,8,9,9,10,10,11,11,12,12,13,13,14,14,15,15,16,16,17,17,18,18,19,19,20,20,21,21,22,22,23,23,24,24,25,25,26,26,27,27,28,28,29,29,30,30,31,31,32,32,33,33,34,34,35,35,36,36,37,37,38,38,39,39,40,40,41,41,42,42,43,43,44,44,45,45,46,46,47,47,48,48,49,49,50,50,51,51,52,52,53,53,54,54,55,55,56,56,57,57,58,58,59,59,60,60,61,61,62,62,63,63,64,64,67,67,68,68,69,69,70,70,71,71,72,72,73,73,74,74,75,75,76,76,77,77,78,78,79,79,80,80,81,81,82,82,83,83,85,85,86,86,87,87,88,88,89,89,90,90,91,91,92,92,93,93,94,94,95,95,96,96,97,97,98,98,99,99,100,100,101,101,102,102,103,103,105,105,106,106,107,107,108,108,109,109,110,110,112,112,113,113,114,114,115,115,116,116,117,117,119,119,120,120,121,121,122,122,124,124,125,125,126,126],"right_children":[2,4,6,8,10,12,14,16,18,20,22,24,26,28,30,32,34,36,38,40,42,44,46,48,50,52,54,56,58,60,62,64,66,68,70,72,74,76,78,80,82,84,86,88,90,92,94,96,98,100,102,104,106,108,110,112,114,116,118,120,122,124,126,128,130,-1,-1,132,134,136,138,140,142,144,146,148,150,152,154,156,158,160,162,164,-1,166,168,170,172,174,176,178,180,182,184,186,188,190,192,194,196,198,200,202,-1,204,206,208,210,212,214,-1,216,218,220,222,224,226,-1,228,230,232,234,-1,236,238,240,-1,-1,-1,-1,-1,-1,-1,-1,-1,-1,-1,-1,-1,-1,-1,-1,-1,-1,-1,-1,-1,-1,-1,-1,-1,-1,-1,-1,-1,-1,-1,-1,-1,-1,-1,-1,-1,-1,-1,-1,-1,-1,-1,-1,-1,-1,-1,-1,-1,-1,-1,-1,-1,-1,-1,-1,-1,-1,-1,-1,-1,-1,-1,-1,-1,-1,-1,-1,-1,-1,-1,-1,-1,-1,-1,-1,-1,-1,-1,-1,-1,-1,-1,-1,-1,-1,-1,-1,-1,-1,-1,-1,-1,-1,-1,-1,-1,-1,-1,-1,-1,-1,-1,-1,-1,-1,-1,-1,-1,-1,-1,-1,-1,-1],"split_conditions":[-7.958653E-2,-2.1324119E-2,-2.1281324E-2,-5.8373645E-2,-3.229643E-2,5.9312975E-1,7.1815217E-1,-6.0282874E-1,-1.8694231E-1,7.955622E-1,-7.727056E-2,-4.1864076E-1,-6.070695E-1,-9.234852E-1,4.845943E-1,4.6997428E-1,-4.666598E-2,-1.6041556E-1,-1.9919445E-1,-8.248041E-1,1.3027484E0,-5.3668868E-2,4.066408E-1,-2.4397951E-1,-8.32128E-1,-3.717599E-1,-2.3373759E-1,-1.9467546E-2,-5.2695643E-2,7.728029E-2,1.999256E-1,-1.019794E-1,-1.0609235E-1,-1.0059786E0,-3.358791E-1,-2.0040868E-1,-4.6388197E-1,-1.346536E-2,-2.0377946E-1,-9.942607E-2,-8.426345E-2,1.3778228E-1,5.6251055E-1,-3.665644E-1,-1.0333482E0,-3.9246687E-1,-8.947342E-2,2.95683E0,3.1122178E-1,2.2000846E-1,1.0306087E0,-2.7527327E-2,-3.0739877E-1,1.0432583E0,-1.2162158E-1,-9.914645E-1,1.040078E0,-1.9665675E-2,-9.8083675E-2,5.3742206E-1,5.9215474E-1,-3.7042715E-2,2.724674E-1,-2.508742E-2,9.897914E-2,-8.855091E-4,4.0455975E-2,-1.5920831E-1,1.6387278E0,-3.90429E-1,-7.4549794E-2,1.0071553E-1,1.5032083E-1,-3.0988076E-1,1.5953142E-2,2.7068505E-1,-5.0647944E-2,3.5001692E-1,-2.604623E-1,-9.0339893E-1,-1.2575939E0,-7.946194E-2,-1.803563E-1,-1.2356205E-1,2.568821E-2,-6.2670216E-2,-3.836212E-1,-1.7877094E-1,-1.598944E-1,-2.4217081E-1,3.157207E-1,-2.6703052E-2,8.765259E-1,-9.216633E-2,-1.8265232E-1,4.1524065E-1,3.3928897E0,1.3364153E0,1.9230042E0,-1.252915E-1,1.6898835E-2,-9.4757855E-2,-2.2621956E-1,-8.950487E-1,-7.133898E-5,-5.470497E-2,-5.087151E-1,-4.1654326E-2,-6.288826E-1,1.1952728E-1,1.1837276E0,3.5236526E-2,-1.2044423E-1,-8.085858E-1,2.95683E0,-1.2964785E-1,-2.2489634E-1,1.697329E0,-9.671806E-3,-4.6532456E-2,-5.646749E-3,-2.814184E-1,3.6036582E0,-8.634435E-3,1.0544314E0,2.4237216E0,4.3324103E0,1.1415596E-3,4.613524E-3,8.7301276E-4,-2.1172788E-3,-6.6042035E-3,-1.2417828E-3,1.1291241E-3,8.638756E-3,1.3606732E-2,-2.8192098E-3,-1.0035257E-3,6.822364E-3,7.113505E-3,-6.5571466E-3,2.947981E-3,-6.6021043E-3,1.9441573E-2,2.2381966E-4,-1.640371E-3,7.125643E-3,6.54344E-4,-3.832657E-3,1.5438519E-3,1.3843163E-2,3.501047E-3,-6.677558E-3,1.2012725E-2,6.067851E-3,-1.3429977E-2,-5.326691E-3,-7.6812776E-3,4.646735E-3,8.07492E-4,-1.2232866E-3,2.1070788E-2,1.5594825E-3,4.114102E-3,-1.1244266E-3,-9.315679E-4,5.6190114E-3,1.21876E-3,-9.8105995E-3,2.0237647E-2,1.0761603E-3,-5.6512957E-3,-3.045962E-3,-3.7587981E-3,9.238827E-3,-7.3331045E-3,-1.0107124E-2,1.4878131E-2,1.0265638E-3,-3.1485537E-3,9.099193E-4,2.871501E-4,5.4928367E-3,8.3192075E-3,-5.2260906E-3,-1.6490038E-3,4.301487E-3,2.8569404E-2,1.0526297E-4,1.1263471E-2,1.3662861E-3,-3.5420011E-3,6.6679283E-3,-1.036444E-4,3.890631E-3,-2.7783585E-3,1.9969966E-3,5.939835E-3,-1.7838117E-3,9.566913E-3,4.4133817E-4,1.0777475E-2,-2.2194981E-4,8.994729E-3,-1.6283175E-3,-2.2534204E-3,-6.006777E-3,5.5209617E-3,1.4373171E-2,-8.813907E-3,7.4466027E-4,2.2839801E-3,5.8931024E-3,2.026092E-3,-4.3444014E-3,1.5900461E-2,1.5656209E-3,2.0427832E-3,1.5168902E-2,-3.7479028E-3,9.106535E-3,-6.439095E-3,1.1062619E-2,1.8294646E-3,-9.83086E-3,4.3366994E-3,-5.0135483E-3,4.843283E-3,1.2311961E-2,-4.2239483E-3,1.5220031E-2,4.2525977E-2,8.495743E-3,3.8302135E-2,9.7130295E-3,2.0077081E-2,3.9941217E-3,-3.1517183E-3,-1.2053258E-2,8.056886E-3,-2.8227933E-3],"split_indices":[34,24,37,38,37,0,2,35,9,22,43,12,13,0,49,7,17,47,28,4,15,27,30,21,35,6,19,9,38,37,34,26,32,4,4,10,14,16,13,34,8,32,2,12,15,12,33,4,26,10,29,31,1,40,47,0,4,24,26,25,43,34,5,20,12,0,0,19,6,10,50,2,35,26,17,35,32,5,19,2,40,43,39,28,0,38,20,39,34,4,19,31,1,46,19,10,40,4,40,27,39,7,9,13,0,34,19,27,45,10,5,0,47,1,4,0,9,8,0,8,7,18,43,0,35,12,2,0,0,0,0,0,0,0,0,0,0,0,0,0,0,0,0,0,0,0,0,0,0,0,0,0,0,0,0,0,0,0,0,0,0,0,0,0,0,0,0,0,0,0,0,0,0,0,0,0,0,0,0,0,0,0,0,0,0,0,0,0,0,0,0,0,0,0,0,0,0,0,0,0,0,0,0,0,0,0,0,0,0,0,0,0,0,0,0,0,0,0,0,0,0,0,0,0,0,0,0,0,0,0,0,0,0,0,0,0,0,0,0,0,0],"split_type":[0,0,0,0,0,0,0,0,0,0,0,0,0,0,0,0,0,0,0,0,0,0,0,0,0,0,0,0,0,0,0,0,0,0,0,0,0,0,0,0,0,0,0,0,0,0,0,0,0,0,0,0,0,0,0,0,0,0,0,0,0,0,0,0,0,0,0,0,0,0,0,0,0,0,0,0,0,0,0,0,0,0,0,0,0,0,0,0,0,0,0,0,0,0,0,0,0,0,0,0,0,0,0,0,0,0,0,0,0,0,0,0,0,0,0,0,0,0,0,0,0,0,0,0,0,0,0,0,0,0,0,0,0,0,0,0,0,0,0,0,0,0,0,0,0,0,0,0,0,0,0,0,0,0,0,0,0,0,0,0,0,0,0,0,0,0,0,0,0,0,0,0,0,0,0,0,0,0,0,0,0,0,0,0,0,0,0,0,0,0,0,0,0,0,0,0,0,0,0,0,0,0,0,0,0,0,0,0,0,0,0,0,0,0,0,0,0,0,0,0,0,0,0,0,0,0,0,0,0,0,0,0,0,0,0,0,0,0,0,0,0],"sum_hessian":[2.1819E4,1.4495E4,7.324E3,6.31E3,8.185E3,6.244E3,1.08E3,5.158E3,1.152E3,2.787E3,5.398E3,4.596E3,1.648E3,3.62E2,7.18E2,1.62E3,3.538E3,3.35E2,8.17E2,2.186E3,6.01E2,3.365E3,2.033E3,4.39E2,4.157E3,1.53E2,1.495E3,7.2E1,2.9E2,6.28E2,9E1,1.614E3,6E0,9.38E2,2.6E3,9.8E1,2.37E2,2.46E2,5.71E2,1.27E2,2.059E3,4.24E2,1.77E2,2.743E3,6.22E2,1.171E3,8.62E2,1.61E2,2.78E2,1.829E3,2.328E3,3.2E1,1.21E2,2.29E2,1.266E3,1.3E1,5.9E1,3.5E1,2.55E2,4.51E2,1.77E2,2.2E1,6.8E1,1.109E3,5.05E2,3E0,3E0,8.4E1,8.54E2,1.327E3,1.273E3,2.1E1,7.7E1,2.4E1,2.13E2,2.11E2,3.5E1,1.17E2,4.54E2,9.1E1,3.6E1,1.809E3,2.5E2,4.21E2,3E0,1.54E2,2.3E1,4.6E1,2.697E3,2.2E1,6E2,2.9E1,1.142E3,7.01E2,1.61E2,1.51E2,1E1,1.98E2,8E1,1.436E3,3.93E2,1.882E3,4.46E2,1.2E1,2E1,3.9E1,8.2E1,1.71E2,5.8E1,6.7E2,5.96E2,6E0,7E0,3.1E1,2.8E1,7E0,2.8E1,2.41E2,1.4E1,3.87E2,6.4E1,1.22E2,5.5E1,4E0,1.8E1,3.4E1,3.4E1,6.92E2,4.17E2,2.97E2,2.08E2,4.5E1,3.9E1,8.18E2,3.6E1,8E0,1.319E3,1.22E3,5.3E1,1.1E1,1E1,4E0,7.3E1,7E0,1.7E1,1.99E2,1.4E1,1.19E2,9.2E1,1.7E1,1.8E1,9.7E1,2E1,1.85E2,2.69E2,1.1E1,8E1,9E0,2.7E1,4.72E2,1.337E3,3E0,2.47E2,3.52E2,6.9E1,1.39E2,1.5E1,8E0,1.5E1,1.6E1,3E1,9.88E2,1.709E3,1.5E1,7E0,4.16E2,1.84E2,2.2E1,7E0,9.54E2,1.88E2,2.56E2,4.45E2,1.1E1,1.5E2,1.33E2,1.8E1,3E0,7E0,1.56E2,4.2E1,5.9E1,2.1E1,5.01E2,9.35E2,2.74E2,1.19E2,3.6E1,1.846E3,2.1E1,4.25E2,7E0,5E0,4E0,3.5E1,4.4E1,3.8E1,1.05E2,6.6E1,6E0,5.2E1,3.85E2,2.85E2,5.35E2,6.1E1,4E0,3E0,8E0,2.3E1,2.1E1,7E0,4E0,3E0,3E0,2.5E1,2.12E2,2.9E1,2.27E2,1.6E2,5.8E1,6E0,4E0,1.18E2,3.1E1,2.4E1,1E1,8E0,3.1E1,3E0,1.6E1,1.8E1],"tree_param":{"num_deleted":"0","num_feature":"54","num_nodes":"241","size_leaf_vector":"1"}},{"base_weights":[-3.3807044E-4,-3.9830827E-3,1.4726478E-1,-4.5319375E-2,3.8408248E-3,7.670586E-2,2.2367921E-1,-3.4881118E-3,-8.157428E-2,-2.19462E-2,2.012442E-2,1.4504886E-1,-5.2236285E-2,2.955329E-1,-2.7320843E-2,-1.0713403E-2,4.769966E-2,-4.006735E-2,-1.2424224E-1,1.1265339E-2,-6.480564E-2,-5.0202076E-4,5.0884E-2,2.4493441E-1,6.970043E-2,4.85399E-2,-1.0104554E-1,1.6981204E-1,3.902758E-1,4.468558E-2,-7.385875E-2,-1.2337285E-2,2.3820914E-1,2.2180426E-1,2.54123E-2,-7.6807715E-2,-1.4166707E-2,-1.5291318E-1,-6.7438304E-2,5.7830244E-2,-6.11456E-3,-8.100046E-2,-2.595258E-2,3.641242E-2,-9.69722E-3,1.0140402E-2,7.571633E-2,5.470158E-1,2.0691176E-1,1.2613389E-1,-6.121654E-2,-6.878596E-2,1.324358E-1,-1.5608914E-1,-4.626788E-2,3.2417354E-1,-6.437685E-2,4.1894284E-1,-9.061045E-3,-6.989319E-4,1.6341764E-2,-1.01819E-2,-4.5440946E-2,-1.5940762E-1,-1.048575E-2,1.7003886E-3,1.6732093E-2,3.5584334E-1,4.0225717E-3,1.5547388E-3,1.5524589E-1,-9.007617E-2,4.8987534E-2,1.7227933E-1,-1.8713182E-2,-1.4182694E-1,-2.0499758E-1,-8.886845E-2,4.2346966E-2,7.264618E-2,-4.8947394E-2,-2.4569472E-2,1.8291252E-2,-4.537287E-2,-1.0568624E-1,3.983551E-2,-6.850916E-2,3.0752588E-2,2.0259659E-1,-2.9992756E-2,1.0433046E-2,5.433722E-2,1.50244E-3,1.2057235E-1,4.7482967E-2,1.05878655E-2,3.529097E-2,1.1681675E-1,3.3788225E-1,6.980992E-2,5.750398E-1,-4.936106E-3,4.5600183E-2,3.6005692E-3,-7.750399E-3,2.2877541E-1,-1.3852906E-6,-9.013561E-3,2.9126557E-3,5.199765E-3,-7.576136E-2,1.4423215E-1,5.447852E-1,-2.2150015E-2,-1.5665395E-2,3.17049E-1,6.6650563E-1,5.518237E-3,-4.882927E-3,-1.1694572E-2,3.3065919E-3,-5.8540306E-4,9.854504E-3,2.2266854E-2,7.969173E-3,3.9363317E-3,-1.291017E-3,2.0600052E-3,2.737697E-2,-3.69953E-3,-8.04519E-3,-9.367789E-3,4.5885523E-3,1.982236E-2,-3.824992E-3,-1.767652E-3,1.3501218E-3,-7.918834E-3,-5.3517367E-3,-1.07917115E-2,-3.4518633E-3,-4.8307506E-3,5.4517295E-3,1.1020893E-2,-9.843208E-4,1.6218631E-3,4.7298633E-3,3.367534E-3,-3.4119752E-3,6.324509E-4,-1.913702E-3,1.8174058E-3,-9.000039E-4,-2.3798917E-3,1.1882015E-2,1.3643339E-2,-5.4160478E-3,1.3653783E-3,7.986593E-3,-6.158653E-3,-1.2329892E-3,2.5942072E-3,-8.9512113E-4,-3.5828406E-3,1.4393756E-2,-3.449405E-3,-6.2878215E-4,2.1686952E-3,-7.66145E-4,3.3407472E-3,-6.3071237E-3,-3.543528E-4,2.4794212E-3,-8.030835E-4,7.5847344E-3,2.871305E-3,-4.121101E-3,1.349656E-2,1.2575374E-3,9.123591E-3,2.6494509E-2,9.469594E-4,8.89584E-3,8.481472E-3,3.921801E-2,-4.0988973E-3,1.1278368E-2,1.5932879E-3,1.4931666E-2,3.1378479E-3,-6.575934E-3,1.044064E-2,-1.1021682E-2,1.34654865E-2,3.513201E-2,3.145972E-3,-4.3542297E-3,1.2036206E-2,2.8613532E-2,4.3675892E-2,1.1476422E-2],"categories":[],"categories_nodes":[],"categories_segments":[],"categories_sizes":[],"default_left":[0,0,0,0,0,0,0,0,0,0,0,0,0,0,0,0,0,0,0,0,0,0,0,0,0,0,0,0,0,0,0,0,0,0,0,0,0,0,0,0,0,0,0,0,0,0,0,0,0,0,0,0,0,0,0,0,0,0,0,0,0,0,0,0,0,0,0,0,0,0,0,0,0,0,0,0,0,0,0,0,0,0,0,0,0,0,0,0,0,0,0,0,0,0,0,0,0,0,0,0,0,0,0,0,0,0,0,0,0,0,0,0,0,0,0,0,0,0,0,0,0,0,0,0,0,0,0,0,0,0,0,0,0,0,0,0,0,0,0,0,0,0,0,0,0,0,0,0,0,0,0,0,0,0,0,0,0,0,0,0,0,0,0,0,0,0,0,0,0,0,0,0,0,0,0,0,0,0,0,0,0,0,0,0,0,0,0,0,0,0,0,0,0,0,0,0,0,0,0,0,0],"id":7,"left_children":[1,3,5,7,9,11,13,15,17,19,21,23,25,27,29,31,33,35,37,39,41,43,45,47,49,51,53,55,57,59,61,63,65,67,69,71,73,75,77,79,81,83,85,87,89,91,93,95,97,99,101,103,105,107,109,111,113,115,-1,-1,-1,-1,117,119,121,-1,-1,123,-1,125,127,129,131,133,135,137,139,141,143,145,147,149,151,153,155,157,159,161,163,165,167,169,171,173,175,-1,-1,177,179,181,183,-1,185,-1,-1,187,-1,-1,-1,-1,189,191,193,195,-1,197,199,-1,-1,-1,-1,-1,-1,-1,-1,-1,-1,-1,-1,-1,-1,-1,-1,-1,-1,-1,-1,-1,-1,-1,-1,-1,-1,-1,-1,-1,-1,-1,-1,-1,-1,-1,-1,-1,-1,-1,-1,-1,-1,-1,-1,-1,-1,-1,-1,-1,-1,-1,-1,-1,-1,-1,-1,-1,-1,-1,-1,-1,-1,-1,-1,-1,-1,-1,-1,-1,-1,-1,-1,-1,-1,-1,-1,-1,-1,-1,-1,-1,-1,-1,-1],"loss_changes":[1.1742745E1,6.888835E0,2.8188887E0,5.1409507E0,7.521368E0,2.4309576E0,4.552966E0,5.8301944E-1,3.2111874E0,9.869358E0,6.9657683E0,1.3376477E0,4.771106E-1,2.2683144E0,1.9430904E-1,5.611677E-1,7.510282E-1,8.7628615E-1,1.4473047E0,3.1622627E0,1.9025421E0,2.2314637E0,4.4580526E0,7.712326E-1,7.760834E-1,3.2409078E-1,1.887635E-1,3.129748E0,1.8944473E0,3.852668E-1,1.1982797E-1,3.7220448E-1,1.6584474E-1,3.8820148E-1,5.3872585E-1,6.4034295E-1,4.6266225E-1,3.1391335E-1,7.14283E-1,1.6836505E0,1.282308E0,1.873807E0,2.5000758E0,1.2268637E0,2.1505353E0,6.3747495E-1,3.4617786E0,2.7645993E-1,7.8651524E-1,1.8056002E0,1.3270089E-1,1.8111995E-1,2.4247456E-1,1.7636496E-1,1.585595E-1,1.9856777E0,3.6096525E-1,