{"learner":{"attributes":{"best_iteration":"117","best_score":"0.23024901815984802","scikit_learn":"{\"_estimator_type\": \"regressor\"}"},"feature_names":[],"feature_types":[],"gradient_booster":{"model":{"gbtree_model_param":{"num_parallel_tree":"1","num_trees":"128"},"iteration_indptr":[0,1,2,3,4,5,6,7,8,9,10,11,12,13,14,15,16,17,18,19,20,21,22,23,24,25,26,27,28,29,30,31,32,33,34,35,36,37,38,39,40,41,42,43,44,45,46,47,48,49,50,51,52,53,54,55,56,57,58,59,60,61,62,63,64,65,66,67,68,69,70,71,72,73,74,75,76,77,78,79,80,81,82,83,84,85,86,87,88,89,90,91,92,93,94,95,96,97,98,99,100,101,102,103,104,105,106,107,108,109,110,111,112,113,114,115,116,117,118,119,120,121,122,123,124,125,126,127,128],"tree_info":[0,0,0,0,0,0,0,0,0,0,0,0,0,0,0,0,0,0,0,0,0,0,0,0,0,0,0,0,0,0,0,0,0,0,0,0,0,0,0,0,0,0,0,0,0,0,0,0,0,0,0,0,0,0,0,0,0,0,0,0,0,0,0,0,0,0,0,0,0,0,0,0,0,0,0,0,0,0,0,0,0,0,0,0,0,0,0,0,0,0,0,0,0,0,0,0,0,0,0,0,0,0,0,0,0,0,0,0,0,0,0,0,0,0,0,0,0,0,0,0,0,0,0,0,0,0,0,0],"trees":[{"base_weights":[2.442914E-5,-6.1424382E-2,2.7535394E-2,9.214951E-3,-9.9559784E-2,-4.25155E-2,4.5494024E-2,5.498204E-2,-3.7051238E-2,-1.1372469E-1,4.532439E-2,-2.182918E-2,-1.6294023E-1,1.4882691E-2,7.5348295E-2,-3.53221E-2,6.878894E-2,3.1141711E-2,-6.3857205E-2,-6.704368E-2,-1.4502782E-1,2.1910669E-1,-0E0,-4.9386255E-2,1.0309438E-2,-1.0077817E-1,-2.7032956E-1,8.078948E-2,-1.3983778E-3,-3.2922982E-3,9.0003304E-2,-4.629886E-2,-0E0,2.0758387E-2,1.0136192E-1,6.906273E-2,-1.17623E-2,1.6781196E-2,-7.139659E-2,-1.3215636E-1,-2.8586108E-2,-1.558623E-1,-0E0,2.8304723E-1,-0E0,-6.504891E-2,6.111501E-2,1.6337241E-1,-5.2788008E-2,-4.6601363E-2,3.2885123E-2,-1.40818E-1,1.1831008E-2,-2.8220925E-1,-0E0,1.2415505E-1,-0E0,-3.979686E-2,3.6957964E-2,1.3236034E-1,-2.1221245E-2,1.2598823E-1,6.2063742E-2,-5.4495394E-2,-0E0,1.2060344E-1,-0E0,1.1996468E-2,1.273628E-1,1.6136034E-1,1.6951276E-2,8.591774E-3,-5.050332E-2,-0E0,6.78707E-2,-8.055247E-2,-0E0,-5.912378E-2,-1.5605736E-1,-4.9877506E-2,3.5484735E-2,-1.61104E-1,5.7586327E-2,-4.305048E-2,1.2086235E-1,-0E0,3.0597723E-1,-0E0,-3.3253338E-3,-2.888626E-2,-2.0316932E-1,1.0128391E-1,-1.0211198E-2,-0E0,1.1836191E-2,-1.12677336E-1,-3.9985567E-2,-9.2419855E-2,-0E0,2.5182156E-2,2.6290548E-1,-1.5439068E-1,-0E0,-5.772334E-2,6.2322337E-2,-2.888832E-1,-0E0,1.7046893E-1,-0E0,-2.2349138E-2,1.3509452E-1,-1.10653475E-1,-2.2203788E-2,-6.0045663E-2,6.0810614E-2,-0E0,2.0936431E-1,-4.229551E-2,1.01727165E-1,4.558126E-2,1.6260532E-1,4.1346055E-2,1.9107935E-1,-0E0,-5.932331E-2,-0E0,1.3138461E-1,1.6272806E-2,-4.3568183E-2,-2.8990777E-2,5.7151236E-2,1.7619623E-1,7.676238E-2,-0E0,2.3513176E-1,4.148027E-2,-2.6101628E-2,-0E0,4.338961E-2,-0E0,-8.59328E-2,-0E0,-3.0789664E-3,9.020565E-2,-0E0,-8.967453E-2,-0E0,1.8393638E-2,-5.369777E-2,-8.292251E-2,1.788165E-2,-0E0,-1.619928E-1,-7.53206E-2,-1.6536716E-2,-0E0,1.2408677E-1,-1.695444E-1,-7.763849E-2,1.4259252E-1,-5.9942003E-2,-9.642164E-2,-0E0,3.865304E-1,-0E0,3.3563635E-1,-0E0,-4.2854335E-2,8.7300845E-4,-0E0,-1.0548013E-2,-0E0,1.3758372E-1,-6.0499962E-2,1.9600647E-2,-1.349399E-1,8.961348E-3,-0E0,-4.9809296E-2,-0E0,-1.1549337E-1,9.2622064E-2,-4.7328096E-2,1.5322796E-1,1.4115302E-2,1.5267121E-2,-0E0,-0E0,-1.6524476E-1,-0E0,1.042237E-3,-0E0,-4.8575876E-3,1.2967373E-1,-0E0,-0E0,-2.9640538E-1,1.493003E-1,5.689453E-1,3.1007953E-2,-5.1788654E-2,-6.913788E-2,6.596747E-4,1.9611543E-1,-0E0,-0E0,-1.2328832E-1,9.806675E-3,-4.914799E-2,-7.3589996E-2,3.327291E-2,4.04466E-2,1.431431E-1,1.2899502E-1,5.233485E-1,9.0783415E-4,-1.1433877E-1,2.5109898E-2,2.692613E-1,9.998683E-2,-2.0931315E-2,3.0461729E-2,1.8408494E-1,-3.3880547E-2,6.359459E-2,2.9341662E-1,8.234203E-2,-0E0,-6.0368996E-2,1.437265E-1,-0E0,2.0121673E-1,4.957054E-3,-0E0,-5.8004767E-2,-0E0,-4.0702567E-2,7.920289E-2,-0E0,4.553333E-1,1.3368385E-1,-0E0,8.924788E-2,-0E0,2.6261488E-1,6.070195E-2,-0E0,-3.9535165E-2,-0E0,-1.0599571E-2,-0E0,6.4276434E-2,-0E0,-9.9690184E-2,-0E0,-0E0,-6.4142054E-4,-0E0,1.01611264E-1,-8.31508E-3,-9.688323E-2,-3.250958E-2,3.328652E-2,-0E0,4.4061933E-2,-7.3651135E-2,-0E0,-0E0,-1.0326059E-1,6.990721E-2,-0E0,-1.6438995E-1,-0E0,-8.413318E-2,-0E0,-0E0,-5.0608907E-2,-1.8433165E-2,1.0901212E-1,1.9065064E-1,-0E0,-1.06205545E-1,-1.823512E-1,-0E0,-1.1236344E-1,9.958629E-3,-0E0,-0E0,-4.140395E-3,-0E0,-1.2965591E-1,-1.2634661E-2,1.9208731E-2,3.2555353E-2,-0E0,-0E0,1.7424308E-2,-0E0,-5.788004E-2,1.6215524E-1,-0E0,-8.910378E-2,-0E0,-0E0,2.6121323E-3,-0E0,-1.6443014E-1,9.771462E-2,-0E0,5.8939673E-2,-1.5505567E-2,-5.6120645E-2,1.4416341E-2,-0E0,-1.0077417E-2,-1.3590457E-1,-0E0,2.3265916E-1,-0E0,-0E0,-7.282769E-2,2.1783593E-1,-0E0,-8.003356E-2,2.3769625E-2,-0E0,-1.7340459E-1,-0E0,7.2344737E-3,-2.988999E-1,-0E0,8.3337E-2,2.0537312E-1,7.6256725E-3,8.117775E-1,-2.3978732E-3,7.878405E-2,-6.0735685E-3,-1.1243662E-1,-1.0720791E-1,-0E0,3.431201E-2,-3.31439E-2,2.7046674E-1,-0E0,-2.475718E-4,-0E0,3.3070238E-3,-1.054318E-2,-0E0,-1.3112016E-1,3.714539E-2,-4.359313E-2,-1.1805758E-1,-2.212045E-2,-0E0,-7.75825E-2,6.312877E-2,-0E0,5.636462E-2,-5.8579907E-2,1.8792118E-1,-1.1729212E-2,1.5815598E-1,-0E0,-0E0,3.1648833E-2,-3.6543053E-2,3.8288128E-2,-0E0,-1.4299299E-1,9.561822E-2,-2.453133E-2,3.6908343E-1,-0E0,-1.1356417E-2,1.5710281E-1,2.7055163E-2,-1.02744125E-1,8.485079E-2,-4.3786947E-2,1.9764905E-1,-0E0,-6.626734E-2,1.3314335E-1,7.676459E-2,-3.3300042E-2,6.275632E-1,2.2040713E-1,-4.206043E-2,2.3953526E-1,-3.0652592E-3,-0E0,7.3102056E-3,-0E0,-0E0,1.2974461E-2,1.5714973E-3,-1.5159039E-3,-0E0,-3.5429397E-3,-0E0,-2.5243466E-3,-0E0,4.466024E-3,-0E0,2.8315136E-2,8.126602E-3,-0E0,5.2720695E-3,-0E0,-0E0,1.6651986E-2,-0E0,3.7999246E-3,-0E0,-2.3022639E-3,-0E0,-9.577456E-4,-0E0,3.3732466E-3,-5.616031E-3,-0E0,-0E0,5.9560174E-3,-1.2143021E-3,-0E0,-0E0,-5.005698E-3,-0E0,-2.7854594E-3,-0E0,6.923313E-3,3.4423675E-3,-0E0,-0E0,-4.058407E-3,-0E0,-5.339919E-3,-0E0,5.063015E-3,-0E0,-8.30632E-3,-4.5077754E-3,-0E0,-3.9530522E-4,3.4728725E-6,-3.313367E-3,6.0792366E-4,-3.772944E-3,-0E0,7.09407E-4,-2.9610998E-3,-0E0,7.1212137E-3,1.50031615E-2,1.5546088E-3,-2.2634414E-4,-0E0,-5.780327E-3,3.8412109E-3,-0E0,-9.23548E-3,-1.8273521E-3,2.314533E-3,-5.0004044E-5,-7.2092386E-3,-0E0,-6.833953E-3,-0E0,-2.4062817E-3,2.5586018E-3,-0E0,-0E0,-3.2823186E-3,-0E0,8.836607E-3,-4.6222047E-3,-0E0,-0E0,-1.4921027E-3,-8.704404E-3,-0E0,6.9749164E-3,-0E0,4.6464284E-3,-0E0,-0E0,-1.9217316E-3,-0E0,-3.2118298E-3,3.1272639E-3,-0E0,-5.812924E-4,-0E0,-7.2567994E-3,-0E0,1.7789766E-2,-0E0,-0E0,1.30507E-3,-0E0,1.9656746E-3,-0E0,-4.296779E-3,1.50803765E-2,5.2145054E-4,-5.7369173E-3,-0E0,3.6393248E-3,-0E0,-8.948948E-3,-0E0,-0E0,-1.5046246E-2,-0E0,4.843801E-3,1.2213485E-2,2.6288766E-3,7.5796404E-4,-0E0,-0E0,5.1689405E-2,-1.0585781E-3,-0E0,-0E0,5.2751773E-3,-1.703493E-3,-0E0,-6.138257E-3,-0E0,-6.955416E-3,-0E0,-1.6286479E-3,1.118039E-3,-5.5151264E-4,3.1153518E-3,-0E0,-5.139463E-3,1.4824445E-2,-0E0,-0E0,3.9810763E-4,-0E0,-1.9625216E-3,-0E0,1.7142031E-4,-6.7370827E-3,-0E0,5.3530803E-4,6.482211E-3,-3.2563757E-3,-0E0,-6.720127E-3,1.6573804E-3,1.9693244E-2,-1.4315828E-3,-4.1273898E-3,-0E0,-0E0,4.697088E-3,7.260248E-3,2.0399964E-3,-4.615983E-3,8.367257E-3,1.7840922E-3,1.3363125E-2,1.0585462E-3,-4.269043E-3,-0E0,9.491363E-3,-0E0,-2.5162431E-3,-0E0,4.0091826E-3,-5.2344287E-3,3.7902717E-3,-7.6763607E-3,-0E0,6.7231143E-3,-0E0,-3.0593658E-3,-0E0,-0E0,2.2146737E-2,-2.8702188E-3,2.0940471E-3,1.3911248E-3,1.077265E-2,-1.1394818E-4,6.8725436E-3,-6.167048E-3,-0E0,5.939173E-3,-0E0,-0E0,-4.37478E-3,7.509246E-3,1.4490783E-2,2.8434915E-3,-2.798217E-3,3.6643837E-3,-4.795649E-3,9.825348E-3,-0E0,1.9010978E-3,6.577878E-3,1.3666631E-3,-2.6341567E-3,-0E0,4.1625436E-2,5.2175537E-4,1.5607389E-2,7.867325E-3,-4.8937234E-3,1.75597E-2,-3.6351834E-3],"categories":[],"categories_nodes":[],"categories_segments":[],"categories_sizes":[],"default_left":[0,0,0,0,0,0,0,0,0,0,0,0,0,0,0,0,0,0,0,0,0,0,0,0,0,0,0,0,0,0,0,0,0,0,0,0,0,0,0,0,0,0,0,0,0,0,0,0,0,0,0,0,0,0,0,0,0,0,0,0,0,0,0,0,0,0,0,0,0,0,0,0,0,0,0,0,0,0,0,0,0,0,0,0,0,0,0,0,0,0,0,0,0,0,0,0,0,0,0,0,0,0,0,0,0,0,0,0,0,0,0,0,0,0,0,0,0,0,0,0,0,0,0,0,0,0,0,0,0,0,0,0,0,0,0,0,0,0,0,0,0,0,0,0,0,0,0,0,0,0,0,0,0,0,0,0,0,0,0,0,0,0,0,0,0,0,0,0,0,0,0,0,0,0,0,0,0,0,0,0,0,0,0,0,0,0,0,0,0,0,0,0,0,0,0,0,0,0,0,0,0,0,0,0,0,0,0,0,0,0,0,0,0,0,0,0,0,0,0,0,0,0,0,0,0,0,0,0,0,0,0,0,0,0,0,0,0,0,0,0,0,0,0,0,0,0,0,0,0,0,0,0,0,0,0,0,0,0,0,0,0,0,0,0,0,0,0,0,0,0,0,0,0,0,0,0,0,0,0,0,0,0,0,0,0,0,0,0,0,0,0,0,0,0,0,0,0,0,0,0,0,0,0,0,0,0,0,0,0,0,0,0,0,0,0,0,0,0,0,0,0,0,0,0,0,0,0,0,0,0,0,0,0,0,0,0,0,0,0,0,0,0,0,0,0,0,0,0,0,0,0,0,0,0,0,0,0,0,0,0,0,0,0,0,0,0,0,0,0,0,0,0,0,0,0,0,0,0,0,0,0,0,0,0,0,0,0,0,0,0,0,0,0,0,0,0,0,0,0,0,0,0,0,0,0,0,0,0,0,0,0,0,0,0,0,0,0,0,0,0,0,0,0,0,0,0,0,0,0,0,0,0,0,0,0,0,0,0,0,0,0,0,0,0,0,0,0,0,0,0,0,0,0,0,0,0,0,0,0,0,0,0,0,0,0,0,0,0,0,0,0,0,0,0,0,0,0,0,0,0,0,0,0,0,0,0,0,0,0,0,0,0,0,0,0,0,0,0,0,0,0,0,0,0,0,0,0,0,0,0,0,0,0,0,0,0,0,0,0,0,0,0,0,0,0,0,0,0,0,0,0,0,0,0,0,0,0,0,0,0,0,0,0,0,0,0,0,0,0,0,0,0,0,0,0,0,0,0,0,0,0,0,0,0,0,0,0,0,0,0,0,0,0,0,0,0,0,0,0,0,0,0,0,0,0,0,0,0,0,0,0,0,0,0,0,0,0,0,0,0,0,0,0,0,0,0,0,0,0,0,0,0,0,0,0,0,0],"id":0,"left_children":[1,3,5,7,9,11,13,15,17,19,21,23,25,27,29,31,33,35,37,39,41,43,45,47,49,51,53,55,57,59,61,63,-1,65,67,69,71,73,75,77,79,81,83,85,87,89,91,93,95,97,99,101,103,105,-1,107,109,111,113,115,117,119,121,123,-1,125,127,129,131,133,135,137,139,141,143,145,147,149,151,153,155,157,159,161,163,-1,165,-1,-1,167,169,171,173,-1,-1,175,177,179,181,183,185,187,189,191,193,195,-1,197,199,201,203,205,207,209,211,-1,213,215,217,219,221,223,225,-1,227,-1,229,231,233,235,237,239,241,-1,243,245,247,249,251,-1,253,-1,255,257,-1,259,261,263,265,267,269,-1,271,273,275,277,279,281,283,285,287,289,291,293,-1,295,-1,297,-1,-1,-1,-1,299,301,303,305,307,309,311,313,315,317,319,321,323,-1,-1,-1,325,-1,-1,-1,-1,327,-1,-1,329,331,333,335,337,339,341,343,345,347,349,351,353,355,357,359,361,363,365,367,369,371,373,375,377,379,381,383,385,387,389,-1,391,393,-1,395,397,-1,399,-1,401,403,-1,405,407,-1,409,-1,411,413,-1,415,-1,417,-1,419,-1,421,-1,-1,-1,-1,423,425,427,429,431,-1,433,435,-1,-1,437,439,-1,441,-1,443,445,447,449,451,453,455,457,459,461,463,465,-1,-1,-1,-1,-1,467,469,471,-1,-1,-1,-1,-1,473,475,-1,477,-1,-1,-1,479,481,483,-1,485,487,489,491,-1,493,495,-1,497,499,501,503,505,-1,507,509,-1,511,-1,-1,513,-1,515,517,519,521,523,525,527,529,531,533,535,537,539,-1,-1,-1,541,543,545,547,549,551,553,555,-1,557,559,-1,561,563,565,567,569,-1,-1,-1,571,573,575,577,579,581,583,-1,585,587,589,591,593,595,597,599,601,603,605,607,609,611,613,615,-1,-1,-1,-1,-1,-1,-1,-1,-1,-1,-1,-1,-1,-1,-1,-1,-1,-1,-1,-1,-1,-1,-1,-1,-1,-1,-1,-1,-1,-1,-1,-1,-1,-1,-1,-1,-1,-1,-1,-1,-1,-1,-1,-1,-1,-1,-1,-1,-1,-1,-1,-1,-1,-1,-1,-1,-1,-1,-1,-1,-1,-1,-1,-1,-1,-1,-1,-1,-1,-1,-1,-1,-1,-1,-1,-1,-1,-1,-1,-1,-1,-1,-1,-1,-1,-1,-1,-1,-1,-1,-1,-1,-1,-1,-1,-1,-1,-1,-1,-1,-1,-1,-1,-1,-1,-1,-1,-1,-1,-1,-1,-1,-1,-1,-1,-1,-1,-1,-1,-1,-1,-1,-1,-1,-1,-1,-1,-1,-1,-1,-1,-1,-1,-1,-1,-1,-1,-1,-1,-1,-1,-1,-1,-1,-1,-1,-1,-1,-1,-1,-1,-1,-1,-1,-1,-1,-1,-1,-1,-1,-1,-1,-1,-1,-1,-1,-1,-1,-1,-1,-1,-1,-1,-1,-1,-1,-1,-1,-1,-1,-1,-1,-1,-1,-1,-1,-1,-1,-1,-1,-1,-1,-1,-1,-1,-1,-1,-1,-1,-1,-1,-1,-1,-1,-1,-1,-1,-1,-1,-1,-1,-1,-1,-1,-1,-1,-1,-1,-1,-1,-1,-1,-1,-1,-1,-1],"loss_changes":[2.7912035E1,1.3833557E1,1.4385994E1,3.7932172E0,6.8963547E0,5.5925555E0,8.232965E0,1.1691923E0,1.6380016E0,4.200485E0,2.3786783E0,1.803417E0,1.7973595E0,4.9265075E0,5.382944E0,5.5329323E-2,1.1205769E0,4.461425E-1,4.4610858E-1,2.921731E0,2.761734E0,1.1094224E0,9.278381E-1,6.9483066E-1,1.1508081E0,1.1242664E0,1.9736576E-1,3.2362638E0,5.3256264E0,1.6285723E0,3.7012978E0,3.0634671E-2,0E0,5.8204263E-1,9.3107843E-1,4.8477483E-1,1.2242167E-1,7.945624E-2,3.114674E-1,5.4837275E-1,1.0928891E0,1.9938736E0,6.52781E-1,5.015793E-1,4.423138E-2,3.356036E-1,4.2835736E-1,2.1340457E-1,6.648605E-1,4.587425E-1,8.698569E-1,4.1494346E-1,1.9792415E-1,1.6127586E-1,0E0,3.571929E0,9.0388036E-1,2.129768E0,4.1613274E0,8.426877E-1,1.602262E0,4.723362E0,5.648203E0,3.120476E-2,0E0,8.4050536E-2,1.799611E-1,2.4431269E-1,5.823674E-1,4.2843664E-1,1.21036395E-1,4.330171E-2,1.1105625E-1,1.7064062E-4,3.806431E-2,3.524828E-1,1.17498726E-1,2.9525274E-1,2.74271E-1,4.180206E-1,5.8186394E-1,8.804321E-1,4.6939862E-1,2.702251E-1,1.0266109E0,0E0,2.565441E-1,0E0,0E0,9.162769E-2,1.3572037E-2,3.6869508E-1,9.574302E-2,0E0,0E0,6.022947E-1,3.7159276E-1,1.6966277E-1,5.514691E-1,7.437545E-1,2.2348177E-1,3.5701632E-1,2.6070194E-3,7.272026E-2,1.9775788E-1,1.9870853E-1,0E0,2.8064823E0,2.759995E-1,3.646216E-1,4.6423835E-1,4.5693588E-1,1.3090376E0,4.8380065E-1,2.2359295E0,0E0,4.743724E-1,1.8348565E0,8.088393E-1,2.0264587E0,3.0241947E0,3.2307541E0,2.8920279E0,0E0,5.4923296E-3,0E0,7.6954186E-2,2.689851E-1,5.5371024E-2,3.4184884E-2,1.5127312E-1,1.2591276E0,2.241497E-1,0E0,2.4509645E-1,8.319111E-2,1.4709064E-2,2.1346672E-3,3.9694205E-2,0E0,5.4457277E-2,0E0,1.9687447E-3,2.4679795E-2,0E0,1.6356492E-1,6.469035E-2,5.1372923E-2,6.181393E-2,1.4168769E-1,5.6816414E-2,0E0,1.638155E-1,2.0186734E-1,1.869668E-1,2.774273E-1,5.287949E-1,8.691864E-1,4.826123E-1,1.2540412E-1,1.8597815E-2,1.496242E-1,1.610683E-2,1.4735256E0,0E0,1.3512087E-1,0E0,9.2027396E-2,0E0,0E0,0E0,0E0,2.420789E-1,6.3623294E-2,1.7608311E-2,5.032246E-1,1.03262894E-1,1.7488633E-1,3.404442E-1,2.6404131E-3,2.432555E-1,3.6053982E-1,1.4704421E-1,5.328647E-1,4.9654257E-1,0E0,0E0,0E0,2.0677805E-1,0E0,0E0,0E0,0E0,4.464495E-2,0E0,0E0,6.2127113E-2,1.234232E0,1.7580395E0,2.18808E-1,7.697345E-2,1.877073E-1,1.9910449E-1,4.5174158E-1,2.2065044E-4,3.3657737E-3,3.12191E-1,9.5593345E-1,1.3743637E0,1.0464668E-1,7.57169E-2,1.8565476E0,2.1015635E0,2.0171875E-1,8.604145E-2,4.7911802E-1,5.7035637E-1,3.0678606E-1,7.8446853E-1,2.0825956E0,1.0038371E0,7.3096985E-1,2.2903442E0,2.2605705E0,1.9435892E0,2.485979E0,3.1900187E0,0E0,4.4431686E-3,9.512842E-3,0E0,8.01025E-2,2.1032898E-1,0E0,4.094486E-2,0E0,3.339585E-2,6.868532E-2,0E0,7.578709E-1,4.6287704E-1,0E0,2.533666E-1,0E0,2.0334768E-1,7.716544E-2,0E0,6.3452926E-3,0E0,3.7359032E-3,0E0,4.2696893E-3,0E0,2.9870003E-2,0E0,0E0,0E0,0E0,1.5403137E-2,2.1245934E-2,1.2189603E-1,3.439027E-2,2.0237501E-1,0E0,6.476794E-2,2.8325066E-2,0E0,0E0,4.8788905E-2,3.9005242E-2,0E0,6.752491E-2,0E0,1.8954897E-1,1.312728E-3,1.16018966E-1,1.8032542E-1,2.0239279E-1,6.659728E-2,2.9612052E-1,2.2541934E-4,5.14241E-1,5.365677E-1,9.124844E-2,2.69143E-1,0E0,0E0,0E0,0E0,0E0,4.865712E-2,2.9232379E-2,5.778745E-2,0E0,0E0,0E0,0E0,0E0,3.2693982E-2,1.5169895E-1,0E0,3.5826266E-3,0E0,0E0,0E0,1.9592062E-2,3.1121492E-1,5.064866E-2,0E0,1.2527798E-1,8.572061E-2,2.9481578E-1,9.851849E-2,0E0,7.385947E-4,9.185231E-2,0E0,1.8243861E-1,1.4988228E-2,1.7001057E-2,5.8196366E-2,2.5504124E-1,0E0,1.2022397E-1,6.006999E-1,0E0,1.2269449E-1,0E0,0E0,3.2126427E-2,0E0,3.218665E-1,9.730902E-1,1.3150724E-3,1.7106681E0,1.3653794E-2,1.1883849E-1,3.9869003E-2,3.5943717E-2,1.03783906E-1,4.4134982E-2,1.821258E-1,2.378757E-1,1.6351712E-1,0E0,0E0,0E0,6.1857724E-4,3.5291307E-2,1.0578572E-4,2.1044636E-1,9.5250154E-1,1.8436366E-1,6.5141153E-1,1.2797518E0,0E0,1.0826433E-1,9.622931E-2,0E0,1.2153404E0,1.1373847E0,2.3353343E0,2.1079093E-1,1.3052559E-1,0E0,0E0,0E0,9.931922E-2,3.6677185E-1,4.5627958E-1,4.0066695E-1,1.9518068E-1,6.685226E-2,4.9086142E-1,0E0,2.6302743E-1,1.3062468E0,5.9564567E-1,3.2067657E-1,3.2326877E-1,1.7393947E-1,3.4407158E0,2.3939607E-1,1.5426238E0,6.240246E-1,2.6161752E0,2.2802424E-1,2.7239847E0,2.1173005E0,8.950941E-1,2.8049145E0,0E0,0E0,0E0,0E0,0E0,0E0,0E0,0E0,0E0,0E0,0E0,0E0,0E0,0E0,0E0,0E0,0E0,0E0,0E0,0E0,0E0,0E0,0E0,0E0,0E0,0E0,0E0,0E0,0E0,0E0,0E0,0E0,0E0,0E0,0E0,0E0,0E0,0E0,0E0,0E0,0E0,0E0,0E0,0E0,0E0,0E0,0E0,0E0,0E0,0E0,0E0,0E0,0E0,0E0,0E0,0E0,0E0,0E0,0E0,0E0,0E0,0E0,0E0,0E0,0E0,0E0,0E0,0E0,0E0,0E0,0E0,0E0,0E0,0E0,0E0,0E0,0E0,0E0,0E0,0E0,0E0,0E0,0E0,0E0,0E0,0E0,0E0,0E0,0E0,0E0,0E0,0E0,0E0,0E0,0E0,0E0,0E0,0E0,0E0,0E0,0E0,0E0,0E0,0E0,0E0,0E0,0E0,0E0,0E0,0E0,0E0,0E0,0E0,0E0,0E0,0E0,0E0,0E0,0E0,0E0,0E0,0E0,0E0,0E0,0E0,0E0,0E0,0E0,0E0,0E0,0E0,0E0,0E0,0E0,0E0,0E0,0E0,0E0,0E0,0E0,0E0,0E0,0E0,0E0,0E0,0E0,0E0,0E0,0E0,0E0,0E0,0E0,0E0,0E0,0E0,0E0,0E0,0E0,0E0,0E0,0E0,0E0,0E0,0E0,0E0,0E0,0E0,0E0,0E0,0E0,0E0,0E0,0E0,0E0,0E0,0E0,0E0,0E0,0E0,0E0,0E0,0E0,0E0,0E0,0E0,0E0,0E0,0E0,0E0,0E0,0E0,0E0,0E0,0E0,0E0,0E0,0E0,0E0,0E0,0E0,0E0,0E0,0E0,0E0,0E0,0E0,0E0,0E0,0E0,0E0,0E0,0E0,0E0,0E0,0E0,0E0,0E0,0E0,0E0,0E0,0E0,0E0,0E0,0E0,0E0,0E0],"parents":[2147483647,0,0,1,1,2,2,3,3,4,4,5,5,6,6,7,7,8,8,9,9,10,10,11,11,12,12,13,13,14,14,15,15,16,16,17,17,18,18,19,19,20,20,21,21,22,22,23,23,24,24,25,25,26,26,27,27,28,28,29,29,30,30,31,31,33,33,34,34,35,35,36,36,37,37,38,38,39,39,40,40,41,41,42,42,43,43,44,44,45,45,46,46,47,47,48,48,49,49,50,50,51,51,52,52,53,53,55,55,56,56,57,57,58,58,59,59,60,60,61,61,62,62,63,63,65,65,66,66,67,67,68,68,69,69,70,70,71,71,72,72,73,73,74,74,75,75,76,76,77,77,78,78,79,79,80,80,81,81,82,82,83,83,84,84,86,86,89,89,90,90,91,91,92,92,95,95,96,96,97,97,98,98,99,99,100,100,101,101,102,102,103,103,104,104,105,105,107,107,108,108,109,109,110,110,111,111,112,112,113,113,114,114,116,116,117,117,118,118,119,119,120,120,121,121,122,122,124,124,126,126,127,127,128,128,129,129,130,130,131,131,132,132,134,134,135,135,136,136,137,137,138,138,140,140,142,142,143,143,145,145,146,146,147,147,148,148,149,149,150,150,152,152,153,153,154,154,155,155,156,156,157,157,158,158,159,159,160,160,161,161,162,162,163,163,165,165,167,167,172,172,173,173,174,174,175,175,176,176,177,177,178,178,179,179,180,180,181,181,182,182,183,183,184,184,188,188,193,193,196,196,197,197,198,198,199,199,200,200,201,201,202,202,203,203,204,204,205,205,206,206,207,207,208,208,209,209,210,210,211,211,212,212,213,213,214,214,215,215,216,216,217,217,218,218,219,219,220,220,221,221,222,222,223,223,224,224,225,225,226,226,228,228,229,229,231,231,232,232,234,234,236,236,237,237,239,239,240,240,242,242,244,244,245,245,247,247,249,249,251,251,253,253,258,258,259,259,260,260,261,261,262,262,264,264,265,265,268,268,269,269,271,271,273,273,274,274,275,275,276,276,277,277,278,278,279,279,280,280,281,281,282,282,283,283,284,284,290,290,291,291,292,292,298,298,299,299,301,301,305,305,306,306,307,307,309,309,310,310,311,311,312,312,314,314,315,315,317,317,318,318,319,319,320,320,321,321,323,323,324,324,326,326,329,329,331,331,332,332,333,333,334,334,335,335,336,336,337,337,338,338,339,339,340,340,341,341,342,342,343,343,347,347,348,348,349,349,350,350,351,351,352,352,353,353,354,354,356,356,357,357,359,359,360,360,361,361,362,362,363,363,367,367,368,368,369,369,370,370,371,371,372,372,373,373,375,375,376,376,377,377,378,378,379,379,380,380,381,381,382,382,383,383,384,384,385,385,386,386,387,387,388,388,389,389,390,390],"right_children":[2,4,6,8,10,12,14,16,18,20,22,24,26,28,30,32,34,36,38,40,42,44,46,48,50,52,54,56,58,60,62,64,-1,66,68,70,72,74,76,78,80,82,84,86,88,90,92,94,96,98,100,102,104,106,-1,108,110,112,114,116,118,120,122,124,-1,126,128,130,132,134,136,138,140,142,144,146,148,150,152,154,156,158,160,162,164,-1,166,-1,-1,168,170,172,174,-1,-1,176,178,180,182,184,186,188,190,192,194,196,-1,198,200,202,204,206,208,210,212,-1,214,216,218,220,222,224,226,-1,228,-1,230,232,234,236,238,240,242,-1,244,246,248,250,252,-1,254,-1,256,258,-1,260,262,264,266,268,270,-1,272,274,276,278,280,282,284,286,288,290,292,294,-1,296,-1,298,-1,-1,-1,-1,300,302,304,306,308,310,312,314,316,318,320,322,324,-1,-1,-1,326,-1,-1,-1,-1,328,-1,-1,330,332,334,336,338,340,342,344,346,348,350,352,354,356,358,360,362,364,366,368,370,372,374,376,378,380,382,384,386,388,390,-1,392,394,-1,396,398,-1,400,-1,402,404,-1,406,408,-1,410,-1,412,414,-1,416,-1,418,-1,420,-1,422,-1,-1,-1,-1,424,426,428,430,432,-1,434,436,-1,-1,438,440,-1,442,-1,444,446,448,450,452,454,456,458,460,462,464,466,-1,-1,-1,-1,-1,468,470,472,-1,-1,-1,-1,-1,474,476,-1,478,-1,-1,-1,480,482,484,-1,486,488,490,492,-1,494,496,-1,498,500,502,504,506,-1,508,510,-1,512,-1,-1,514,-1,516,518,520,522,524,526,528,530,532,534,536,538,540,-1,-1,-1,542,544,546,548,550,552,554,556,-1,558,560,-1,562,564,566,568,570,-1,-1,-1,572,574,576,578,580,582,584,-1,586,588,590,592,594,596,598,600,602,604,606,608,610,612,614,616,-1,-1,-1,-1,-1,-1,-1,-1,-1,-1,-1,-1,-1,-1,-1,-1,-1,-1,-1,-1,-1,-1,-1,-1,-1,-1,-1,-1,-1,-1,-1,-1,-1,-1,-1,-1,-1,-1,-1,-1,-1,-1,-1,-1,-1,-1,-1,-1,-1,-1,-1,-1,-1,-1,-1,-1,-1,-1,-1,-1,-1,-1,-1,-1,-1,-1,-1,-1,-1,-1,-1,-1,-1,-1,-1,-1,-1,-1,-1,-1,-1,-1,-1,-1,-1,-1,-1,-1,-1,-1,-1,-1,-1,-1,-1,-1,-1,-1,-1,-1,-1,-1,-1,-1,-1,-1,-1,-1,-1,-1,-1,-1,-1,-1,-1,-1,-1,-1,-1,-1,-1,-1,-1,-1,-1,-1,-1,-1,-1,-1,-1,-1,-1,-1,-1,-1,-1,-1,-1,-1,-1,-1,-1,-1,-1,-1,-1,-1,-1,-1,-1,-1,-1,-1,-1,-1,-1,-1,-1,-1,-1,-1,-1,-1,-1,-1,-1,-1,-1,-1,-1,-1,-1,-1,-1,-1,-1,-1,-1,-1,-1,-1,-1,-1,-1,-1,-1,-1,-1,-1,-1,-1,-1,-1,-1,-1,-1,-1,-1,-1,-1,-1,-1,-1,-1,-1,-1,-1,-1,-1,-1,-1,-1,-1,-1,-1,-1,-1,-1,-1,-1,-1,-1,-1,-1,-1],"split_conditions":[-2.8546837E-1,-7.002338E-2,-2.1212386E-1,-2.8271355E-2,4.1787997E-1,1.4826167E-1,-1.18779175E-1,-5.285281E-1,-2.2166945E-1,-1.5092622E-1,-2.277588E-1,-9.0387665E-2,8.1977135E-1,-2.5599E-1,-5.2488554E-1,4.158313E-1,-1.3960555E-1,-3.8903412E-1,-5.3522915E-1,-4.607713E-1,-7.307258E-2,-4.363993E-2,-1.6540197E-1,-3.268709E-1,-1.9487655E-1,-1.6548876E-1,2.0680714E0,-2.0512755E-1,-1.192661E-1,-9.0402323E-1,-2.8217109E-2,-3.1145123E-1,-0E0,-3.6333218E-1,-7.259792E-1,-2.3283486E-1,-2.5703895E-1,-1.03898466E-1,-1.6401266E-1,-1.1357056E0,-6.218682E-2,2.5790745E-1,-1.8818358E-2,-2.3520817E-1,-1.9237746E-1,5.9175086E-1,-1.2062188E-1,-7.074669E-1,-2.3318154E-1,-2.758446E-1,7.222358E-1,8.824364E-1,8.6077526E-2,-1.552476E-1,-0E0,-1.2617593E-1,-4.3067012E-2,-6.956178E-1,-9.565866E-1,-3.8274935E-1,1.1317976E0,-3.9155886E-1,8.0704033E-1,-6.0314614E-1,-0E0,-1.1181718E0,-1.0356481E-1,-6.1235666E-1,-3.1076694E-2,-5.046354E-1,-4.0002614E-2,-5.493842E-1,-2.5847745E-1,-1.04648255E-1,-6.481984E-2,-9.3215026E-2,-3.6745958E-2,-3.842567E-1,-6.780493E-1,-3.6328074E-1,9.011527E-2,-6.637533E-2,8.409864E-1,-6.1349295E-2,-4.080654E-2,-0E0,4.1053158E-1,-0E0,-3.3253338E-3,-3.491895E-2,-4.37474E-1,-6.585484E-2,2.9342905E-1,-0E0,1.1836191E-2,7.0711184E-1,-3.793709E-1,-5.8575004E-1,-2.731468E-1,-4.5381021E-1,1.4425759E-1,-1.1841535E-1,1.1836498E0,-1.3051988E-1,3.2569972E-1,-1.15830384E-1,-0E0,-3.451209E-2,2.2986492E-2,-2.0539652E-1,2.837544E-2,-4.4057593E-1,1.1236218E-2,2.599355E-1,-7.682583E-2,-0E0,-9.517587E-1,-1.5659839E-1,-2.6581E-1,-1.227393E-2,-4.513659E-1,-2.2170599E-1,1.1870764E0,-0E0,-1.0441447E0,-0E0,-6.428367E-1,-4.695741E-1,-7.420433E-2,-4.7640514E-1,-2.3513961E-1,-1.0079167E0,-4.6784428E-1,-0E0,-1.0524311E0,-3.5202253E-1,-1.605884E-1,-2.436782E-2,-1.6833767E-1,-0E0,5.891035E-1,-0E0,-9.8653567E-1,-3.0315438E-1,-0E0,-2.6059085E-1,-5.0747156E-1,-5.320704E-1,3.3825243E-1,-5.3429556E-1,-4.9177572E-1,-0E0,-6.782726E-2,-5.1976186E-1,-4.5674E-2,-4.3206286E-2,-1.4322203E-1,-1.421376E-1,-1.23199895E-1,-7.670397E-2,2.5535882E-1,-8.788407E-1,-4.561194E-2,1.258122E-1,-0E0,2.9781582E-3,-0E0,-9.2347614E-2,8.7300845E-4,-0E0,-1.0548013E-2,-0E0,2.889384E-1,1.2842269E-1,4.3865707E-2,-2.3146248E-1,-1.5273921E-1,-2.8602302E-1,2.4251099E-1,8.980758E-3,6.0411558E-2,-1.8049534E-1,-3.7172294E-1,-9.061911E-2,-8.272356E-1,1.5267121E-2,-0E0,-0E0,-3.1030938E-2,-0E0,1.042237E-3,-0E0,-4.8575876E-3,-4.8568E-2,-0E0,-0E0,-2.0775847E-1,-1.1634102E-1,-1.2603347E-1,-1.0161405E-2,-1.0829189E0,-3.0429423E-1,-9.472863E-2,-1.6451167E-1,2.00558E-1,-7.7799296E-1,-1.060617E0,-7.539683E-2,-3.6776832E-1,-3.059539E-1,-4.2406234E-1,8.0898046E-1,3.745725E-1,-3.2798296E-1,-9.1848075E-1,-1.0251067E0,-1.1377317E-1,2.631744E-1,8.5722387E-1,-2.905177E-1,-3.0506256E-1,-4.503269E-2,9.52852E-3,3.5782266E-1,1.7509516E0,-1.0856025E0,3.0521033E0,-0E0,4.975817E-2,1.4439788E0,-0E0,-1.343869E0,-1.8427086E-1,-0E0,-7.609428E-1,-0E0,-1.1270864E0,-1.3420222E0,-0E0,-6.438643E-2,-2.7200276E-1,-0E0,-2.3912162E-1,-0E0,-2.0753829E-1,-4.4425532E-2,-0E0,-1.046571E-1,-0E0,-7.182264E-1,-0E0,-2.9836902E-1,-0E0,2.1740397E-2,-0E0,-0E0,-6.4142054E-4,-0E0,-2.286711E-1,-3.454549E-1,-1.2722654E0,-9.4398744E-2,-1.7708886E-2,-0E0,-3.0833589E-2,-2.1415742E-1,-0E0,-0E0,-6.396926E-1,-1.7829828E-2,-0E0,-2.6243106E-1,-0E0,2.0300688E-1,-4.2336527E-1,-9.05212E-1,-1.5607095E-1,-3.813852E-1,-3.636479E-1,-4.8089765E-2,5.1550895E-1,3.14039E-3,-4.7826752E-1,-3.0160767E-1,-4.6267486E-1,9.958629E-3,-0E0,-0E0,-4.140395E-3,-0E0,-2.921317E-1,6.6206165E-2,1.1373251E-1,3.2555353E-2,-0E0,-0E0,1.7424308E-2,-0E0,-8.3505845E-1,-6.5100634E-1,-0E0,2.4707606E0,-0E0,-0E0,2.6121323E-3,-2.3039387E-1,4.009011E-1,1.2134239E-2,-0E0,-3.509943E-2,-1.4866266E-1,-3.217226E-1,-1.1504126E-1,-0E0,4.609976E-1,1.561331E-2,-0E0,-7.272833E-2,-1.03262484E-1,-9.790791E-2,-2.4195692E-1,-3.3622134E-1,-0E0,2.3556486E-1,4.928668E-2,-0E0,1.1340505E0,-0E0,7.2344737E-3,1.0943389E-1,-0E0,-2.902017E-1,-1.4983924E-1,2.8434002E-1,-4.161744E-1,-1.0446858E-1,-5.003064E-1,-9.1076374E-1,-1.1830362E0,-7.770697E-3,-1.0123131E-1,-2.6912016E-1,-4.7405306E-2,-1.390657E-1,-0E0,-2.475718E-4,-0E0,-1.2882243E0,-6.020045E-1,-2.8167209E-2,1.2430227E0,-4.84126E-2,-1.2160113E-2,3.3792284E-1,-3.433465E-1,-0E0,8.318589E-1,-1.4031456E0,-0E0,-4.3669814E-1,2.638007E0,-7.466093E-2,6.9104743E-1,-4.2732012E-1,-0E0,-0E0,3.1648833E-2,-2.4542548E-1,-2.4170612E-1,-5.934782E-2,5.8062702E-2,-4.3040395E-2,1.3353257E0,-1.8780331E-1,-0E0,-2.3904149E-1,1.5681085E-1,-7.825861E-1,1.0512089E0,-1.3182004E-1,-6.4351216E-2,-7.962238E-3,2.2080994E-1,-1.4343283E-1,1.3391781E-1,-3.7446003E-2,2.0482324E-1,-2.7393816E-2,4.339375E-1,-2.9783374E-2,6.7227083E-1,-3.0652592E-3,-0E0,7.3102056E-3,-0E0,-0E0,1.2974461E-2,1.5714973E-3,-1.5159039E-3,-0E0,-3.5429397E-3,-0E0,-2.5243466E-3,-0E0,4.466024E-3,-0E0,2.8315136E-2,8.126602E-3,-0E0,5.2720695E-3,-0E0,-0E0,1.6651986E-2,-0E0,3.7999246E-3,-0E0,-2.3022639E-3,-0E0,-9.577456E-4,-0E0,3.3732466E-3,-5.616031E-3,-0E0,-0E0,5.9560174E-3,-1.2143021E-3,-0E0,-0E0,-5.005698E-3,-0E0,-2.7854594E-3,-0E0,6.923313E-3,3.4423675E-3,-0E0,-0E0,-4.058407E-3,-0E0,-5.339919E-3,-0E0,5.063015E-3,-0E0,-8.30632E-3,-4.5077754E-3,-0E0,-3.9530522E-4,3.4728725E-6,-3.313367E-3,6.0792366E-4,-3.772944E-3,-0E0,7.09407E-4,-2.9610998E-3,-0E0,7.1212137E-3,1.50031615E-2,1.5546088E-3,-2.2634414E-4,-0E0,-5.780327E-3,3.8412109E-3,-0E0,-9.23548E-3,-1.8273521E-3,2.314533E-3,-5.0004044E-5,-7.2092386E-3,-0E0,-6.833953E-3,-0E0,-2.4062817E-3,2.5586018E-3,-0E0,-0E0,-3.2823186E-3,-0E0,8.836607E-3,-4.6222047E-3,-0E0,-0E0,-1.4921027E-3,-8.704404E-3,-0E0,6.9749164E-3,-0E0,4.6464284E-3,-0E0,-0E0,-1.9217316E-3,-0E0,-3.2118298E-3,3.1272639E-3,-0E0,-5.812924E-4,-0E0,-7.2567994E-3,-0E0,1.7789766E-2,-0E0,-0E0,1.30507E-3,-0E0,1.9656746E-3,-0E0,-4.296779E-3,1.50803765E-2,5.2145054E-4,-5.7369173E-3,-0E0,3.6393248E-3,-0E0,-8.948948E-3,-0E0,-0E0,-1.5046246E-2,-0E0,4.843801E-3,1.2213485E-2,2.6288766E-3,7.5796404E-4,-0E0,-0E0,5.1689405E-2,-1.0585781E-3,-0E0,-0E0,5.2751773E-3,-1.703493E-3,-0E0,-6.138257E-3,-0E0,-6.955416E-3,-0E0,-1.6286479E-3,1.118039E-3,-5.5151264E-4,3.1153518E-3,-0E0,-5.139463E-3,1.4824445E-2,-0E0,-0E0,3.9810763E-4,-0E0,-1.9625216E-3,-0E0,1.7142031E-4,-6.7370827E-3,-0E0,5.3530803E-4,6.482211E-3,-3.2563757E-3,-0E0,-6.720127E-3,1.6573804E-3,1.9693244E-2,-1.4315828E-3,-4.1273898E-3,-0E0,-0E0,4.697088E-3,7.260248E-3,2.0399964E-3,-4.615983E-3,8.367257E-3,1.7840922E-3,1.3363125E-2,1.0585462E-3,-4.269043E-3,-0E0,9.491363E-3,-0E0,-2.5162431E-3,-0E0,4.0091826E-3,-5.2344287E-3,3.7902717E-3,-7.6763607E-3,-0E0,6.7231143E-3,-0E0,-3.0593658E-3,-0E0,-0E0,2.2146737E-2,-2.8702188E-3,2.0940471E-3,1.3911248E-3,1.077265E-2,-1.1394818E-4,6.8725436E-3,-6.167048E-3,-0E0,5.939173E-3,-0E0,-0E0,-4.37478E-3,7.509246E-3,1.4490783E-2,2.8434915E-3,-2.798217E-3,3.6643837E-3,-4.795649E-3,9.825348E-3,-0E0,1.9010978E-3,6.577878E-3,1.3666631E-3,-2.6341567E-3,-0E0,4.1625436E-2,5.2175537E-4,1.5607389E-2,7.867325E-3,-4.8937234E-3,1.75597E-2,-3.6351834E-3],"split_indices":[102,79,59,42,110,63,15,62,82,4,16,113,1,75,9,116,70,107,1,107,106,29,81,16,116,70,109,49,91,4,42,102,0,75,26,61,93,21,10,9,68,73,55,47,57,116,122,3,84,59,19,109,107,70,0,108,124,110,2,81,1,35,74,39,0,26,20,122,55,11,78,117,31,13,97,106,133,94,65,102,23,10,2,12,105,0,87,0,0,67,1,79,83,0,0,103,73,38,83,75,14,71,93,48,104,76,0,133,44,93,82,3,76,23,13,0,4,64,108,34,104,92,111,0,117,0,3,93,118,107,61,116,108,0,26,122,31,11,107,0,24,0,103,57,0,32,76,3,24,109,107,0,89,104,88,10,84,36,20,89,9,122,88,22,0,38,0,89,0,0,0,0,17,63,41,58,17,100,37,107,75,109,24,79,5,0,0,0,55,0,0,0,0,88,0,0,47,16,17,109,40,75,84,15,2,9,116,47,92,108,48,38,130,61,3,27,124,17,17,34,64,117,89,74,86,26,4,0,10,11,0,9,48,0,122,0,7,26,0,97,72,0,101,0,15,78,0,13,0,111,0,58,0,19,0,0,0,0,48,10,7,123,28,0,55,15,0,0,1,28,0,61,0,66,3,26,30,91,90,52,66,19,23,116,12,0,0,0,0,0,45,131,39,0,0,0,0,0,40,65,0,11,0,0,0,102,23,1,0,1,20,45,124,0,10,68,0,14,130,13,32,50,0,109,86,0,12,0,0,36,0,57,91,1,11,58,0,37,53,49,113,109,43,32,0,0,0,11,26,42,76,43,22,37,32,0,92,49,0,37,10,108,87,38,0,0,0,30,93,62,113,13,96,69,0,19,92,66,110,32,97,74,89,64,62,78,109,42,17,55,13,0,0,0,0,0,0,0,0,0,0,0,0,0,0,0,0,0,0,0,0,0,0,0,0,0,0,0,0,0,0,0,0,0,0,0,0,0,0,0,0,0,0,0,0,0,0,0,0,0,0,0,0,0,0,0,0,0,0,0,0,0,0,0,0,0,0,0,0,0,0,0,0,0,0,0,0,0,0,0,0,0,0,0,0,0,0,0,0,0,0,0,0,0,0,0,0,0,0,0,0,0,0,0,0,0,0,0,0,0,0,0,0,0,0,0,0,0,0,0,0,0,0,0,0,0,0,0,0,0,0,0,0,0,0,0,0,0,0,0,0,0,0,0,0,0,0,0,0,0,0,0,0,0,0,0,0,0,0,0,0,0,0,0,0,0,0,0,0,0,0,0,0,0,0,0,0,0,0,0,0,0,0,0,0,0,0,0,0,0,0,0,0,0,0,0,0,0,0,0,0,0,0,0,0,0,0,0,0,0,0,0,0,0,0,0,0,0,0,0,0,0,0,0,0,0,0],"split_type":[0,0,0,0,0,0,0,0,0,0,0,0,0,0,0,0,0,0,0,0,0,0,0,0,0,0,0,0,0,0,0,0,0,0,0,0,0,0,0,0,0,0,0,0,0,0,0,0,0,0,0,0,0,0,0,0,0,0,0,0,0,0,0,0,0,0,0,0,0,0,0,0,0,0,0,0,0,0,0,0,0,0,0,0,0,0,0,0,0,0,0,0,0,0,0,0,0,0,0,0,0,0,0,0,0,0,0,0,0,0,0,0,0,0,0,0,0,0,0,0,0,0,0,0,0,0,0,0,0,0,0,0,0,0,0,0,0,0,0,0,0,0,0,0,0,0,0,0,0,0,0,0,0,0,0,0,0,0,0,0,0,0,0,0,0,0,0,0,0,0,0,0,0,0,0,0,0,0,0,0,0,0,0,0,0,0,0,0,0,0,0,0,0,0,0,0,0,0,0,0,0,0,0,0,0,0,0,0,0,0,0,0,0,0,0,0,0,0,0,0,0,0,0,0,0,0,0,0,0,0,0,0,0,0,0,0,0,0,0,0,0,0,0,0,0,0,0,0,0,0,0,0,0,0,0,0,0,0,0,0,0,0,0,0,0,0,0,0,0,0,0,0,0,0,0,0,0,0,0,0,0,0,0,0,0,0,0,0,0,0,0,0,0,0,0,0,0,0,0,0,0,0,0,0,0,0,0,0,0,0,0,0,0,0,0,0,0,0,0,0,0,0,0,0,0,0,0,0,0,0,0,0,0,0,0,0,0,0,0,0,0,0,0,0,0,0,0,0,0,0,0,0,0,0,0,0,0,0,0,0,0,0,0,0,0,0,0,0,0,0,0,0,0,0,0,0,0,0,0,0,0,0,0,0,0,0,0,0,0,0,0,0,0,0,0,0,0,0,0,0,0,0,0,0,0,0,0,0,0,0,0,0,0,0,0,0,0,0,0,0,0,0,0,0,0,0,0,0,0,0,0,0,0,0,0,0,0,0,0,0,0,0,0,0,0,0,0,0,0,0,0,0,0,0,0,0,0,0,0,0,0,0,0,0,0,0,0,0,0,0,0,0,0,0,0,0,0,0,0,0,0,0,0,0,0,0,0,0,0,0,0,0,0,0,0,0,0,0,0,0,0,0,0,0,0,0,0,0,0,0,0,0,0,0,0,0,0,0,0,0,0,0,0,0,0,0,0,0,0,0,0,0,0,0,0,0,0,0,0,0,0,0,0,0,0,0,0,0,0,0,0,0,0,0,0,0,0,0,0,0,0,0,0,0,0,0,0,0,0,0,0,0,0,0,0,0,0,0,0,0,0,0,0,0,0,0,0,0,0,0,0,0,0,0,0,0,0,0,0,0,0,0,0,0,0,0,0,0,0,0,0,0,0,0,0,0,0],"sum_hessian":[1.6527E4,5.099E3,1.1428E4,1.779E3,3.32E3,2.32E3,9.108E3,9.05E2,8.74E2,3.031E3,2.89E2,1.989E3,3.31E2,4.515E3,4.593E3,1.1E2,7.95E2,2.36E2,6.38E2,1.232E3,1.799E3,6E1,2.29E2,1.087E3,9.02E2,2.18E2,1.13E2,9.05E2,3.61E3,7.11E2,3.882E3,8.9E1,2.1E1,3.35E2,4.6E2,1.37E2,9.9E1,4.3E1,5.95E2,4.46E2,7.86E2,1.671E3,1.28E2,4.9E1,1.1E1,1.14E2,1.15E2,1.1E1,1.076E3,2.43E2,6.59E2,1.67E2,5.1E1,1.06E2,7E0,5.92E2,3.13E2,1.817E3,1.793E3,7.5E1,6.36E2,1.678E3,2.204E3,7.4E1,1.5E1,4.8E1,2.87E2,1.13E2,3.47E2,4.1E1,9.6E1,4.9E1,5E1,2.5E1,1.8E1,5.15E2,8E1,1.22E2,3.24E2,6.02E2,1.84E2,1.636E3,3.5E1,9.8E1,3E1,2E0,4.7E1,3E0,8E0,9.8E1,1.6E1,8.2E1,3.3E1,3E0,8E0,1.73E2,9.03E2,1.14E2,1.29E2,6.44E2,1.5E1,1.56E2,1.1E1,1.3E1,3.8E1,1.03E2,3E0,4.36E2,1.56E2,2.73E2,4E1,3.48E2,1.469E3,3.45E2,1.448E3,2.7E1,4.8E1,5.51E2,8.5E1,5.35E2,1.143E3,1.908E3,2.96E2,3E0,7.1E1,3E0,4.5E1,2.26E2,6.1E1,4.8E1,6.5E1,1.64E2,1.83E2,1.5E1,2.6E1,7.6E1,2E1,2.6E1,2.3E1,1.9E1,3.1E1,9E0,1.6E1,1.4E1,4E0,4.59E2,5.6E1,4.7E1,3.3E1,1.03E2,1.9E1,1.3E1,3.11E2,3.23E2,2.79E2,1.33E2,5.1E1,1.473E3,1.63E2,2.5E1,1E1,4.7E1,5.1E1,8E0,2.2E1,4.1E1,6E0,9.2E1,6E0,1E0,1.5E1,1.9E1,6.3E1,2.4E1,9E0,1.53E2,2E1,1.72E2,7.31E2,2.9E1,8.5E1,3.8E1,9.1E1,4.2E1,6.02E2,1.3E1,2E0,7E0,1.49E2,7E0,4E0,2E0,1.1E1,1.9E1,1.9E1,3E0,1E2,4.19E2,1.7E1,8.7E1,6.9E1,1.03E2,1.7E2,3E1,1E1,3.8E1,3.1E2,6.55E2,8.14E2,3.11E2,3.4E1,1.173E3,2.75E2,4.3E1,5E0,3.37E2,2.14E2,6.4E1,2.1E1,3.02E2,2.33E2,1.67E2,9.76E2,4.25E2,1.483E3,1.46E2,1.5E2,1E0,7E1,4.1E1,4E0,6E0,2.2E2,1.1E1,5E1,4E0,4.4E1,5.7E1,8E0,1.6E1,1.48E2,2E1,1.63E2,2E0,2.4E1,5.7E1,1.9E1,1.7E1,3E0,1.7E1,9E0,1.9E1,4E0,2.8E1,3E0,5E0,1.1E1,1E0,1.3E1,4.9E1,4.1E2,3.3E1,2.3E1,1.4E1,3.3E1,2.8E1,5E0,2.4E1,7.9E1,1.1E1,8E0,3.08E2,3E0,2.87E2,3.6E1,1.78E2,1.01E2,1.15E2,1.8E1,3.5E1,1.6E1,2.64E2,1.209E3,4.8E1,1.15E2,1.5E1,1E1,3E0,7E0,1.3E1,3.4E1,1.8E1,3.3E1,5E0,3E0,2E0,3.9E1,1.5E1,7.7E1,5.4E1,9E0,1.8E1,6E0,3E0,6E0,3.2E1,1.21E2,9E0,1.1E1,3.9E1,1.33E2,6.8E2,5.1E1,5E0,2.4E1,7.4E1,1.1E1,1.1E1,2.7E1,2.6E1,6.5E1,3.1E1,1.1E1,4.5E1,5.57E2,7E0,1.42E2,2E0,1.7E1,9.9E1,1E0,2.03E2,2.16E2,7E0,1E1,4E1,4.7E1,5E1,1.9E1,5.8E1,4.5E1,1E2,7E1,2.1E1,9E0,7E0,3E0,1.1E1,2.7E1,1.8E1,2.92E2,4.46E2,2.09E2,2.17E2,5.97E2,1.4E1,2.97E2,2.7E1,7E0,1.02E3,1.53E2,2.18E2,5.7E1,3.6E1,7E0,2E0,3E0,1.55E2,1.82E2,5E1,1.64E2,3.4E1,3E1,1.6E1,5E0,9.7E1,2.05E2,1.4E2,9.3E1,1.04E2,6.3E1,9.05E2,7.1E1,3.62E2,6.3E1,1.315E3,1.68E2,2.1E1,1.25E2,8.1E1,6.9E1,6.9E1,1E0,4E1,1E0,2E0,4E0,1.42E2,7.8E1,9E0,4.1E1,3E0,4.1E1,4E0,5.3E1,4E0,1.2E1,1.17E2,3.1E1,1.39E2,2.4E1,8E0,1.6E1,8E0,4.9E1,2E0,1.5E1,3E0,1.4E1,1E0,1.8E1,2.4E1,4E0,3E0,1E1,4E1,9E0,1.4E1,3.96E2,1.2E1,2.1E1,1.3E1,1E1,2.6E1,7E0,1E0,2.7E1,1E0,7.8E1,3E0,8E0,4E0,3.04E2,2.73E2,1.4E1,1.9E1,1.7E1,1.9E1,1.59E2,7.6E1,2.5E1,5.1E1,6.4E1,5E0,1.3E1,1.6E1,1.9E1,9E0,7E0,2.57E2,7E0,1.5E1,1.194E3,2.3E1,2.5E1,3.3E1,8.2E1,1E0,3.3E1,6E0,1.2E1,2.5E1,8E0,1E1,6.7E1,4E0,5E1,1.7E1,1E0,1.2E1,2E1,1.18E2,3E0,6E0,3E0,2.9E1,1E1,5.5E1,7.8E1,9E1,5.9E2,2.6E1,2.5E1,2.3E1,1E0,6.9E1,5E0,5E0,6E0,7E0,2E1,1.7E1,9E0,1.1E1,5.4E1,1.8E1,1.3E1,3E1,1.5E1,1.71E2,3.86E2,1.37E2,5E0,1E0,9.8E1,1.9E1,1.84E2,1.66E2,5E1,6E0,1E0,3E0,7E0,2.9E1,1.1E1,1.1E1,3.6E1,3.4E1,1.6E1,1.8E1,1E0,3.9E1,1.9E1,3.3E1,1.2E1,2.5E1,7.5E1,4.2E1,2.8E1,1.9E1,2E0,1E0,1E1,4E0,2.3E1,1.1E1,7E0,2.88E2,4E0,3.57E2,8.9E1,1.36E2,7.3E1,2.02E2,1.5E1,5E0,5.92E2,2.78E2,1.9E1,5E0,2.2E1,1.4E2,8.8E2,1.38E2,1.5E1,8E1,1.38E2,3.1E1,2.6E1,8E0,2.8E1,3.5E1,1.2E2,8.5E1,9.7E1,2.6E1,2.4E1,1.59E2,5E0,2.7E1,7E0,2.1E1,9E0,3E0,1.3E1,6.2E1,3.5E1,7E1,1.35E2,1.05E2,3.5E1,8.5E1,8E0,7.5E1,2.9E1,2.6E1,3.7E1,6.08E2,2.97E2,4.2E1,2.9E1,5.7E1,3.05E2,4.4E1,1.9E1,7.83E2,5.32E2,2.8E1,1.4E2,6E0,1.5E1,4.2E1,8.3E1,1.3E1,6.8E1,5.3E1,1.6E1],"tree_param":{"num_deleted":"0","num_feature":"135","num_nodes":"617","size_leaf_vector":"1"}},{"base_weights":[-9.808246E-5,-5.7420738E-2,2.5478596E-2,1.2046764E-2,-9.449937E-2,1.9867605E-2,1.8093169E-1,5.566085E-2,-3.369308E-2,-1.0773125E-1,2.4616165E-2,-3.5447385E-2,3.2431904E-2,5.548551E-2,2.7240172E-1,-2.8713053E-2,6.906113E-2,2.0146675E-2,-6.366695E-2,-5.990053E-2,-1.3558413E-1,-4.6715885E-2,1.198851E-1,-2.7463934E-3,-1.1863754E-1,5.0938513E-2,-2.8236068E-3,2.6681137E-1,-1.3514188E-2,3.4432948E-1,-1.009475E-1,-4.5417443E-2,-0E0,2.4438571E-2,9.828791E-2,-9.236508E-3,6.359441E-2,-7.1743354E-2,-0E0,-1.1805155E-1,-2.3555584E-2,-1.4970033E-1,2.8238056E-2,-0E0,-2.0360492E-1,1.6965091E-1,-0E0,-2.2679614E-2,1.0230944E-1,-0E0,-1.6258562E-1,1.1503737E-2,8.0697306E-2,-4.234511E-2,4.05156E-2,8.8818796E-2,5.0117296E-1,8.680737E-2,-7.428199E-2,3.7724742E-1,-0E0,-1.3186303E-1,-0E0,-0E0,-5.2705392E-2,-0E0,1.0003083E-2,2.3330268E-3,1.18307315E-1,2.7998716E-2,1.24827154E-1,1.7110486E-2,-7.36544E-2,9.1843374E-2,-2.1264266E-2,-0E0,-7.705786E-2,6.797758E-2,-1.6800744E-2,-6.62273E-2,-1.397641E-1,-4.2562656E-2,4.8046898E-2,-1.5302704E-1,3.639878E-2,-2.0652063E-2,2.1991445E-1,1.8251553E-1,-3.6287863E-2,-2.2428592E-1,-0E0,-0E0,1.9676928E-1,-4.99963E-2,5.9584463E-3,-3.6926553E-2,8.106152E-2,-2.3070986E-3,1.5879063E-1,1.501906E-1,-3.0706925E-2,-2.770279E-2,-1.9144371E-1,9.800028E-2,-4.1747056E-3,2.107161E-2,9.827352E-2,3.3421483E-2,-5.743634E-2,1.6943289E-3,7.4466616E-2,1.5635897E-1,-0E0,-0E0,5.9713995E-1,2.1706703E-1,-0E0,-0E0,-1.0571404E-1,1.0485473E-1,4.4198334E-1,-0E0,-1.3931191E-2,-0E0,-1.4198942E-1,-0E0,-5.8622397E-2,-0E0,3.048205E-2,8.170583E-2,-5.205787E-3,1.3827397E-1,-0E0,-2.039298E-2,6.752265E-2,6.7326635E-2,1.899158E-1,5.5229764E-2,-0E0,-1.1123514E-1,-0E0,1.1599323E-1,-0E0,-5.4382484E-2,-0E0,7.7410582E-3,-0E0,-9.02835E-2,-2.3533745E-2,-0E0,1.1133225E-1,-3.4842025E-2,-0E0,-7.969829E-2,-0E0,-0E0,-1.4897767E-1,-1.9542271E-2,-7.995495E-2,6.802617E-2,-5.8186613E-2,-1.06110856E-1,-1.7024837E-1,1.1466672E-1,-0E0,-9.152156E-2,2.792283E-3,6.9509155E-1,-0E0,2.3217677E-1,-0E0,-4.944954E-2,-0E0,-2.3952404E-1,-0E0,2.2445394E-1,-0E0,-6.343835E-2,-0E0,4.7671854E-2,-0E0,-5.389798E-2,5.4131397E-3,1.4517702E-1,-0E0,-4.1141413E-2,1.2773626E-2,1.9109244E-3,2.1888047E-1,2.488912E-1,-0E0,-7.031146E-2,2.7689565E-2,2.0843204E-2,-1.3307448E-1,-2.4983573E-1,-1.5510063E-1,1.8178628E-1,1.0423696E-2,-7.627599E-2,9.910567E-3,8.626902E-2,-6.2619425E-2,8.9553975E-2,2.9257616E-1,8.101039E-2,-1.02087006E-1,1.4686455E-1,-6.1124135E-2,-2.4626244E-2,1.01964414E-1,1.00452244E-1,-1.2292871E-2,1.8744591E-1,-0E0,-5.4448674E-4,-0E0,-0E0,6.9656324E-1,-0E0,2.612924E-1,-0E0,-1.8285341E-3,3.7413815E-3,-1.5550293E-2,-1.4168054E-1,-0E0,2.3320197E-1,-0E0,-9.027985E-4,4.600149E-1,-0E0,-2.6326815E-2,-0E0,-7.4574254E-3,-0E0,-5.9395526E-2,2.175345E-3,-0E0,2.0027234E-1,-0E0,-2.7869236E-2,3.256726E-2,1.4725637E-1,-0E0,-0E0,-4.218233E-2,-0E0,9.9448994E-2,1.1294384E-1,1.3389698E-2,2.6672512E-1,9.4460115E-2,-0E0,7.920615E-2,-9.838317E-3,4.0447544E-3,-0E0,-1.3620274E-1,1.4949371E-1,-0E0,-6.2343397E-4,1.678769E-5,-0E0,-2.8828243E-3,-0E0,1.6961347E-2,-0E0,-9.333068E-2,-0E0,-6.372565E-2,1.3230407E-1,-0E0,-4.5634925E-2,-0E0,-0E0,-9.887521E-2,2.4526876E-3,-0E0,-1.9406132E-2,-0E0,-1.513331E-1,-0E0,-5.15876E-2,8.3256485E-3,-0E0,-9.609891E-2,1.03206895E-1,-0E0,-7.899828E-2,-0E0,-1.1291829E-1,1.9388363E-2,-1.7524406E-1,-0E0,7.203601E-3,-0E0,-6.4700906E-4,-0E0,-1.08200215E-1,-0E0,7.747004E-2,-1.6859332E-2,4.128818E-2,-0E0,1.3539687E-2,-0E0,-0E0,-5.8750417E-2,4.0900044E-2,-0E0,-1.2565876E-2,-0E0,-0E0,2.3950155E-1,1.4077005E-2,-0E0,-3.4317211E-3,-0E0,5.6942053E-2,-0E0,-0E0,-7.467126E-5,-2.5855869E-2,-8.146754E-2,3.0914467E-2,-3.240843E-2,-0E0,1.9733746E-1,-3.666502E-2,8.825039E-2,-5.6226794E-2,-0E0,-1.690396E-2,1.0153374E-1,-4.7404364E-2,1.2815852E-1,-0E0,2.467996E-1,1.5812486E-2,-0E0,5.1965516E-2,-1.039806E-1,8.075693E-2,-0E0,-1.6722528E-2,1.652607E-1,-1.369275E-1,-0E0,-2.547592E-1,-0E0,-1.587649E-1,-0E0,-0E0,2.1076962E-1,-2.962309E-2,4.959774E-2,-1.04843356E-1,-4.5263297E-3,-1.4353153E-2,4.7753766E-2,4.8268028E-3,1.7140028E-1,-0E0,-1.4585727E-1,9.974646E-2,-5.115645E-2,2.7563997E-2,3.9429206E-1,1.02791786E-1,-0E0,-0E0,-1.4209484E-1,-0E0,1.4381498E-2,-6.732056E-2,1.3189379E-2,-1.126727E-2,-9.361077E-2,2.7983275E-1,4.781806E-4,1.4870551E-1,3.5103206E-2,-0E0,-1.2363789E-1,1.9589822E-1,-0E0,-0E0,3.6765434E-2,-0E0,1.52726015E-2,-0E0,-9.86105E-4,-1.8873535E-2,-0E0,-0E0,-1.5000907E-1,2.6035318E-2,-4.861658E-2,3.1161773E-1,-0E0,-3.226814E-2,4.968805E-2,3.266997E-1,6.214422E-1,-0E0,-1.7003542E-3,-3.0048469E-3,-0E0,1.3644512E-2,-0E0,-0E0,-2.7721885E-3,3.8366143E-3,-1.542785E-4,7.890309E-3,-0E0,-0E0,6.836068E-4,-0E0,-2.346488E-3,-0E0,6.9385447E-4,-0E0,5.3341244E-3,-0E0,6.3735456E-3,-0E0,2.3304224E-3,7.7285627E-3,1.9780708E-2,-0E0,7.1424195E-3,5.883019E-3,-0E0,-1.5022247E-3,-0E0,-0E0,2.2435216E-4,-0E0,-7.07145E-3,-0E0,8.123499E-3,1.091138E-3,-0E0,1.0285866E-3,-0E0,-4.8912996E-3,-0E0,-1.2500089E-3,1.2810642E-3,-3.8230456E-3,-0E0,-0E0,7.1675046E-3,-0E0,-2.4427474E-3,-6.509716E-5,-0E0,-0E0,-5.091972E-3,-0E0,9.741586E-4,-0E0,-2.0508983E-3,-0E0,-7.6576597E-3,-3.0715787E-3,-0E0,-0E0,2.9965825E-3,-0E0,1.181392E-4,-5.173071E-3,-0E0,-0E0,6.0937484E-3,8.5622974E-4,-2.9685747E-5,-4.350041E-3,-0E0,-5.8714403E-3,-0E0,3.9985296E-3,-0E0,-0E0,-8.875283E-3,3.3143226E-3,-2.7032504E-3,-0E0,-6.0829218E-3,7.865394E-3,-0E0,-0E0,-3.2886248E-3,-0E0,-3.153734E-3,-0E0,2.7537297E-3,-0E0,1.2428496E-2,-0E0,8.418089E-4,-0E0,3.2290944E-3,-3.0699716E-4,-2.7394444E-3,-0E0,-4.7287066E-3,-0E0,7.0918836E-3,-2.6070753E-3,2.4051713E-4,1.2093097E-3,-0E0,3.642803E-3,1.5044333E-2,-6.2319245E-3,2.7582597E-4,-0E0,7.8901565E-3,-3.1616723E-3,-0E0,-2.5983048E-3,-0E0,6.3739293E-3,-0E0,-4.621537E-3,-0E0,8.599274E-3,-0E0,1.346201E-2,-0E0,4.6233186E-3,-0E0,-0E0,-6.6017606E-3,-0E0,6.6129193E-3,-0E0,-1.1584122E-3,2.6896442E-4,-3.6580444E-3,-0E0,9.999099E-3,-6.9734775E-3,-0E0,-1.3180243E-2,-0E0,-8.107058E-3,-0E0,6.735819E-4,-1.0714469E-3,1.1266639E-2,-0E0,-2.6175713E-3,-0E0,4.475552E-3,-0E0,-0E0,-6.0698683E-3,1.9268431E-3,-5.6636618E-3,1.3407764E-3,-1.3677239E-3,-4.0493903E-4,3.3586968E-3,4.2862515E-3,-2.8479015E-3,1.0587985E-2,-3.6615056E-3,-1.7644136E-3,4.5904857E-3,-0E0,-8.465589E-3,2.1155E-3,6.0462817E-3,3.0929388E-3,-5.003805E-3,1.1687618E-2,-0E0,-0E0,2.3944594E-2,2.6446264E-3,8.874626E-3,1.9139266E-3,-1.1516883E-3,-0E0,8.3224726E-4,-8.552431E-3,-0E0,-3.6812879E-3,-0E0,3.8899556E-3,-2.5654237E-3,-3.4557425E-3,5.419E-4,-5.3061116E-3,-0E0,2.309575E-2,-0E0,1.320365E-2,-5.4810895E-4,8.342038E-3,-2.0249814E-3,-4.427354E-3,3.7323625E-3,-3.5562234E-3,1.0122522E-3,-0E0,-7.3662433E-3,-0E0,1.0222919E-2,-0E0,-1.0362471E-3,-0E0,-7.775129E-3,-0E0,1.5794967E-3,-0E0,-2.6002002E-3,-0E0,1.6626833E-2,-3.343774E-3,-0E0,-0E0,4.8112986E-3,2.3888342E-2,3.6140978E-3,3.337047E-2,-0E0],"categories":[],"categories_nodes":[],"categories_segments":[],"categories_sizes":[],"default_left":[0,0,0,0,0,0,0,0,0,0,0,0,0,0,0,0,0,0,0,0,0,0,0,0,0,0,0,0,0,0,0,0,0,0,0,0,0,0,0,0,0,0,0,0,0,0,0,0,0,0,0,0,0,0,0,0,0,0,0,0,0,0,0,0,0,0,0,0,0,0,0,0,0,0,0,0,0,0,0,0,0,0,0,0,0,0,0,0,0,0,0,0,0,0,0,0,0,0,0,0,0,0,0,0,0,0,0,0,0,0,0,0,0,0,0,0,0,0,0,0,0,0,0,0,0,0,0,0,0,0,0,0,0,0,0,0,0,0,0,0,0,0,0,0,0,0,0,0,0,0,0,0,0,0,0,0,0,0,0,0,0,0,0,0,0,0,0,0,0,0,0,0,0,0,0,0,0,0,0,0,0,0,0,0,0,0,0,0,0,0,0,0,0,0,0,0,0,0,0,0,0,0,0,0,0,0,0,0,0,0,0,0,0,0,0,0,0,0,0,0,0,0,0,0,0,0,0,0,0,0,0,0,0,0,0,0,0,0,0,0,0,0,0,0,0,0,0,0,0,0,0,0,0,0,0,0,0,0,0,0,0,0,0,0,0,0,0,0,0,0,0,0,0,0,0,0,0,0,0,0,0,0,0,0,0,0,0,0,0,0,0,0,0,0,0,0,0,0,0,0,0,0,0,0,0,0,0,0,0,0,0,0,0,0,0,0,0,0,0,0,0,0,0,0,0,0,0,0,0,0,0,0,0,0,0,0,0,0,0,0,0,0,0,0,0,0,0,0,0,0,0,0,0,0,0,0,0,0,0,0,0,0,0,0,0,0,0,0,0,0,0,0,0,0,0,0,0,0,0,0,0,0,0,0,0,0,0,0,0,0,0,0,0,0,0,0,0,0,0,0,0,0,0,0,0,0,0,0,0,0,0,0,0,0,0,0,0,0,0,0,0,0,0,0,0,0,0,0,0,0,0,0,0,0,0,0,0,0,0,0,0,0,0,0,0,0,0,0,0,0,0,0,0,0,0,0,0,0,0,0,0,0,0,0,0,0,0,0,0,0,0,0,0,0,0,0,0,0,0,0,0,0,0,0,0,0,0,0,0,0,0,0,0,0,0,0,0,0,0,0,0,0,0,0,0,0,0,0,0,0,0,0,0,0,0,0,0,0,0,0,0,0,0,0,0,0,0,0,0,0,0,0,0,0,0,0,0,0,0,0,0,0,0,0,0,0,0,0,0,0,0,0,0,0,0,0,0,0,0,0,0,0,0,0,0,0,0,0,0,0,0,0,0,0,0,0,0,0,0,0,0,0,0,0,0,0,0,0,0,0,0,0,0,0,0,0,0,0,0,0,0,0,0,0,0,0,0,0,0,0,0,0,0,0,0,0,0,0,0,0,0,0,0,0,0,0,0,0,0,0,0],"id":1,"left_children":[1,3,5,7,9,11,13,15,17,19,21,23,25,27,29,31,33,35,37,39,41,43,45,47,49,51,53,55,57,59,61,63,65,67,69,71,73,75,77,79,81,83,85,87,89,91,93,95,97,99,101,103,105,107,109,111,113,115,117,119,121,123,-1,-1,125,-1,127,129,131,133,135,137,139,141,143,145,147,149,151,153,155,157,159,161,163,165,167,169,171,173,-1,-1,175,177,179,181,183,185,187,189,191,193,195,197,199,201,203,205,207,209,211,213,215,-1,217,219,221,223,225,227,229,-1,231,-1,233,-1,235,-1,237,239,241,243,-1,245,247,249,251,253,255,257,-1,259,261,263,-1,265,-1,267,269,-1,271,273,-1,275,277,279,281,283,285,287,289,291,293,295,297,299,301,303,-1,305,-1,307,309,311,-1,313,315,317,-1,319,321,323,325,327,329,331,333,335,337,339,-1,341,343,345,347,349,351,353,355,357,359,361,363,365,367,369,371,373,375,377,379,381,383,385,-1,-1,-1,-1,387,-1,389,-1,391,-1,393,395,397,399,401,-1,403,-1,405,-1,-1,-1,407,-1,-1,409,-1,411,413,415,-1,417,419,421,423,425,427,429,431,-1,433,435,437,-1,439,441,443,-1,-1,-1,-1,-1,445,-1,447,449,451,453,-1,455,-1,457,459,461,-1,463,-1,465,-1,467,469,471,473,475,477,479,-1,481,483,485,487,-1,-1,-1,-1,489,-1,491,493,-1,-1,-1,-1,-1,495,497,-1,-1,-1,-1,499,501,-1,-1,-1,503,-1,-1,-1,505,507,509,511,513,515,517,519,521,-1,523,525,527,529,-1,531,-1,-1,533,535,537,539,541,543,545,-1,547,-1,549,-1,551,553,555,557,559,561,563,565,567,569,571,573,575,577,579,581,583,585,587,589,-1,-1,591,593,595,597,599,601,603,605,607,609,611,-1,-1,-1,-1,-1,-1,-1,613,-1,-1,615,617,619,621,-1,623,625,627,629,-1,-1,-1,-1,-1,-1,-1,-1,-1,-1,-1,-1,-1,-1,-1,-1,-1,-1,-1,-1,-1,-1,-1,-1,-1,-1,-1,-1,-1,-1,-1,-1,-1,-1,-1,-1,-1,-1,-1,-1,-1,-1,-1,-1,-1,-1,-1,-1,-1,-1,-1,-1,-1,-1,-1,-1,-1,-1,-1,-1,-1,-1,-1,-1,-1,-1,-1,-1,-1,-1,-1,-1,-1,-1,-1,-1,-1,-1,-1,-1,-1,-1,-1,-1,-1,-1,-1,-1,-1,-1,-1,-1,-1,-1,-1,-1,-1,-1,-1,-1,-1,-1,-1,-1,-1,-1,-1,-1,-1,-1,-1,-1,-1,-1,-1,-1,-1,-1,-1,-1,-1,-1,-1,-1,-1,-1,-1,-1,-1,-1,-1,-1,-1,-1,-1,-1,-1,-1,-1,-1,-1,-1,-1,-1,-1,-1,-1,-1,-1,-1,-1,-1,-1,-1,-1,-1,-1,-1,-1,-1,-1,-1,-1,-1,-1,-1,-1,-1,-1,-1,-1,-1,-1,-1,-1,-1,-1,-1,-1,-1,-1,-1,-1,-1,-1,-1,-1,-1,-1,-1,-1,-1,-1,-1,-1,-1,-1,-1,-1,-1,-1,-1,-1,-1,-1,-1,-1,-1,-1,-1,-1,-1,-1,-1,-1,-1,-1,-1,-1,-1,-1,-1,-1,-1,-1,-1],"loss_changes":[2.4247892E1,1.3241711E1,9.743462E0,3.5566945E0,5.352667E0,7.6581182E0,4.128439E0,1.0822358E0,1.424259E0,3.8035965E0,2.3133695E0,5.389496E0,5.9179325E0,2.7685132E0,6.247673E0,7.474836E-2,9.197211E-1,4.3213937E-1,3.098464E-1,2.2326279E0,4.5006294E0,1.1759142E0,1.0244279E0,2.9928691E0,2.8080888E0,6.8508997E0,5.280779E0,1.2398541E0,7.807001E-1,2.473116E0,1.4758399E-1,3.4353748E-2,1.8011105E-3,5.718642E-1,7.1879816E-1,3.3740816E-1,3.9330858E-1,2.4259806E-1,8.720168E-2,2.5034618E-1,9.5943904E-1,1.2087135E0,1.5765238E0,8.6810195E-1,2.356615E-1,5.797665E-1,5.077367E-2,1.7960418E0,1.4926198E0,6.4893836E-1,1.350585E0,3.5690517E0,3.3956776E0,1.8847537E0,1.8452623E0,3.4220302E-1,7.221012E-1,5.240984E-1,2.3517951E-1,2.4287186E0,2.7170933E-3,4.0098965E-2,0E0,0E0,3.843604E-2,0E0,1.2136221E-2,2.4549462E-1,1.4793116E-1,3.2147714E-1,9.5599556E-1,9.9837795E-2,1.3773724E-1,2.6455253E-1,2.669052E-2,1.1385557E-3,2.1888947E-1,7.4803226E-2,3.5292216E-2,1.7750901E-1,2.3974657E-1,3.8802516E-1,3.1065658E-1,1.0780106E0,1.7460379E-1,2.7865016E-1,3.6703548E0,2.7075863E-1,1.077625E-1,1.3968992E-1,0E0,0E0,3.6380243E-1,2.2447038E-2,3.5580624E-2,8.4020853E-1,7.3195523E-1,7.334256E-2,1.2206845E0,4.723332E-1,3.656773E-1,5.2700853E-1,2.1362782E-1,2.76109E0,2.262516E0,4.290477E0,3.9365826E0,1.6721256E0,9.613843E-1,1.9192199E0,1.8130665E0,1.5110022E-1,8.301043E-4,0E0,3.4513855E-1,2.4425375E-1,6.35272E-5,4.938781E-2,2.0814586E-1,4.4134447E-1,1.5950203E0,0E0,6.293222E-3,0E0,3.403032E-2,0E0,2.9504448E-3,0E0,8.776879E-3,3.2119578E-1,2.0856589E-1,5.8054686E-2,0E0,5.583418E-2,1.3361788E-1,3.3074647E-1,6.5888023E-1,4.4497132E-2,5.8579957E-3,1.3582751E-1,0E0,2.2395754E-1,2.488502E-3,1.444336E-3,0E0,3.1767534E-3,0E0,1.00251675E-1,1.4914009E-1,0E0,2.6305228E-2,2.8495539E-2,0E0,1.284203E-1,8.421947E-5,7.531959E-3,6.869793E-2,3.7633055E-1,2.9139113E-1,2.3108143E-1,2.4103522E-2,5.105486E-1,9.4249344E-1,8.021912E-2,1.5070348E-3,7.1376085E-2,1.7622337E-1,8.2229424E-1,0E0,2.02959E-1,0E0,6.884709E-2,2.1746576E-2,7.0495725E-2,0E0,2.7869034E-1,2.9724312E-3,7.6419786E-3,0E0,1.2274273E-2,1.5612233E-5,5.092702E-1,2.8985986E-1,4.7678113E-1,2.1894583E-1,4.926911E-2,1.855273E-1,3.9797565E-1,6.472249E-1,2.0901746E-1,0E0,4.4569936E-1,1.270066E-1,4.2532277E-1,1.4541209E-2,1.4844322E-1,1.7510033E-1,1.0760727E0,3.44516E-1,6.3782144E-1,1.6857252E0,2.91436E0,1.7672589E0,3.6112804E0,2.3867826E0,3.5291195E-1,2.9240352E-1,3.9592597E-1,6.7663145E-1,3.952641E-1,2.4812531E0,1.6882744E0,2.9547453E-1,2.96669E-2,0E0,0E0,0E0,0E0,6.958437E-2,0E0,1.2053287E-1,0E0,4.215046E-3,0E0,1.8173652E-3,4.4241726E-2,3.3455506E-2,2.9513693E-1,4.952833E-2,0E0,1.529583E0,0E0,3.7109824E-3,0E0,0E0,0E0,2.2552758E-3,0E0,0E0,1.8316472E-1,0E0,1.3077357E-1,1.9536507E-1,4.5214534E-2,0E0,1.308491E-3,1.2007132E-2,5.0069136E-3,5.9245467E-2,2.2032654E-1,8.88752E-2,3.9721346E-1,3.3959663E-1,0E0,3.199832E-2,2.3174737E-2,1.3828088E-5,0E0,6.4267516E-3,1.758424E-1,1.000089E-2,0E0,0E0,0E0,0E0,0E0,1.6094376E-3,0E0,9.365654E-2,4.1415427E-2,6.360489E-2,9.899616E-3,0E0,6.483987E-3,0E0,2.5425845E-5,4.6150386E-2,4.0913145E-3,0E0,1.7705144E-2,0E0,7.039881E-2,0E0,1.24587655E-1,1.381015E-1,7.815848E-5,9.991515E-2,1.2624472E-1,1.1441752E-2,8.371815E-3,0E0,1.9458628E-1,5.681069E-2,4.225006E-1,1.4628226E-1,0E0,0E0,0E0,0E0,6.0776234E-2,0E0,1.1016011E-1,8.039216E-2,0E0,0E0,0E0,0E0,0E0,4.074511E-2,8.585528E-3,0E0,0E0,0E0,0E0,1.5101624E-1,9.959652E-4,0E0,0E0,0E0,9.755526E-3,0E0,0E0,0E0,1.7741325E-1,4.0762997E-1,5.3692734E-1,1.2568352E-1,7.019664E-3,2.9136157E-1,2.949074E-1,1.9286288E-1,2.6971132E-2,0E0,3.7206978E-2,7.4448794E-2,1.3538018E-1,1.4477187E-1,0E0,5.0862074E-1,0E0,0E0,5.354411E-2,3.205068E-1,1.6931129E-1,9.125047E-3,1.1347475E-1,1.22921556E-1,2.32929E-3,0E0,8.7454796E-2,0E0,1.2778616E-1,0E0,9.79175E-3,5.909791E-1,1.0190686E-1,3.050923E-1,4.2423677E-1,6.266935E-1,5.8060837E-1,8.4003806E-1,1.2181274E0,2.2626486E0,6.3793296E-1,4.6986318E-1,2.6450615E0,9.462421E-1,3.0200866E-1,2.6405487E0,3.3605814E-1,4.029526E-2,2.2164336E-3,2.2133112E-1,0E0,0E0,5.695925E-1,4.2202273E-1,6.6205984E-1,9.9824905E-2,2.542398E0,5.6950927E-1,1.285902E0,1.2950722E0,1.9246617E-1,6.96702E-2,2.673918E-2,0E0,0E0,0E0,0E0,0E0,0E0,0E0,8.901083E-4,0E0,0E0,4.7987282E-2,2.523024E-3,1.0448731E-3,5.1119566E-2,0E0,3.6700837E-2,4.6301402E-2,2.49405E0,1.9221611E0,0E0,0E0,0E0,0E0,0E0,0E0,0E0,0E0,0E0,0E0,0E0,0E0,0E0,0E0,0E0,0E0,0E0,0E0,0E0,0E0,0E0,0E0,0E0,0E0,0E0,0E0,0E0,0E0,0E0,0E0,0E0,0E0,0E0,0E0,0E0,0E0,0E0,0E0,0E0,0E0,0E0,0E0,0E0,0E0,0E0,0E0,0E0,0E0,0E0,0E0,0E0,0E0,0E0,0E0,0E0,0E0,0E0,0E0,0E0,0E0,0E0,0E0,0E0,0E0,0E0,0E0,0E0,0E0,0E0,0E0,0E0,0E0,0E0,0E0,0E0,0E0,0E0,0E0,0E0,0E0,0E0,0E0,0E0,0E0,0E0,0E0,0E0,0E0,0E0,0E0,0E0,0E0,0E0,0E0,0E0,0E0,0E0,0E0,0E0,0E0,0E0,0E0,0E0,0E0,0E0,0E0,0E0,0E0,0E0,0E0,0E0,0E0,0E0,0E0,0E0,0E0,0E0,0E0,0E0,0E0,0E0,0E0,0E0,0E0,0E0,0E0,0E0,0E0,0E0,0E0,0E0,0E0,0E0,0E0,0E0,0E0,0E0,0E0,0E0,0E0,0E0,0E0,0E0,0E0,0E0,0E0,0E0,0E0,0E0,0E0,0E0,0E0,0E0,0E0,0E0,0E0,0E0,0E0,0E0,0E0,0E0,0E0,0E0,0E0,0E0,0E0,0E0,0E0,0E0,0E0,0E0,0E0,0E0,0E0,0E0,0E0,0E0,0E0,0E0,0E0,0E0,0E0,0E0,0E0,0E0,0E0,0E0,0E0,0E0,0E0,0E0,0E0,0E0,0E0,0E0,0E0,0E0,0E0,0E0,0E0,0E0,0E0,0E0,0E0,0E0,0E0,0E0,0E0,0E0,0E0,0E0,0E0,0E0,0E0,0E0,0E0,0E0,0E0,0E0,0E0,0E0,0E0,0E0,0E0,0E0,0E0],"parents":[2147483647,0,0,1,1,2,2,3,3,4,4,5,5,6,6,7,7,8,8,9,9,10,10,11,11,12,12,13,13,14,14,15,15,16,16,17,17,18,18,19,19,20,20,21,21,22,22,23,23,24,24,25,25,26,26,27,27,28,28,29,29,30,30,31,31,32,32,33,33,34,34,35,35,36,36,37,37,38,38,39,39,40,40,41,41,42,42,43,43,44,44,45,45,46,46,47,47,48,48,49,49,50,50,51,51,52,52,53,53,54,54,55,55,56,56,57,57,58,58,59,59,60,60,61,61,64,64,66,66,67,67,68,68,69,69,70,70,71,71,72,72,73,73,74,74,75,75,76,76,77,77,78,78,79,79,80,80,81,81,82,82,83,83,84,84,85,85,86,86,87,87,88,88,89,89,92,92,93,93,94,94,95,95,96,96,97,97,98,98,99,99,100,100,101,101,102,102,103,103,104,104,105,105,106,106,107,107,108,108,109,109,110,110,111,111,112,112,114,114,115,115,116,116,117,117,118,118,119,119,120,120,122,122,124,124,126,126,128,128,129,129,130,130,131,131,133,133,134,134,135,135,136,136,137,137,138,138,139,139,141,141,142,142,143,143,145,145,147,147,148,148,150,150,151,151,153,153,154,154,155,155,156,156,157,157,158,158,159,159,160,160,161,161,162,162,163,163,164,164,165,165,166,166,167,167,169,169,171,171,172,172,173,173,175,175,176,176,177,177,179,179,180,180,181,181,182,182,183,183,184,184,185,185,186,186,187,187,188,188,189,189,191,191,192,192,193,193,194,194,195,195,196,196,197,197,198,198,199,199,200,200,201,201,202,202,203,203,204,204,205,205,206,206,207,207,208,208,209,209,210,210,211,211,212,212,213,213,218,218,220,220,222,222,224,224,225,225,226,226,227,227,228,228,230,230,232,232,236,236,239,239,241,241,242,242,243,243,245,245,246,246,247,247,248,248,249,249,250,250,251,251,252,252,254,254,255,255,256,256,258,258,259,259,260,260,266,266,268,268,269,269,270,270,271,271,273,273,275,275,276,276,277,277,279,279,281,281,283,283,284,284,285,285,286,286,287,287,288,288,289,289,291,291,292,292,293,293,294,294,299,299,301,301,302,302,308,308,309,309,314,314,315,315,319,319,323,323,324,324,325,325,326,326,327,327,328,328,329,329,330,330,331,331,333,333,334,334,335,335,336,336,338,338,341,341,342,342,343,343,344,344,345,345,346,346,347,347,349,349,351,351,353,353,354,354,355,355,356,356,357,357,358,358,359,359,360,360,361,361,362,362,363,363,364,364,365,365,366,366,367,367,368,368,369,369,370,370,371,371,372,372,375,375,376,376,377,377,378,378,379,379,380,380,381,381,382,382,383,383,384,384,385,385,393,393,396,396,397,397,398,398,399,399,401,401,402,402,403,403,404,404],"right_children":[2,4,6,8,10,12,14,16,18,20,22,24,26,28,30,32,34,36,38,40,42,44,46,48,50,52,54,56,58,60,62,64,66,68,70,72,74,76,78,80,82,84,86,88,90,92,94,96,98,100,102,104,106,108,110,112,114,116,118,120,122,124,-1,-1,126,-1,128,130,132,134,136,138,140,142,144,146,148,150,152,154,156,158,160,162,164,166,168,170,172,174,-1,-1,176,178,180,182,184,186,188,190,192,194,196,198,200,202,204,206,208,210,212,214,216,-1,218,220,222,224,226,228,230,-1,232,-1,234,-1,236,-1,238,240,242,244,-1,246,248,250,252,254,256,258,-1,260,262,264,-1,266,-1,268,270,-1,272,274,-1,276,278,280,282,284,286,288,290,292,294,296,298,300,302,304,-1,306,-1,308,310,312,-1,314,316,318,-1,320,322,324,326,328,330,332,334,336,338,340,-1,342,344,346,348,350,352,354,356,358,360,362,364,366,368,370,372,374,376,378,380,382,384,386,-1,-1,-1,-1,388,-1,390,-1,392,-1,394,396,398,400,402,-1,404,-1,406,-1,-1,-1,408,-1,-1,410,-1,412,414,416,-1,418,420,422,424,426,428,430,432,-1,434,436,438,-1,440,442,444,-1,-1,-1,-1,-1,446,-1,448,450,452,454,-1,456,-1,458,460,462,-1,464,-1,466,-1,468,470,472,474,476,478,480,-1,482,484,486,488,-1,-1,-1,-1,490,-1,492,494,-1,-1,-1,-1,-1,496,498,-1,-1,-1,-1,500,502,-1,-1,-1,504,-1,-1,-1,506,508,510,512,514,516,518,520,522,-1,524,526,528,530,-1,532,-1,-1,534,536,538,540,542,544,546,-1,548,-1,550,-1,552,554,556,558,560,562,564,566,568,570,572,574,576,578,580,582,584,586,588,590,-1,-1,592,594,596,598,600,602,604,606,608,610,612,-1,-1,-1,-1,-1,-1,-1,614,-1,-1,616,618,620,622,-1,624,626,628,630,-1,-1,-1,-1,-1,-1,-1,-1,-1,-1,-1,-1,-1,-1,-1,-1,-1,-1,-1,-1,-1,-1,-1,-1,-1,-1,-1,-1,-1,-1,-1,-1,-1,-1,-1,-1,-1,-1,-1,-1,-1,-1,-1,-1,-1,-1,-1,-1,-1,-1,-1,-1,-1,-1,-1,-1,-1,-1,-1,-1,-1,-1,-1,-1,-1,-1,-1,-1,-1,-1,-1,-1,-1,-1,-1,-1,-1,-1,-1,-1,-1,-1,-1,-1,-1,-1,-1,-1,-1,-1,-1,-1,-1,-1,-1,-1,-1,-1,-1,-1,-1,-1,-1,-1,-1,-1,-1,-1,-1,-1,-1,-1,-1,-1,-1,-1,-1,-1,-1,-1,-1,-1,-1,-1,-1,-1,-1,-1,-1,-1,-1,-1,-1,-1,-1,-1,-1,-1,-1,-1,-1,-1,-1,-1,-1,-1,-1,-1,-1,-1,-1,-1,-1,-1,-1,-1,-1,-1,-1,-1,-1,-1,-1,-1,-1,-1,-1,-1,-1,-1,-1,-1,-1,-1,-1,-1,-1,-1,-1,-1,-1,-1,-1,-1,-1,-1,-1,-1,-1,-1,-1,-1,-1,-1,-1,-1,-1,-1,-1,-1,-1,-1,-1,-1,-1,-1,-1,-1,-1,-1,-1,-1,-1,-1,-1,-1,-1,-1,-1,-1,-1,-1,-1,-1,-1,-1],"split_conditions":[-2.8546837E-1,-7.002338E-2,2.2624676E0,-2.8271355E-2,3.442153E-1,-1.6240665E-1,-6.504833E-2,-5.285281E-1,-1.813377E-1,-1.6182731E-1,-8.58012E-2,1.3883156E-1,-6.9825344E-2,-5.2049477E-2,6.68653E0,-1.3552345E-1,-1.3960555E-1,-7.616258E-1,-9.3215026E-2,-8.5540295E-1,-7.307258E-2,2.4811253E-2,-6.1054613E-2,-6.345511E-2,-1.1841535E-1,-9.155782E-2,7.119157E-2,1.2869147E0,6.8983954E-1,1.6176577E0,3.8888817E0,-2.6717907E-1,-2.0939547E-1,-7.777268E-2,-3.042815E-1,-1.4458236E-1,-2.9914594E-1,-5.8882475E-1,-7.7506736E-2,-1.1357056E0,-3.479751E-2,2.5790745E-1,-1.8818358E-2,-2.207763E-1,-3.1478417E-1,-7.896541E-2,-2.8217109E-2,4.9056652E-1,-1.455785E-1,-6.282647E-2,-2.8590342E-2,-9.0402323E-1,-2.3323469E-1,-9.0402323E-1,7.351776E-2,3.94898E-1,-4.1671634E-2,4.5667913E-2,-3.188234E-2,4.8973134E-1,-2.7426928E-1,-7.252334E-1,-0E0,-0E0,-1.041771E0,-0E0,-2.7482116E-1,-3.1846693E-1,-7.885912E-1,-1.2888452E-1,-6.5290034E-2,-3.2924347E-2,-2.3833096E-1,-2.2392502E-1,-2.6249948E-1,-7.431042E-2,-2.98755E-1,-1.9977826E-1,-4.0486544E-1,-3.912086E-1,-2.7289388E-1,-8.753979E-2,-9.468616E-2,-3.0873029E-2,1.8157451E-1,-3.784292E-1,-4.080654E-2,-5.1566888E-2,-1.1228305E-1,-2.9431984E-1,-0E0,-0E0,1.0212319E0,5.4216367E-1,3.6159736E-1,-9.113958E-2,7.1562104E-2,-8.23677E-1,-9.1569155E-1,-1.4659579E-1,-1.7156827E-1,-1.2492696E-1,-2.4526776E-1,-2.662501E-1,-3.8756368E-1,-4.7405306E-2,3.538243E-1,-8.448066E-2,-1.0466104E-1,1.590779E0,1.9080364E0,1.1080474E-1,-3.0521417E-1,-0E0,-2.5591165E-1,-1.6288905E-1,1.0155251E0,9.226464E-1,3.498247E-1,-6.677439E-2,-1.4340698E-2,-0E0,-2.8951794E-1,-0E0,-1.7481282E0,-0E0,-1.3027655E0,-0E0,-6.682567E-2,-1.1388107E-1,-1.9098076E-1,3.682421E-2,-0E0,-8.5540295E-1,-2.365461E-1,-3.1118417E-1,-3.943489E-1,7.519734E-2,-7.124236E-2,-6.598983E-2,-0E0,-6.076748E-2,-3.013661E-2,-1.5162392E0,-0E0,-4.7511038E-1,-0E0,-6.516533E-2,-1.8806528E-1,-0E0,-5.144128E-2,3.8710758E-1,-0E0,-5.3429556E-1,-1.8226916E-1,4.8169428E-1,1.758555E-2,-3.6501253E-1,-2.1157423E-1,-1.53274E-1,-1.111005E0,-7.990671E-3,2.7654397E-1,6.6068155E-1,4.4940004E-1,-1.2743695E-1,-3.5718143E-1,-5.686725E-1,-0E0,-1.9856492E-1,-0E0,-8.4660345E-1,-1.5043455E-1,-1.7800955E-1,-0E0,-6.503412E-1,-1.0903173E-2,1.23378016E-1,-0E0,1.1855204E0,1.4961168E-1,-2.8391185E-1,1.5607852E-1,9.987715E-1,-3.5288125E-2,1.8886918E-1,-1.3179387E-1,7.4705225E-1,-6.4939946E-2,4.1065767E-1,-0E0,-3.0833589E-2,-7.055814E-2,7.9978675E-2,1.0775412E0,-1.7241572E-1,1.5892502E0,-1.5044692E-1,-5.129176E-1,-5.2851313E-1,-6.888688E-2,-1.4913064E-1,-1.9507058E-2,4.0523925E-1,-1.9257003E-1,-3.5958838E-1,-1.4913064E-1,2.4579023E-1,6.113571E-1,1.0435961E0,-5.6445646E-1,3.3402836E-1,4.4604522E-1,2.2986152E0,-0E0,-5.4448674E-4,-0E0,-0E0,-9.1848075E-1,-0E0,-3.045809E-1,-0E0,-1.0094984E-1,3.7413815E-3,7.3501676E-1,-7.111016E-2,9.123805E-1,4.6781275E-1,3.5588777E-1,-9.027985E-4,9.857275E-2,-0E0,6.729387E-1,-0E0,-7.4574254E-3,-0E0,5.1497287E-1,2.175345E-3,-0E0,1.4086038E-1,-0E0,-4.561194E-2,-1.6343251E-1,-1.1018769E0,-0E0,-4.5359465E-1,-1.3570651E0,-6.172779E-1,-8.394172E-2,-3.1846693E-1,-6.28283E-2,-3.8675416E-1,-2.6059023E-1,-0E0,-2.1274787E-1,-2.0623839E-1,8.7666124E-2,-0E0,-5.3522915E-1,-3.9115873E-1,-4.568087E-2,-6.2343397E-4,1.678769E-5,-0E0,-2.8828243E-3,-0E0,-2.7593485E-1,-0E0,-1.7883273E-2,-3.627242E-1,-7.023242E-2,-4.198775E-1,-0E0,-7.430459E-2,-0E0,-1.7154683E-1,-6.396926E-1,-7.122147E-1,-0E0,-1.104478E0,-0E0,-1.274075E0,-0E0,-2.3504028E-3,-1.1979215E-1,-1.9521418E-1,4.1302907E-1,-6.5732755E-2,-6.819504E-1,1.9694349E-1,-0E0,-9.695151E-2,-3.6288375E-1,-2.4761984E-1,-1.5620834E-1,7.203601E-3,-0E0,-6.4700906E-4,-0E0,-4.6293414E-1,-0E0,-1.8358801E-1,-3.253016E-1,4.128818E-2,-0E0,1.3539687E-2,-0E0,-0E0,-2.1879473E-1,-3.265003E-1,-0E0,-1.2565876E-2,-0E0,-0E0,-2.8781888E-1,3.5110563E-1,-0E0,-3.4317211E-3,-0E0,-1.7731078E-1,-0E0,-0E0,-7.467126E-5,-9.277631E-2,-4.9459314E-1,-3.6045358E-2,-7.188136E-2,-9.084137E-1,-5.3239442E-2,-7.4504144E-2,1.2577953E0,1.0733225E0,-0E0,-1.0039854E-1,1.7557704E-1,4.37081E-1,9.282022E-2,-0E0,1.0979711E0,1.5812486E-2,-0E0,1.01596475E-1,-1.17858E-1,-1.2472306E-1,-1.8963431E-1,-1.339658E-1,-1.153393E-1,1.2117034E0,-0E0,2.1974127E0,-0E0,1.0785937E0,-0E0,-3.5216305E-1,4.24709E-2,4.331917E-2,-1.9476679E-1,-2.0433229E-1,1.7487746E-1,-2.2837444E-1,-1.21813655E-1,-4.571446E-2,-1.1837343E-1,9.802777E-1,-2.3288381E-1,-2.1667089E-1,6.1884265E-2,-3.5380694E-1,-3.319766E-2,-4.5185244E-1,-2.0734747E-1,1.5535928E-1,-4.1092858E-1,-0E0,1.4381498E-2,6.3481385E-1,2.1336702E-1,-1.6234441E-1,-1.7285662E-2,1.2257888E0,-4.3361157E-1,1.5435994E0,3.637107E-1,1.8386802E-1,1.8415122E-1,-8.9923E-2,-0E0,-0E0,3.6765434E-2,-0E0,1.52726015E-2,-0E0,-9.86105E-4,-2.7187538E-1,-0E0,-0E0,4.622315E-1,-5.410691E-1,1.6905382E0,-6.749383E-1,-0E0,2.4341999E-1,-2.0903882E-2,2.8216225E-1,1.2724372E0,-0E0,-1.7003542E-3,-3.0048469E-3,-0E0,1.3644512E-2,-0E0,-0E0,-2.7721885E-3,3.8366143E-3,-1.542785E-4,7.890309E-3,-0E0,-0E0,6.836068E-4,-0E0,-2.346488E-3,-0E0,6.9385447E-4,-0E0,5.3341244E-3,-0E0,6.3735456E-3,-0E0,2.3304224E-3,7.7285627E-3,1.9780708E-2,-0E0,7.1424195E-3,5.883019E-3,-0E0,-1.5022247E-3,-0E0,-0E0,2.2435216E-4,-0E0,-7.07145E-3,-0E0,8.123499E-3,1.091138E-3,-0E0,1.0285866E-3,-0E0,-4.8912996E-3,-0E0,-1.2500089E-3,1.2810642E-3,-3.8230456E-3,-0E0,-0E0,7.1675046E-3,-0E0,-2.4427474E-3,-6.509716E-5,-0E0,-0E0,-5.091972E-3,-0E0,9.741586E-4,-0E0,-2.0508983E-3,-0E0,-7.6576597E-3,-3.0715787E-3,-0E0,-0E0,2.9965825E-3,-0E0,1.181392E-4,-5.173071E-3,-0E0,-0E0,6.0937484E-3,8.5622974E-4,-2.9685747E-5,-4.350041E-3,-0E0,-5.8714403E-3,-0E0,3.9985296E-3,-0E0,-0E0,-8.875283E-3,3.3143226E-3,-2.7032504E-3,-0E0,-6.0829218E-3,7.865394E-3,-0E0,-0E0,-3.2886248E-3,-0E0,-3.153734E-3,-0E0,2.7537297E-3,-0E0,1.2428496E-2,-0E0,8.418089E-4,-0E0,3.2290944E-3,-3.0699716E-4,-2.7394444E-3,-0E0,-4.7287066E-3,-0E0,7.0918836E-3,-2.6070753E-3,2.4051713E-4,1.2093097E-3,-0E0,3.642803E-3,1.5044333E-2,-6.2319245E-3,2.7582597E-4,-0E0,7.8901565E-3,-3.1616723E-3,-0E0,-2.5983048E-3,-0E0,6.3739293E-3,-0E0,-4.621537E-3,-0E0,8.599274E-3,-0E0,1.346201E-2,-0E0,4.6233186E-3,-0E0,-0E0,-6.6017606E-3,-0E0,6.6129193E-3,-0E0,-1.1584122E-3,2.6896442E-4,-3.6580444E-3,-0E0,9.999099E-3,-6.9734775E-3,-0E0,-1.3180243E-2,-0E0,-8.107058E-3,-0E0,6.735819E-4,-1.0714469E-3,1.1266639E-2,-0E0,-2.6175713E-3,-0E0,4.475552E-3,-0E0,-0E0,-6.0698683E-3,1.9268431E-3,-5.6636618E-3,1.3407764E-3,-1.3677239E-3,-4.0493903E-4,3.3586968E-3,4.2862515E-3,-2.8479015E-3,1.0587985E-2,-3.6615056E-3,-1.7644136E-3,4.5904857E-3,-0E0,-8.465589E-3,2.1155E-3,6.0462817E-3,3.0929388E-3,-5.003805E-3,1.1687618E-2,-0E0,-0E0,2.3944594E-2,2.6446264E-3,8.874626E-3,1.9139266E-3,-1.1516883E-3,-0E0,8.3224726E-4,-8.552431E-3,-0E0,-3.6812879E-3,-0E0,3.8899556E-3,-2.5654237E-3,-3.4557425E-3,5.419E-4,-5.3061116E-3,-0E0,2.309575E-2,-0E0,1.320365E-2,-5.4810895E-4,8.342038E-3,-2.0249814E-3,-4.427354E-3,3.7323625E-3,-3.5562234E-3,1.0122522E-3,-0E0,-7.3662433E-3,-0E0,1.0222919E-2,-0E0,-1.0362471E-3,-0E0,-7.775129E-3,-0E0,1.5794967E-3,-0E0,-2.6002002E-3,-0E0,1.6626833E-2,-3.343774E-3,-0E0,-0E0,4.8112986E-3,2.3888342E-2,3.6140978E-3,3.337047E-2,-0E0],"split_indices":[102,79,4,42,110,70,123,62,85,71,89,3,80,124,106,115,70,7,106,8,106,49,121,79,71,119,71,72,57,123,35,21,21,58,24,20,100,1,119,9,64,73,55,19,7,74,42,115,15,43,42,4,109,4,21,100,2,124,67,101,57,16,0,0,116,0,110,115,7,69,105,29,45,71,74,118,10,15,4,94,64,89,75,55,52,92,105,16,62,102,0,0,0,73,95,113,82,54,1,71,70,80,34,93,92,43,124,113,13,77,86,126,12,0,8,111,115,109,14,12,122,0,12,0,2,0,0,0,56,20,30,16,0,8,84,52,108,24,50,56,0,16,55,4,0,100,0,43,47,0,98,2,0,109,6,125,116,102,36,34,95,29,10,5,34,104,101,10,0,21,0,40,58,5,0,66,56,18,0,0,5,72,115,10,67,22,91,108,74,5,0,55,79,52,2,70,40,34,73,111,48,115,64,58,47,61,115,10,51,82,24,45,124,25,0,0,0,0,3,0,2,0,130,0,12,118,115,61,125,0,118,0,8,0,0,0,104,0,0,126,0,88,14,76,0,100,2,10,18,115,56,101,115,0,85,58,2,0,1,102,88,0,0,0,0,0,2,0,16,108,79,12,0,118,0,82,1,6,0,110,0,104,0,66,124,69,96,105,7,1,0,47,117,58,80,0,0,0,0,93,0,47,102,0,0,0,0,0,34,117,0,0,0,0,45,8,0,0,0,14,0,0,0,123,22,133,58,3,119,14,122,10,0,14,35,122,18,0,117,0,0,12,106,100,7,131,115,10,0,122,0,52,0,2,8,58,48,16,77,75,106,88,108,40,115,9,69,92,121,83,115,125,84,0,0,109,125,108,13,3,35,9,83,63,2,108,0,0,0,0,0,0,0,30,0,0,116,6,3,12,0,13,55,106,12,0,0,0,0,0,0,0,0,0,0,0,0,0,0,0,0,0,0,0,0,0,0,0,0,0,0,0,0,0,0,0,0,0,0,0,0,0,0,0,0,0,0,0,0,0,0,0,0,0,0,0,0,0,0,0,0,0,0,0,0,0,0,0,0,0,0,0,0,0,0,0,0,0,0,0,0,0,0,0,0,0,0,0,0,0,0,0,0,0,0,0,0,0,0,0,0,0,0,0,0,0,0,0,0,0,0,0,0,0,0,0,0,0,0,0,0,0,0,0,0,0,0,0,0,0,0,0,0,0,0,0,0,0,0,0,0,0,0,0,0,0,0,0,0,0,0,0,0,0,0,0,0,0,0,0,0,0,0,0,0,0,0,0,0,0,0,0,0,0,0,0,0,0,0,0,0,0,0,0,0,0,0,0,0,0,0,0,0,0,0,0,0,0,0,0,0,0,0,0,0,0,0,0,0,0,0,0,0,0,0,0,0,0,0,0,0,0,0,0,0,0,0,0,0,0,0],"split_type":[0,0,0,0,0,0,0,0,0,0,0,0,0,0,0,0,0,0,0,0,0,0,0,0,0,0,0,0,0,0,0,0,0,0,0,0,0,0,0,0,0,0,0,0,0,0,0,0,0,0,0,0,0,0,0,0,0,0,0,0,0,0,0,0,0,0,0,0,0,0,0,0,0,0,0,0,0,0,0,0,0,0,0,0,0,0,0,0,0,0,0,0,0,0,0,0,0,0,0,0,0,0,0,0,0,0,0,0,0,0,0,0,0,0,0,0,0,0,0,0,0,0,0,0,0,0,0,0,0,0,0,0,0,0,0,0,0,0,0,0,0,0,0,0,0,0,0,0,0,0,0,0,0,0,0,0,0,0,0,0,0,0,0,0,0,0,0,0,0,0,0,0,0,0,0,0,0,0,0,0,0,0,0,0,0,0,0,0,0,0,0,0,0,0,0,0,0,0,0,0,0,0,0,0,0,0,0,0,0,0,0,0,0,0,0,0,0,0,0,0,0,0,0,0,0,0,0,0,0,0,0,0,0,0,0,0,0,0,0,0,0,0,0,0,0,0,0,0,0,0,0,0,0,0,0,0,0,0,0,0,0,0,0,0,0,0,0,0,0,0,0,0,0,0,0,0,0,0,0,0,0,0,0,0,0,0,0,0,0,0,0,0,0,0,0,0,0,0,0,0,0,0,0,0,0,0,0,0,0,0,0,0,0,0,0,0,0,0,0,0,0,0,0,0,0,0,0,0,0,0,0,0,0,0,0,0,0,0,0,0,0,0,0,0,0,0,0,0,0,0,0,0,0,0,0,0,0,0,0,0,0,0,0,0,0,0,0,0,0,0,0,0,0,0,0,0,0,0,0,0,0,0,0,0,0,0,0,0,0,0,0,0,0,0,0,0,0,0,0,0,0,0,0,0,0,0,0,0,0,0,0,0,0,0,0,0,0,0,0,0,0,0,0,0,0,0,0,0,0,0,0,0,0,0,0,0,0,0,0,0,0,0,0,0,0,0,0,0,0,0,0,0,0,0,0,0,0,0,0,0,0,0,0,0,0,0,0,0,0,0,0,0,0,0,0,0,0,0,0,0,0,0,0,0,0,0,0,0,0,0,0,0,0,0,0,0,0,0,0,0,0,0,0,0,0,0,0,0,0,0,0,0,0,0,0,0,0,0,0,0,0,0,0,0,0,0,0,0,0,0,0,0,0,0,0,0,0,0,0,0,0,0,0,0,0,0,0,0,0,0,0,0,0,0,0,0,0,0,0,0,0,0,0,0,0,0,0,0,0,0,0,0,0,0,0,0,0,0,0,0,0,0,0,0,0,0,0,0,0,0,0,0,0,0,0,0,0,0,0,0,0,0,0,0,0,0,0,0,0,0,0,0,0,0,0,0,0,0,0,0,0,0,0,0,0,0,0,0,0,0,0],"sum_hessian":[1.6513E4,5.106E3,1.1407E4,1.768E3,3.338E3,1.1018E4,3.89E2,9.16E2,8.52E2,3.012E3,3.26E2,2.024E3,8.994E3,1.7E2,2.19E2,1.15E2,8.01E2,2.93E2,5.59E2,1.124E3,1.888E3,1.81E2,1.45E2,1.463E3,5.61E2,5.916E3,3.078E3,4.4E1,1.26E2,1.86E2,3.3E1,8.1E1,3.4E1,3.32E2,4.69E2,1.62E2,1.31E2,5E2,5.9E1,4.2E2,7.04E2,1.744E3,1.44E2,1.45E2,3.6E1,1.07E2,3.8E1,1.239E3,2.24E2,1.57E2,4.04E2,2.56E3,3.356E3,1.622E3,1.456E3,2.9E1,1.5E1,4.1E1,8.5E1,1.72E2,1.4E1,2.7E1,6E0,9E0,7.2E1,1.8E1,1.6E1,2.79E2,5.3E1,1.4E2,3.29E2,1.05E2,5.7E1,1.07E2,2.4E1,2.6E1,4.74E2,1.4E1,4.5E1,1.4E2,2.8E2,5.68E2,1.36E2,1.719E3,2.5E1,1.12E2,3.2E1,1.9E1,1.26E2,3.4E1,2E0,1.3E1,9.4E1,1.8E1,2E1,1.099E3,1.4E2,7.3E1,1.51E2,2.1E1,1.36E2,7.8E1,3.26E2,4.01E2,2.159E3,7.78E2,2.578E3,2.58E2,1.364E3,6.94E2,7.62E2,2.2E1,7E0,3E0,1.2E1,1.6E1,2.5E1,2.3E1,6.2E1,3.7E1,1.35E2,2E0,1.2E1,2E0,2.5E1,3E0,6.9E1,3E0,1.3E1,3.4E1,2.45E2,4.6E1,7E0,5.2E1,8.8E1,1.85E2,1.44E2,4.1E1,6.4E1,3.5E1,2.2E1,8.6E1,2.1E1,1.1E1,1.3E1,1.7E1,9E0,3.64E2,1.1E2,4E0,1E1,3.8E1,7E0,1.24E2,1.6E1,2.3E1,2.57E2,3.7E2,1.98E2,1.23E2,1.3E1,4.81E2,1.238E3,1.4E1,1.1E1,3.7E1,7.5E1,9E0,2.3E1,1.6E1,3E0,1.11E2,1.5E1,3.2E1,2E0,7.9E1,1.5E1,1.6E1,2E0,1.4E1,6E0,8.01E2,2.98E2,7.7E1,6.3E1,3.8E1,3.5E1,4.7E1,1.04E2,1.4E1,7E0,9.1E1,4.5E1,4.8E1,3E1,1.1E2,2.16E2,1.98E2,2.03E2,3.63E2,1.796E3,4.44E2,3.34E2,2.475E3,1.03E2,1.97E2,6.1E1,1.8E1,1.346E3,5.43E2,1.51E2,5.95E2,1.67E2,1.9E1,3E0,5E0,2E0,3E0,9E0,2E0,1.4E1,8E0,1.7E1,6E0,1.7E1,4.4E1,1.8E1,1.4E1,2.3E1,3E0,1.32E2,1E0,1.1E1,1E0,2.4E1,1E0,6.8E1,1E1,3E0,1.2E1,2.2E1,1.7E2,7.5E1,4.3E1,3E0,1E1,4.2E1,3.5E1,5.3E1,8.9E1,9.6E1,7.2E1,7.2E1,1.5E1,2.6E1,5.7E1,7E0,5E0,3E1,6.1E1,2.5E1,1.4E1,7E0,1E0,1E1,4E0,1.3E1,1.2E1,3.52E2,6E1,5E1,8E0,2E0,3.5E1,3E0,3.1E1,9.3E1,1.2E1,4E0,1.8E1,5E0,2.52E2,5E0,1.88E2,1.82E2,3E1,1.68E2,7.4E1,4.9E1,1E1,3E0,4.64E2,1.7E1,1.199E3,3.9E1,1.2E1,2E0,7E0,4E0,3.2E1,5E0,2.5E1,5E1,7E0,2E0,1.4E1,2E0,1.3E1,9.8E1,1.1E1,4E0,3E1,2E0,5E0,7.4E1,1.3E1,2E0,1.5E1,1E0,1.3E1,1E0,1E0,5E0,4.17E2,3.84E2,1.94E2,1.04E2,2.4E1,5.3E1,4.5E1,1.8E1,3.5E1,3E0,1.9E1,1.6E1,2.9E1,1.8E1,1.2E1,9.2E1,1E1,4E0,1.3E1,7.8E1,2.3E1,2.2E1,3.4E1,1.4E1,2.9E1,1E0,1.08E2,2E0,2.13E2,3E0,2.7E1,1.71E2,8.8E1,1.15E2,2.49E2,1.14E2,1.079E3,7.17E2,2.34E2,2.1E2,1.91E2,1.43E2,2.315E3,1.6E2,3.2E1,7.1E1,1.55E2,4.2E1,1.6E1,4.5E1,1E1,8E0,1.255E3,9.1E1,4.69E2,7.4E1,5E1,1.01E2,3.32E2,2.63E2,1.48E2,1.9E1,1.8E1,1E0,1E0,8E0,3E0,1.1E1,8E0,9E0,1.6E1,1E0,3E0,4.1E1,9E0,9E0,1E1,4E0,1E1,1.3E1,7.9E1,5.3E1,2E0,9E0,6.7E1,1E0,8E0,4E0,8.6E1,8.4E1,4.5E1,3E1,3.9E1,4E0,5E0,5E0,3E0,3.9E1,1.1E1,2.4E1,2E0,5.1E1,6E0,8.3E1,4.9E1,4.7E1,4.5E1,2.7E1,2.5E1,4.7E1,1.3E1,1.3E1,3E1,2.7E1,1E0,6E0,2E0,2.8E1,3E0,5.8E1,1.9E1,6E0,1.2E1,1E0,3.3E2,2.2E1,1.7E1,4.3E1,4.5E1,5E0,1E0,7E0,2E0,3.3E1,1.3E1,1.8E1,1E0,9.2E1,3E0,9E0,5E0,1.3E1,3E0,2.49E2,1.65E2,2.3E1,1.42E2,4E1,1.8E1,1.2E1,1.54E2,1.4E1,1.3E1,6.1E1,3.7E1,1.2E1,9E0,1E0,4.43E2,2.1E1,8E0,9E0,1.7E1,1.182E3,1.2E1,2.7E1,3E0,2.9E1,9E0,1.6E1,3E1,2E1,3E0,9.5E1,3E0,8E0,3E0,7.1E1,1E0,1.2E1,1E0,1.2E1,2.7E2,1.47E2,5.4E1,3.3E2,1.6E2,3.4E1,8.5E1,1.9E1,1E1,1.4E1,3E1,2.3E1,2.1E1,2.4E1,6E0,1.2E1,3.4E1,1E0,1.4E1,5E0,1.4E1,2E0,2.2E1,7E0,1.4E1,4E0,8.4E1,8E0,9E0,4E0,1.2E1,6.6E1,6E0,1.7E1,7E0,1.5E1,1.3E1,2.1E1,2E0,1.2E1,2.8E1,1E0,1.02E2,6E0,2.09E2,4E0,1.4E1,1.3E1,1.61E2,1E1,6.4E1,2.4E1,7.2E1,4.3E1,3.5E1,2.14E2,7.6E1,3.8E1,2.4E2,8.39E2,1.72E2,5.45E2,1.08E2,1.26E2,1.84E2,2.6E1,1.38E2,5.3E1,2.1E1,1.22E2,6.38E2,1.677E3,4.2E1,1.18E2,4E0,2.8E1,1.2E1,5.9E1,1.03E2,5.2E1,1.5E1,2.7E1,1E1,6E0,3.8E1,7E0,1.154E3,1.01E2,5.3E1,3.8E1,1.41E2,3.28E2,6.6E1,8E0,2.9E1,2.1E1,6E0,9.5E1,3.08E2,2.4E1,5.7E1,2.06E2,2.6E1,1.22E2,3E0,1.6E1,1E0,1.7E1,1E0,1.5E1,1E0,4E1,1E0,8E0,1E0,8E0,1E0,9E0,9E0,1E0,6E0,7E0,4.6E1,3.3E1,5E1,3E0],"tree_param":{"num_deleted":"0","num_feature":"135","num_nodes":"631","size_leaf_vector":"1"}},{"base_weights":[1.1144123E-3,-4.844323E-2,3.0009802E-2,1.5859762E-2,-8.180173E-2,-3.6570553E-2,4.7558628E-2,-1.2895372E-2,8.924253E-2,-9.6424274E-2,3.9873064E-2,-1.901751E-2,-1.5837298E-1,1.20874345E-2,7.161198E-2,3.4890812E-2,-4.552703E-2,1.23252876E-1,1.3957457E-2,-5.383802E-2,-1.2143899E-1,1.898853E-1,-5.254289E-3,-2.804132E-2,6.6703245E-2,5.3883786E-3,-1.7964303E-1,8.256476E-3,2.2360215E-1,1.983633E-2,9.1242276E-2,1.4523005E-1,1.766863E-2,-5.8842655E-2,-0E0,3.8767036E-2,1.5512311E-1,4.8556346E-2,-1.6375834E-2,-1.0936231E-1,-2.1810485E-2,-1.3339938E-1,3.779944E-2,-0E0,2.476954E-1,-6.694372E-2,7.072211E-2,-8.485807E-2,-1.688026E-2,1.2491247E-2,2.2390841E-1,5.091985E-2,-0E0,-5.184633E-2,-2.058438E-1,5.9442766E-2,-5.3640073E-3,3.2308525E-1,-1.8097464E-2,1.1829619E-1,2.5672645E-3,-8.4391445E-2,9.684247E-2,3.067537E-1,2.5284283E-3,3.4002538E-3,1.6264902E-1,-6.474005E-2,6.206658E-3,5.623657E-2,-1.1249727E-2,-0E0,8.6258255E-2,2.5562483E-1,1.1944404E-1,-0E0,7.791157E-2,-3.1207921E-2,-0E0,-5.6021597E-2,-1.285384E-1,-3.7809532E-2,3.9990433E-2,-1.4161143E-1,-0E0,-5.006268E-3,1.8290573E-1,-1.9963808E-2,-0E0,-0E0,2.6759562E-1,-3.3073675E-2,-2.269137E-1,1.149058E-1,-0E0,-1.17231555E-1,-1.9751834E-2,6.638969E-2,-2.5157921E-2,1.1334201E-1,-1.5351791E-2,-0E0,2.9118258E-1,6.915895E-2,-0E0,-1.0389832E-1,2.595568E-3,-2.1272813E-1,-0E0,4.573017E-2,3.0768418E-1,-5.6271065E-2,9.264264E-3,-0E0,4.6359846E-1,-0E0,-1.9864491E-3,-0E0,1.8499723E-1,-3.5382543E-2,4.424672E-2,-1.2817433E-1,9.850522E-2,5.569849E-1,9.393879E-2,-0E0,3.9621806E-1,-6.3692927E-3,5.705528E-2,-4.0207934E-2,2.9094078E-2,3.377876E-1,5.7751518E-2,-8.3226226E-2,-2.976488E-2,-0E0,8.5581094E-2,-0E0,8.127787E-2,4.310407E-3,-3.1515248E-2,-1.5085255E-2,1.2753709E-2,1.06426276E-1,-0E0,2.7551594E-1,-0E0,1.2764353E-1,-0E0,-0E0,-1.35285165E-2,1.0074469E-1,-0E0,-4.1319165E-2,-0E0,4.888191E-3,-0E0,-7.212813E-2,1.396582E-2,-1.6670793E-2,-1.4310542E-1,-1.5793413E-2,-8.708902E-2,5.666092E-2,-6.087799E-2,-1.5164237E-1,-7.6484576E-2,5.204722E-2,-1.047491E-1,-9.245479E-2,1.1568404E-2,5.9288526E-1,-0E0,-0E0,-1.4309622E-3,2.798203E-1,-0E0,-6.135328E-2,2.412865E-2,-1.1607345E-2,-0E0,1.4649189E-1,-0E0,-9.033443E-2,3.18618E-2,-0E0,-1.2870954E-1,3.6858E-2,-6.2387206E-2,9.868678E-2,-5.900498E-3,-5.219315E-2,-1.0126031E-2,-0E0,1.3738629E-1,7.544216E-3,-4.143777E-2,-0E0,3.901207E-2,3.2513767E-1,-0E0,-0E0,7.323509E-2,-0E0,-1.23831704E-1,-0E0,2.4436906E-3,-2.1716173E-1,-0E0,7.520661E-2,-0E0,4.1898012E-1,-0E0,-6.6355854E-2,1.2376126E-1,-4.944169E-2,2.4139779E-2,-0E0,-1.5959246E-2,5.2006817E-1,-0E0,-6.4386176E-3,8.084677E-2,-0E0,2.1736766E-1,-2.979512E-3,-1.124509E-1,-4.1350145E-2,6.1409827E-2,-1.4205655E-1,-0E0,7.7857994E-3,-0E0,-0E0,4.0331014E-2,1.2741446E-1,6.741002E-2,-0E0,5.175659E-1,-2.1687526E-2,-0E0,1.12470105E-1,-0E0,-6.723157E-2,-0E0,6.347468E-2,-0E0,-0E0,1.7743878E-2,-0E0,8.86846E-2,-2.2170646E-2,-1.00821294E-1,-4.4591624E-2,6.2371545E-2,-0E0,-1.1639657E-3,1.05272554E-1,-0E0,9.983167E-2,-0E0,1.9282162E-2,-0E0,-0E0,-4.1735522E-2,-2.8328687E-2,-0E0,-0E0,3.395551E-2,-0E0,1.1823899E-1,2.110107E-1,3.149053E-2,-0E0,1.3727252E-1,-1.9842288E-2,-0E0,-0E0,1.10918835E-1,-0E0,-4.8892017E-2,-0E0,1.2800439E-3,-0E0,-9.078569E-2,4.9371608E-2,-0E0,-4.5717537E-2,-0E0,-1.4403403E-1,-0E0,-4.683674E-2,2.4776729E-3,-0E0,-1.02332525E-1,8.409654E-2,-0E0,-9.219678E-2,-0E0,-9.793573E-2,-1.6874075E-1,-1.0248927E-1,-0E0,1.5399916E-1,-0E0,-0E0,-1.2451809E-1,-0E0,-1.0298625E-1,-3.3553157E-2,5.1833346E-2,3.968253E-2,-0E0,1.4312675E-2,-1.7122705E-3,-0E0,2.9331282E-1,-6.668949E-2,-0E0,-3.835443E-3,1.2617202E-1,-0E0,1.7055205E-1,-0E0,-7.1838815E-3,-1.2147969E-1,-0E0,7.074731E-2,-0E0,-1.386451E-1,-0E0,1.0433841E-1,-3.6100397E-4,-8.103528E-2,-0E0,-0E0,1.399919E-1,-3.8595803E-2,-0E0,-2.717952E-2,-1.080534E-1,-1.8466732E-2,6.54314E-2,1.6302791E-1,-0E0,-0E0,4.7471426E-2,-0E0,-6.399805E-2,2.1973704E-3,-0E0,-0E0,3.4773877E-1,-0E0,7.69439E-2,-0E0,-1.4667042E-1,-2.1923055E-1,-0E0,6.720705E-3,1.0236774E-1,1.6852295E-2,-3.7330635E-2,-0E0,4.9472272E-1,1.4363753E-2,-9.181888E-2,2.4819341E-1,-3.7412092E-2,1.3958036E-2,-5.894509E-2,6.616015E-2,-1.1193816E-2,-1.2095963E-3,-0E0,-0E0,5.712843E-1,-0E0,-2.7617116E-2,5.3462884E-3,-0E0,2.3915035E-1,-0E0,1.8060562E-1,-1.9939426E-2,-2.4771747E-5,-1.51285E-1,-6.5802135E-2,-0E0,7.716029E-3,9.378948E-2,-0E0,-1.5227336E-1,2.4748458E-2,1.5308335E-1,4.637828E-2,1.6791213E-1,2.9033432E-2,-0E0,-0E0,-1.1563393E-3,-0E0,7.223272E-3,-5.0020963E-3,-0E0,8.1056805E-4,-1.5648528E-3,-0E0,4.9088807E-3,-1.6874701E-3,1.2010935E-3,-0E0,5.2115447E-3,-2.0366672E-3,-0E0,-0E0,-5.4958393E-3,-5.986101E-4,-3.788219E-3,6.4508603E-3,-0E0,6.066307E-3,-0E0,5.921932E-3,-0E0,-0E0,1.4276232E-3,-2.5059602E-3,-0E0,-0E0,-1.733719E-3,-0E0,3.085351E-3,6.5938965E-3,-0E0,1.1442786E-2,-0E0,-0E0,7.151216E-3,-1.0723624E-3,-0E0,-0E0,6.083629E-3,-2.682938E-3,-0E0,-0E0,-6.196963E-4,-0E0,-4.6831938E-3,3.0614154E-3,-0E0,-0E0,-2.8373073E-3,-0E0,4.763653E-4,-0E0,-7.2598197E-3,-3.2189365E-3,2.9697127E-4,9.083803E-4,-2.5786434E-3,-0E0,3.3778427E-4,-5.603164E-3,-0E0,-0E0,5.5934116E-3,-8.027527E-4,1.7024147E-3,-0E0,-4.8642005E-3,-0E0,-5.0512245E-3,1.8057767E-3,-8.544876E-3,-1.4074508E-3,-7.6480038E-3,6.365072E-3,-4.127525E-3,9.508563E-3,-0E0,-2.2609406E-3,2.826786E-3,-0E0,-7.431944E-3,-5.546612E-3,-0E0,-0E0,-3.4038795E-3,4.5868717E-3,-2.188036E-4,9.057265E-4,-0E0,-0E0,-7.455113E-4,-0E0,1.5053316E-2,-0E0,-3.4504377E-3,8.9010096E-4,-3.429512E-3,-0E0,8.419643E-3,9.032407E-3,-0E0,-1.5387336E-3,-0E0,-6.485862E-3,-0E0,-0E0,5.408668E-3,-0E0,-7.6962854E-3,6.783814E-3,-0E0,-0E0,-1.7142752E-3,-0E0,-4.875221E-3,1.1246948E-3,-5.820879E-4,9.553973E-3,-0E0,-0E0,-2.1406326E-3,3.556552E-3,-2.2539578E-3,-0E0,-6.107543E-3,-1.2225535E-3,2.8671734E-3,6.384895E-3,-1.4722759E-4,-0E0,9.653767E-3,-9.04544E-5,-0E0,4.369218E-3,-0E0,4.688883E-4,-0E0,-4.3219505E-3,-0E0,-0E0,1.7858071E-2,-0E0,4.0562754E-3,-0E0,-7.642486E-3,-1.1219083E-2,-0E0,-2.0666677E-3,2.8503432E-3,6.0039535E-3,-0E0,2.7123536E-3,-0E0,-3.237484E-3,-0E0,2.8376132E-2,-0E0,-0E0,9.018372E-3,-4.9277204E-3,8.116114E-4,-0E0,1.6059523E-2,-0E0,-2.4930732E-3,-0E0,6.75731E-3,-6.755105E-4,-4.5479108E-3,5.3742263E-3,-0E0,-3.7108285E-3,8.2152913E-4,-0E0,3.0391535E-2,5.616654E-4,-0E0,-0E0,-1.8409444E-3,1.9865178E-3,1.352633E-2,-0E0,1.468866E-2,-1.980671E-3,5.6793233E-3,-3.8861725E-3,4.103273E-3,-8.483638E-3,-0E0,-3.608488E-3,-0E0,1.8509905E-3,-1.05032734E-4,5.1616533E-3,-2.0243069E-4,5.543124E-3,-6.436995E-4,-0E0,-7.911329E-3,-3.4628343E-3,3.186087E-3,8.689906E-3,-0E0,-2.6617595E-4,3.5702947E-3,9.624903E-3,-4.0332875E-3],"categories":[],"categories_nodes":[],"categories_segments":[],"categories_sizes":[],"default_left":[0,0,0,0,0,0,0,0,0,0,0,0,0,0,0,0,0,0,0,0,0,0,0,0,0,0,0,0,0,0,0,0,0,0,0,0,0,0,0,0,0,0,0,0,0,0,0,0,0,0,0,0,0,0,0,0,0,0,0,0,0,0,0,0,0,0,0,0,0,0,0,0,0,0,0,0,0,0,0,0,0,0,0,0,0,0,0,0,0,0,0,0,0,0,0,0,0,0,0,0,0,0,0,0,0,0,0,0,0,0,0,0,0,0,0,0,0,0,0,0,0,0,0,0,0,0,0,0,0,0,0,0,0,0,0,0,0,0,0,0,0,0,0,0,0,0,0,0,0,0,0,0,0,0,0,0,0,0,0,0,0,0,0,0,0,0,0,0,0,0,0,0,0,0,0,0,0,0,0,0,0,0,0,0,0,0,0,0,0,0,0,0,0,0,0,0,0,0,0,0,0,0,0,0,0,0,0,0,0,0,0,0,0,0,0,0,0,0,0,0,0,0,0,0,0,0,0,0,0,0,0,0,0,0,0,0,0,0,0,0,0,0,0,0,0,0,0,0,0,0,0,0,0,0,0,0,0,0,0,0,0,0,0,0,0,0,0,0,0,0,0,0,0,0,0,0,0,0,0,0,0,0,0,0,0,0,0,0,0,0,0,0,0,0,0,0,0,0,0,0,0,0,0,0,0,0,0,0,0,0,0,0,0,0,0,0,0,0,0,0,0,0,0,0,0,0,0,0,0,0,0,0,0,0,0,0,0,0,0,0,0,0,0,0,0,0,0,0,0,0,0,0,0,0,0,0,0,0,0,0,0,0,0,0,0,0,0,0,0,0,0,0,0,0,0,0,0,0,0,0,0,0,0,0,0,0,0,0,0,0,0,0,0,0,0,0,0,0,0,0,0,0,0,0,0,0,0,0,0,0,0,0,0,0,0,0,0,0,0,0,0,0,0,0,0,0,0,0,0,0,0,0,0,0,0,0,0,0,0,0,0,0,0,0,0,0,0,0,0,0,0,0,0,0,0,0,0,0,0,0,0,0,0,0,0,0,0,0,0,0,0,0,0,0,0,0,0,0,0,0,0,0,0,0,0,0,0,0,0,0,0,0,0,0,0,0,0,0,0,0,0,0,0,0,0,0,0,0,0,0,0,0,0,0,0,0,0,0,0,0,0,0,0,0,0,0,0,0,0,0,0,0,0,0,0,0,0,0,0,0,0,0,0,0,0,0,0,0,0,0,0,0,0,0,0,0,0,0,0,0,0,0,0,0,0,0,0,0,0,0,0,0,0,0,0,0,0,0,0,0,0,0,0,0,0,0,0,0,0,0,0,0,0,0,0,0,0,0,0,0,0,0,0,0,0,0,0,0,0,0,0],"id":2,"left_children":[1,3,5,7,9,11,13,15,17,19,21,23,25,27,29,31,33,35,37,39,41,43,45,47,49,51,53,55,57,59,61,63,65,67,69,71,73,75,77,79,81,83,85,87,89,91,93,95,97,99,101,103,-1,105,107,109,111,113,115,117,119,121,123,125,127,129,131,133,135,137,139,141,143,145,147,149,151,153,155,157,159,161,163,165,167,169,171,173,-1,-1,175,177,179,181,183,185,187,189,191,193,195,197,199,201,-1,203,205,207,-1,209,211,213,215,217,219,-1,-1,221,223,225,227,229,231,233,235,-1,237,239,241,243,245,247,249,251,253,255,257,-1,259,261,263,265,267,269,-1,271,-1,273,-1,-1,275,277,-1,279,-1,281,-1,283,285,287,289,291,293,295,297,299,301,303,305,307,309,311,313,-1,-1,315,-1,317,319,-1,-1,321,323,325,327,-1,329,331,333,335,337,339,341,-1,343,345,347,-1,349,351,-1,-1,353,-1,355,-1,-1,357,-1,359,361,363,-1,365,367,369,371,-1,373,375,-1,377,379,-1,381,383,385,387,389,391,-1,-1,-1,-1,-1,393,395,-1,397,399,-1,401,-1,403,405,407,409,-1,-1,-1,411,413,415,417,419,-1,-1,421,-1,423,-1,425,-1,-1,427,429,-1,-1,431,-1,433,435,-1,-1,437,439,-1,-1,441,-1,443,-1,-1,445,447,449,-1,451,453,455,-1,457,459,461,463,465,467,469,-1,471,473,475,477,479,481,-1,483,-1,485,487,489,-1,-1,491,493,-1,495,497,-1,499,501,-1,503,-1,505,507,-1,509,-1,511,-1,513,515,517,-1,519,521,523,-1,525,527,529,531,533,-1,535,537,539,541,-1,-1,-1,543,-1,545,-1,547,549,-1,551,553,555,557,-1,559,561,563,565,567,569,571,573,575,-1,-1,-1,577,579,581,-1,-1,583,-1,585,587,589,591,593,595,597,599,-1,601,603,605,607,609,-1,-1,-1,-1,-1,-1,-1,-1,-1,-1,-1,-1,-1,-1,-1,-1,-1,-1,-1,-1,-1,-1,-1,-1,-1,-1,-1,-1,-1,-1,-1,-1,-1,-1,-1,-1,-1,-1,-1,-1,-1,-1,-1,-1,-1,-1,-1,-1,-1,-1,-1,-1,-1,-1,-1,-1,-1,-1,-1,-1,-1,-1,-1,-1,-1,-1,-1,-1,-1,-1,-1,-1,-1,-1,-1,-1,-1,-1,-1,-1,-1,-1,-1,-1,-1,-1,-1,-1,-1,-1,-1,-1,-1,-1,-1,-1,-1,-1,-1,-1,-1,-1,-1,-1,-1,-1,-1,-1,-1,-1,-1,-1,-1,-1,-1,-1,-1,-1,-1,-1,-1,-1,-1,-1,-1,-1,-1,-1,-1,-1,-1,-1,-1,-1,-1,-1,-1,-1,-1,-1,-1,-1,-1,-1,-1,-1,-1,-1,-1,-1,-1,-1,-1,-1,-1,-1,-1,-1,-1,-1,-1,-1,-1,-1,-1,-1,-1,-1,-1,-1,-1,-1,-1,-1,-1,-1,-1,-1,-1,-1,-1,-1,-1,-1,-1,-1,-1,-1,-1,-1,-1,-1,-1,-1,-1,-1,-1,-1,-1,-1,-1,-1,-1,-1,-1,-1,-1,-1,-1,-1,-1,-1,-1,-1],"loss_changes":[2.3576468E1,1.3058969E1,1.2190435E1,4.425519E0,7.1774616E0,4.4410872E0,6.9620094E0,2.3091652E0,1.3700275E0,3.6221657E0,3.0501907E0,1.4347816E0,1.0992422E0,2.4846392E0,4.8706036E0,9.455347E-1,5.866165E-1,8.6303806E-1,2.3842296E-1,2.2505438E0,4.3661804E0,1.3171344E0,1.5148853E0,9.9308455E-1,1.215338E0,5.3665522E-2,5.245757E-1,2.3582063E0,1.6391585E0,2.1994524E0,3.5126495E0,1.3256946E0,9.0232885E-1,3.2825541E-1,1.5775608E-1,2.0655935E-1,5.643058E-1,2.1513048E-1,3.8196683E-2,2.9099083E-1,8.561169E-1,2.3268776E0,1.1238602E0,7.572519E-3,6.260395E-1,7.327863E-1,5.112811E-1,4.2536116E-1,9.7121507E-1,4.7774106E-1,3.3399284E-1,3.164383E-2,0E0,2.4353255E-1,2.3649311E-1,2.035309E0,1.9812449E0,2.2784986E0,1.5606321E-2,1.514945E0,1.8657796E0,8.95734E-1,3.8393059E0,9.4479465E-1,7.227487E-2,5.279266E-1,3.003093E-1,3.068428E-1,1.0808982E-1,9.8667055E-2,7.383068E-2,1.3463822E-2,1.5676922E-1,4.484315E-1,2.441256E-1,3.8434363E-3,2.0246008E-1,3.4982797E-2,3.584162E-4,2.2250167E-1,3.846197E-1,6.5491164E-1,2.81815E-1,1.0343399E0,6.554713E-1,2.4826059E-1,2.8799746E0,3.0752765E-3,0E0,0E0,2.937684E-1,3.0062854E-1,1.0971308E-2,3.650664E-1,1.8753144E-1,2.617116E-1,2.763134E-1,3.7879187E-1,4.8281264E-1,1.6643259E-1,9.3648E-2,1.674136E-2,3.536055E-1,5.084142E-3,0E0,1.2821147E-1,1.8994667E-2,2.1112537E-1,0E0,9.782007E-1,1.4400578E0,1.0392944E0,1.7262677E0,2.8016728E-3,9.1055536E-1,0E0,0E0,4.85724E-2,8.590865E-1,1.387243E0,8.6546826E-1,2.1654606E-1,7.751897E-2,2.5638604E0,2.8269672E0,0E0,7.8613615E-1,6.5925186E-3,1.0547665E-1,1.7783311E-1,3.5214192E-1,4.275918E-3,7.7501684E-2,3.129909E-1,3.279373E-1,7.0450436E-3,3.420821E-2,0E0,6.1171547E-2,1.1954024E-2,4.623106E-2,9.103523E-3,2.9575687E-2,5.7485282E-2,0E0,2.874713E-1,0E0,2.0258522E-1,0E0,0E0,3.2434582E-3,6.8312824E-2,0E0,2.937816E-2,0E0,6.1956323E-3,0E0,1.1187571E-1,2.8372474E-2,4.9084954E-2,5.6580544E-2,3.2875603E-1,3.2146585E-1,2.687386E-1,5.1205136E-2,1.2521935E0,6.098975E-1,2.9419756E-1,1.302486E-1,3.6419466E-2,1.8163843E-1,1.4507766E0,3.324553E-3,0E0,0E0,2.4357891E-1,0E0,4.6411753E-2,2.4600708E-1,0E0,0E0,3.241495E-1,6.70906E-4,6.631386E-2,7.762841E-2,0E0,2.2216082E-1,1.9195712E-1,1.1887702E-1,3.7797672E-1,2.7258605E-2,4.960475E-1,5.163316E-1,0E0,7.585895E-2,4.538915E-2,1.1841279E-1,0E0,2.5723893E-3,1.742673E-2,0E0,0E0,3.5483763E-3,0E0,9.631032E-2,0E0,0E0,1.1625099E-1,0E0,6.7824125E-1,1.800753E-1,8.203597E-1,0E0,1.251651E0,7.7084124E-1,2.828176E-1,2.4513183E0,0E0,3.0508195E-3,9.1232395E-1,0E0,3.226544E-2,2.2845328E-2,0E0,5.020437E-1,1.2009469E0,5.8653116E-1,1.0670972E-1,7.437389E-1,1.5984869E-1,0E0,0E0,0E0,0E0,0E0,3.7517624E0,3.8496418E0,0E0,5.037756E-1,4.971428E-4,0E0,5.2479565E-2,0E0,1.4752653E-1,3.5597313E-2,4.3016255E-1,1.4076318E-1,0E0,0E0,0E0,2.5523439E-2,7.516428E-2,1.9799948E-1,1.3923767E-1,1.3189068E-1,0E0,0E0,3.2570317E-2,0E0,6.572962E-2,0E0,1.0628988E-2,0E0,0E0,4.0740892E-2,5.1915385E-3,0E0,0E0,2.7836595E-2,0E0,4.2336464E-2,2.3791742E-1,0E0,0E0,2.0081544E-1,7.3284097E-4,0E0,0E0,7.6052666E-2,0E0,1.7270371E-2,0E0,0E0,3.3794066E-3,4.1660547E-2,1.3298646E-2,0E0,1.7800324E-2,1.2707738E-3,5.4995537E-2,0E0,2.4991873E-1,2.203393E-1,6.845892E-4,1.6833246E-1,2.569461E-1,1.9842643E-2,3.066942E-3,0E0,1.9096708E-1,7.0604324E-1,6.1321044E-1,7.5875306E-1,1.2922567E-1,1.798632E-1,0E0,1.4882135E-1,0E0,1.9582808E-2,3.9252676E-2,2.2050042E-1,0E0,0E0,1.316264E-3,3.0654976E-3,0E0,1.5053129E-1,2.5724083E-2,0E0,9.2461936E-2,6.964442E-2,0E0,9.993887E-2,0E0,8.7998975E-3,1.4212206E-2,0E0,7.710963E-2,0E0,2.025466E-1,0E0,1.1024991E-1,1.4103994E-2,1.2594771E-1,0E0,8.782316E-3,4.5909476E-1,4.689535E-3,0E0,5.6106997E-1,2.2142684E-1,3.3965603E-1,4.5333523E-1,6.5230966E-2,0E0,3.927359E-5,5.194408E-2,7.9148234E-4,8.78254E-2,0E0,0E0,0E0,1.8560648E-2,0E0,3.9944127E-3,0E0,2.8460085E-2,1.1152077E-1,0E0,3.4177446E-1,5.631919E-1,1.5087192E-1,1.3873054E-1,0E0,7.35044E-1,3.9630637E-1,4.079287E-1,4.8021376E-1,8.378846E-3,1.5678224E-1,4.0942597E-1,2.066128E0,1.5661602E0,0E0,0E0,0E0,7.5094414E-1,2.5237442E-3,1.6429529E-2,0E0,0E0,2.814374E-1,0E0,7.685683E-1,9.989561E-1,3.4008658E-1,2.7046943E-1,3.6209226E-2,1.2435689E-2,3.213939E-1,6.325941E-1,0E0,7.2770834E-2,1.1353713E0,3.7482872E0,2.146257E0,2.1291304E0,0E0,0E0,0E0,0E0,0E0,0E0,0E0,0E0,0E0,0E0,0E0,0E0,0E0,0E0,0E0,0E0,0E0,0E0,0E0,0E0,0E0,0E0,0E0,0E0,0E0,0E0,0E0,0E0,0E0,0E0,0E0,0E0,0E0,0E0,0E0,0E0,0E0,0E0,0E0,0E0,0E0,0E0,0E0,0E0,0E0,0E0,0E0,0E0,0E0,0E0,0E0,0E0,0E0,0E0,0E0,0E0,0E0,0E0,0E0,0E0,0E0,0E0,0E0,0E0,0E0,0E0,0E0,0E0,0E0,0E0,0E0,0E0,0E0,0E0,0E0,0E0,0E0,0E0,0E0,0E0,0E0,0E0,0E0,0E0,0E0,0E0,0E0,0E0,0E0,0E0,0E0,0E0,0E0,0E0,0E0,0E0,0E0,0E0,0E0,0E0,0E0,0E0,0E0,0E0,0E0,0E0,0E0,0E0,0E0,0E0,0E0,0E0,0E0,0E0,0E0,0E0,0E0,0E0,0E0,0E0,0E0,0E0,0E0,0E0,0E0,0E0,0E0,0E0,0E0,0E0,0E0,0E0,0E0,0E0,0E0,0E0,0E0,0E0,0E0,0E0,0E0,0E0,0E0,0E0,0E0,0E0,0E0,0E0,0E0,0E0,0E0,0E0,0E0,0E0,0E0,0E0,0E0,0E0,0E0,0E0,0E0,0E0,0E0,0E0,0E0,0E0,0E0,0E0,0E0,0E0,0E0,0E0,0E0,0E0,0E0,0E0,0E0,0E0,0E0,0E0,0E0,0E0,0E0,0E0,0E0,0E0,0E0,0E0,0E0,0E0,0E0,0E0,0E0,0E0,0E0,0E0,0E0,0E0,0E0,0E0,0E0,0E0,0E0,0E0,0E0,0E0,0E0,0E0,0E0,0E0,0E0,0E0,0E0,0E0],"parents":[2147483647,0,0,1,1,2,2,3,3,4,4,5,5,6,6,7,7,8,8,9,9,10,10,11,11,12,12,13,13,14,14,15,15,16,16,17,17,18,18,19,19,20,20,21,21,22,22,23,23,24,24,25,25,26,26,27,27,28,28,29,29,30,30,31,31,32,32,33,33,34,34,35,35,36,36,37,37,38,38,39,39,40,40,41,41,42,42,43,43,44,44,45,45,46,46,47,47,48,48,49,49,50,50,51,51,53,53,54,54,55,55,56,56,57,57,58,58,59,59,60,60,61,61,62,62,63,63,64,64,65,65,66,66,67,67,68,68,69,69,70,70,71,71,72,72,73,73,74,74,75,75,76,76,77,77,78,78,79,79,80,80,81,81,82,82,83,83,84,84,85,85,86,86,87,87,90,90,91,91,92,92,93,93,94,94,95,95,96,96,97,97,98,98,99,99,100,100,101,101,102,102,103,103,105,105,106,106,107,107,109,109,110,110,111,111,112,112,113,113,114,114,117,117,118,118,119,119,120,120,121,121,122,122,123,123,124,124,126,126,127,127,128,128,129,129,130,130,131,131,132,132,133,133,134,134,135,135,136,136,138,138,139,139,140,140,141,141,142,142,143,143,145,145,147,147,150,150,151,151,153,153,155,155,157,157,158,158,159,159,160,160,161,161,162,162,163,163,164,164,165,165,166,166,167,167,168,168,169,169,170,170,171,171,172,172,175,175,177,177,178,178,181,181,182,182,183,183,184,184,186,186,187,187,188,188,189,189,190,190,191,191,192,192,194,194,195,195,196,196,198,198,199,199,202,202,204,204,207,207,209,209,210,210,211,211,213,213,214,214,215,215,216,216,218,218,219,219,221,221,222,222,224,224,225,225,226,226,227,227,228,228,229,229,235,235,236,236,238,238,239,239,241,241,243,243,244,244,245,245,246,246,250,250,251,251,252,252,253,253,254,254,257,257,259,259,261,261,264,264,265,265,268,268,270,270,271,271,274,274,275,275,278,278,280,280,283,283,284,284,285,285,287,287,288,288,289,289,291,291,292,292,293,293,294,294,295,295,296,296,297,297,299,299,300,300,301,301,302,302,303,303,304,304,306,306,308,308,309,309,310,310,313,313,314,314,316,316,317,317,319,319,320,320,322,322,324,324,325,325,327,327,329,329,331,331,332,332,333,333,335,335,336,336,337,337,339,339,340,340,341,341,342,342,343,343,345,345,346,346,347,347,348,348,352,352,354,354,356,356,357,357,359,359,360,360,361,361,362,362,364,364,365,365,366,366,367,367,368,368,369,369,370,370,371,371,372,372,376,376,377,377,378,378,381,381,383,383,384,384,385,385,386,386,387,387,388,388,389,389,390,390,392,392,393,393,394,394,395,395,396,396],"right_children":[2,4,6,8,10,12,14,16,18,20,22,24,26,28,30,32,34,36,38,40,42,44,46,48,50,52,54,56,58,60,62,64,66,68,70,72,74,76,78,80,82,84,86,88,90,92,94,96,98,100,102,104,-1,106,108,110,112,114,116,118,120,122,124,126,128,130,132,134,136,138,140,142,144,146,148,150,152,154,156,158,160,162,164,166,168,170,172,174,-1,-1,176,178,180,182,184,186,188,190,192,194,196,198,200,202,-1,204,206,208,-1,210,212,214,216,218,220,-1,-1,222,224,226,228,230,232,234,236,-1,238,240,242,244,246,248,250,252,254,256,258,-1,260,262,264,266,268,270,-1,272,-1,274,-1,-1,276,278,-1,280,-1,282,-1,284,286,288,290,292,294,296,298,300,302,304,306,308,310,312,314,-1,-1,316,-1,318,320,-1,-1,322,324,326,328,-1,330,332,334,336,338,340,342,-1,344,346,348,-1,350,352,-1,-1,354,-1,356,-1,-1,358,-1,360,362,364,-1,366,368,370,372,-1,374,376,-1,378,380,-1,382,384,386,388,390,392,-1,-1,-1,-1,-1,394,396,-1,398,400,-1,402,-1,404,406,408,410,-1,-1,-1,412,414,416,418,420,-1,-1,422,-1,424,-1,426,-1,-1,428,430,-1,-1,432,-1,434,436,-1,-1,438,440,-1,-1,442,-1,444,-1,-1,446,448,450,-1,452,454,456,-1,458,460,462,464,466,468,470,-1,472,474,476,478,480,482,-1,484,-1,486,488,490,-1,-1,492,494,-1,496,498,-1,500,502,-1,504,-1,506,508,-1,510,-1,512,-1,514,516,518,-1,520,522,524,-1,526,528,530,532,534,-1,536,538,540,542,-1,-1,-1,544,-1,546,-1,548,550,-1,552,554,556,558,-1,560,562,564,566,568,570,572,574,576,-1,-1,-1,578,580,582,-1,-1,584,-1,586,588,590,592,594,596,598,600,-1,602,604,606,608,610,-1,-1,-1,-1,-1,-1,-1,-1,-1,-1,-1,-1,-1,-1,-1,-1,-1,-1,-1,-1,-1,-1,-1,-1,-1,-1,-1,-1,-1,-1,-1,-1,-1,-1,-1,-1,-1,-1,-1,-1,-1,-1,-1,-1,-1,-1,-1,-1,-1,-1,-1,-1,-1,-1,-1,-1,-1,-1,-1,-1,-1,-1,-1,-1,-1,-1,-1,-1,-1,-1,-1,-1,-1,-1,-1,-1,-1,-1,-1,-1,-1,-1,-1,-1,-1,-1,-1,-1,-1,-1,-1,-1,-1,-1,-1,-1,-1,-1,-1,-1,-1,-1,-1,-1,-1,-1,-1,-1,-1,-1,-1,-1,-1,-1,-1,-1,-1,-1,-1,-1,-1,-1,-1,-1,-1,-1,-1,-1,-1,-1,-1,-1,-1,-1,-1,-1,-1,-1,-1,-1,-1,-1,-1,-1,-1,-1,-1,-1,-1,-1,-1,-1,-1,-1,-1,-1,-1,-1,-1,-1,-1,-1,-1,-1,-1,-1,-1,-1,-1,-1,-1,-1,-1,-1,-1,-1,-1,-1,-1,-1,-1,-1,-1,-1,-1,-1,-1,-1,-1,-1,-1,-1,-1,-1,-1,-1,-1,-1,-1,-1,-1,-1,-1,-1,-1,-1,-1,-1,-1,-1,-1,-1,-1,-1],"split_conditions":[-2.5261304E-1,-7.006832E-2,-2.1212386E-1,-7.74887E-2,3.9050108E-1,2.0126824E-1,-1.5163729E-1,-4.5742072E-2,-3.6956686E-1,-1.6182731E-1,-1.9190124E-1,4.2514876E-2,-1.215277E-1,1.8999338E0,-2.9233015E-1,-3.3854768E-1,-1.2433188E-1,-3.799332E-1,-6.485063E-1,-8.485415E-1,-5.902267E-2,-1.107748E-1,-1.2709473E-1,-6.998054E-1,6.526659E-2,1.3698554E0,-2.8389737E-2,-7.13653E-2,4.532033E0,-9.0402323E-1,-4.4326878E-1,-3.5253927E-2,1.0205099E-2,-6.1216563E-2,-3.007362E-1,-7.6814115E-2,-3.0598226E-1,-5.4303557E-1,-5.1479455E-2,-1.1357056E0,2.6925522E-1,4.009011E-1,-1.8818358E-2,-2.7769312E-2,-1.0372896E0,4.071135E-1,-6.1054613E-2,3.8029772E-1,-8.3101906E-2,7.4279386E-1,2.424565E-1,-2.873685E-2,-0E0,1.3981996E0,-1.5740015E-1,3.538243E-1,-4.9961087E-1,1.3215985E0,-1.37521E0,-3.7494287E-1,-2.0049258E-1,3.7345257E-1,-2.154317E-1,-7.6279545E-1,-2.5382918E-1,-8.313483E-1,-1.5609752E-1,-1.5219204E-1,-1.9278426E-1,-4.6721303E-1,-8.669868E-1,-5.604568E-1,-1.1587149E-1,-2.3055905E-1,-1.10694975E-1,-2.7376065E-1,4.8227683E-2,-1.2066925E-1,-2.0033804E-1,-3.912086E-1,-2.1393825E-1,-1.625289E-1,-9.2933744E-2,-1.3260019E-1,1.281465E-1,-8.0766714E-1,-4.080654E-2,-3.3555263E-1,-0E0,-0E0,-9.099233E-2,-2.545541E-1,1.274334E0,-8.321323E-2,-2.6907903E-1,-2.5324515E-1,-8.177071E-2,2.8046066E-1,-2.1372183E-1,-2.0623149E-1,-9.259862E-2,3.0509236E-1,5.307254E-1,-6.5647304E-2,-0E0,-7.847872E-1,-3.1439018E-2,-2.1669413E-1,-0E0,-3.24214E-2,-1.2998953E-1,1.2769091E0,-3.8645718E-1,1.274334E0,2.8107682E-1,-0E0,-1.9864491E-3,-3.2048875E-1,-1.819877E-1,3.2405484E-1,-9.4165623E-1,8.2451576E-1,1.0706541E-1,-1.17661245E-1,-2.819511E-2,-0E0,-2.0738052E-1,-3.4934434E-1,-1.9938056E-1,1.8037982E-1,-5.884825E-1,-1.0697954E0,3.5948936E-2,-2.5108132E-1,-3.67541E-2,-6.2403392E-2,5.6912243E-1,-0E0,-5.693846E-1,-1.0824644E-1,-3.4244916E-1,-1.0371178E0,-3.0144173E-1,-3.6771394E-2,-0E0,-9.646576E-2,-0E0,-4.390894E-1,-0E0,-0E0,-2.3057938E-1,-2.7221814E-1,-0E0,-1.7199147E0,-0E0,-4.7644332E-1,-0E0,-5.3429556E-1,-1.9294041E-1,-5.250977E-1,1.1855204E0,-3.741277E-1,-8.540606E-1,-1.4800274E-1,-2.3571588E-1,-1.3803935E-1,-2.7302993E-3,-1.9839045E-1,-2.531649E-1,-2.7201357E-1,-4.561194E-2,-5.686725E-1,-9.257499E-3,-0E0,-1.4309622E-3,-6.6728376E-2,-0E0,7.8926736E-1,-1.4244199E-1,-1.1607345E-2,-0E0,-1.2955534E-1,-3.067145E-2,-3.2713484E-2,1.0669149E0,-0E0,-4.0068414E-2,-2.191882E-1,1.4435587E0,-9.2781514E-2,-1.4978403E-1,-3.813537E-2,2.3223175E-1,-0E0,5.266693E-1,-8.566812E-2,-4.5276493E-2,-0E0,6.13777E-1,-8.4056556E-2,-0E0,-0E0,-4.1923374E-1,-0E0,-3.675797E-2,-0E0,2.4436906E-3,1.95847E0,-0E0,-2.5454584E-1,-5.3886756E-2,-3.4870553E-1,-0E0,-2.5000402E-1,-8.764057E-2,-1.8901762E-1,-1.3233239E-3,-0E0,1.1787182E0,2.2096536E0,-0E0,-6.622292E-1,1.0622654E0,-0E0,-1.9800298E-1,-2.5844383E-1,-3.6756493E-2,2.076834E-1,-1.5284146E-1,-4.2401645E-1,-0E0,7.7857994E-3,-0E0,-0E0,4.0331014E-2,-1.16138935E-1,8.0704033E-1,-0E0,-9.571893E-2,-1.0201489E-1,-0E0,-2.0259018E-1,-0E0,-1.4103334E-1,-2.7875843E-2,-1.2781036E-1,-5.7407635E-1,-0E0,1.7743878E-2,-0E0,6.720179E-2,1.4780153E-1,-3.2097465E-1,-1.4415467E-1,-6.9704026E-1,-0E0,-1.1639657E-3,3.0280504E-1,-0E0,-1.0028327E-1,-0E0,-5.844099E-1,-0E0,-0E0,-2.4186671E-1,-9.3817693E-1,-0E0,-0E0,-1.20338686E-1,-0E0,-1.1442567E-1,-1.11728914E-1,3.149053E-2,-0E0,-3.3469614E-1,-2.7037252E-2,-0E0,-0E0,-5.4567504E-1,-0E0,-7.522899E-2,-0E0,1.2800439E-3,-1.9323258E-1,-2.0736068E-1,-1.8226916E-1,-0E0,-3.0955735E-1,-1.5795162E-1,-2.6638854E-1,-0E0,-3.504533E-2,-2.4396582E-1,-1.975766E-1,6.970108E-2,-5.524219E-1,2.0187968E-1,3.053903E-1,-0E0,-1.9767982E-1,-6.412723E-1,-1.6690941E-1,-1.3629535E-1,-1.3687932E-1,8.701503E-2,-0E0,2.0670177E-1,-0E0,3.3103168E-2,-4.3739818E-2,2.0998852E-1,3.968253E-2,-0E0,1.935399E0,1.6288124E-2,-0E0,-3.2898507E-1,-6.48264E-2,-0E0,-2.1404053E-1,-3.726197E-1,-0E0,4.3805993E-1,-0E0,-1.5251727E-1,9.5603514E-1,-0E0,-3.2197905E-1,-0E0,-3.385541E-1,-0E0,-1.0231889E-1,-2.1372183E-1,-7.725013E-1,-0E0,-3.818196E-2,7.865423E-1,-2.535474E-1,-0E0,-2.4420848E-1,-3.0281752E-1,1.1727484E0,-1.360296E-1,-1.556906E0,-0E0,-8.899321E-2,-7.2863245E-1,2.407132E0,1.9769683E0,2.1973704E-3,-0E0,-0E0,-3.0796388E-2,-0E0,6.523299E-1,-0E0,-2.20428E0,2.0680714E0,-0E0,-8.640903E-1,1.2100487E0,-1.7498174E-1,3.6306283E-1,-0E0,2.7465594E-1,-2.600726E-2,6.048929E-1,-3.6767937E-2,-1.103433E-1,-7.8355336E-1,-4.1585368E-1,-1.4333121E-1,-1.602727E-3,-1.2095963E-3,-0E0,-0E0,-5.5518824E-1,-3.8934472E-1,-4.6385422E-1,5.3462884E-3,-0E0,-6.900065E-2,-0E0,-6.109829E-1,2.474192E-1,2.3922173E-2,-4.197607E-3,-6.306822E-2,-2.6078755E-1,-1.0875054E-1,2.1939869E-1,-0E0,-2.839502E-1,-3.3856714E-1,-4.174303E-3,-1.2104669E-1,1.6176577E0,2.9033432E-2,-0E0,-0E0,-1.1563393E-3,-0E0,7.223272E-3,-5.0020963E-3,-0E0,8.1056805E-4,-1.5648528E-3,-0E0,4.9088807E-3,-1.6874701E-3,1.2010935E-3,-0E0,5.2115447E-3,-2.0366672E-3,-0E0,-0E0,-5.4958393E-3,-5.986101E-4,-3.788219E-3,6.4508603E-3,-0E0,6.066307E-3,-0E0,5.921932E-3,-0E0,-0E0,1.4276232E-3,-2.5059602E-3,-0E0,-0E0,-1.733719E-3,-0E0,3.085351E-3,6.5938965E-3,-0E0,1.1442786E-2,-0E0,-0E0,7.151216E-3,-1.0723624E-3,-0E0,-0E0,6.083629E-3,-2.682938E-3,-0E0,-0E0,-6.196963E-4,-0E0,-4.6831938E-3,3.0614154E-3,-0E0,-0E0,-2.8373073E-3,-0E0,4.763653E-4,-0E0,-7.2598197E-3,-3.2189365E-3,2.9697127E-4,9.083803E-4,-2.5786434E-3,-0E0,3.3778427E-4,-5.603164E-3,-0E0,-0E0,5.5934116E-3,-8.027527E-4,1.7024147E-3,-0E0,-4.8642005E-3,-0E0,-5.0512245E-3,1.8057767E-3,-8.544876E-3,-1.4074508E-3,-7.6480038E-3,6.365072E-3,-4.127525E-3,9.508563E-3,-0E0,-2.2609406E-3,2.826786E-3,-0E0,-7.431944E-3,-5.546612E-3,-0E0,-0E0,-3.4038795E-3,4.5868717E-3,-2.188036E-4,9.057265E-4,-0E0,-0E0,-7.455113E-4,-0E0,1.5053316E-2,-0E0,-3.4504377E-3,8.9010096E-4,-3.429512E-3,-0E0,8.419643E-3,9.032407E-3,-0E0,-1.5387336E-3,-0E0,-6.485862E-3,-0E0,-0E0,5.408668E-3,-0E0,-7.6962854E-3,6.783814E-3,-0E0,-0E0,-1.7142752E-3,-0E0,-4.875221E-3,1.1246948E-3,-5.820879E-4,9.553973E-3,-0E0,-0E0,-2.1406326E-3,3.556552E-3,-2.2539578E-3,-0E0,-6.107543E-3,-1.2225535E-3,2.8671734E-3,6.384895E-3,-1.4722759E-4,-0E0,9.653767E-3,-9.04544E-5,-0E0,4.369218E-3,-0E0,4.688883E-4,-0E0,-4.3219505E-3,-0E0,-0E0,1.7858071E-2,-0E0,4.0562754E-3,-0E0,-7.642486E-3,-1.1219083E-2,-0E0,-2.0666677E-3,2.8503432E-3,6.0039535E-3,-0E0,2.7123536E-3,-0E0,-3.237484E-3,-0E0,2.8376132E-2,-0E0,-0E0,9.018372E-3,-4.9277204E-3,8.116114E-4,-0E0,1.6059523E-2,-0E0,-2.4930732E-3,-0E0,6.75731E-3,-6.755105E-4,-4.5479108E-3,5.3742263E-3,-0E0,-3.7108285E-3,8.2152913E-4,-0E0,3.0391535E-2,5.616654E-4,-0E0,-0E0,-1.8409444E-3,1.9865178E-3,1.352633E-2,-0E0,1.468866E-2,-1.980671E-3,5.6793233E-3,-3.8861725E-3,4.103273E-3,-8.483638E-3,-0E0,-3.608488E-3,-0E0,1.8509905E-3,-1.05032734E-4,5.1616533E-3,-2.0243069E-4,5.543124E-3,-6.436995E-4,-0E0,-7.911329E-3,-3.4628343E-3,3.186087E-3,8.689906E-3,-0E0,-2.6617595E-4,3.5702947E-3,9.624903E-3,-4.0332875E-3],"split_indices":[102,79,59,33,110,63,15,88,8,71,21,69,4,75,117,115,33,25,104,8,106,9,70,5,46,96,42,79,82,4,84,67,3,124,115,69,49,121,46,9,65,23,55,42,5,51,121,103,79,111,74,55,0,8,70,124,110,59,1,81,93,109,89,4,30,104,2,70,75,100,7,25,101,75,106,35,45,60,92,94,61,82,75,10,12,111,105,6,0,0,101,52,8,124,44,50,30,131,108,15,7,9,123,105,0,6,42,59,0,101,80,77,51,8,22,0,0,117,59,86,41,10,47,70,42,0,84,115,32,27,8,11,54,50,133,105,5,0,76,17,71,0,50,133,0,124,0,109,0,0,82,45,0,27,0,36,0,109,46,10,0,102,41,82,9,36,70,32,11,30,88,10,63,0,0,79,0,6,100,0,0,81,55,79,11,0,79,32,8,109,92,76,65,0,83,98,88,0,11,119,0,0,16,0,133,0,0,12,0,45,34,60,0,73,14,59,75,0,2,5,0,12,0,0,93,32,133,92,18,67,0,0,0,0,0,124,74,0,18,22,0,33,0,33,42,70,10,0,0,0,3,126,115,131,117,0,0,2,0,124,0,10,0,0,103,7,0,0,124,0,108,98,0,0,82,0,0,0,122,0,10,0,0,59,34,6,0,22,33,37,0,67,100,69,36,8,121,3,0,70,23,69,128,47,17,0,4,0,74,79,124,0,0,14,4,0,33,97,0,30,12,0,83,0,101,5,0,100,0,71,0,44,108,77,0,84,7,28,0,82,45,100,33,77,0,15,3,8,73,0,0,0,55,0,8,0,12,109,0,4,122,33,126,0,9,33,95,133,2,54,64,80,81,0,0,0,11,73,10,0,0,112,0,9,50,60,100,43,44,113,12,0,108,83,89,100,123,0,0,0,0,0,0,0,0,0,0,0,0,0,0,0,0,0,0,0,0,0,0,0,0,0,0,0,0,0,0,0,0,0,0,0,0,0,0,0,0,0,0,0,0,0,0,0,0,0,0,0,0,0,0,0,0,0,0,0,0,0,0,0,0,0,0,0,0,0,0,0,0,0,0,0,0,0,0,0,0,0,0,0,0,0,0,0,0,0,0,0,0,0,0,0,0,0,0,0,0,0,0,0,0,0,0,0,0,0,0,0,0,0,0,0,0,0,0,0,0,0,0,0,0,0,0,0,0,0,0,0,0,0,0,0,0,0,0,0,0,0,0,0,0,0,0,0,0,0,0,0,0,0,0,0,0,0,0,0,0,0,0,0,0,0,0,0,0,0,0,0,0,0,0,0,0,0,0,0,0,0,0,0,0,0,0,0,0,0,0,0,0,0,0,0,0,0,0,0,0,0,0,0,0,0,0,0,0,0,0,0,0,0,0],"split_type":[0,0,0,0,0,0,0,0,0,0,0,0,0,0,0,0,0,0,0,0,0,0,0,0,0,0,0,0,0,0,0,0,0,0,0,0,0,0,0,0,0,0,0,0,0,0,0,0,0,0,0,0,0,0,0,0,0,0,0,0,0,0,0,0,0,0,0,0,0,0,0,0,0,0,0,0,0,0,0,0,0,0,0,0,0,0,0,0,0,0,0,0,0,0,0,0,0,0,0,0,0,0,0,0,0,0,0,0,0,0,0,0,0,0,0,0,0,0,0,0,0,0,0,0,0,0,0,0,0,0,0,0,0,0,0,0,0,0,0,0,0,0,0,0,0,0,0,0,0,0,0,0,0,0,0,0,0,0,0,0,0,0,0,0,0,0,0,0,0,0,0,0,0,0,0,0,0,0,0,0,0,0,0,0,0,0,0,0,0,0,0,0,0,0,0,0,0,0,0,0,0,0,0,0,0,0,0,0,0,0,0,0,0,0,0,0,0,0,0,0,0,0,0,0,0,0,0,0,0,0,0,0,0,0,0,0,0,0,0,0,0,0,0,0,0,0,0,0,0,0,0,0,0,0,0,0,0,0,0,0,0,0,0,0,0,0,0,0,0,0,0,0,0,0,0,0,0,0,0,0,0,0,0,0,0,0,0,0,0,0,0,0,0,0,0,0,0,0,0,0,0,0,0,0,0,0,0,0,0,0,0,0,0,0,0,0,0,0,0,0,0,0,0,0,0,0,0,0,0,0,0,0,0,0,0,0,0,0,0,0,0,0,0,0,0,0,0,0,0,0,0,0,0,0,0,0,0,0,0,0,0,0,0,0,0,0,0,0,0,0,0,0,0,0,0,0,0,0,0,0,0,0,0,0,0,0,0,0,0,0,0,0,0,0,0,0,0,0,0,0,0,0,0,0,0,0,0,0,0,0,0,0,0,0,0,0,0,0,0,0,0,0,0,0,0,0,0,0,0,0,0,0,0,0,0,0,0,0,0,0,0,0,0,0,0,0,0,0,0,0,0,0,0,0,0,0,0,0,0,0,0,0,0,0,0,0,0,0,0,0,0,0,0,0,0,0,0,0,0,0,0,0,0,0,0,0,0,0,0,0,0,0,0,0,0,0,0,0,0,0,0,0,0,0,0,0,0,0,0,0,0,0,0,0,0,0,0,0,0,0,0,0,0,0,0,0,0,0,0,0,0,0,0,0,0,0,0,0,0,0,0,0,0,0,0,0,0,0,0,0,0,0,0,0,0,0,0,0,0,0,0,0,0,0,0,0,0,0,0,0,0,0,0,0,0,0,0,0,0,0,0,0,0,0,0,0,0,0,0,0,0,0,0,0,0,0,0,0,0,0,0,0,0,0,0,0,0,0,0,0,0],"sum_hessian":[1.6473E4,6.054E3,1.0419E4,2.058E3,3.996E3,2.161E3,8.258E3,1.47E3,5.88E2,3.575E3,4.21E2,1.898E3,2.63E2,3.355E3,4.903E3,5.84E2,8.86E2,3.95E2,1.93E2,1.34E3,2.235E3,1.01E2,3.2E2,1.729E3,1.69E2,2.5E1,2.38E2,3.302E3,5.3E1,1.363E3,3.54E3,6.9E1,5.15E2,6.99E2,1.87E2,1.18E2,2.77E2,1.05E2,8.8E1,4.77E2,8.63E2,2.085E3,1.5E2,2.1E1,8E1,1.84E2,1.36E2,2.67E2,1.462E3,1.32E2,3.7E1,1.9E1,6E0,4.8E1,1.9E2,7.08E2,2.594E3,4E1,1.3E1,1.93E2,1.17E3,1.03E2,3.437E3,2.8E1,4.1E1,4.77E2,3.8E1,6.55E2,4.4E1,4.2E1,1.45E2,6.8E1,5E1,6.2E1,2.15E2,3E1,7.5E1,6.2E1,2.6E1,1.42E2,3.35E2,6.99E2,1.64E2,1.966E3,1.19E2,1.12E2,3.8E1,1.7E1,4E0,3E0,7.7E1,1.59E2,2.5E1,8.9E1,4.7E1,1.67E2,1E2,1.2E2,1.342E3,3.5E1,9.7E1,1.2E1,2.5E1,1.6E1,3E0,3.3E1,1.5E1,1.83E2,7E0,6.77E2,3.1E1,5.93E2,2.001E3,1.1E1,2.9E1,2E0,1.1E1,7.1E1,1.22E2,6E2,5.7E2,8.8E1,1.5E1,1.7E1,3.42E3,6E0,2.2E1,2.1E1,2E1,1.62E2,3.15E2,9E0,2.9E1,4.08E2,2.47E2,3.1E1,1.3E1,8E0,3.4E1,5.5E1,9E1,2.5E1,4.3E1,4.6E1,4E0,5.9E1,3E0,2.03E2,1.2E1,1.1E1,1.9E1,6.4E1,1.1E1,5.5E1,7E0,1.3E1,1.3E1,1.27E2,1.5E1,4.7E1,2.88E2,4.99E2,2E2,1.5E2,1.4E1,1.688E3,2.78E2,8.2E1,3.7E1,2.6E1,8.6E1,1E1,2.8E1,6E0,1.1E1,7.4E1,3E0,1.18E2,4.1E1,2.4E1,1E0,7.1E1,1.8E1,1.7E1,3E1,1.3E1,1.54E2,3.3E1,6.7E1,9.2E1,2.8E1,4.54E2,8.88E2,3E0,3.2E1,3.2E1,6.5E1,3E0,9E0,2.3E1,2E0,1E0,1.5E1,2E0,3.1E1,9E0,6E0,1.8E2,3E0,4.22E2,2.55E2,2.4E1,7E0,5.68E2,2.5E1,3.9E2,1.611E3,2E0,9E0,2.6E1,3E0,6.6E1,5E0,1.6E1,1.06E2,4.33E2,1.67E2,8.5E1,4.85E2,8.2E1,6E0,8E0,7E0,6E0,1.1E1,1.492E3,1.928E3,7E0,1.5E1,1.4E1,7E0,1.2E1,8E0,9.6E1,6.6E1,1.52E2,1.63E2,1E0,8E0,8E0,2.1E1,1.05E2,3.03E2,2.23E2,2.4E1,2E1,1.1E1,1.1E1,2E0,2.8E1,6E0,3.3E1,2.2E1,1.3E1,7.7E1,1.7E1,8E0,1.3E1,3E1,5E0,4.1E1,5.5E1,4E0,1.7E1,1.86E2,1.6E1,3E0,6E0,5.8E1,4E0,5.1E1,5E0,8E0,3.4E1,9.3E1,1.1E1,4E0,2.8E1,1.9E1,2.87E2,1E0,2.04E2,2.95E2,2.5E1,1.75E2,1.05E2,4.5E1,1.1E1,3E0,4.25E2,1.263E3,2.12E2,6.6E1,2E1,6.2E1,3E0,3.4E1,2E0,2.4E1,2.9E1,5.7E1,7E0,3E0,1.4E1,1.4E1,4E0,7E1,1.1E2,8E0,2.6E1,1.5E1,8E0,6.3E1,7E0,1.1E1,1.3E1,4E0,2E1,1E1,1.44E2,1E1,2E1,1.3E1,5.7E1,1E1,2.8E1,6.4E1,1.7E1,1.1E1,3.28E2,1.26E2,8.13E2,7.5E1,2.5E1,7E0,1.3E1,1.9E1,1E1,5.5E1,8E0,1E0,3E0,2E1,1E0,1.4E1,5E0,2.6E1,1.79E2,1E0,1.31E2,2.91E2,1.61E2,9.4E1,4E0,2E1,1.27E2,4.41E2,1.7E1,8E0,3.7E1,3.53E2,7.48E2,8.63E2,8E0,1E0,2E0,2.4E1,2.2E1,4.4E1,4E0,1E0,9.6E1,1E1,3E1,4.03E2,5E1,1.17E2,5.7E1,2.8E1,1.95E2,2.9E2,4E0,7.8E1,3.07E2,1.185E3,1.605E3,3.23E2,1.3E1,2E0,1E0,1.3E1,3E0,9E0,5.7E1,3.9E1,4.4E1,2.2E1,4.5E1,1.07E2,7.7E1,8.6E1,4E0,1.7E1,7.5E1,3E1,3.2E1,2.71E2,1.26E2,9.7E1,1.2E1,1.2E1,1E1,1E0,2.4E1,4E0,6E0,2.7E1,6.9E1,8E0,2E0,1.5E1,1.5E1,1.5E1,3.5E1,6E0,5.1E1,4E0,5E0,1.81E2,1.5E1,1E0,5E0,5.3E1,4.8E1,3E0,1.4E1,2E1,1E0,9.2E1,1E1,1E0,5E0,2.3E1,7E0,1.2E1,2E0,2.85E2,1.67E2,3.7E1,2.44E2,5.1E1,1.2E1,1.3E1,1.59E2,1.6E1,2.6E1,7.9E1,3.9E1,6E0,1E0,1E1,7E0,4.18E2,8E0,1.255E3,9.5E1,1.17E2,2.8E1,3.8E1,1.6E1,4E0,2.5E1,3.7E1,4E0,3E1,2.2E1,2E0,1.5E1,1.4E1,4.3E1,1.4E1,1.2E1,2E0,2E0,1.2E1,2E0,6.8E1,2E0,1.08E2,9E0,1.7E1,5E0,1E1,5.9E1,4E0,8E0,3E0,1.2E1,1E0,6E0,1.4E1,1.9E1,1.25E2,1.7E1,3E0,3E0,1E1,5E0,5.2E1,1E1,1.8E1,4.6E1,1.8E1,1E0,1.6E1,4.1E1,2.87E2,1.3E1,1.13E2,7.67E2,4.6E1,4.6E1,2.9E1,6E0,1.9E1,1E1,3E0,1.1E1,8E0,7E0,3E0,4.1E1,1.4E1,1E0,1.9E1,1E0,1.3E1,1E0,2.5E1,1.73E2,6E0,5.7E1,