{"learner":{"attributes":{"best_iteration":"147","best_score":"0.19404145701164774","scikit_learn":"{\"_estimator_type\": \"regressor\"}"},"feature_names":[],"feature_types":[],"gradient_booster":{"model":{"gbtree_model_param":{"num_parallel_tree":"1","num_trees":"158"},"iteration_indptr":[0,1,2,3,4,5,6,7,8,9,10,11,12,13,14,15,16,17,18,19,20,21,22,23,24,25,26,27,28,29,30,31,32,33,34,35,36,37,38,39,40,41,42,43,44,45,46,47,48,49,50,51,52,53,54,55,56,57,58,59,60,61,62,63,64,65,66,67,68,69,70,71,72,73,74,75,76,77,78,79,80,81,82,83,84,85,86,87,88,89,90,91,92,93,94,95,96,97,98,99,100,101,102,103,104,105,106,107,108,109,110,111,112,113,114,115,116,117,118,119,120,121,122,123,124,125,126,127,128,129,130,131,132,133,134,135,136,137,138,139,140,141,142,143,144,145,146,147,148,149,150,151,152,153,154,155,156,157,158],"tree_info":[0,0,0,0,0,0,0,0,0,0,0,0,0,0,0,0,0,0,0,0,0,0,0,0,0,0,0,0,0,0,0,0,0,0,0,0,0,0,0,0,0,0,0,0,0,0,0,0,0,0,0,0,0,0,0,0,0,0,0,0,0,0,0,0,0,0,0,0,0,0,0,0,0,0,0,0,0,0,0,0,0,0,0,0,0,0,0,0,0,0,0,0,0,0,0,0,0,0,0,0,0,0,0,0,0,0,0,0,0,0,0,0,0,0,0,0,0,0,0,0,0,0,0,0,0,0,0,0,0,0,0,0,0,0,0,0,0,0,0,0,0,0,0,0,0,0,0,0,0,0,0,0,0,0,0,0,0,0],"trees":[{"base_weights":[-1.669024E-4,-9.856731E-3,1.1288682E-1,-5.300101E-2,5.453102E-3,-6.123501E-2,1.2884542E-1,1.0782472E-2,-9.0598896E-2,-1.4686277E-2,3.4907542E-2,1.16214626E-1,-2.0287688E-1,1.4274636E-1,-7.120245E-2,-4.95099E-2,3.4401122E-2,-1.3557513E-1,-1.768127E-2,5.284337E-2,-3.0362602E-2,1.2406177E-2,8.007291E-2,2.5405923E-1,-4.316525E-2,5.245894E-3,-6.589415E-3,1.0079073E-1,2.8387633E-1,3.4667745E-2,-9.873833E-2,-6.631301E-2,1.1951145E-1,1.5888683E-2,1.1635395E-1,-1.1592911E-1,-2.0004791E-1,1.259399E-1,-2.1280764E-2,8.45858E-2,1.1619332E-2,-5.575395E-2,5.772515E-4,3.0237025E-2,-2.6143495E-2,1.482865E-1,5.4531522E-2,1.25551615E-2,1.0979935E-1,-1.2634385E-1,1.741984E-1,2.3578064E-1,7.084577E-2,1.9545412E-1,3.954732E-1,-3.8490906E-2,8.73316E-3,2.6209258E-2,-1.2710285E-1,-7.187489E-2,1.6585913E-1,2.9009306E-1,3.8116667E-2,1.3408653E-3,8.9858755E-2,3.8438503E-2,2.1919298E-1,2.2342244E-1,-1.2224012E-1,-2.3715992E-1,-1.4391786E-1,3.1120527E-1,-7.4490174E-3,6.701331E-3,-3.5093386E-2,1.4808626E-1,5.955057E-2,-1.1736194E-2,7.9476915E-2,-7.537073E-2,-3.0928962E-2,-2.8533111E-3,1.9433247E-1,4.3652724E-3,6.0770035E-2,-1.0982238E-2,-8.095974E-2,2.6637882E-1,1.0347832E-1,5.999211E-2,-1.4540808E-1,1.7205128E-1,-3.341E-3,6.05395E-2,-2.1188903E-1,-8.094901E-5,7.892895E-3,1.313226E-1,4.2429566E-1,1.881536E-2,1.1312182E-1,2.2142932E-1,-1.0086553E-1,4.908559E-1,4.820456E-2,-9.1302186E-2,5.0752233E-3,4.3216343E-3,-1.2135782E-3,-2.05422E-1,-7.861258E-2,-4.8829387E-3,-1.8620911E-3,-1.2972278E-3,8.274429E-3,4.492316E-3,1.2351728E-2,-1.3151228E-3,4.9253716E-3,1.2530728E-3,-4.2361906E-4,3.4128928E-3,-3.169648E-3,-1.2206298E-3,2.6964901E-3,-1.1886054E-4,8.944859E-3,-1.1256477E-3,9.738493E-3,-4.1493066E-3,-2.1781444E-3,-6.694811E-3,-8.67729E-3,-4.488486E-3,4.8392387E-3,2.3714066E-3,1.3392701E-2,2.095435E-3,-2.5200292E-3,7.252259E-3,1.1327474E-4,-1.1580532E-3,4.7079916E-3,1.3708759E-3,5.3199544E-3,2.0073932E-3,-3.0145063E-3,2.5161207E-3,-8.80827E-4,1.2563303E-2,2.1474927E-3,-1.6956757E-3,-3.2988742E-3,2.8013294E-3,-1.1508252E-3,4.0857212E-4,-1.1564658E-3,1.5267289E-2,3.4464858E-3,2.6662145E-3,-6.953052E-5,3.7422113E-4,2.5956163E-3,-1.0541244E-3,7.529076E-4,-3.722325E-3,1.5636137E-3,1.0564053E-2,2.3579127E-3,2.381901E-3,8.686517E-3,-7.9016195E-4,2.1484813E-3,-5.5951625E-3,2.0732756E-3,-6.254531E-4,6.545109E-3,-2.2981782E-3,4.7444385E-3,-9.081066E-3,-2.4971426E-3,5.587497E-3,-1.272964E-3,9.5782E-3,1.9597318E-2,3.7687127E-3,-1.9114104E-4,4.5697507E-3,5.802361E-5,8.4140105E-3,2.1716186E-3,-9.575284E-3,3.1318692E-3,1.5809827E-2,-4.4146325E-3,5.2490244E-3,-4.808231E-3,1.148123E-3,-4.2569633E-3,-7.534678E-3,-1.5582317E-3,1.56176E-3,-3.0362848E-3],"categories":[],"categories_nodes":[],"categories_segments":[],"categories_sizes":[],"default_left":[0,0,0,0,0,0,0,0,0,0,0,0,0,0,0,0,0,0,0,0,0,0,0,0,0,0,0,0,0,0,0,0,0,0,0,0,0,0,0,0,0,0,0,0,0,0,0,0,0,0,0,0,0,0,0,0,0,0,0,0,0,0,0,0,0,0,0,0,0,0,0,0,0,0,0,0,0,0,0,0,0,0,0,0,0,0,0,0,0,0,0,0,0,0,0,0,0,0,0,0,0,0,0,0,0,0,0,0,0,0,0,0,0,0,0,0,0,0,0,0,0,0,0,0,0,0,0,0,0,0,0,0,0,0,0,0,0,0,0,0,0,0,0,0,0,0,0,0,0,0,0,0,0,0,0,0,0,0,0,0,0,0,0,0,0,0,0,0,0,0,0,0,0,0,0,0,0,0,0,0,0,0,0,0,0,0,0,0,0,0,0,0,0,0,0,0,0,0,0,0,0,0,0],"id":0,"left_children":[1,3,5,7,9,11,13,15,17,19,21,23,25,27,29,31,33,35,37,39,41,43,45,47,49,-1,-1,51,53,55,57,59,61,63,65,67,69,71,73,75,77,79,81,83,85,87,89,-1,91,93,95,97,99,101,103,105,-1,107,109,111,113,115,117,119,121,123,125,127,129,131,133,135,137,139,141,143,145,147,149,151,153,155,157,159,161,163,165,167,169,171,173,175,-1,177,179,-1,-1,181,183,185,187,189,191,193,195,197,-1,-1,-1,199,201,-1,-1,-1,-1,-1,-1,-1,-1,-1,-1,-1,-1,-1,-1,-1,-1,-1,-1,-1,-1,-1,-1,-1,-1,-1,-1,-1,-1,-1,-1,-1,-1,-1,-1,-1,-1,-1,-1,-1,-1,-1,-1,-1,-1,-1,-1,-1,-1,-1,-1,-1,-1,-1,-1,-1,-1,-1,-1,-1,-1,-1,-1,-1,-1,-1,-1,-1,-1,-1,-1,-1,-1,-1,-1,-1,-1,-1,-1,-1,-1,-1,-1,-1,-1,-1,-1,-1,-1,-1,-1,-1,-1],"loss_changes":[2.3853905E1,1.3247911E1,4.784542E0,1.2598322E1,8.782159E0,3.6680503E0,4.390009E0,2.777127E0,1.083655E1,9.310021E0,6.108897E0,1.4389945E0,5.51528E-1,8.69331E0,3.036915E-1,1.5671319E0,2.123674E0,2.5658073E0,6.550878E-1,2.1672869E0,5.606892E0,2.759907E0,3.4747105E0,7.843528E-1,5.8248895E-1,0E0,0E0,4.5793552E0,3.2480984E0,4.2393875E-1,2.9394585E-1,6.575763E-1,6.831653E-1,1.2309414E0,2.0588639E0,3.3875618E0,9.5742416E-1,7.68401E-1,4.7641075E-1,1.479186E0,1.1451942E0,1.9066563E0,2.139525E0,2.1681266E0,1.0545864E0,2.8510122E0,1.5983663E0,0E0,2.9452097E-1,3.8052797E-1,1.4224193E-1,4.0008135E0,2.047937E0,1.4847574E0,4.878603E0,2.12853E-1,0E0,1.3151988E-1,2.382983E-1,4.2568922E-1,2.8782597E-1,2.1148026E-1,3.6879376E-1,5.987924E-1,8.90661E-1,6.061068E-1,1.9572592E0,7.7795315E-1,1.2191277E0,1.4325714E-1,3.5807633E-1,3.7280786E-1,1.18294574E-1,2.7963328E-1,5.618633E-1,7.8243494E-1,7.996905E-1,9.09016E-1,4.655218E-1,1.4209967E0,1.603658E0,1.8603395E0,1.3411448E0,8.4001434E-1,1.5646725E0,8.688967E-1,1.5844498E0,2.3717413E0,1.7514558E0,1.4248557E0,3.567168E-1,1.468901E-1,0E0,1.19207494E-1,1.6173482E-1,0E0,0E0,1.2867825E0,1.5466995E0,1.127975E0,2.2401881E0,1.5195408E0,7.502917E-1,2.7521172E0,9.001468E-1,1.0376984E-1,0E0,0E0,0E0,1.6243696E-1,1.3223785E-1,0E0,0E0,0E0,0E0,0E0,0E0,0E0,0E0,0E0,0E0,0E0,0E0,0E0,0E0,0E0,0E0,0E0,0E0,0E0,0E0,0E0,0E0,0E0,0E0,0E0,0E0,0E0,0E0,0E0,0E0,0E0,0E0,0E0,0E0,0E0,0E0,0E0,0E0,0E0,0E0,0E0,0E0,0E0,0E0,0E0,0E0,0E0,0E0,0E0,0E0,0E0,0E0,0E0,0E0,0E0,0E0,0E0,0E0,0E0,0E0,0E0,0E0,0E0,0E0,0E0,0E0,0E0,0E0,0E0,0E0,0E0,0E0,0E0,0E0,0E0,0E0,0E0,0E0,0E0,0E0,0E0,0E0,0E0,0E0,0E0,0E0,0E0,0E0,0E0,0E0,0E0,0E0],"parents":[2147483647,0,0,1,1,2,2,3,3,4,4,5,5,6,6,7,7,8,8,9,9,10,10,11,11,12,12,13,13,14,14,15,15,16,16,17,17,18,18,19,19,20,20,21,21,22,22,23,23,24,24,27,27,28,28,29,29,30,30,31,31,32,32,33,33,34,34,35,35,36,36,37,37,38,38,39,39,40,40,41,41,42,42,43,43,44,44,45,45,46,46,48,48,49,49,50,50,51,51,52,52,53,53,54,54,55,55,57,57,58,58,59,59,60,60,61,61,62,62,63,63,64,64,65,65,66,66,67,67,68,68,69,69,70,70,71,71,72,72,73,73,74,74,75,75,76,76,77,77,78,78,79,79,80,80,81,81,82,82,83,83,84,84,85,85,86,86,87,87,88,88,89,89,90,90,91,91,93,93,94,94,97,97,98,98,99,99,100,100,101,101,102,102,103,103,104,104,105,105,109,109,110,110],"right_children":[2,4,6,8,10,12,14,16,18,20,22,24,26,28,30,32,34,36,38,40,42,44,46,48,50,-1,-1,52,54,56,58,60,62,64,66,68,70,72,74,76,78,80,82,84,86,88,90,-1,92,94,96,98,100,102,104,106,-1,108,110,112,114,116,118,120,122,124,126,128,130,132,134,136,138,140,142,144,146,148,150,152,154,156,158,160,162,164,166,168,170,172,174,176,-1,178,180,-1,-1,182,184,186,188,190,192,194,196,198,-1,-1,-1,200,202,-1,-1,-1,-1,-1,-1,-1,-1,-1,-1,-1,-1,-1,-1,-1,-1,-1,-1,-1,-1,-1,-1,-1,-1,-1,-1,-1,-1,-1,-1,-1,-1,-1,-1,-1,-1,-1,-1,-1,-1,-1,-1,-1,-1,-1,-1,-1,-1,-1,-1,-1,-1,-1,-1,-1,-1,-1,-1,-1,-1,-1,-1,-1,-1,-1,-1,-1,-1,-1,-1,-1,-1,-1,-1,-1,-1,-1,-1,-1,-1,-1,-1,-1,-1,-1,-1,-1,-1,-1,-1,-1,-1],"split_conditions":[1.2517668E0,-1.4923318E-1,1.0762638E-1,-5.108996E-2,-1.2327134E-1,2.947039E-1,6.23036E-1,-5.305248E-1,-3.6462564E-2,-8.241304E-1,-5.5240154E-2,-1.0749421E-1,-9.305915E-1,1.4705136E-3,5.403187E-1,4.466553E-2,-5.7344824E-2,-6.374626E-2,-3.4927633E-1,-4.7792697E-1,-2.196562E-1,-6.986468E-2,-2.1260889E-1,-1.4397371E-1,-3.0486085E-2,5.245894E-3,-6.589415E-3,-4.7771487E-1,2.6574028E0,1.5432869E0,-1.3243304E-1,5.163455E-1,-1.1975844E-1,-4.160738E-2,-7.701867E-2,-4.038925E-1,-1.95224E-1,-8.196673E-2,-5.31643E-1,-1.8252167E-1,-1.3660207E-1,-1.6517606E-1,2.375937E-2,-8.049062E-1,6.0239624E-2,-2.2150159E-1,2.5464554E0,1.25551615E-2,6.07617E-1,1.3304942E0,-2.767641E-2,-6.8375975E-2,3.622093E-1,2.6584866E0,5.255103E0,6.337183E0,8.73316E-3,-3.126504E-1,1.6491604E0,-3.873645E-1,-1.7259556E-1,-8.803933E-2,-8.5635716E-1,-8.6307967E-1,3.8340864E-1,-9.697121E-2,-3.3450478E-1,-5.0125033E-2,-5.3517714E-2,1.5537689E0,1.1984997E0,-8.8688797E-1,-4.303714E-2,-4.0277362E-2,1.9064236E0,-8.602145E-2,-3.6463946E-2,-1.8935464E-1,-1.9989212E-1,-5.9902113E-2,-1.6224335E-1,3.3202025E-1,-2.2136857E-1,-1.5917006E-1,-4.2099275E-2,-4.2540595E-2,8.1713456E-1,-5.4320995E-2,6.813196E-1,-7.1776934E-2,-6.972526E-2,-3.1437382E-1,-3.341E-3,-3.0921E-1,-2.278246E-1,-8.094901E-5,7.892895E-3,2.0498009E-1,-2.5201293E-2,6.9058466E-1,2.3896396E0,3.7161672E-1,9.430544E-1,1.1195589E0,8.494087E0,-1.7717862E-1,5.0752233E-3,4.3216343E-3,-1.2135782E-3,3.3937588E0,7.430062E-1,-4.8829387E-3,-1.8620911E-3,-1.2972278E-3,8.274429E-3,4.492316E-3,1.2351728E-2,-1.3151228E-3,4.9253716E-3,1.2530728E-3,-4.2361906E-4,3.4128928E-3,-3.169648E-3,-1.2206298E-3,2.6964901E-3,-1.1886054E-4,8.944859E-3,-1.1256477E-3,9.738493E-3,-4.1493066E-3,-2.1781444E-3,-6.694811E-3,-8.67729E-3,-4.488486E-3,4.8392387E-3,2.3714066E-3,1.3392701E-2,2.095435E-3,-2.5200292E-3,7.252259E-3,1.1327474E-4,-1.1580532E-3,4.7079916E-3,1.3708759E-3,5.3199544E-3,2.0073932E-3,-3.0145063E-3,2.5161207E-3,-8.80827E-4,1.2563303E-2,2.1474927E-3,-1.6956757E-3,-3.2988742E-3,2.8013294E-3,-1.1508252E-3,4.0857212E-4,-1.1564658E-3,1.5267289E-2,3.4464858E-3,2.6662145E-3,-6.953052E-5,3.7422113E-4,2.5956163E-3,-1.0541244E-3,7.529076E-4,-3.722325E-3,1.5636137E-3,1.0564053E-2,2.3579127E-3,2.381901E-3,8.686517E-3,-7.9016195E-4,2.1484813E-3,-5.5951625E-3,2.0732756E-3,-6.254531E-4,6.545109E-3,-2.2981782E-3,4.7444385E-3,-9.081066E-3,-2.4971426E-3,5.587497E-3,-1.272964E-3,9.5782E-3,1.9597318E-2,3.7687127E-3,-1.9114104E-4,4.5697507E-3,5.802361E-5,8.4140105E-3,2.1716186E-3,-9.575284E-3,3.1318692E-3,1.5809827E-2,-4.4146325E-3,5.2490244E-3,-4.808231E-3,1.148123E-3,-4.2569633E-3,-7.534678E-3,-1.5582317E-3,1.56176E-3,-3.0362848E-3],"split_indices":[36,34,41,25,9,29,7,4,42,3,38,50,14,42,33,11,38,27,27,29,18,23,19,12,10,0,0,12,36,12,26,18,19,52,9,12,21,38,2,8,18,50,31,22,35,10,40,0,6,35,31,17,12,3,43,7,0,12,41,11,9,43,29,3,11,7,11,38,38,23,35,3,32,16,41,20,42,8,38,38,8,3,20,43,52,18,29,43,6,43,7,26,0,26,18,0,0,38,31,41,30,45,13,6,8,9,0,0,0,8,32,0,0,0,0,0,0,0,0,0,0,0,0,0,0,0,0,0,0,0,0,0,0,0,0,0,0,0,0,0,0,0,0,0,0,0,0,0,0,0,0,0,0,0,0,0,0,0,0,0,0,0,0,0,0,0,0,0,0,0,0,0,0,0,0,0,0,0,0,0,0,0,0,0,0,0,0,0,0,0,0,0,0,0,0,0,0,0,0,0,0,0,0],"split_type":[0,0,0,0,0,0,0,0,0,0,0,0,0,0,0,0,0,0,0,0,0,0,0,0,0,0,0,0,0,0,0,0,0,0,0,0,0,0,0,0,0,0,0,0,0,0,0,0,0,0,0,0,0,0,0,0,0,0,0,0,0,0,0,0,0,0,0,0,0,0,0,0,0,0,0,0,0,0,0,0,0,0,0,0,0,0,0,0,0,0,0,0,0,0,0,0,0,0,0,0,0,0,0,0,0,0,0,0,0,0,0,0,0,0,0,0,0,0,0,0,0,0,0,0,0,0,0,0,0,0,0,0,0,0,0,0,0,0,0,0,0,0,0,0,0,0,0,0,0,0,0,0,0,0,0,0,0,0,0,0,0,0,0,0,0,0,0,0,0,0,0,0,0,0,0,0,0,0,0,0,0,0,0,0,0,0,0,0,0,0,0,0,0,0,0,0,0,0,0,0,0,0,0],"sum_hessian":[2.1773E4,2.0055E4,1.718E3,5.252E3,1.4803E4,1.44E2,1.574E3,1.948E3,3.304E3,8.792E3,6.011E3,6.4E1,8E1,1.472E3,1.02E2,5.48E2,1.4E3,2.043E3,1.261E3,1.656E3,7.136E3,4.013E3,1.998E3,3.4E1,3E1,3E0,7.7E1,1.136E3,3.36E2,2.1E1,8.1E1,4.99E2,4.9E1,1.143E3,2.57E2,1.568E3,4.75E2,3E1,1.231E3,9.35E2,7.21E2,3.919E3,3.217E3,2.744E3,1.269E3,5.43E2,1.455E3,1.5E1,1.9E1,2.2E1,8E0,2.05E2,9.31E2,1.89E2,1.47E2,1.7E1,4E0,1.5E1,6.6E1,4.88E2,1.1E1,1.5E1,3.4E1,9.56E2,1.87E2,1.47E2,1.1E2,2.8E1,1.54E3,2.84E2,1.91E2,1.2E1,1.8E1,4.07E2,8.24E2,2.63E2,6.72E2,5.37E2,1.84E2,2.188E3,1.731E3,3.162E3,5.5E1,1.486E3,1.258E3,9.95E2,2.74E2,1.48E2,3.95E2,1.417E3,3.8E1,1.5E1,4E0,7E0,1.5E1,3E0,5E0,1.33E2,7.2E1,4.18E2,5.13E2,1.74E2,1.5E1,1.15E2,3.2E1,1.4E1,3E0,5E0,1E1,2.4E1,4.2E1,4.6E1,4.42E2,4E0,7E0,8E0,7E0,2.1E1,1.3E1,2.64E2,6.92E2,1.67E2,2E1,5.8E1,8.9E1,2.9E1,8.1E1,8E0,2E1,1.162E3,3.78E2,2.28E2,5.6E1,1.88E2,3E0,5E0,7E0,9E0,9E0,4E0,4.03E2,8.1E2,1.4E1,5.9E1,2.04E2,6.43E2,2.9E1,8.3E1,4.54E2,3E0,1.81E2,1.418E3,7.7E2,9.7E1,1.634E3,2.164E3,9.98E2,1E1,4.5E1,1.08E2,1.378E3,4.38E2,8.2E2,5.96E2,3.99E2,2.07E2,6.7E1,1.01E2,4.7E1,3.51E2,4.4E1,1.68E2,1.249E3,3.2E1,6E0,3E0,1.2E1,3E0,4E0,8E0,7E0,1.01E2,3.2E1,5.1E1,2.1E1,7.9E1,3.39E2,3.79E2,1.34E2,1.24E2,5E1,7E0,8E0,1.09E2,6E0,2E1,1.2E1,4E0,1E1,1.8E1,6E0,6E0,3.6E1],"tree_param":{"num_deleted":"0","num_feature":"54","num_nodes":"203","size_leaf_vector":"1"}},{"base_weights":[-2.7747048E-4,-9.4890315E-3,1.0815314E-1,-4.5482703E-2,6.64397E-3,7.318208E-2,1.995462E-1,1.3902609E-2,-8.021991E-2,-1.6025655E-2,3.2306343E-2,1.9367301E-1,4.434555E-2,2.7927747E-1,-5.8514506E-2,4.7429457E-2,-1.9200495E-2,-1.264606E-1,-1.4300181E-2,-3.7297223E-2,2.1050906E-2,1.626207E-2,6.4670525E-2,4.133821E-1,9.004378E-2,-1.2089229E-2,9.53107E-2,1.8498112E-1,4.1465256E-1,-8.4034525E-2,1.261281E-1,1.6066307E-2,1.1956359E-1,-4.502153E-2,3.3100188E-2,-1.1168217E-1,-2.1864834E-1,-2.814971E-2,2.5460308E-2,4.4217274E-2,-4.7511898E-2,4.6246465E-2,-9.730967E-3,6.667084E-2,5.214239E-3,4.5915633E-2,1.1258235E-1,5.196696E-1,1.4586443E-1,1.3394152E-1,-7.432342E-2,1.1151808E-1,-5.199552E-2,2.1775235E-1,7.688326E-2,5.1901676E-2,2.4660784E-1,4.4620112E-1,-3.5600907E-3,2.0721117E-1,-1.0844682E-1,1.4898588E-2,-2.151914E-3,5.50149E-3,1.1594264E-1,-1.8882414E-2,1.6560698E-1,7.5584345E-2,-5.47284E-2,3.034827E-1,1.8895881E-2,6.8363495E-2,-1.1742302E-1,-9.574019E-3,-2.2900112E-1,-9.743416E-5,-4.88432E-2,4.665826E-2,-7.3712036E-2,2.3556408E-2,2.5705108E-1,-5.6526594E-2,1.5045107E-2,2.6836162E-2,1.22499585E-1,-1.7562138E-2,1.2824737E-1,4.7224905E-2,2.6664594E-1,3.3158615E-2,-1.3518133E-2,5.975143E-2,-4.3572586E-2,1.4679982E-1,3.097552E-2,4.3676618E-1,3.73431E-2,5.7897316E-3,4.0778077E-1,1.0749734E-1,3.828142E-1,5.469456E-3,-1.1331922E-1,2.6758438E-1,2.5857072E-2,-1.5800162E-1,-6.3580037E-3,3.3118072E-1,2.1784198E-2,-8.440956E-2,8.800919E-2,3.2274702E-1,2.0983914E-2,3.3226812E-1,1.3774285E-1,4.9109346E-1,1.5453705E-1,3.3479733E-5,1.239082E-2,2.0798404E-2,-1.3389458E-1,-6.9682737E-4,9.5982524E-4,-1.8378107E-4,5.8705746E-3,-1.1406386E-3,7.374878E-3,5.5858307E-3,-1.9391584E-3,4.325233E-3,-1.2962208E-3,-1.2870433E-3,-4.0954426E-3,-6.0196933E-3,1.2316494E-2,2.2485715E-4,5.0044786E-3,1.1314711E-2,-1.1463676E-3,-4.1443286E-3,-2.5828239E-3,-3.4258126E-3,4.2375135E-3,-3.3235278E-3,-7.2634583E-3,-3.752716E-4,1.6489098E-3,-1.5369958E-3,1.1215446E-2,1.18353E-3,1.1670906E-2,3.794433E-4,-3.2450655E-3,2.006555E-3,-1.0067519E-3,1.1396655E-2,2.3510403E-3,-5.4002006E-4,-2.1894262E-3,2.598796E-3,-8.1895804E-4,7.0749037E-4,8.318234E-3,2.759282E-3,8.52602E-3,-3.1331945E-3,-2.465648E-4,5.26977E-3,-2.247342E-3,4.5292787E-3,9.994941E-4,9.796537E-3,-4.958139E-4,2.6310585E-4,2.6693859E-3,-1.4906733E-3,4.8903783E-4,2.514829E-3,1.8431869E-4,-2.924908E-3,1.9941186E-3,3.1030278E-3,6.728744E-3,7.487292E-3,3.739265E-4,1.8596787E-2,9.709306E-3,-3.7744008E-3,3.6638088E-3,1.8591011E-2,4.7006677E-3,5.817555E-3,1.2330189E-3,5.6487287E-4,2.6658826E-2,-4.637472E-3,-7.2726945E-4,1.1045849E-2,-1.2084142E-3,-1.6360454E-3,4.329426E-3,2.0805512E-4,-6.3114967E-3,5.81844E-3,-4.8916094E-4,1.6813396E-2,6.730612E-3,-1.5796795E-3,3.3905723E-3,-3.0180352E-4,-6.9630723E-3,3.033656E-3,-1.5987859E-3,3.1498268E-3,1.37943905E-2,-2.26527E-3,3.1652262E-3,8.214646E-3,4.166728E-2,6.6737074E-4,1.3334981E-2,8.947739E-3,1.8599289E-2,-2.5332826E-3,1.0732277E-2,4.7679325E-3,-6.991152E-4,-6.254616E-3,-3.0659803E-3],"categories":[],"categories_nodes":[],"categories_segments":[],"categories_sizes":[],"default_left":[0,0,0,0,0,0,0,0,0,0,0,0,0,0,0,0,0,0,0,0,0,0,0,0,0,0,0,0,0,0,0,0,0,0,0,0,0,0,0,0,0,0,0,0,0,0,0,0,0,0,0,0,0,0,0,0,0,0,0,0,0,0,0,0,0,0,0,0,0,0,0,0,0,0,0,0,0,0,0,0,0,0,0,0,0,0,0,0,0,0,0,0,0,0,0,0,0,0,0,0,0,0,0,0,0,0,0,0,0,0,0,0,0,0,0,0,0,0,0,0,0,0,0,0,0,0,0,0,0,0,0,0,0,0,0,0,0,0,0,0,0,0,0,0,0,0,0,0,0,0,0,0,0,0,0,0,0,0,0,0,0,0,0,0,0,0,0,0,0,0,0,0,0,0,0,0,0,0,0,0,0,0,0,0,0,0,0,0,0,0,0,0,0,0,0,0,0,0,0,0,0,0,0,0,0,0,0,0,0,0,0,0,0,0,0,0,0,0,0,0,0,0,0,0,0,0,0,0,0],"id":1,"left_children":[1,3,5,7,9,11,13,15,17,19,21,23,25,27,29,31,33,35,37,39,41,43,45,47,49,51,53,55,57,59,61,63,65,67,69,71,73,75,77,79,81,83,85,87,89,91,93,95,97,99,101,103,105,107,109,111,113,115,-1,117,119,-1,-1,121,123,125,127,129,131,133,135,137,139,141,143,145,147,149,151,153,155,157,159,161,163,165,167,169,171,173,175,177,179,181,183,185,-1,187,189,191,193,-1,195,197,199,201,203,205,207,209,211,213,215,217,219,221,223,-1,-1,225,227,-1,-1,-1,-1,-1,-1,-1,-1,-1,-1,-1,-1,-1,-1,-1,-1,-1,-1,-1,-1,-1,-1,-1,-1,-1,-1,-1,-1,-1,-1,-1,-1,-1,-1,-1,-1,-1,-1,-1,-1,-1,-1,-1,-1,-1,-1,-1,-1,-1,-1,-1,-1,-1,-1,-1,-1,-1,-1,-1,-1,-1,-1,-1,-1,-1,-1,-1,-1,-1,-1,-1,-1,-1,-1,-1,-1,-1,-1,-1,-1,-1,-1,-1,-1,-1,-1,-1,-1,-1,-1,-1,-1,-1,-1,-1,-1,-1,-1,-1,-1,-1,-1,-1,-1,-1,-1,-1,-1],"loss_changes":[2.1736246E1,1.1647701E1,5.431574E0,1.2807474E1,8.058426E0,4.278996E0,9.707403E0,2.54467E0,1.1937885E1,5.8015018E0,3.372579E0,5.381629E0,2.868731E0,4.5188293E0,5.383525E-1,2.5749E0,1.5599184E0,3.1118011E0,8.905898E-1,3.893879E0,2.0805194E0,2.4194155E0,1.9294758E0,2.085167E0,1.1860569E0,2.3439023E0,1.1655531E0,1.7422676E0,2.5263042E0,7.263589E-1,1.0618917E0,8.3822644E-1,2.2023377E0,9.090923E-1,1.4613733E0,2.0607872E0,6.8395424E-1,6.960144E-1,8.8217986E-1,2.284954E0,2.3434258E0,2.1798546E0,1.3075349E0,3.0244846E0,1.8665991E0,1.9204836E0,1.6848426E0,2.702444E0,8.4145963E-1,8.078277E-1,3.7093377E-1,1.5438612E0,1.7357855E0,1.5043128E0,8.275306E-1,5.710288E-1,1.3157415E0,1.7441044E0,0E0,3.3888078E-1,3.0537271E-1,0E0,0E0,5.487424E-1,7.4099386E-1,4.5011342E-1,1.2397351E0,4.7880948E-1,6.867182E-1,1.1079372E0,6.1259335E-1,2.054826E0,1.2377663E0,2.685974E-1,4.4137192E-1,3.492202E-1,7.1621037E-1,8.3596224E-1,2.2156957E-1,1.1802083E0,9.798815E-1,2.300436E0,1.5906211E0,9.523781E-1,1.4496303E0,9.2775524E-1,6.3924456E-1,1.0238394E0,1.1758842E0,1.9473597E0,2.3036137E0,1.7315559E0,1.2407545E0,1.4083614E0,7.2527504E-1,8.35165E-1,0E0,2.6033068E-1,3.2858992E-1,6.691234E-1,2.1925702E0,0E0,1.10196024E-1,1.2847841E0,7.316179E-1,9.3454146E-1,5.0527644E-1,9.274082E-1,1.8253122E-1,3.2709146E-1,7.9840755E-1,1.6064787E-1,5.2179044E-1,4.6220093E0,2.3284593E0,2.7974682E0,1.0014492E0,0E0,0E0,1.0117508E-1,1.6073859E-1,0E0,0E0,0E0,0E0,0E0,0E0,0E0,0E0,0E0,0E0,0E0,0E0,0E0,0E0,0E0,0E0,0E0,0E0,0E0,0E0,0E0,0E0,0E0,0E0,0E0,0E0,0E0,0E0,0E0,0E0,0E0,0E0,0E0,0E0,0E0,0E0,0E0,0E0,0E0,0E0,0E0,0E0,0E0,0E0,0E0,0E0,0E0,0E0,0E0,0E0,0E0,0E0,0E0,0E0,0E0,0E0,0E0,0E0,0E0,0E0,0E0,0E0,0E0,0E0,0E0,0E0,0E0,0E0,0E0,0E0,0E0,0E0,0E0,0E0,0E0,0E0,0E0,0E0,0E0,0E0,0E0,0E0,0E0,0E0,0E0,0E0,0E0,0E0,0E0,0E0,0E0,0E0,0E0,0E0,0E0,0E0,0E0,0E0,0E0,0E0,0E0,0E0,0E0,0E0,0E0,0E0,0E0,0E0],"parents":[2147483647,0,0,1,1,2,2,3,3,4,4,5,5,6,6,7,7,8,8,9,9,10,10,11,11,12,12,13,13,14,14,15,15,16,16,17,17,18,18,19,19,20,20,21,21,22,22,23,23,24,24,25,25,26,26,27,27,28,28,29,29,30,30,31,31,32,32,33,33,34,34,35,35,36,36,37,37,38,38,39,39,40,40,41,41,42,42,43,43,44,44,45,45,46,46,47,47,48,48,49,49,50,50,51,51,52,52,53,53,54,54,55,55,56,56,57,57,59,59,60,60,63,63,64,64,65,65,66,66,67,67,68,68,69,69,70,70,71,71,72,72,73,73,74,74,75,75,76,76,77,77,78,78,79,79,80,80,81,81,82,82,83,83,84,84,85,85,86,86,87,87,88,88,89,89,90,90,91,91,92,92,93,93,94,94,95,95,97,97,98,98,99,99,100,100,102,102,103,103,104,104,105,105,106,106,107,107,108,108,109,109,110,110,111,111,112,112,113,113,114,114,115,115,116,116,119,119,120,120],"right_children":[2,4,6,8,10,12,14,16,18,20,22,24,26,28,30,32,34,36,38,40,42,44,46,48,50,52,54,56,58,60,62,64,66,68,70,72,74,76,78,80,82,84,86,88,90,92,94,96,98,100,102,104,106,108,110,112,114,116,-1,118,120,-1,-1,122,124,126,128,130,132,134,136,138,140,142,144,146,148,150,152,154,156,158,160,162,164,166,168,170,172,174,176,178,180,182,184,186,-1,188,190,192,194,-1,196,198,200,202,204,206,208,210,212,214,216,218,220,222,224,-1,-1,226,228,-1,-1,-1,-1,-1,-1,-1,-1,-1,-1,-1,-1,-1,-1,-1,-1,-1,-1,-1,-1,-1,-1,-1,-1,-1,-1,-1,-1,-1,-1,-1,-1,-1,-1,-1,-1,-1,-1,-1,-1,-1,-1,-1,-1,-1,-1,-1,-1,-1,-1,-1,-1,-1,-1,-1,-1,-1,-1,-1,-1,-1,-1,-1,-1,-1,-1,-1,-1,-1,-1,-1,-1,-1,-1,-1,-1,-1,-1,-1,-1,-1,-1,-1,-1,-1,-1,-1,-1,-1,-1,-1,-1,-1,-1,-1,-1,-1,-1,-1,-1,-1,-1,-1,-1,-1,-1,-1,-1],"split_conditions":[1.2517668E0,-1.456408E-1,-4.9342206E-3,-5.119596E-2,-1.5761505E-1,-4.295274E-1,2.5707856E-1,-1.5789075E-1,-1.524034E-1,-1.8304214E-1,-9.277263E-2,-6.9754414E-2,2.0840797E-1,2.6574028E0,3.7161672E-1,-3.1919695E-2,-7.9535544E-2,9.254878E-2,6.1916107E-1,-8.0306566E-1,-1.4179562E-1,-2.1486521E-1,8.754872E-1,1.1357086E0,2.0498009E-1,-2.2351639E-1,-2.6708972E-2,-1.17380545E-1,1.3353703E0,1.4688939E0,1.5744128E0,-4.1205823E-2,-6.9950916E-2,-8.319168E-2,-3.756799E-1,-1.0358146E0,-1.1906357E-1,-2.6758408E-2,1.4917073E0,5.584135E-1,3.446014E-1,-8.63521E-2,2.3993663E-1,1.4174199E-1,-7.270457E-1,6.891622E-1,4.2951144E-2,8.8302445E-1,1.4802315E0,2.6747189E0,1.5798371E0,-1.4173451E-1,-4.2705886E-2,1.5650705E-2,-3.6262523E-2,-2.7947536E-1,7.3815197E-1,1.2686543E0,-3.5600907E-3,1.4440585E0,-2.2549778E-1,1.4898588E-2,-2.151914E-3,-1.0586805E-1,-8.4224176E-1,4.9812086E-2,2.5325034E-2,-2.1776868E-2,-2.9422163E-3,-1.7909939E0,-1.3551901E-2,-2.6415306E-1,-6.992634E-2,-3.1496185E-1,-1.21905826E-1,-3.9622784E-2,2.7187886E0,1.8991044E-1,-6.98584E-2,-2.6845127E-1,-2.5907177E-2,-3.2010682E-2,-1.321691E-1,9.3682075E-1,-4.303714E-2,-1.2801752E0,5.9872174E-1,-8.6377233E-1,3.9106068E-1,-6.0156383E-2,-1.6320367E-1,2.5325034E-2,1.6714565E-2,-3.790212E-2,-2.821073E-1,1.9313267E-2,3.73431E-2,1.0016018E0,-3.2513227E-2,-1.3243304E-1,-2.4560247E-2,5.469456E-3,3.3969793E0,-1.3117096E-1,-2.13189E-2,2.6641273E-1,2.684777E-1,8.8512224E-1,-2.1352246E-2,1.8830553E0,3.2988443E0,-4.8144087E-2,1.2190024E-2,6.9586015E-1,2.632202E-1,-4.964678E-2,2.3287782E-1,3.3479733E-5,1.239082E-2,-1.8629093E-1,2.2188358E0,-6.9682737E-4,9.5982524E-4,-1.8378107E-4,5.8705746E-3,-1.1406386E-3,7.374878E-3,5.5858307E-3,-1.9391584E-3,4.325233E-3,-1.2962208E-3,-1.2870433E-3,-4.0954426E-3,-6.0196933E-3,1.2316494E-2,2.2485715E-4,5.0044786E-3,1.1314711E-2,-1.1463676E-3,-4.1443286E-3,-2.5828239E-3,-3.4258126E-3,4.2375135E-3,-3.3235278E-3,-7.2634583E-3,-3.752716E-4,1.6489098E-3,-1.5369958E-3,1.1215446E-2,1.18353E-3,1.1670906E-2,3.794433E-4,-3.2450655E-3,2.006555E-3,-1.0067519E-3,1.1396655E-2,2.3510403E-3,-5.4002006E-4,-2.1894262E-3,2.598796E-3,-8.1895804E-4,7.0749037E-4,8.318234E-3,2.759282E-3,8.52602E-3,-3.1331945E-3,-2.465648E-4,5.26977E-3,-2.247342E-3,4.5292787E-3,9.994941E-4,9.796537E-3,-4.958139E-4,2.6310585E-4,2.6693859E-3,-1.4906733E-3,4.8903783E-4,2.514829E-3,1.8431869E-4,-2.924908E-3,1.9941186E-3,3.1030278E-3,6.728744E-3,7.487292E-3,3.739265E-4,1.8596787E-2,9.709306E-3,-3.7744008E-3,3.6638088E-3,1.8591011E-2,4.7006677E-3,5.817555E-3,1.2330189E-3,5.6487287E-4,2.6658826E-2,-4.637472E-3,-7.2726945E-4,1.1045849E-2,-1.2084142E-3,-1.6360454E-3,4.329426E-3,2.0805512E-4,-6.3114967E-3,5.81844E-3,-4.8916094E-4,1.6813396E-2,6.730612E-3,-1.5796795E-3,3.3905723E-3,-3.0180352E-4,-6.9630723E-3,3.033656E-3,-1.5987859E-3,3.1498268E-3,1.37943905E-2,-2.26527E-3,3.1652262E-3,8.214646E-3,4.166728E-2,6.6737074E-4,1.3334981E-2,8.947739E-3,1.8599289E-2,-2.5332826E-3,1.0732277E-2,4.7679325E-3,-6.991152E-4,-6.254616E-3,-3.0659803E-3],"split_indices":[36,34,42,25,27,12,52,39,40,18,49,53,13,36,45,37,11,19,23,0,39,10,2,30,38,19,31,9,6,36,46,52,53,38,12,0,18,31,15,36,2,49,12,12,3,40,33,29,28,35,36,47,34,38,42,18,19,42,0,2,26,0,0,20,29,13,26,24,39,14,16,27,53,4,26,25,4,32,53,22,34,37,34,3,32,4,9,15,13,32,9,26,33,51,20,34,0,40,43,26,31,0,4,11,24,2,40,4,24,1,14,1,6,19,38,49,10,0,0,16,50,0,0,0,0,0,0,0,0,0,0,0,0,0,0,0,0,0,0,0,0,0,0,0,0,0,0,0,0,0,0,0,0,0,0,0,0,0,0,0,0,0,0,0,0,0,0,0,0,0,0,0,0,0,0,0,0,0,0,0,0,0,0,0,0,0,0,0,0,0,0,0,0,0,0,0,0,0,0,0,0,0,0,0,0,0,0,0,0,0,0,0,0,0,0,0,0,0,0,0,0,0,0,0,0,0,0,0,0],"split_type":[0,0,0,0,0,0,0,0,0,0,0,0,0,0,0,0,0,0,0,0,0,0,0,0,0,0,0,0,0,0,0,0,0,0,0,0,0,0,0,0,0,0,0,0,0,0,0,0,0,0,0,0,0,0,0,0,0,0,0,0,0,0,0,0,0,0,0,0,0,0,0,0,0,0,0,0,0,0,0,0,0,0,0,0,0,0,0,0,0,0,0,0,0,0,0,0,0,0,0,0,0,0,0,0,0,0,0,0,0,0,0,0,0,0,0,0,0,0,0,0,0,0,0,0,0,0,0,0,0,0,0,0,0,0,0,0,0,0,0,0,0,0,0,0,0,0,0,0,0,0,0,0,0,0,0,0,0,0,0,0,0,0,0,0,0,0,0,0,0,0,0,0,0,0,0,0,0,0,0,0,0,0,0,0,0,0,0,0,0,0,0,0,0,0,0,0,0,0,0,0,0,0,0,0,0,0,0,0,0,0,0,0,0,0,0,0,0,0,0,0,0,0,0,0,0,0,0,0,0],"sum_hessian":[2.176E4,2.0057E4,1.703E3,6.207E3,1.385E4,1.233E3,4.7E2,2.291E3,3.916E3,7.354E3,6.496E3,2.37E2,9.96E2,3.59E2,1.11E2,1.138E3,1.153E3,2.301E3,1.615E3,4.673E3,2.681E3,4.344E3,2.152E3,7.5E1,1.62E2,4.73E2,5.23E2,2.13E2,1.46E2,9.8E1,1.3E1,7.94E2,3.44E2,7.72E2,3.81E2,1.985E3,3.16E2,1.198E3,4.17E2,5.2E2,4.153E3,1.474E3,1.207E3,7.8E2,3.564E3,1.548E3,6.04E2,5.3E1,2.2E1,1.28E2,3.4E1,1.15E2,3.58E2,6.7E1,4.56E2,6.8E1,1.45E2,1.38E2,8E0,7E0,9.1E1,4E0,9E0,7.19E2,7.5E1,8.6E1,2.58E2,5.7E1,7.15E2,1.8E1,3.63E2,6.1E1,1.924E3,1.5E1,3.01E2,5.09E2,6.89E2,3.44E2,7.3E1,4.75E2,4.5E1,3.63E3,5.23E2,1.176E3,2.98E2,1.143E3,6.4E1,7.12E2,6.8E1,1.43E3,2.134E3,1.341E3,2.07E2,4.25E2,1.79E2,4.9E1,4E0,1.5E1,7E0,1.17E2,1.1E1,4E0,3E1,4E1,7.5E1,1.07E2,2.51E2,4.2E1,2.5E1,2.9E1,4.27E2,6E0,6.2E1,8E1,6.5E1,1.19E2,1.9E1,4E0,3E0,1.5E1,7.6E1,3.45E2,3.74E2,3E1,4.5E1,8.1E1,5E0,2.37E2,2.1E1,3.6E1,2.1E1,6.26E2,8.9E1,3E0,1.5E1,3.38E2,2.5E1,1.5E1,4.6E1,1.156E3,7.68E2,9E0,6E0,3.1E1,2.7E2,4.16E2,9.3E1,6.86E2,3E0,3.38E2,6E0,2.1E1,5.2E1,2.7E2,2.05E2,2.6E1,1.9E1,1.087E3,2.543E3,1.94E2,3.29E2,1.162E3,1.4E1,2.52E2,4.6E1,1.1E2,1.033E3,5.2E1,1.2E1,8.3E1,6.29E2,5.6E1,1.2E1,9.96E2,4.34E2,9.64E2,1.17E3,9.25E2,4.16E2,1.39E2,6.8E1,2.74E2,1.51E2,1.3E1,1.66E2,1.7E1,3.2E1,7E0,8E0,3E0,4E0,5E1,6.7E1,7E0,4E0,2E1,1E1,3E1,1E1,4.5E1,3E1,2.6E1,8.1E1,1.1E1,2.4E2,1.2E1,3E1,1.4E1,1.1E1,2E1,9E0,3.91E2,3.6E1,3E0,3E0,2.9E1,3.3E1,7.7E1,3E0,4.8E1,1.7E1,4.9E1,7E1,9E0,1E1,3E0,1.2E1,2.1E1,5.5E1],"tree_param":{"num_deleted":"0","num_feature":"54","num_nodes":"229","size_leaf_vector":"1"}},{"base_weights":[-7.510837E-6,-9.577529E-3,1.19147204E-1,-4.934511E-2,4.642488E-3,7.6547E-2,2.1900661E-1,1.0189468E-2,-8.516603E-2,-1.6710864E-2,2.6608557E-2,1.9444646E-1,4.909902E-2,2.9200038E-1,-5.312579E-2,-4.410911E-2,3.0967988E-2,-1.2900028E-1,-1.7086435E-2,-3.9478466E-2,2.3259485E-2,1.9020353E-2,8.984838E-2,1.0758869E-1,4.375882E-1,-8.287579E-2,6.782179E-2,1.562202E-1,4.041819E-1,-8.233427E-2,1.7523308E-1,-6.904735E-2,4.435391E-2,1.6099202E-2,1.3253774E-1,-1.05781116E-1,-1.8894973E-1,1.249949E-1,-2.0661429E-2,8.326059E-2,-4.7287304E-2,-4.840426E-2,3.638362E-2,6.8907E-2,8.755813E-3,1.0132065E-1,-9.1958344E-2,1.7771761E-1,6.0779783E-3,1.8448032E-1,5.43187E-1,1.11752346E-1,-6.0199243E-3,2.1856338E-2,1.0564467E-1,2.2299197E-1,4.3578617E-2,4.2503235E-1,-5.116018E-2,9.538815E-3,-1.0414268E-1,1.4541022E-2,-1.2026505E-3,-1.4723088E-1,-5.526258E-2,2.9354557E-1,1.4500769E-2,6.1737757E-2,1.1896744E-3,-2.8698666E-2,1.9973361E-1,1.6460797E-1,-1.1413784E-1,-1.4673015E-1,-2.329516E-1,2.581757E-2,3.4060326E-1,-6.527636E-3,-4.9976636E-2,5.515585E-2,2.5054374E-1,-1.2812498E-2,-6.1998904E-2,-5.535376E-2,4.3293694E-3,2.6448477E-2,1.5160619E-1,4.7299255E-2,2.1413068E-1,2.370931E-2,-1.3761482E-2,-8.9239824E-4,1.2179801E-1,-1.3114989E-1,5.9312643E-3,1.3258086E-1,6.463651E-1,-2.6859595E-2,1.0197909E-2,-4.154098E-3,2.583017E-1,2.630487E-2,3.6242655E-1,-5.2023E-3,1.7038873E-1,1.412493E-1,-6.8556773E-3,1.633428E-1,4.08494E-2,1.3843772E-1,4.5147142E-1,-2.190865E-2,1.8495174E-1,2.8132722E-1,5.2755326E-1,3.1853326E-2,-5.509313E-3,3.1114772E-2,-3.7772555E-3,-5.1701735E-3,1.5020755E-3,-2.5955564E-3,-3.6695728E-4,-1.903583E-3,1.2209711E-2,2.228818E-3,-1.2719935E-3,2.8721204E-3,-2.0366227E-3,-8.81112E-4,7.669849E-4,-1.6595221E-3,9.735587E-3,9.210254E-3,3.5841723E-3,7.217165E-4,1.1592615E-2,-4.156742E-3,-2.458109E-3,4.734925E-3,-4.6788785E-3,-5.77254E-3,-7.636526E-3,1.9060798E-3,-3.6802792E-3,1.7708435E-3,1.3585371E-2,-3.6031217E-4,3.9171977E-3,-1.9905716E-3,8.4824616E-4,-1.8377984E-3,2.688269E-3,1.9452386E-3,1.100399E-2,-8.022215E-4,2.0486736E-3,-2.1387117E-3,8.224108E-4,-2.9173451E-3,-8.7417953E-4,2.4345974E-3,4.5078786E-4,7.4671046E-3,2.1044381E-3,2.033626E-3,-4.3080733E-4,7.911304E-3,1.7420101E-3,2.0675341E-4,1.635844E-3,-3.0160442E-3,1.01970094E-4,1.2985639E-3,-3.302553E-3,5.192256E-3,1.7387356E-3,-5.0857523E-3,-6.3254347E-4,7.917107E-3,1.0412367E-3,3.1405836E-2,5.9008533E-3,-3.1971752E-3,2.3240028E-3,1.0955646E-2,1.113218E-3,2.0639742E-2,7.714867E-3,-3.775925E-3,6.303367E-3,1.16525395E-2,4.4166797E-4,-4.6757708E-4,7.331621E-3,1.8447097E-2,4.5239474E-3,2.8895773E-3,-1.025418E-3,9.172356E-3,8.5776503E-4,-5.3634006E-3,1.7706688E-2,3.5492392E-4,-6.3472707E-3,-2.30894E-3,1.1634083E-2,1.4842251E-2,-1.1305816E-3,1.6769106E-2,-4.0905224E-3,-2.6725212E-3,4.344821E-3,4.6683685E-3,-1.2452314E-3],"categories":[],"categories_nodes":[],"categories_segments":[],"categories_sizes":[],"default_left":[0,0,0,0,0,0,0,0,0,0,0,0,0,0,0,0,0,0,0,0,0,0,0,0,0,0,0,0,0,0,0,0,0,0,0,0,0,0,0,0,0,0,0,0,0,0,0,0,0,0,0,0,0,0,0,0,0,0,0,0,0,0,0,0,0,0,0,0,0,0,0,0,0,0,0,0,0,0,0,0,0,0,0,0,0,0,0,0,0,0,0,0,0,0,0,0,0,0,0,0,0,0,0,0,0,0,0,0,0,0,0,0,0,0,0,0,0,0,0,0,0,0,0,0,0,0,0,0,0,0,0,0,0,0,0,0,0,0,0,0,0,0,0,0,0,0,0,0,0,0,0,0,0,0,0,0,0,0,0,0,0,0,0,0,0,0,0,0,0,0,0,0,0,0,0,0,0,0,0,0,0,0,0,0,0,0,0,0,0,0,0,0,0,0,0,0,0,0,0,0,0,0,0,0,0,0,0,0,0,0,0,0,0,0,0],"id":2,"left_children":[1,3,5,7,9,11,13,15,17,19,21,23,25,27,29,31,33,35,37,39,41,43,45,47,49,51,53,55,57,59,61,63,65,67,69,71,73,75,77,79,81,83,85,87,89,91,93,95,97,99,101,103,-1,105,107,109,111,113,115,-1,117,-1,-1,119,121,123,125,127,129,131,133,135,137,139,141,143,145,147,149,151,153,155,157,159,-1,161,163,165,167,169,171,173,175,177,-1,179,181,183,-1,-1,185,-1,187,-1,189,191,193,195,197,199,201,203,205,207,209,211,-1,213,-1,-1,-1,-1,-1,-1,-1,-1,-1,-1,-1,-1,-1,-1,-1,-1,-1,-1,-1,-1,-1,-1,-1,-1,-1,-1,-1,-1,-1,-1,-1,-1,-1,-1,-1,-1,-1,-1,-1,-1,-1,-1,-1,-1,-1,-1,-1,-1,-1,-1,-1,-1,-1,-1,-1,-1,-1,-1,-1,-1,-1,-1,-1,-1,-1,-1,-1,-1,-1,-1,-1,-1,-1,-1,-1,-1,-1,-1,-1,-1,-1,-1,-1,-1,-1,-1,-1,-1,-1,-1,-1,-1,-1,-1,-1,-1,-1],"loss_changes":[2.4801804E1,1.1385355E1,6.862005E0,1.13099575E1,6.956914E0,3.6634283E0,9.609814E0,2.2499564E0,9.878536E0,6.8452463E0,3.5066686E0,4.472333E0,2.2838228E0,5.740261E0,7.014394E-1,1.2208364E0,2.175602E0,2.783455E0,6.6188836E-1,4.5968275E0,2.5693934E0,3.342659E0,1.6424494E0,1.1308148E0,1.396555E0,2.6587915E0,1.4024363E0,1.2989845E0,1.9965134E0,8.3625406E-1,8.19051E-1,4.563706E-1,9.0332025E-1,8.566123E-1,1.9992654E0,3.3041992E0,1.0080109E0,6.754772E-1,5.246363E-1,1.3354965E0,2.2845554E0,5.7450515E-1,2.638079E0,3.4855547E0,1.8239601E0,1.5426898E0,5.594971E-1,1.9027078E0,7.348852E-1,4.6489853E-1,2.034276E0,7.6526624E-1,0E0,1.255621E0,1.6495128E0,2.04326E0,6.1508924E-1,2.7834015E0,1.15828946E-1,0E0,2.6298898E-1,0E0,0E0,3.2567573E-1,4.9388897E-1,5.523194E-1,3.773991E-1,1.3727324E0,7.084509E-1,5.350738E-1,1.0826216E0,1.3624444E0,1.0981884E0,8.372383E-1,1.9003105E-1,1.3661604E-1,2.8931618E-1,6.4501715E-1,5.2982414E-1,9.961786E-1,8.613653E-1,1.5256579E0,2.6255455E0,4.4631028E-1,0E0,1.3272108E0,1.4329371E0,1.2276349E0,1.0988951E0,1.6866795E0,3.2197163E0,6.029287E-1,1.9999237E0,1.738239E-1,0E0,1.1090466E0,1.2348166E0,5.155415E-1,0E0,0E0,3.4108937E-1,0E0,7.483742E-1,0E0,4.6186924E-1,2.2147017E0,6.5305793E-1,1.2327976E0,8.7729156E-1,1.4798746E0,2.641523E0,2.9686913E-1,1.1455772E0,5.8056197E0,2.4748726E0,1.0854128E-1,0E0,1.23996265E-1,0E0,0E0,0E0,0E0,0E0,0E0,0E0,0E0,0E0,0E0,0E0,0E0,0E0,0E0,0E0,0E0,0E0,0E0,0E0,0E0,0E0,0E0,0E0,0E0,0E0,0E0,0E0,0E0,0E0,0E0,0E0,0E0,0E0,0E0,0E0,0E0,0E0,0E0,0E0,0E0,0E0,0E0,0E0,0E0,0E0,0E0,0E0,0E0,0E0,0E0,0E0,0E0,0E0,0E0,0E0,0E0,0E0,0E0,0E0,0E0,0E0,0E0,0E0,0E0,0E0,0E0,0E0,0E0,0E0,0E0,0E0,0E0,0E0,0E0,0E0,0E0,0E0,0E0,0E0,0E0,0E0,0E0,0E0,0E0,0E0,0E0,0E0,0E0,0E0,0E0,0E0,0E0,0E0,0E0,0E0,0E0,0E0],"parents":[2147483647,0,0,1,1,2,2,3,3,4,4,5,5,6,6,7,7,8,8,9,9,10,10,11,11,12,12,13,13,14,14,15,15,16,16,17,17,18,18,19,19,20,20,21,21,22,22,23,23,24,24,25,25,26,26,27,27,28,28,29,29,30,30,31,31,32,32,33,33,34,34,35,35,36,36,37,37,38,38,39,39,40,40,41,41,42,42,43,43,44,44,45,45,46,46,47,47,48,48,49,49,50,50,51,51,53,53,54,54,55,55,56,56,57,57,58,58,60,60,63,63,64,64,65,65,66,66,67,67,68,68,69,69,70,70,71,71,72,72,73,73,74,74,75,75,76,76,77,77,78,78,79,79,80,80,81,81,82,82,83,83,85,85,86,86,87,87,88,88,89,89,90,90,91,91,92,92,93,93,95,95,96,96,97,97,100,100,102,102,104,104,105,105,106,106,107,107,108,108,109,109,110,110,111,111,112,112,113,113,114,114,115,115,117,117],"right_children":[2,4,6,8,10,12,14,16,18,20,22,24,26,28,30,32,34,36,38,40,42,44,46,48,50,52,54,56,58,60,62,64,66,68,70,72,74,76,78,80,82,84,86,88,90,92,94,96,98,100,102,104,-1,106,108,110,112,114,116,-1,118,-1,-1,120,122,124,126,128,130,132,134,136,138,140,142,144,146,148,150,152,154,156,158,160,-1,162,164,166,168,170,172,174,176,178,-1,180,182,184,-1,-1,186,-1,188,-1,190,192,194,196,198,200,202,204,206,208,210,212,-1,214,-1,-1,-1,-1,-1,-1,-1,-1,-1,-1,-1,-1,-1,-1,-1,-1,-1,-1,-1,-1,-1,-1,-1,-1,-1,-1,-1,-1,-1,-1,-1,-1,-1,-1,-1,-1,-1,-1,-1,-1,-1,-1,-1,-1,-1,-1,-1,-1,-1,-1,-1,-1,-1,-1,-1,-1,-1,-1,-1,-1,-1,-1,-1,-1,-1,-1,-1,-1,-1,-1,-1,-1,-1,-1,-1,-1,-1,-1,-1,-1,-1,-1,-1,-1,-1,-1,-1,-1,-1,-1,-1,-1,-1,-1,-1,-1,-1],"split_conditions":[1.2898483E0,-1.4923318E-1,-9.060761E-3,-5.108996E-2,-1.722764E-1,-4.7771487E-1,2.5707856E-1,-5.305248E-1,-1.5027186E-1,-1.8488947E-1,-4.105405E-2,-6.09722E-2,1.3021809E-1,2.2318907E0,3.7161672E-1,-7.9535544E-2,-3.1566624E-2,-9.65814E-2,-3.4927633E-1,-9.7541976E-1,-7.168986E-1,-2.1975702E-1,7.9914063E-1,3.1632805E-1,-5.534575E-1,-1.0096897E-1,3.622093E-1,1.838664E0,6.23036E-1,3.282848E-1,1.5744128E0,-3.4329545E-1,-3.756799E-1,-8.7995964E-1,-1.656305E-1,-3.291338E-1,-6.825928E-2,1.2953302E-2,-1.5253566E-3,4.2586693E-1,-3.2002594E-2,1.12544365E-1,-1.3934857E-2,5.8297865E-2,3.1228206E-1,-1.3159447E0,2.3633804E0,1.1689156E0,-9.189813E-3,-7.238437E-2,-2.4236892E-1,-9.809071E-2,-6.0199243E-3,7.305675E-1,4.7238755E-1,3.9720938E-1,2.819082E0,-4.245089E-2,3.5061429E0,9.538815E-3,-2.4247122E-1,1.4541022E-2,-1.2026505E-3,1.864572E-1,-1.5650256E-1,-1.0075033E-1,-6.51093E-1,1.951553E-1,-2.0748918E-1,-1.6131726E-1,-8.505217E-1,-4.5511324E-2,-1.6927645E-1,2.4416374E-1,1.0059456E0,1.0757595E0,-9.799619E-1,1.2147145E0,1.1151011E0,-1.7898785E-1,-4.5445642E-1,-6.91595E-2,3.338417E-1,-1.1136792E0,4.3293694E-3,-5.306261E-1,-1.3279003E-1,5.6052345E-1,-3.3271976E-2,-5.8951374E-2,-6.996412E-2,-6.6658556E-1,-9.189813E-3,6.23036E-1,5.9312643E-3,1.6783431E-1,-1.1045625E0,-9.721026E-1,1.0197909E-2,-4.154098E-3,-1.8112992E-1,2.630487E-2,-3.2820368E-1,-5.2023E-3,-9.757754E-2,-2.4817507E-1,3.3969793E0,-2.1804301E-2,6.550389E-1,-1.9962896E-1,4.3434505E-3,3.9248586E-1,4.1105884E-1,2.0435801E-1,1.3353703E0,7.634644E-1,-5.509313E-3,5.255103E0,-3.7772555E-3,-5.1701735E-3,1.5020755E-3,-2.5955564E-3,-3.6695728E-4,-1.903583E-3,1.2209711E-2,2.228818E-3,-1.2719935E-3,2.8721204E-3,-2.0366227E-3,-8.81112E-4,7.669849E-4,-1.6595221E-3,9.735587E-3,9.210254E-3,3.5841723E-3,7.217165E-4,1.1592615E-2,-4.156742E-3,-2.458109E-3,4.734925E-3,-4.6788785E-3,-5.77254E-3,-7.636526E-3,1.9060798E-3,-3.6802792E-3,1.7708435E-3,1.3585371E-2,-3.6031217E-4,3.9171977E-3,-1.9905716E-3,8.4824616E-4,-1.8377984E-3,2.688269E-3,1.9452386E-3,1.100399E-2,-8.022215E-4,2.0486736E-3,-2.1387117E-3,8.224108E-4,-2.9173451E-3,-8.7417953E-4,2.4345974E-3,4.5078786E-4,7.4671046E-3,2.1044381E-3,2.033626E-3,-4.3080733E-4,7.911304E-3,1.7420101E-3,2.0675341E-4,1.635844E-3,-3.0160442E-3,1.01970094E-4,1.2985639E-3,-3.302553E-3,5.192256E-3,1.7387356E-3,-5.0857523E-3,-6.3254347E-4,7.917107E-3,1.0412367E-3,3.1405836E-2,5.9008533E-3,-3.1971752E-3,2.3240028E-3,1.0955646E-2,1.113218E-3,2.0639742E-2,7.714867E-3,-3.775925E-3,6.303367E-3,1.16525395E-2,4.4166797E-4,-4.6757708E-4,7.331621E-3,1.8447097E-2,4.5239474E-3,2.8895773E-3,-1.025418E-3,9.172356E-3,8.5776503E-4,-5.3634006E-3,1.7706688E-2,3.5492392E-4,-6.3472707E-3,-2.30894E-3,1.1634083E-2,1.4842251E-2,-1.1305816E-3,1.6769106E-2,-4.0905224E-3,-2.6725212E-3,4.344821E-3,4.6683685E-3,-1.2452314E-3],"split_indices":[36,34,42,25,27,12,52,4,41,18,52,17,4,3,45,11,37,27,27,0,40,10,43,26,5,27,12,29,7,33,46,11,12,36,50,12,18,17,2,36,37,33,24,12,3,30,2,2,24,43,19,43,0,41,5,19,23,46,2,0,26,0,0,26,47,43,0,11,28,47,0,33,47,3,2,30,3,40,22,10,13,53,2,41,0,35,34,4,39,32,53,41,24,7,0,34,0,15,0,0,18,0,5,0,7,12,4,24,19,19,39,43,39,47,6,34,0,43,0,0,0,0,0,0,0,0,0,0,0,0,0,0,0,0,0,0,0,0,0,0,0,0,0,0,0,0,0,0,0,0,0,0,0,0,0,0,0,0,0,0,0,0,0,0,0,0,0,0,0,0,0,0,0,0,0,0,0,0,0,0,0,0,0,0,0,0,0,0,0,0,0,0,0,0,0,0,0,0,0,0,0,0,0,0,0,0,0,0,0,0,0,0,0,0,0],"split_type":[0,0,0,0,0,0,0,0,0,0,0,0,0,0,0,0,0,0,0,0,0,0,0,0,0,0,0,0,0,0,0,0,0,0,0,0,0,0,0,0,0,0,0,0,0,0,0,0,0,0,0,0,0,0,0,0,0,0,0,0,0,0,0,0,0,0,0,0,0,0,0,0,0,0,0,0,0,0,0,0,0,0,0,0,0,0,0,0,0,0,0,0,0,0,0,0,0,0,0,0,0,0,0,0,0,0,0,0,0,0,0,0,0,0,0,0,0,0,0,0,0,0,0,0,0,0,0,0,0,0,0,0,0,0,0,0,0,0,0,0,0,0,0,0,0,0,0,0,0,0,0,0,0,0,0,0,0,0,0,0,0,0,0,0,0,0,0,0,0,0,0,0,0,0,0,0,0,0,0,0,0,0,0,0,0,0,0,0,0,0,0,0,0,0,0,0,0,0,0,0,0,0,0,0,0,0,0,0,0,0,0,0,0,0,0],"sum_hessian":[2.1748E4,2.0132E4,1.616E3,5.302E3,1.483E4,1.134E3,4.82E2,1.992E3,3.31E3,7.52E3,7.31E3,2.13E2,9.21E2,3.8E2,1.02E2,5.51E2,1.441E3,2.013E3,1.297E3,4.791E3,2.729E3,6.528E3,7.82E2,1.58E2,5.5E1,1.14E2,8.07E2,1.73E2,2.07E2,9.1E1,1.1E1,4.3E2,1.21E2,1.258E3,1.83E2,1.453E3,5.6E2,3.1E1,1.266E3,2.86E2,4.505E3,4.22E2,2.307E3,1.113E3,5.415E3,7.36E2,4.6E1,9.3E1,6.5E1,1.7E1,3.8E1,4.3E1,7.1E1,3.65E2,4.42E2,1.08E2,6.5E1,1.98E2,9E0,4E0,8.7E1,4E0,7E0,6.3E1,3.67E2,1.2E1,1.09E2,3.09E2,9.49E2,5.4E1,1.29E2,4.3E1,1.41E3,2.88E2,2.72E2,2.2E1,9E0,8.55E2,4.11E2,2.46E2,4E1,1.348E3,3.157E3,4.08E2,1.4E1,2.125E3,1.82E2,9.7E2,1.43E2,3.254E3,2.161E3,1.23E2,6.13E2,4.1E1,5E0,8.6E1,7E0,6E1,5E0,3E0,1.4E1,1.2E1,2.6E1,7E0,3.6E1,7E1,2.95E2,2.33E2,2.09E2,8E1,2.8E1,4.5E1,2E1,8.4E1,1.14E2,6E0,3E0,1.2E1,7.5E1,5.6E1,7E0,2.12E2,1.55E2,3E0,9E0,5.3E1,5.6E1,2.45E2,6.4E1,4.21E2,5.28E2,5.1E1,3E0,5.4E1,7.5E1,2.7E1,1.6E1,8E2,6.1E2,8E0,2.8E2,9.8E1,1.74E2,1.8E1,4E0,3E0,6E0,8.23E2,3.2E1,3.4E2,7.1E1,5.6E1,1.9E2,1.6E1,2.4E1,1.151E3,1.97E2,2.86E3,2.97E2,1.56E2,2.52E2,3.66E2,1.759E3,8.2E1,1E2,7.28E2,2.42E2,1.08E2,3.5E1,2.106E3,1.148E3,3.56E2,1.805E3,8.8E1,3.5E1,3.39E2,2.74E2,3E1,1.1E1,3.6E1,5E1,3E0,4E0,3.4E1,2.6E1,9E0,5E0,5E0,2.1E1,4E0,3.2E1,2.3E1,4.7E1,2.86E2,9E0,5E0,2.28E2,1.2E2,8.9E1,3.1E1,4.9E1,5E0,2.3E1,3.9E1,6E0,9E0,1.1E1,5E1,3.4E1,1.09E2,5E0,3E0,3E0,4E0,8E0],"tree_param":{"num_deleted":"0","num_feature":"54","num_nodes":"215","size_leaf_vector":"1"}},{"base_weights":[8.954433E-4,-8.466772E-3,1.1177813E-1,2.5792906E-2,-2.4258683E-2,6.5338336E-2,1.8741229E-1,1.7035494E-2,8.026175E-2,-7.460231E-2,-5.424113E-3,1.9657363E-1,3.6421116E-2,2.3858559E-1,-6.2249385E-2,4.8746005E-2,8.7635464E-4,2.3544477E-1,5.134531E-2,-1.1506187E-1,-1.43625345E-2,-2.8383415E-2,2.4922151E-2,7.4197054E-2,3.221E-1,-8.3228365E-2,5.5188008E-2,1.768802E-1,3.8261664E-1,-9.234321E-2,3.852847E-2,8.099664E-2,-1.1360311E-2,-2.0428194E-2,3.2356698E-2,3.4752607E-1,1.2636177E-1,-4.2504426E-2,7.802359E-2,-1.8090451E-1,-9.213037E-2,3.2423154E-2,-2.3351226E-2,-5.1054824E-2,1.1173719E-2,8.328165E-3,7.5716674E-2,1.5969464E-1,-5.7047926E-2,3.4902263E-1,-3.7934547E-3,1.05415694E-1,-1.8638392E-1,6.9315106E-2,-9.0986E-2,2.1281493E-1,8.511315E-3,1.351881E-1,4.3911022E-1,-1.3790843E-1,-2.9504308E-2,1.5742698E-1,-5.915891E-2,7.374079E-2,3.5106364E-1,-3.719065E-2,6.2331915E-2,-5.815405E-3,-5.5675212E-2,-8.589553E-3,6.294152E-2,7.719314E-2,4.111767E-1,4.6758506E-2,3.015346E-1,-1.3474184E-1,-1.9123064E-2,1.2088826E-1,1.1777803E-2,-2.0141591E-1,-1.3893948E-1,7.063959E-2,-1.0546602E-1,2.463364E-2,2.3134793E-1,-2.6052713E-2,1.5418541E-1,-5.9699595E-2,7.3420093E-3,-1.220723E-2,7.572733E-2,1.0015909E-2,-1.7242554E-1,1.975421E-2,1.1058765E-1,8.928119E-2,4.5883685E-1,-3.1822117E-3,6.0418234E-3,3.1258023E-1,2.3849169E-2,9.817946E-3,2.2062255E-1,2.686678E-3,-1.9895071E-1,3.2385524E-2,1.3377337E-1,-3.0430943E-2,-2.1071288E-1,1.6686672E-1,4.046825E-1,-2.8245581E-2,1.7834814E-2,1.4059746E-2,4.2971742E-1,5.1922315E-1,2.4787833E-1,1.0117432E-3,-1.8278168E-1,3.2695886E-3,-2.3373454E-3,-8.329364E-4,1.0417378E-2,-3.2303042E-3,3.0355353E-3,8.877193E-4,3.0089843E-3,4.594017E-3,2.7029095E-2,-1.9659444E-3,4.987409E-4,7.254561E-3,1.3298332E-3,6.931314E-4,-6.951997E-4,-1.7551989E-3,1.2062059E-2,-3.9913878E-4,6.4103897E-3,2.025029E-4,3.329499E-3,3.8585167E-3,-2.5056414E-3,7.6566206E-4,1.3500251E-2,5.259701E-3,-1.5715747E-3,1.1111932E-2,-3.0284713E-3,2.0633175E-3,-4.72159E-3,-1.4681426E-3,1.3117559E-3,5.6196395E-3,6.817959E-4,-1.1864764E-3,5.190314E-3,-4.2484747E-3,-6.5080407E-3,-4.2949426E-3,2.863174E-3,4.4871103E-3,-1.6934075E-3,1.0247784E-3,-3.3533885E-3,9.0790447E-4,-5.830329E-3,-1.6908325E-3,1.1537879E-2,4.5525524E-4,-1.0682131E-3,1.8517397E-3,1.0326888E-2,1.7842385E-3,-1.9570687E-3,1.9808516E-3,-1.2570083E-3,1.0111924E-3,-1.6828822E-3,4.924504E-3,1.0721337E-3,-8.99809E-5,9.716121E-4,1.5501458E-3,-5.977169E-3,1.7064929E-3,-2.7547835E-3,7.371343E-3,2.5067492E-3,6.394861E-4,8.275566E-3,2.4386814E-2,6.7336126E-3,-1.5203204E-3,3.072347E-3,1.16659505E-2,2.5016284E-3,2.7238207E-3,-3.378839E-3,5.4015126E-4,7.7246404E-3,-4.678657E-3,-7.6613715E-3,3.6091541E-3,1.4787026E-4,5.9544058E-3,1.500901E-3,-1.9117924E-3,5.8983215E-3,-2.854333E-4,-7.259409E-3,7.729502E-3,2.5315464E-3,4.3514434E-2,9.682683E-3,-2.3982269E-3,4.8627183E-3,-6.209755E-3,1.7270122E-3,2.5703173E-2,2.201835E-3,7.250709E-3,1.7557485E-2,8.054399E-4,1.4722859E-2,-1.0331987E-3,-6.4246557E-3],"categories":[],"categories_nodes":[],"categories_segments":[],"categories_sizes":[],"default_left":[0,0,0,0,0,0,0,0,0,0,0,0,0,0,0,0,0,0,0,0,0,0,0,0,0,0,0,0,0,0,0,0,0,0,0,0,0,0,0,0,0,0,0,0,0,0,0,0,0,0,0,0,0,0,0,0,0,0,0,0,0,0,0,0,0,0,0,0,0,0,0,0,0,0,0,0,0,0,0,0,0,0,0,0,0,0,0,0,0,0,0,0,0,0,0,0,0,0,0,0,0,0,0,0,0,0,0,0,0,0,0,0,0,0,0,0,0,0,0,0,0,0,0,0,0,0,0,0,0,0,0,0,0,0,0,0,0,0,0,0,0,0,0,0,0,0,0,0,0,0,0,0,0,0,0,0,0,0,0,0,0,0,0,0,0,0,0,0,0,0,0,0,0,0,0,0,0,0,0,0,0,0,0,0,0,0,0,0,0,0,0,0,0,0,0,0,0,0,0,0,0,0,0,0,0,0,0,0,0,0,0,0,0,0,0,0,0,0,0,0,0,0,0,0,0,0,0],"id":3,"left_children":[1,3,5,7,9,11,13,15,17,19,21,23,25,27,29,31,33,35,37,39,41,43,45,47,49,51,53,55,57,59,61,63,65,67,69,71,73,75,77,79,81,83,85,87,89,91,93,95,97,99,-1,101,103,105,107,109,111,113,115,117,119,121,123,125,127,129,131,133,135,137,139,141,143,145,147,149,151,153,155,157,159,161,163,165,167,169,171,173,175,177,179,181,183,185,187,189,191,-1,193,195,-1,197,199,-1,201,203,205,207,209,211,213,215,-1,217,219,221,223,-1,225,-1,-1,-1,-1,-1,-1,-1,-1,-1,-1,-1,-1,-1,-1,-1,-1,-1,-1,-1,-1,-1,-1,-1,-1,-1,-1,-1,-1,-1,-1,-1,-1,-1,-1,-1,-1,-1,-1,-1,-1,-1,-1,-1,-1,-1,-1,-1,-1,-1,-1,-1,-1,-1,-1,-1,-1,-1,-1,-1,-1,-1,-1,-1,-1,-1,-1,-1,-1,-1,-1,-1,-1,-1,-1,-1,-1,-1,-1,-1,-1,-1,-1,-1,-1,-1,-1,-1,-1,-1,-1,-1,-1,-1,-1,-1,-1,-1,-1,-1,-1,-1,-1,-1,-1,-1,-1,-1,-1],"loss_changes":[2.2519575E1,1.0823304E1,5.9202576E0,3.0094962E0,1.2983304E1,3.9699588E0,8.217052E0,2.7869802E0,3.9098473E0,9.084509E0,6.9443088E0,2.8794227E0,1.9356796E0,4.6693573E0,3.3716485E-1,3.5599456E0,2.4177718E0,1.6310706E0,1.851083E0,3.3503418E0,6.3114977E-1,5.0891047E0,3.6178691E0,1.0975597E0,1.1672106E0,2.2964308E0,1.5426767E0,2.267048E0,2.1631584E0,2.3930895E-1,3.1130022E-1,2.3157954E0,1.224362E0,1.1070495E0,1.8226862E0,1.1211195E0,9.759481E-1,3.5111168E-1,1.6313484E0,4.6695328E-1,3.6020384E0,3.6928666E-1,6.073702E-1,1.8213501E0,3.1222079E0,9.8922557E-1,2.0605154E0,1.201789E0,1.2126887E-1,1.1816378E0,0E0,4.6040165E-1,2.8136063E-1,1.6119711E0,4.7209227E-1,2.6566076E0,1.4598981E0,1.0999097E0,1.8475952E0,3.8354963E-1,2.5653717E-1,4.314755E-1,1.2758812E-1,1.3630762E0,3.2361577E0,7.2707134E-1,5.2894217E-1,7.640582E-1,8.400446E-1,6.557568E-1,2.2479644E0,1.2644666E-1,7.9719734E-1,6.4650834E-1,6.471498E-1,1.6290802E-1,2.4948436E-1,2.2716365E0,1.8854017E0,3.2564163E-1,2.038033E-1,1.2723532E0,1.3534546E0,2.943594E-1,4.1849378E-1,4.8898548E-1,3.1261355E-1,2.0768194E0,1.3494375E0,3.0628226E0,1.9389265E0,9.3416005E-1,1.9055945E-1,1.6913646E0,2.35712E0,6.154543E-1,7.3037744E-1,0E0,1.03578165E-1,1.4187384E0,0E0,2.4819049E-1,1.3728613E-1,0E0,1.3728237E-1,1.0446544E0,1.328505E0,3.52705E-1,1.3609874E-1,1.8577409E0,4.5868807E0,6.42685E-1,0E0,2.331153E-1,1.306643E0,1.5077534E0,2.1342099E0,0E0,1.7413056E-1,0E0,0E0,0E0,0E0,0E0,0E0,0E0,0E0,0E0,0E0,0E0,0E0,0E0,0E0,0E0,0E0,0E0,0E0,0E0,0E0,0E0,0E0,0E0,0E0,0E0,0E0,0E0,0E0,0E0,0E0,0E0,0E0,0E0,0E0,0E0,0E0,0E0,0E0,0E0,0E0,0E0,0E0,0E0,0E0,0E0,0E0,0E0,0E0,0E0,0E0,0E0,0E0,0E0,0E0,0E0,0E0,0E0,0E0,0E0,0E0,0E0,0E0,0E0,0E0,0E0,0E0,0E0,0E0,0E0,0E0,0E0,0E0,0E0,0E0,0E0,0E0,0E0,0E0,0E0,0E0,0E0,0E0,0E0,0E0,0E0,0E0,0E0,0E0,0E0,0E0,0E0,0E0,0E0,0E0,0E0,0E0,0E0,0E0,0E0,0E0,0E0,0E0,0E0,0E0,0E0,0E0,0E0,0E0],"parents":[2147483647,0,0,1,1,2,2,3,3,4,4,5,5,6,6,7,7,8,8,9,9,10,10,11,11,12,12,13,13,14,14,15,15,16,16,17,17,18,18,19,19,20,20,21,21,22,22,23,23,24,24,25,25,26,26,27,27,28,28,29,29,30,30,31,31,32,32,33,33,34,34,35,35,36,36,37,37,38,38,39,39,40,40,41,41,42,42,43,43,44,44,45,45,46,46,47,47,48,48,49,49,51,51,52,52,53,53,54,54,55,55,56,56,57,57,58,58,59,59,60,60,61,61,62,62,63,63,64,64,65,65,66,66,67,67,68,68,69,69,70,70,71,71,72,72,73,73,74,74,75,75,76,76,77,77,78,78,79,79,80,80,81,81,82,82,83,83,84,84,85,85,86,86,87,87,88,88,89,89,90,90,91,91,92,92,93,93,94,94,95,95,96,96,98,98,99,99,101,101,102,102,104,104,105,105,106,106,107,107,108,108,109,109,110,110,111,111,113,113,114,114,115,115,116,116,118,118],"right_children":[2,4,6,8,10,12,14,16,18,20,22,24,26,28,30,32,34,36,38,40,42,44,46,48,50,52,54,56,58,60,62,64,66,68,70,72,74,76,78,80,82,84,86,88,90,92,94,96,98,100,-1,102,104,106,108,110,112,114,116,118,120,122,124,126,128,130,132,134,136,138,140,142,144,146,148,150,152,154,156,158,160,162,164,166,168,170,172,174,176,178,180,182,184,186,188,190,192,-1,194,196,-1,198,200,-1,202,204,206,208,210,212,214,216,-1,218,220,222,224,-1,226,-1,-1,-1,-1,-1,-1,-1,-1,-1,-1,-1,-1,-1,-1,-1,-1,-1,-1,-1,-1,-1,-1,-1,-1,-1,-1,-1,-1,-1,-1,-1,-1,-1,-1,-1,-1,-1,-1,-1,-1,-1,-1,-1,-1,-1,-1,-1,-1,-1,-1,-1,-1,-1,-1,-1,-1,-1,-1,-1,-1,-1,-1,-1,-1,-1,-1,-1,-1,-1,-1,-1,-1,-1,-1,-1,-1,-1,-1,-1,-1,-1,-1,-1,-1,-1,-1,-1,-1,-1,-1,-1,-1,-1,-1,-1,-1,-1,-1,-1,-1,-1,-1,-1,-1,-1,-1,-1,-1],"split_conditions":[1.2517668E0,-2.1424176E-2,-1.9052722E-2,-5.124794E-2,-1.4923318E-1,-5.1362723E-1,6.23036E-1,-8.6307967E-1,-2.4401167E-1,-3.6462966E-2,-1.9015422E-1,-7.477752E-2,-4.2705886E-2,1.3568336E0,5.2715504E-1,1.8461448E-1,-1.1029861E-1,1.172469E-1,-4.927379E-1,-2.5783053E-1,-8.4335035E-1,-1.722764E-1,-1.8802784E-2,1.2839413E0,1.1518403E0,-1.7889315E-1,1.2882856E0,8.952787E-1,8.3664733E-1,2.1111567E0,1.8846823E0,5.166043E-1,1.4645785E-1,-6.7814454E-2,-1.6517606E-1,-2.7172908E-1,-6.108755E-2,-2.0661405E-1,5.159293E-1,-2.4390392E-1,-5.89069E-2,1.2923958E0,6.0141284E-2,3.446014E-1,-9.12242E-2,2.5212805E0,-7E-2,8.395845E-3,1.7843472E0,2.4258056E0,-3.7934547E-3,-2.1324685E-2,-2.8947496E-1,9.813939E-1,5.560748E-1,3.9720938E-1,2.765442E0,-3.784905E-2,9.5867634E-1,-6.490394E-2,-1.8608344E-1,8.3251107E-1,5.166893E0,-8.32895E-2,5.177845E-1,-1.0848267E0,2.486542E-1,-7.8317994E-1,-2.4889342E-2,-6.9896035E-2,-6.762207E-1,-1.2343824E-1,-7.270457E-1,4.695334E-1,-1.3290538E-1,-1.2151546E0,-5.4640066E-2,-4.1189644E-1,-1.8774893E-2,4.237629E-1,2.0134072E0,-8.6379594E-1,-3.3685037E-1,4.666709E-1,4.605622E-1,-2.926405E-1,1.3419428E0,-9.7541976E-1,-1.3090137E-1,2.540046E-1,-2.1260889E-1,-7.1776934E-2,-3.3477527E-1,2.5754437E-1,1.6750094E-2,-1.4066183E-2,-2.3997167E-2,-3.1822117E-3,1.2212228E0,9.973695E-1,2.3849169E-2,-1.5893623E-1,-1.6513905E-1,2.686678E-3,1.2572296E0,-2.1607555E-1,1.1392063E0,7.412644E-1,-2.660589E-2,-6.9725595E-2,-7.457341E-1,8.084283E-2,1.7834814E-2,1.5798371E0,1.8378061E0,-8.0399185E-2,8.380207E-2,1.0117432E-3,-8.089931E-1,3.2695886E-3,-2.3373454E-3,-8.329364E-4,1.0417378E-2,-3.2303042E-3,3.0355353E-3,8.877193E-4,3.0089843E-3,4.594017E-3,2.7029095E-2,-1.9659444E-3,4.987409E-4,7.254561E-3,1.3298332E-3,6.931314E-4,-6.951997E-4,-1.7551989E-3,1.2062059E-2,-3.9913878E-4,6.4103897E-3,2.025029E-4,3.329499E-3,3.8585167E-3,-2.5056414E-3,7.6566206E-4,1.3500251E-2,5.259701E-3,-1.5715747E-3,1.1111932E-2,-3.0284713E-3,2.0633175E-3,-4.72159E-3,-1.4681426E-3,1.3117559E-3,5.6196395E-3,6.817959E-4,-1.1864764E-3,5.190314E-3,-4.2484747E-3,-6.5080407E-3,-4.2949426E-3,2.863174E-3,4.4871103E-3,-1.6934075E-3,1.0247784E-3,-3.3533885E-3,9.0790447E-4,-5.830329E-3,-1.6908325E-3,1.1537879E-2,4.5525524E-4,-1.0682131E-3,1.8517397E-3,1.0326888E-2,1.7842385E-3,-1.9570687E-3,1.9808516E-3,-1.2570083E-3,1.0111924E-3,-1.6828822E-3,4.924504E-3,1.0721337E-3,-8.99809E-5,9.716121E-4,1.5501458E-3,-5.977169E-3,1.7064929E-3,-2.7547835E-3,7.371343E-3,2.5067492E-3,6.394861E-4,8.275566E-3,2.4386814E-2,6.7336126E-3,-1.5203204E-3,3.072347E-3,1.16659505E-2,2.5016284E-3,2.7238207E-3,-3.378839E-3,5.4015126E-4,7.7246404E-3,-4.678657E-3,-7.6613715E-3,3.6091541E-3,1.4787026E-4,5.9544058E-3,1.500901E-3,-1.9117924E-3,5.8983215E-3,-2.854333E-4,-7.259409E-3,7.729502E-3,2.5315464E-3,4.3514434E-2,9.682683E-3,-2.3982269E-3,4.8627183E-3,-6.209755E-3,1.7270122E-3,2.5703173E-2,2.201835E-3,7.250709E-3,1.7557485E-2,8.054399E-4,1.4722859E-2,-1.0331987E-3,-6.4246557E-3],"split_indices":[36,24,37,32,34,0,7,3,10,42,18,17,34,21,5,11,9,5,4,28,36,27,24,2,5,19,5,19,33,43,35,47,34,13,50,21,25,34,4,21,17,41,32,2,9,4,43,25,36,36,0,24,26,14,20,19,41,7,50,53,2,28,4,43,5,15,28,22,31,53,29,50,3,2,21,6,38,0,31,2,29,0,27,13,1,19,1,0,34,3,19,43,2,36,21,16,43,0,1,29,0,10,0,0,30,19,11,33,31,50,13,42,0,36,4,7,52,0,13,0,0,0,0,0,0,0,0,0,0,0,0,0,0,0,0,0,0,0,0,0,0,0,0,0,0,0,0,0,0,0,0,0,0,0,0,0,0,0,0,0,0,0,0,0,0,0,0,0,0,0,0,0,0,0,0,0,0,0,0,0,0,0,0,0,0,0,0,0,0,0,0,0,0,0,0,0,0,0,0,0,0,0,0,0,0,0,0,0,0,0,0,0,0,0,0,0,0,0,0,0,0,0,0,0,0,0,0],"split_type":[0,0,0,0,0,0,0,0,0,0,0,0,0,0,0,0,0,0,0,0,0,0,0,0,0,0,0,0,0,0,0,0,0,0,0,0,0,0,0,0,0,0,0,0,0,0,0,0,0,0,0,0,0,0,0,0,0,0,0,0,0,0,0,0,0,0,0,0,0,0,0,0,0,0,0,0,0,0,0,0,0,0,0,0,0,0,0,0,0,0,0,0,0,0,0,0,0,0,0,0,0,0,0,0,0,0,0,0,0,0,0,0,0,0,0,0,0,0,0,0,0,0,0,0,0,0,0,0,0,0,0,0,0,0,0,0,0,0,0,0,0,0,0,0,0,0,0,0,0,0,0,0,0,0,0,0,0,0,0,0,0,0,0,0,0,0,0,0,0,0,0,0,0,0,0,0,0,0,0,0,0,0,0,0,0,0,0,0,0,0,0,0,0,0,0,0,0,0,0,0,0,0,0,0,0,0,0,0,0,0,0,0,0,0,0,0,0,0,0,0,0,0,0,0,0,0,0],"sum_hessian":[2.1691E4,2.0003E4,1.688E3,6.311E3,1.3692E4,1.047E3,6.41E2,5.438E3,8.73E2,3.727E3,9.965E3,1.88E2,8.59E2,5.32E2,1.09E2,1.835E3,3.603E3,1.36E2,7.37E2,2.229E3,1.498E3,5.673E3,4.292E3,9.6E1,9.2E1,1.16E2,7.43E2,3.74E2,1.58E2,8.4E1,2.5E1,1.194E3,6.41E2,2.149E3,1.454E3,6.6E1,7E1,1.63E2,5.74E2,5.74E2,1.655E3,2.41E2,1.257E3,3.606E3,2.067E3,3.236E3,1.056E3,5.8E1,3.8E1,8.7E1,5E0,4.1E1,7.5E1,6.78E2,6.5E1,3.08E2,6.6E1,3E1,1.28E2,4.8E1,3.6E1,1.1E1,1.4E1,1.164E3,3E1,4.75E2,1.66E2,1.52E3,6.29E2,6.22E2,8.32E2,1.3E1,5.3E1,4.9E1,2.1E1,3.2E1,1.31E2,3.48E2,2.26E2,3.83E2,1.91E2,1.25E2,1.53E3,2.33E2,8E0,1.239E3,1.8E1,3.141E3,4.65E2,1.518E3,5.49E2,3.207E3,2.9E1,4.06E2,6.5E2,4.8E1,1E1,2.1E1,1.7E1,8.2E1,5E0,2.3E1,1.8E1,3E0,7.2E1,4.32E2,2.46E2,4.4E1,2.1E1,2.5E2,5.8E1,6.3E1,3E0,2.2E1,8E0,8.9E1,3.9E1,1E1,3.8E1,9E0,2.7E1,6E0,5E0,1.1E1,3E0,4.38E2,7.26E2,2.3E1,7E0,3.11E2,1.64E2,1.4E1,1.52E2,5.7E2,9.5E2,6.26E2,3E0,6.1E2,1.2E1,3.84E2,4.48E2,1E1,3E0,5E0,4.8E1,2.1E1,2.8E1,1.8E1,3E0,3E0,2.9E1,8.9E1,4.2E1,2.07E2,1.41E2,1.72E2,5.4E1,8.1E1,3.02E2,1.88E2,3E0,7.7E1,4.8E1,6.6E1,1.464E3,2.28E2,5E0,3E0,5E0,2.33E2,1.006E3,1.3E1,5E0,1.39E2,3.002E3,2.12E2,2.53E2,7.42E2,7.76E2,1.7E2,3.79E2,2.028E3,1.179E3,3E0,2.6E1,3.05E2,1.01E2,1.07E2,5.43E2,3.6E1,1.2E1,3E0,7E0,1.1E1,6E0,6.1E1,2.1E1,1.4E1,9E0,3E0,1.5E1,4.3E1,2.9E1,1.02E2,3.3E2,1.38E2,1.08E2,3.9E1,5E0,3E0,1.8E1,1.18E2,1.32E2,3E0,5.5E1,5E1,1.3E1,3E0,1.9E1,3E0,5E0,1.8E1,7.1E1,2.1E1,1.8E1,7E0,3.1E1],"tree_param":{"num_deleted":"0","num_feature":"54","num_nodes":"227","size_leaf_vector":"1"}},{"base_weights":[-1.7141958E-4,-1.0105315E-2,9.8787464E-2,1.9184489E-2,-2.8596567E-2,6.272551E-2,1.7559037E-1,1.6047861E-3,4.7295954E-2,-7.781555E-2,-9.225748E-3,1.5411405E-1,4.0010076E-2,2.3227958E-1,-4.1760154E-2,3.901473E-2,-2.583068E-2,6.747756E-2,2.9640933E-4,-1.1920952E-1,-1.843285E-2,-2.3068352E-2,3.6471713E-2,2.3683445E-1,2.6660435E-2,-1.8816601E-2,8.5848585E-2,1.4923042E-1,3.455724E-1,4.1052764E-3,-5.752138E-2,1.6955458E-2,1.4403418E-1,-4.55253E-2,8.55663E-3,8.7183945E-2,6.425947E-3,-1.484312E-2,5.6206968E-2,-9.67964E-2,-1.7767969E-1,1.1353607E-1,-2.2873158E-2,7.803706E-2,-2.941694E-2,1.8070443E-2,8.349418E-2,1.8085882E-1,7.0692754E-1,-1.3737151E-1,9.847902E-2,-1.5026516E-1,1.967314E-3,1.1475556E-1,-2.610169E-2,-8.279702E-2,1.7415303E-1,3.786751E-1,-3.2238785E-2,-9.1446504E-2,1.7023027E-2,8.769798E-2,3.7712238E-3,1.1641039E-1,4.2097235E-1,-6.9343425E-2,-1.604771E-2,4.0554173E-2,-3.540305E-2,2.8986204E-2,1.077378E-1,1.1149197E-1,-2.050994E-2,2.0756477E-2,-4.5385215E-2,-1.7512265E-3,8.954752E-2,1.7202924E-1,-1.05461076E-1,-1.4484343E-1,-2.1422431E-1,-4.3085054E-3,1.7653012E-1,3.6273718E-2,-2.9944234E-2,2.0976274E-1,1.9100672E-2,-3.770134E-2,2.8780442E-2,3.0590974E-2,-2.3434127E-2,7.019672E-2,2.6746136E-1,-1.2382253E-2,2.4597065E-1,3.7151296E-2,-4.5749497E-2,-2.85801E-4,-5.3370236E-3,-9.601401E-3,2.8024262E-1,2.9000374E-2,-6.0013183E-3,1.2806785E-1,-2.15916E-2,3.0860254E-1,9.325006E-2,-1.10242836E-1,4.9638167E-2,5.8378223E-3,-1.2228807E-1,2.2204934E-1,6.702913E-2,3.9587155E-1,-4.191757E-3,1.1906354E-1,-4.180381E-3,-2.9974122E-2,-1.4936264E-1,-3.1247982E-3,7.47399E-2,1.6716753E-4,4.789992E-3,9.403769E-4,-7.940079E-4,9.2718133E-4,5.079253E-3,1.389592E-2,6.046346E-4,-8.1916084E-4,-2.762439E-3,5.1360717E-4,-8.6014223E-4,6.0743344E-4,4.4859736E-3,-2.7143213E-3,-5.7821664E-5,-8.1392046E-4,2.3846126E-3,3.0095824E-3,1.0242362E-2,1.4204377E-3,4.495198E-3,-9.6409186E-4,4.2647654E-3,-2.9948707E-5,2.2370797E-3,-7.1344554E-4,-2.8448158E-3,1.2380971E-3,-1.623855E-3,3.1269514E-3,-3.0941647E-3,8.507568E-3,-3.988996E-3,-3.8325721E-3,-2.3630692E-3,-5.4419315E-3,-3.5496985E-3,-4.592653E-3,-6.984288E-3,1.6838773E-3,-2.959998E-3,9.923351E-3,6.2667864E-4,6.5952505E-4,9.506483E-3,5.218377E-5,-1.2909418E-3,2.3558615E-3,8.903268E-3,2.8915837E-4,1.135901E-2,-9.289097E-5,-1.7263616E-3,2.7608105E-3,-2.0205296E-4,-7.270127E-4,1.311961E-3,-3.939006E-3,6.9264375E-4,4.852997E-3,1.2054652E-3,2.0134177E-2,5.5788145E-3,-1.6140422E-3,8.152334E-3,8.822461E-3,4.4296018E-4,4.839727E-3,-6.0677575E-3,6.8089906E-3,-1.0879766E-3,1.3953008E-2,4.551152E-3,3.4387044E-3,-3.5561458E-3,8.6432835E-3,-2.4161786E-3,-9.497874E-4,9.656163E-3,1.993978E-2,6.9480333E-3,-7.485555E-4,3.5799171E-3,-1.2016292E-3,-6.4157005E-3,7.708664E-3,-1.7228123E-3,-4.623501E-3,2.7389573E-3,1.3442091E-2,5.3413557E-3,-6.7383645E-4,5.207869E-3,8.317681E-3,1.4525459E-2,-1.1228496E-4,7.2841686E-3,3.2963632E-3,-1.8325228E-3,-6.507364E-3,-2.7615153E-3,1.0156943E-2,-1.828829E-5],"categories":[],"categories_nodes":[],"categories_segments":[],"categories_sizes":[],"default_left":[0,0,0,0,0,0,0,0,0,0,0,0,0,0,0,0,0,0,0,0,0,0,0,0,0,0,0,0,0,0,0,0,0,0,0,0,0,0,0,0,0,0,0,0,0,0,0,0,0,0,0,0,0,0,0,0,0,0,0,0,0,0,0,0,0,0,0,0,0,0,0,0,0,0,0,0,0,0,0,0,0,0,0,0,0,0,0,0,0,0,0,0,0,0,0,0,0,0,0,0,0,0,0,0,0,0,0,0,0,0,0,0,0,0,0,0,0,0,0,0,0,0,0,0,0,0,0,0,0,0,0,0,0,0,0,0,0,0,0,0,0,0,0,0,0,0,0,0,0,0,0,0,0,0,0,0,0,0,0,0,0,0,0,0,0,0,0,0,0,0,0,0,0,0,0,0,0,0,0,0,0,0,0,0,0,0,0,0,0,0,0,0,0,0,0,0,0,0,0,0,0,0,0,0,0,0,0,0,0,0,0,0,0,0,0,0,0,0,0,0,0,0,0,0,0],"id":4,"left_children":[1,3,5,7,9,11,13,15,17,19,21,23,25,27,29,31,33,35,37,39,41,43,45,47,49,51,53,55,57,-1,59,61,63,65,67,69,71,73,75,77,79,81,83,85,87,89,91,93,95,97,99,101,103,105,107,109,111,113,115,117,119,121,123,125,127,129,131,133,135,137,139,141,143,145,147,149,151,153,155,157,159,161,163,165,167,169,171,173,175,177,179,181,183,185,187,-1,189,-1,-1,191,193,195,-1,197,199,201,203,205,207,-1,209,211,213,215,-1,217,-1,219,221,-1,223,-1,-1,-1,-1,-1,-1,-1,-1,-1,-1,-1,-1,-1,-1,-1,-1,-1,-1,-1,-1,-1,-1,-1,-1,-1,-1,-1,-1,-1,-1,-1,-1,-1,-1,-1,-1,-1,-1,-1,-1,-1,-1,-1,-1,-1,-1,-1,-1,-1,-1,-1,-1,-1,-1,-1,-1,-1,-1,-1,-1,-1,-1,-1,-1,-1,-1,-1,-1,-1,-1,-1,-1,-1,-1,-1,-1,-1,-1,-1,-1,-1,-1,-1,-1,-1,-1,-1,-1,-1,-1,-1,-1,-1,-1,-1,-1,-1,-1,-1,-1,-1,-1,-1,-1],"loss_changes":[2.1400953E1,1.0715666E1,5.4895363E0,3.7839465E0,1.1562263E1,2.8025675E0,7.8214893E0,4.837213E0,2.7943392E0,8.416746E0,5.506747E0,2.8297567E0,2.927347E0,4.681093E0,3.7945107E-1,4.6169624E0,1.8418186E0,2.479043E0,7.507975E-1,2.62739E0,8.276601E-1,4.2906733E0,1.7498043E0,4.1612883E0,1.2740462E0,1.300735E0,1.9770432E0,1.7029748E0,2.663601E0,0E0,3.1008598E-1,1.5376685E0,2.5979228E0,1.2128193E0,1.395378E0,1.8605385E0,1.4286301E0,7.598678E-1,3.653726E-1,3.4212322E0,6.3856506E-1,3.4224194E-1,5.711365E-1,3.0625505E0,3.0322385E0,7.573408E-1,1.3731668E0,1.8526411E0,6.8568134E0,1.6929328E-1,1.4760725E0,5.858369E-1,1.2267313E0,1.9930797E0,8.0845E-1,3.4147608E-1,1.3396587E0,1.7936707E0,3.0829144E-1,2.9458338E-1,2.8056273E-1,1.5299191E0,1.1606555E0,1.4240394E0,5.153246E-1,9.1128397E-1,3.2456636E-1,1.2672088E0,7.704711E-1,1.1584091E0,1.9609919E0,2.462641E-1,7.648556E-1,3.78206E-1,3.993616E-1,1.5996693E-1,3.5028362E-1,1.6028216E0,8.3246136E-1,2.6645565E-1,2.6205158E-1,1.0248554E-1,7.133101E-1,5.784611E-1,5.05118E-1,1.3698182E0,9.2847717E-1,3.7794333E0,1.7616694E0,8.0724895E-1,1.6991739E0,1.4556632E0,1.1253982E0,4.6181518E-1,1.219254E0,0E0,2.9190058E-1,0E0,0E0,3.1101316E-1,5.9475446E-1,2.0307791E-1,0E0,2.1932821E0,1.2135695E0,1.1620746E0,1.353229E0,4.2778456E-1,1.5019203E0,0E0,1.9082305E-1,1.7303648E0,7.9544306E-1,1.8455296E0,0E0,1.2247932E-1,0E0,1.894463E-1,1.4650345E-1,0E0,5.3694147E-1,0E0,0E0,0E0,0E0,0E0,0E0,0E0,0E0,0E0,0E0,0E0,0E0,0E0,0E0,0E0,0E0,0E0,0E0,0E0,0E0,0E0,0E0,0E0,0E0,0E0,0E0,0E0,0E0,0E0,0E0,0E0,0E0,0E0,0E0,0E0,0E0,0E0,0E0,0E0,0E0,0E0,0E0,0E0,0E0,0E0,0E0,0E0,0E0,0E0,0E0,0E0,0E0,0E0,0E0,0E0,0E0,0E0,0E0,0E0,0E0,0E0,0E0,0E0,0E0,0E0,0E0,0E0,0E0,0E0,0E0,0E0,0E0,0E0,0E0,0E0,0E0,0E0,0E0,0E0,0E0,0E0,0E0,0E0,0E0,0E0,0E0,0E0,0E0,0E0,0E0,0E0,0E0,0E0,0E0,0E0,0E0,0E0,0E0,0E0,0E0,0E0,0E0,0E0,0E0],"parents":[2147483647,0,0,1,1,2,2,3,3,4,4,5,5,6,6,7,7,8,8,9,9,10,10,11,11,12,12,13,13,14,14,15,15,16,16,17,17,18,18,19,19,20,20,21,21,22,22,23,23,24,24,25,25,26,26,27,27,28,28,30,30,31,31,32,32,33,33,34,34,35,35,36,36,37,37,38,38,39,39,40,40,41,41,42,42,43,43,44,44,45,45,46,46,47,47,48,48,49,49,50,50,51,51,52,52,53,53,54,54,55,55,56,56,57,57,58,58,59,59,60,60,61,61,62,62,63,63,64,64,65,65,66,66,67,67,68,68,69,69,70,70,71,71,72,72,73,73,74,74,75,75,76,76,77,77,78,78,79,79,80,80,81,81,82,82,83,83,84,84,85,85,86,86,87,87,88,88,89,89,90,90,91,91,92,92,93,93,94,94,96,96,99,99,100,100,101,101,103,103,104,104,105,105,106,106,107,107,108,108,110,110,111,111,112,112,113,113,115,115,117,117,118,118,120,120],"right_children":[2,4,6,8,10,12,14,16,18,20,22,24,26,28,30,32,34,36,38,40,42,44,46,48,50,52,54,56,58,-1,60,62,64,66,68,70,72,74,76,78,80,82,84,86,88,90,92,94,96,98,100,102,104,106,108,110,112,114,116,118,120,122,124,126,128,130,132,134,136,138,140,142,144,146,148,150,152,154,156,158,160,162,164,166,168,170,172,174,176,178,180,182,184,186,188,-1,190,-1,-1,192,194,196,-1,198,200,202,204,206,208,-1,210,212,214,216,-1,218,-1,220,222,-1,224,-1,-1,-1,-1,-1,-1,-1,-1,-1,-1,-1,-1,-1,-1,-1,-1,-1,-1,-1,-1,-1,-1,-1,-1,-1,-1,-1,-1,-1,-1,-1,-1,-1,-1,-1,-1,-1,-1,-1,-1,-1,-1,-1,-1,-1,-1,-1,-1,-1,-1,-1,-1,-1,-1,-1,-1,-1,-1,-1,-1,-1,-1,-1,-1,-1,-1,-1,-1,-1,-1,-1,-1,-1,-1,-1,-1,-1,-1,-1,-1,-1,-1,-1,-1,-1,-1,-1,-1,-1,-1,-1,-1,-1,-1,-1,-1,-1,-1,-1,-1,-1,-1,-1,-1],"split_conditions":[1.189051E0,-2.1378499E-2,-8.0058716E-2,-1.2051924E-1,-1.4923318E-1,-4.295274E-1,-2.4238179E-2,-1.5831725E-1,9.254878E-2,-1.6032198E-1,8.2077265E-1,1.1357086E0,3.1838286E-1,2.2318907E0,-4.768254E-2,-5.3373825E-2,-1.4174093E-1,-4.4415664E-2,1.5702525E-1,-1.03703685E-1,-3.267598E-1,-3.5504702E-1,-8.6659335E-2,1.0229231E0,3.061417E-1,1.902871E-1,2.3896396E0,-2.0591012E-1,2.5707856E-1,4.1052764E-3,3.769124E-1,-1.7387176E-1,1.0321553E0,-1.4863817E-1,-7.352649E-2,-1.8427767E-1,-1.3212348E0,1.6148351E-1,-2.4434775E-1,-3.126504E-1,-6.825928E-2,-3.8222615E-2,-8.7995964E-1,-8.77582E-1,7.4545974E-1,7.490811E-1,9.1734934E-1,-2.7668732E-1,-1.4283179E-2,-6.1826545E-1,-7.696377E-2,-2.2351639E-1,-7.713432E-2,-2.9583007E-1,8.734713E-1,-7.2782546E-1,1.838664E0,1.3353703E0,8.494087E0,3.1377163E-2,9.20528E-1,-1.7578489E-1,-6.6118306E-1,-1.825183E-1,1.1697023E-1,-1.4427437E-1,-1.3153371E-1,1.5633515E-1,-2.7601784E-1,-1.2187051E-1,3.9524168E-1,-1.0880903E-1,7.5607784E-3,-1.2973119E0,-1.2995262E0,2.0341611E-1,-1.1836255E0,5.2602194E-2,-1.6927645E-1,-2.6517903E-2,7.6096797E-1,-4.388426E-2,5.0650857E-2,9.560207E-2,-2.6130298E-1,-4.0785572E-1,4.492066E-1,-3.195614E-2,-1.5425368E-1,-2.4822998E-1,3.655517E-1,-1.8932487E-1,-1.7273445E-2,-4.829691E-2,3.8734284E-1,3.7151296E-2,1.0737355E-1,-2.85801E-4,-5.3370236E-3,-9.281735E-1,-2.513498E-1,-1.5107253E-1,-6.0013183E-3,2.6451948E-1,3.4218116E0,-2.1804301E-2,3.9162567E-1,1.7774729E0,-3.2529447E-2,5.8378223E-3,7.2838955E-2,-2.4787398E-2,9.4158036E-1,-4.245089E-2,-4.191757E-3,4.2587492E-1,-4.180381E-3,-3.3689037E-1,4.1105884E-1,-3.1247982E-3,1.7774729E0,1.6716753E-4,4.789992E-3,9.403769E-4,-7.940079E-4,9.2718133E-4,5.079253E-3,1.389592E-2,6.046346E-4,-8.1916084E-4,-2.762439E-3,5.1360717E-4,-8.6014223E-4,6.0743344E-4,4.4859736E-3,-2.7143213E-3,-5.7821664E-5,-8.1392046E-4,2.3846126E-3,3.0095824E-3,1.0242362E-2,1.4204377E-3,4.495198E-3,-9.6409186E-4,4.2647654E-3,-2.9948707E-5,2.2370797E-3,-7.1344554E-4,-2.8448158E-3,1.2380971E-3,-1.623855E-3,3.1269514E-3,-3.0941647E-3,8.507568E-3,-3.988996E-3,-3.8325721E-3,-2.3630692E-3,-5.4419315E-3,-3.5496985E-3,-4.592653E-3,-6.984288E-3,1.6838773E-3,-2.959998E-3,9.923351E-3,6.2667864E-4,6.5952505E-4,9.506483E-3,5.218377E-5,-1.2909418E-3,2.3558615E-3,8.903268E-3,2.8915837E-4,1.135901E-2,-9.289097E-5,-1.7263616E-3,2.7608105E-3,-2.0205296E-4,-7.270127E-4,1.311961E-3,-3.939006E-3,6.9264375E-4,4.852997E-3,1.2054652E-3,2.0134177E-2,5.5788145E-3,-1.6140422E-3,8.152334E-3,8.822461E-3,4.4296018E-4,4.839727E-3,-6.0677575E-3,6.8089906E-3,-1.0879766E-3,1.3953008E-2,4.551152E-3,3.4387044E-3,-3.5561458E-3,8.6432835E-3,-2.4161786E-3,-9.497874E-4,9.656163E-3,1.993978E-2,6.9480333E-3,-7.485555E-4,3.5799171E-3,-1.2016292E-3,-6.4157005E-3,7.708664E-3,-1.7228123E-3,-4.623501E-3,2.7389573E-3,1.3442091E-2,5.3413557E-3,-6.7383645E-4,5.207869E-3,8.317681E-3,1.4525459E-2,-1.1228496E-4,7.2841686E-3,3.2963632E-3,-1.8325228E-3,-6.507364E-3,-2.7615153E-3,1.0156943E-2,-1.828829E-5],"split_indices":[3,24,49,33,34,12,51,39,19,40,1,30,12,3,8,32,50,39,34,27,27,12,46,30,34,41,30,28,52,0,5,12,0,19,39,28,3,10,5,12,18,25,36,15,2,36,6,21,16,1,17,19,39,19,34,5,29,6,8,19,28,50,1,9,41,13,12,13,5,12,8,10,42,2,29,9,30,29,47,31,2,25,21,39,19,13,8,37,33,11,40,33,24,17,34,0,1,0,0,6,18,11,0,20,41,24,40,3,8,0,13,16,18,46,0,0,0,28,39,0,3,0,0,0,0,0,0,0,0,0,0,0,0,0,0,0,0,0,0,0,0,0,0,0,0,0,0,0,0,0,0,0,0,0,0,0,0,0,0,0,0,0,0,0,0,0,0,0,0,0,0,0,0,0,0,0,0,0,0,0,0,0,0,0,0,0,0,0,0,0,0,0,0,0,0,0,0,0,0,0,0,0,0,0,0,0,0,0,0,0,0,0,0,0,0,0,0,0,0,0,0,0,0,0,0],"split_type":[0,0,0,0,0,0,0,0,0,0,0,0,0,0,0,0,0,0,0,0,0,0,0,0,0,0,0,0,0,0,0,0,0,0,0,0,0,0,0,0,0,0,0,0,0,0,0,0,0,0,0,0,0,0,0,0,0,0,0,0,0,0,0,0,0,0,0,0,0,0,0,0,0,0,0,0,0,0,0,0,0,0,0,0,0,0,0,0,0,0,0,0,0,0,0,0,0,0,0,0,0,0,0,0,0,0,0,0,0,0,0,0,0,0,0,0,0,0,0,0,0,0,0,0,0,0,0,0,0,0,0,0,0,0,0,0,0,0,0,0,0,0,0,0,0,0,0,0,0,0,0,0,0,0,0,0,0,0,0,0,0,0,0,0,0,0,0,0,0,0,0,0,0,0,0,0,0,0,0,0,0,0,0,0,0,0,0,0,0,0,0,0,0,0,0,0,0,0,0,0,0,0,0,0,0,0,0,0,0,0,0,0,0,0,0,0,0,0,0,0,0,0,0,0,0],"sum_hessian":[2.1768E4,1.9783E4,1.985E3,7.656E3,1.2127E4,1.352E3,6.33E2,4.711E3,2.945E3,3.424E3,8.703E3,2.68E2,1.084E3,5.02E2,1.31E2,1.993E3,2.718E3,2.06E3,8.85E2,2.017E3,1.407E3,6.68E3,2.023E3,1.62E2,1.06E2,4.75E2,6.09E2,2.91E2,2.11E2,1E1,1.21E2,1.648E3,3.45E2,1.728E3,9.9E2,1.557E3,5.03E2,6.97E2,1.88E2,1.46E3,5.57E2,4.5E1,1.362E3,3.94E2,6.286E3,1.455E3,5.68E2,1.46E2,1.6E1,3.2E1,7.4E1,6.4E1,4.11E2,4.84E2,1.25E2,2.8E1,2.63E2,1.94E2,1.7E1,8.3E1,3.8E1,2.58E2,1.39E3,3.15E2,3E1,9.55E2,7.73E2,5.73E2,4.17E2,4.07E2,1.15E3,1.02E2,4.01E2,3.22E2,3.75E2,6.9E1,1.19E2,4.5E1,1.415E3,2.96E2,2.61E2,1.6E1,2.9E1,1.45E2,1.217E3,1.21E2,2.73E2,5.503E3,7.83E2,1.118E3,3.37E2,5.31E2,3.7E1,3.7E1,1.09E2,9E0,7E0,8E0,2.4E1,4.7E1,2.7E1,1.4E1,5E1,6.4E1,3.47E2,4.7E1,4.37E2,5.9E1,6.6E1,3E0,2.5E1,1.81E2,8.2E1,1.88E2,6E0,7E0,1E1,4.1E1,4.2E1,1.2E1,2.6E1,1.21E2,1.37E2,7.27E2,6.63E2,1.21E2,1.94E2,2.7E1,3E0,3.36E2,6.19E2,2.13E2,5.6E2,4.84E2,8.9E1,1.57E2,2.6E2,1.93E2,2.14E2,1.116E3,3.4E1,3.9E1,6.3E1,3.75E2,2.6E1,2.3E2,9.2E1,2.62E2,1.13E2,3.8E1,3.1E1,1.11E2,8E0,3.3E1,1.2E1,7.69E2,6.46E2,1.22E2,1.74E2,6.3E1,1.98E2,1E1,6E0,1.4E1,1.5E1,1.39E2,6E0,3.56E2,8.61E2,4.9E1,7.2E1,2.67E2,6E0,2.006E3,3.497E3,2.81E2,5.02E2,2.16E2,9.02E2,1.01E2,2.36E2,1.3E2,4.01E2,5E0,3.2E1,3.3E1,4E0,9E1,1.9E1,3E0,4E0,4E0,4.3E1,1E1,1.7E1,9E0,5E0,3.6E1,2.8E1,3.38E2,9E0,7E0,4E1,7.9E1,3.58E2,3.6E1,2.3E1,2.2E1,4.4E1,2.2E1,3E0,2.8E1,1.53E2,4.5E1,3.7E1,8.2E1,1.06E2,4E0,3E0,7E0,3.4E1,1.8E1,2.4E1,5E0,2.1E1],"tree_param":{"num_deleted":"0","num_feature":"54","num_nodes":"225","size_leaf_vector":"1"}},{"base_weights":[2.2128472E-4,-8.609903E-3,1.0380191E-1,2.3820879E-2,-2.3527814E-2,7.284731E-2,1.9506772E-1,3.9506175E-2,-3.3609965E-3,-4.090682E-2,1.6839981E-2,1.0596504E-3,1.0082853E-1,2.3779145E-1,-8.526315E-2,3.142105E-2,1.3837186E-1,-2.7940035E-2,3.9221514E-2,3.010866E-4,-7.746424E-2,-8.3906215E-4,7.415282E-2,7.643301E-2,-3.0276177E-2,1.3187376E-1,2.0105174E-2,8.342243E-2,3.492909E-1,-1.1354875E-1,1.3703886E-1,4.406524E-2,-1.5978241E-2,2.8523836E-1,5.556763E-2,-2.9711163E-2,2.6267764E-1,1.6564839E-1,3.3737283E-2,4.2272683E-2,-1.1570114E-2,-1.5900905E-1,-6.531432E-2,-2.7929118E-2,2.747654E-2,1.1354546E-1,9.044752E-3,1.947981E-1,-1.0709921E-2,-1.0891942E-1,3.110104E-2,1.5049805E-1,-3.9436083E-2,-1.26728E-1,6.844135E-2,2.3475365E-1,1.7821345E-2,7.429513E-1,3.123E-1,-8.000942E-3,-8.379889E-2,-1.2440002E-3,8.438541E-3,2.2682037E-2,1.01040885E-1,2.8303242E-1,-2.259339E-2,3.4547758E-1,9.863645E-2,1.6861363E-1,3.7178226E-2,-3.393971E-2,8.109458E-2,1.4601169E-3,1.0847082E-2,4.8132747E-4,2.1681735E-1,1.5600088E-2,7.3892884E-2,-2.1826493E-2,5.6709997E-2,-2.15802E-2,4.47866E-2,-1.8371782E-1,-1.0481111E-1,3.353425E-2,-7.776671E-2,-9.824016E-3,-5.3794336E-2,1.8393151E-2,1.8168025E-1,7.5723104E-2,1.8975429E-1,-9.080874E-2,2.6450776E-2,2.8203097E-1,-6.859491E-2,-3.5337534E-2,6.751122E-3,-5.3020634E-2,-2.1637967E-1,2.498123E-3,1.2723516E-1,2.5919622E-1,1.2718391E-1,9.662932E-2,-1.1446245E-1,-7.69391E-2,-7.490757E-3,1.1203151E-2,1.1685084E-1,4.6105853E-1,1.2800875E-1,6.701994E-2,-8.790401E-2,3.2789654E-3,8.6239517E-1,3.9649416E-2,3.7561944E-1,2.7682174E-3,-2.9571757E-3,2.8663515E-3,-4.1320895E-5,4.973182E-3,2.0472503E-3,2.9675312E-2,-3.1000216E-4,-7.5703126E-4,6.070401E-3,-4.5954986E-4,1.1540686E-2,9.199954E-3,-1.0191594E-3,1.6721731E-2,2.9037544E-3,-5.9369495E-3,1.3665567E-3,-1.6978611E-3,-3.5518195E-4,1.7157841E-2,5.801257E-4,-5.603789E-4,7.4503934E-3,1.0666866E-3,-1.2451427E-3,1.7928882E-2,1.9565257E-3,2.3238058E-3,-1.1596518E-3,2.1374393E-3,-1.2967436E-3,2.5857822E-4,-1.0797421E-3,2.1040987E-3,-6.814522E-4,-5.6974636E-3,2.4604856E-3,-1.330108E-3,-4.505259E-3,5.2216523E-3,-2.6238736E-4,-1.7130524E-3,-2.8316984E-3,-8.791398E-4,2.0723457E-3,1.1776937E-2,-1.712531E-3,7.918172E-3,4.182218E-4,6.881065E-3,-1.7801106E-3,2.8005943E-3,-9.0435887E-4,4.4403397E-3,1.3271401E-2,-1.3918077E-4,-5.602269E-3,-9.42511E-4,1.9558663E-3,1.3778869E-2,5.318485E-3,-4.67993E-3,2.549054E-3,-3.4362592E-3,-4.9043298E-5,-2.6963113E-3,2.34035E-3,4.2803595E-3,-7.5369785E-3,2.8628553E-3,-1.3953738E-3,1.2832736E-2,1.7487996E-3,1.8337762E-2,6.34484E-3,5.546367E-3,2.248475E-3,7.3337546E-3,-3.0090418E-3,-7.653869E-3,-2.0917018E-3,-6.3557257E-3,-3.9843167E-4,1.2232371E-3,-3.8433927E-3,1.829925E-2,2.5828462E-3,2.1720814E-4,2.0617308E-2,1.7262276E-3,1.9263968E-2,7.190701E-4,1.7173834E-2,-3.4489417E-3,4.7196867E-3,1.3085513E-2,2.9331839E-2,8.054774E-3,-1.4556104E-3,1.1942485E-2,-3.2810764E-3],"categories":[],"categories_nodes":[],"categories_segments":[],"categories_sizes":[],"default_left":[0,0,0,0,0,0,0,0,0,0,0,0,0,0,0,0,0,0,0,0,0,0,0,0,0,0,0,0,0,0,0,0,0,0,0,0,0,0,0,0,0,0,0,0,0,0,0,0,0,0,0,0,0,0,0,0,0,0,0,0,0,0,0,0,0,0,0,0,0,0,0,0,0,0,0,0,0,0,0,0,0,0,0,0,0,0,0,0,0,0,0,0,0,0,0,0,0,0,0,0,0,0,0,0,0,0,0,0,0,0,0,0,0,0,0,0,0,0,0,0,0,0,0,0,0,0,0,0,0,0,0,0,0,0,0,0,0,0,0,0,0,0,0,0,0,0,0,0,0,0,0,0,0,0,0,0,0,0,0,0,0,0,0,0,0,0,0,0,0,0,0,0,0,0,0,0,0,0,0,0,0,0,0,0,0,0,0,0,0,0,0,0,0,0,0,0,0,0,0,0,0,0,0,0,0,0,0,0,0,0,0,0,0,0,0,0,0,0,0,0,0],"id":5,"left_children":[1,3,5,7,9,11,13,15,17,19,21,23,25,27,29,31,33,35,37,39,41,43,45,47,49,51,53,55,57,59,61,63,65,67,69,71,73,75,77,79,81,83,85,87,89,91,93,95,97,99,101,103,105,107,109,111,113,115,117,-1,119,-1,-1,121,123,125,127,129,131,133,135,137,139,-1,-1,-1,141,143,145,147,149,151,153,155,157,159,161,163,165,167,169,171,173,175,177,179,181,183,-1,185,187,189,191,193,195,197,199,201,-1,203,205,207,209,211,213,-1,215,217,219,-1,-1,-1,-1,-1,-1,-1,-1,-1,-1,-1,-1,-1,-1,-1,-1,-1,-1,-1,-1,-1,-1,-1,-1,-1,-1,-1,-1,-1,-1,-1,-1,-1,-1,-1,-1,-1,-1,-1,-1,-1,-1,-1,-1,-1,-1,-1,-1,-1,-1,-1,-1,-1,-1,-1,-1,-1,-1,-1,-1,-1,-1,-1,-1,-1,-1,-1,-1,-1,-1,-1,-1,-1,-1,-1,-1,-1,-1,-1,-1,-1,-1,-1,-1,-1,-1,-1,-1,-1,-1,-1,-1,-1,-1,-1,-1,-1,-1,-1,-1,-1,-1],"loss_changes":[1.9933992E1,9.715255E0,4.822357E0,2.697686E0,9.6498375E0,2.5710382E0,5.2062206E0,3.2026095E0,2.4251075E0,1.4484585E1,4.1948605E0,8.525933E-1,2.3054428E0,6.4425964E0,3.8026142E-1,2.224202E0,3.6689835E0,7.639302E-1,5.823755E-1,2.253092E0,5.037552E0,2.4285479E0,2.5021968E0,1.0954425E0,1.2342479E0,2.127634E0,1.8326933E0,1.5742879E0,2.942459E0,2.1457177E-1,1.9190465E-1,3.5661726E0,1.5531905E0,1.191165E0,3.9910668E-1,6.8730044E-1,1.728741E-1,2.6444942E-1,5.9169173E-1,9.238814E-1,1.9895446E0,8.645916E-1,5.462887E0,7.571689E-1,2.1649299E0,1.7381291E0,6.437432E-1,1.0532899E0,3.6791772E-1,6.6129994E-1,3.9564118E-1,1.4875565E0,6.84821E-1,3.7261212E-1,5.3624004E-1,1.1005113E0,5.8846366E-1,1.2680874E0,3.4551868E0,0E0,1.2615117E-1,0E0,0E0,3.7358613E0,1.6850872E0,3.53192E0,4.6015888E-1,1.165988E0,7.82836E-1,6.99962E-1,3.4168315E-1,7.0431185E-1,1.6258117E0,0E0,0E0,0E0,1.9768882E-1,6.419263E-1,1.110555E0,3.104312E-1,1.1856999E0,1.3033314E0,9.119351E-1,7.599859E-1,5.667045E-1,2.9543433E0,1.348074E0,1.4668481E0,1.0004532E0,1.5957811E0,1.002075E0,7.643311E-1,2.0541382E0,4.5379314E-1,7.083019E-1,5.4989195E-1,1.7431724E-1,1.5196902E-1,0E0,3.6921504E-1,5.113869E-1,5.145508E-1,6.5877795E-1,1.6340852E0,1.4809303E0,7.232101E-1,2.5282288E-1,4.0085256E-1,0E0,3.760039E-1,1.5399675E0,1.5347283E0,1.194843E0,1.6617768E0,2.5698307E-1,0E0,3.10874E-1,7.9993194E-1,1.8193417E0,0E0,0E0,0E0,0E0,0E0,0E0,0E0,0E0,0E0,0E0,0E0,0E0,0E0,0E0,0E0,0E0,0E0,0E0,0E0,0E0,0E0,0E0,0E0,0E0,0E0,0E0,0E0,0E0,0E0,0E0,0E0,0E0,0E0,0E0,0E0,0E0,0E0,0E0,0E0,0E0,0E0,0E0,0E0,0E0,0E0,0E0,0E0,0E0,0E0,0E0,0E0,0E0,0E0,0E0,0E0,0E0,0E0,0E0,0E0,0E0,0E0,0E0,0E0,0E0,0E0,0E0,0E0,0E0,0E0,0E0,0E0,0E0,0E0,0E0,0E0,0E0,0E0,0E0,0E0,0E0,0E0,0E0,0E0,0E0,0E0,0E0,0E0,0E0,0E0,0E0,0E0,0E0,0E0,0E0,0E0,0E0,0E0,0E0,0E0,0E0,0E0,0E0],"parents":[2147483647,0,0,1,1,2,2,3,3,4,4,5,5,6,6,7,7,8,8,9,9,10,10,11,11,12,12,13,13,14,14,15,15,16,16,17,17,18,18,19,19,20,20,21,21,22,22,23,23,24,24,25,25,26,26,27,27,28,28,29,29,30,30,31,31,32,32,33,33,34,34,35,35,36,36,37,37,38,38,39,39,40,40,41,41,42,42,43,43,44,44,45,45,46,46,47,47,48,48,49,49,50,50,51,51,52,52,53,53,54,54,55,55,56,56,57,57,58,58,60,60,63,63,64,64,65,65,66,66,67,67,68,68,69,69,70,70,71,71,72,72,76,76,77,77,78,78,79,79,80,80,81,81,82,82,83,83,84,84,85,85,86,86,87,87,88,88,89,89,90,90,91,91,92,92,93,93,94,94,95,95,96,96,97,97,99,99,100,100,101,101,102,102,103,103,104,104,105,105,106,106,107,107,109,109,110,110,111,111,112,112,113,113,114,114,116,116,117,117,118,118],"right_children":[2,4,6,8,10,12,14,16,18,20,22,24,26,28,30,32,34,36,38,40,42,44,46,48,50,52,54,56,58,60,62,64,66,68,70,72,74,76,78,80,82,84,86,88,90,92,94,96,98,100,102,104,106,108,110,112,114,116,118,-1,120,-1,-1,122,124,126,128,130,132,134,136,138,140,-1,-1,-1,142,144,146,148,150,152,154,156,158,160,162,164,166,168,170,172,174,176,178,180,182,184,-1,186,188,190,192,194,196,198,200,202,-1,204,206,208,210,212,214,-1,216,218,220,-1,-1,-1,-1,-1,-1,-1,-1,-1,-1,-1,-1,-1,-1,-1,-1,-1,-1,-1,-1,-1,-1,-1,-1,-1,-1,-1,-1,-1,-1,-1,-1,-1,-1,-1,-1,-1,-1,-1,-1,-1,-1,-1,-1,-1,-1,-1,-1,-1,-1,-1,-1,-1,-1,-1,-1,-1,-1,-1,-1,-1,-1,-1,-1,-1,-1,-1,-1,-1,-1,-1,-1,-1,-1,-1,-1,-1,-1,-1,-1,-1,-1,-1,-1,-1,-1,-1,-1,-1,-1,-1,-1,-1,-1,-1,-1,-1,-1,-1,-1,-1,-1],"split_conditions":[1.2517668E0,-2.1424176E-2,1.1494098E0,-1.0500858E-1,-7.1776934E-2,-1.825183E-1,2.5707856E-1,-1.1298379E-2,-4.2898778E-2,-3.1954397E-2,9.826328E-1,-2.562296E-1,1.838664E0,-8.532732E-2,3.617749E-1,-3.9817337E-2,-2.401334E-1,1.7799218E0,-1.8419024E-1,-9.678751E-1,-2.5783053E-1,-1.5401149E-1,9.2404926E-1,8.420712E-3,1.0195507E0,1.1664805E0,8.649858E-1,-9.4316185E-2,-4.1282147E-2,2.1111567E0,4.0309024E0,-1.5183237E-1,-1.7699383E-1,-1.4102703E-1,-1.4322832E-1,8.084283E-2,-1.3480799E-1,-1.3115698E-2,-8.63521E-2,-2.2127205E-1,7.2787285E-1,-2.2201112E-1,-4.432973E-2,2.9357678E-1,1.5375234E-1,-2.960247E-2,1.1507536E-1,-1.2304181E-1,1.7978451E0,2.7642453E-1,-8.091033E-2,-2.5239584E-1,1.1518403E0,6.556486E-1,1.4143412E0,-2.126069E-2,-4.163502E-2,-3.9218E-1,1.4705136E-3,-8.000942E-3,-1.8452571E-1,-1.2440002E-3,8.438541E-3,-5.8010988E-2,-1.0053412E0,8.582743E-2,4.8130727E-1,-3.4927633E-1,-1.046772E-1,-4.8628587E-2,-1.4332336E-1,-1.4863817E-1,-4.0573117E-1,1.4601169E-3,1.0847082E-2,4.8132747E-4,-1.2801752E0,-9.3701445E-2,-4.0230636E-2,-2.4595617E-1,2.465835E-1,-1.5958965E-1,1.3185356E0,-2.935075E-1,2.3749E-1,-3.643174E-1,-1.9162773E-1,-1.1723405E-1,-3.1953286E-2,-4.0277362E-2,1.6183057E0,6.482761E-1,6.481698E-1,1.1166238E0,-1.0840538E-1,-6.685452E-2,-1.787574E-1,-2.5239584E-1,6.751122E-3,-3.1796157E-2,-2.2917572E-1,-3.1404007E-2,-1.377191E-1,-2.6654921E-2,-8.391472E-2,-1.3081245E-1,9.808556E-2,-6.685452E-2,-7.490757E-3,3.9248586E-1,1.5054684E0,-6.608801E-1,1.8340993E0,-2.0501753E-2,3.4611177E0,3.2789654E-3,9.765919E-1,9.0633884E-2,1.3353703E0,2.7682174E-3,-2.9571757E-3,2.8663515E-3,-4.1320895E-5,4.973182E-3,2.0472503E-3,2.9675312E-2,-3.1000216E-4,-7.5703126E-4,6.070401E-3,-4.5954986E-4,1.1540686E-2,9.199954E-3,-1.0191594E-3,1.6721731E-2,2.9037544E-3,-5.9369495E-3,1.3665567E-3,-1.6978611E-3,-3.5518195E-4,1.7157841E-2,5.801257E-4,-5.603789E-4,7.4503934E-3,1.0666866E-3,-1.2451427E-3,1.7928882E-2,1.9565257E-3,2.3238058E-3,-1.1596518E-3,2.1374393E-3,-1.2967436E-3,2.5857822E-4,-1.0797421E-3,2.1040987E-3,-6.814522E-4,-5.6974636E-3,2.4604856E-3,-1.330108E-3,-4.505259E-3,5.2216523E-3,-2.6238736E-4,-1.7130524E-3,-2.8316984E-3,-8.791398E-4,2.0723457E-3,1.1776937E-2,-1.712531E-3,7.918172E-3,4.182218E-4,6.881065E-3,-1.7801106E-3,2.8005943E-3,-9.0435887E-4,4.4403397E-3,1.3271401E-2,-1.3918077E-4,-5.602269E-3,-9.42511E-4,1.9558663E-3,1.3778869E-2,5.318485E-3,-4.67993E-3,2.549054E-3,-3.4362592E-3,-4.9043298E-5,-2.6963113E-3,2.34035E-3,4.2803595E-3,-7.5369785E-3,2.8628553E-3,-1.3953738E-3,1.2832736E-2,1.7487996E-3,1.8337762E-2,6.34484E-3,5.546367E-3,2.248475E-3,7.3337546E-3,-3.0090418E-3,-7.653869E-3,-2.0917018E-3,-6.3557257E-3,-3.9843167E-4,1.2232371E-3,-3.8433927E-3,1.829925E-2,2.5828462E-3,2.1720814E-4,2.0617308E-2,1.7262276E-3,1.9263968E-2,7.190701E-4,1.7173834E-2,-3.4489417E-3,4.7196867E-3,1.3085513E-2,2.9331839E-2,8.054774E-3,-1.4556104E-3,1.1942485E-2,-3.2810764E-3],"split_indices":[36,24,33,39,43,9,52,17,33,37,2,0,29,46,45,26,19,14,8,35,28,9,35,39,4,45,41,50,52,43,4,27,43,39,47,42,33,20,49,28,1,21,17,35,33,37,28,13,1,20,49,10,5,33,0,24,52,19,42,0,31,0,0,17,36,26,41,27,47,42,8,19,19,0,0,0,4,8,33,1,10,11,15,4,36,12,33,19,37,16,4,18,6,1,9,43,28,10,0,42,9,37,47,16,26,19,4,43,0,43,0,20,0,37,12,0,30,8,6,0,0,0,0,0,0,0,0,0,0,0,0,0,0,0,0,0,0,0,0,0,0,0,0,0,0,0,0,0,0,0,0,0,0,0,0,0,0,0,0,0,0,0,0,0,0,0,0,0,0,0,0,0,0,0,0,0,0,0,0,0,0,0,0,0,0,0,0,0,0,0,0,0,0,0,0,0,0,0,0,0,0,0,0,0,0,0,0,0,0,0,0,0,0,0,0,0,0,0,0,0,0],"split_type":[0,0,0,0,0,0,0,0,0,0,0,0,0,0,0,0,0,0,0,0,0,0,0,0,0,0,0,0,0,0,0,0,0,0,0,0,0,0,0,0,0,0,0,0,0,0,0,0,0,0,0,0,0,0,0,0,0,0,0,0,0,0,0,0,0,0,0,0,0,0,0,0,0,0,0,0,0,0,0,0,0,0,0,0,0,0,0,0,0,0,0,0,0,0,0,0,0,0,0,0,0,0,0,0,0,0,0,0,0,0,0,0,0,0,0,0,0,0,0,0,0,0,0,0,0,0,0,0,0,0,0,0,0,0,0,0,0,0,0,0,0,0,0,0,0,0,0,0,0,0,0,0,0,0,0,0,0,0,0,0,0,0,0,0,0,0,0,0,0,0,0,0,0,0,0,0,0,0,0,0,0,0,0,0,0,0,0,0,0,0,0,0,0,0,0,0,0,0,0,0,0,0,0,0,0,0,0,0,0,0,0,0,0,0,0,0,0,0,0,0,0],"sum_hessian":[2.179E4,2.0079E4,1.711E3,6.326E3,1.3753E4,1.279E3,4.32E2,4.011E3,2.315E3,9.614E3,4.139E3,3.59E2,9.2E2,3.75E2,5.7E1,3.709E3,3.02E2,1.468E3,8.47E2,4.52E3,5.094E3,3.164E3,9.75E2,1.05E2,2.54E2,6.64E2,2.56E2,1.58E2,2.17E2,5.1E1,6E0,2.928E3,7.81E2,1.08E2,1.94E2,1.46E3,8E0,3.4E1,8.13E2,9.96E2,3.524E3,6.59E2,4.435E3,1.617E3,1.547E3,6.07E2,3.68E2,4.4E1,6.1E1,1.11E2,1.43E2,5.99E2,6.5E1,6.3E1,1.93E2,4.7E1,1.11E2,1.7E1,2E2,7E0,4.4E1,3E0,3E0,2.13E3,7.98E2,1.6E1,7.65E2,8.1E1,2.7E1,2.6E1,1.68E2,1.407E3,5.3E1,3E0,5E0,9E0,2.5E1,5.61E2,2.52E2,1.83E2,8.13E2,2.993E3,5.31E2,4.51E2,2.08E2,4.96E2,3.939E3,9.52E2,6.65E2,1.462E3,8.5E1,4.07E2,2E2,5.4E1,3.14E2,3.3E1,1.1E1,5.6E1,5E0,7.4E1,3.7E1,1.11E2,3.2E1,1.04E2,4.95E2,2.3E1,4.2E1,4.6E1,1.7E1,8.9E1,1.04E2,1.4E1,3.3E1,7.6E1,3.5E1,3E0,1.4E1,3.8E1,1.62E2,3E0,4.1E1,5.28E2,1.602E3,2.67E2,5.31E2,4E0,1.2E1,7.57E2,8E0,8E0,7.3E1,1E1,1.7E1,3E0,2.3E1,5E0,1.63E2,6.94E2,7.13E2,5E0,4.8E1,3E0,2.2E1,4.16E2,1.45E2,3E0,2.49E2,2.6E1,1.57E2,7.1E2,1.03E2,9.67E2,2.026E3,3.86E2,1.45E2,4.41E2,1E1,9E1,1.18E2,1.14E2,3.82E2,1.758E3,2.181E3,7.64E2,1.88E2,4E0,6.61E2,2.5E1,1.437E3,7.1E1,1.4E1,3.49E2,5.8E1,1.73E2,2.7E1,2.9E1,2.5E1,1.26E2,1.88E2,1.1E1,2.2E1,7E0,4E0,1.6E1,4E1,5.8E1,1.6E1,3E0,3.4E1,3.8E1,7.3E1,5E0,2.7E1,1.1E1,9.3E1,2.34E2,2.61E2,1.3E1,1E1,9E0,3.3E1,1.4E1,3.2E1,7.4E1,1.5E1,5E0,9.9E1,5E0,9E0,3E1,3E0,7.1E1,5E0,3.2E1,3E0,4E0,1E1,1E1,2.8E1,1.55E2,7E0],"tree_param":{"num_deleted":"0","num_feature":"54","num_nodes":"221","size_leaf_vector":"1"}},{"base_weights":[-2.2146456E-4,-1.0668279E-2,7.9091825E-2,1.633387E-2,-2.8491436E-2,4.749135E-2,1.6229266E-1,2.8289001E-2,-2.8025161E-2,-7.53315E-2,-8.79637E-3,1.05110414E-1,2.10468E-2,2.0891371E-1,-5.8767967E-2,1.0645466E-2,6.570278E-2,-3.470611E-2,9.0250224E-2,-1.5783869E-2,-1.1406572E-1,-1.7819045E-2,6.288958E-2,1.9439669E-1,4.4069428E-2,-8.831978E-2,4.9737178E-2,1.19413175E-1,3.1613114E-1,7.2043784E-2,-8.359774E-2,-1.0610417E-2,4.414221E-2,8.8277385E-2,-1.1980327E-2,-4.4259362E-2,1.1490857E-2,5.9844922E-2,1.7307842E-2,-2.4018185E-2,4.8848346E-2,-1.0060686E-1,-1.9008127E-1,-2.377821E-2,4.8621535E-2,-3.8466524E-2,8.619458E-2,3.2560557E-1,1.2670502E-1,7.0673544E-3,1.5673378E-1,-3.5982378E-2,-1.8463908E-1,8.253453E-2,2.3832759E-2,1.6295005E-1,-1.7271591E-2,2.2014928E-1,4.1722167E-1,-2.1486787E-2,8.815887E-3,-1.0426926E-1,1.438902E-1,-7.076935E-4,-8.118111E-2,-2.2603441E-2,7.0883945E-2,3.6028442E-1,7.97749E-2,-2.6564298E-2,8.719626E-2,-6.174706E-2,-1.9063339E-2,7.0025674E-3,1.8345603E-3,3.2979947E-2,1.7465495E-2,-3.846702E-2,3.2700442E-3,2.2576715E-1,1.8991817E-2,2.9811151E-2,-1.0887415E-1,-4.5622617E-2,-2.0145948E-1,3.3943444E-2,-3.16547E-2,4.2463325E-2,5.607249E-1,2.9094886E-2,-1.2132195E-1,1.06356226E-1,-3.1681683E-2,-3.9405455E-3,3.6496302E-1,5.3896815E-2,2.0874865E-1,1.8844604E-2,-2.0122181E-1,1.23339914E-1,5.112169E-1,-9.917508E-2,-9.788793E-3,-7.02978E-3,-1.3625409E-1,2.3770343E-1,6.381505E-2,-1.2921876E-2,5.6533404E-2,6.804008E-2,2.504227E-1,-1.0654168E-1,4.5204803E-2,4.0968356E-1,-4.972602E-2,1.875387E-1,5.2187026E-1,9.836073E-4,-5.3680856E-3,-1.7237143E-1,-6.694163E-2,1.2634495E-2,-1.9479378E-3,-7.251454E-4,1.0203643E-3,-3.6746907E-5,-2.8781262E-3,1.6899114E-4,-1.5371899E-3,4.3082054E-4,3.295933E-3,3.2997618E-3,2.7199399E-2,5.598903E-3,1.9517243E-3,-3.9104847E-4,-3.407588E-3,1.272459E-3,1.606437E-2,6.5605077E-3,-1.9062433E-3,4.211797E-3,-7.117499E-4,1.0248533E-3,-1.4737148E-3,3.1532326E-3,-1.7428775E-3,-1.5706015E-3,4.5518804E-4,-2.9243514E-5,2.9154618E-3,1.519252E-3,1.1024546E-2,6.4550615E-3,1.3800031E-4,6.5240213E-3,-2.480021E-3,2.6433389E-3,-3.3618743E-3,5.276501E-3,-2.569252E-3,-2.5498788E-3,-6.4705624E-3,4.2774673E-3,3.3036078E-4,1.0681667E-4,-1.3319303E-3,1.9064656E-3,-2.0010383E-3,3.5217453E-3,2.5916312E-2,-7.033676E-4,4.1496553E-3,-4.3520555E-3,4.1060364E-3,2.4744582E-3,6.9387956E-3,-5.300463E-3,-4.0809734E-4,8.655748E-3,1.5557645E-2,6.051704E-3,-7.0856157E-4,6.9359005E-3,-4.2835185E-3,-3.6832571E-3,1.0391029E-3,-9.1608264E-4,-7.993274E-3,5.2633644E-3,-2.3103738E-3,2.214452E-2,4.6943654E-3,-3.4518582E-3,3.3686787E-3,4.824519E-3,-1.0018033E-3,9.413452E-4,-4.5555606E-3,-4.2027817E-4,1.1424228E-2,1.5603704E-3,1.1413766E-2,-6.1503437E-4,1.1513534E-2,2.8179162E-3,-7.0739404E-4,-4.1746683E-3,3.2254914E-3,-2.5872346E-3,8.617915E-3,1.294441E-4,-4.503237E-3,5.1824976E-4,8.123228E-3,7.2221733E-3,1.9290188E-2,7.471337E-7,-7.088822E-3,1.4826984E-2,-2.9939578E-3,2.5517294E-2,1.321336E-2,-5.9848735E-3,-5.1187485E-4,-2.787362E-4,-3.5720863E-3],"categories":[],"categories_nodes":[],"categories_segments":[],"categories_sizes":[],"default_left":[0,0,0,0,0,0,0,0,0,0,0,0,0,0,0,0,0,0,0,0,0,0,0,0,0,0,0,0,0,0,0,0,0,0,0,0,0,0,0,0,0,0,0,0,0,0,0,0,0,0,0,0,0,0,0,0,0,0,0,0,0,0,0,0,0,0,0,0,0,0,0,0,0,0,0,0,0,0,0,0,0,0,0,0,0,0,0,0,0,0,0,0,0,0,0,0,0,0,0,0,0,0,0,0,0,0,0,0,0,0,0,0,0,0,0,0,0,0,0,0,0,0,0,0,0,0,0,0,0,0,0,0,0,0,0,0,0,0,0,0,0,0,0,0,0,0,0,0,0,0,0,0,0,0,0,0,0,0,0,0,0,0,0,0,0,0,0,0,0,0,0,0,0,0,0,0,0,0,0,0,0,0,0,0,0,0,0,0,0,0,0,0,0,0,0,0,0,0,0,0,0,0,0,0,0,0,0,0,0,0,0,0,0,0,0,0,0,0,0,0,0,0,0,0,0,0,0],"id":6,"left_children":[1,3,5,7,9,11,13,15,17,19,21,23,25,27,29,31,33,35,37,39,41,43,45,47,49,51,53,55,57,59,61,63,65,67,69,71,73,75,-1,77,79,81,83,85,87,89,91,93,95,97,99,101,103,105,107,109,111,113,115,117,-1,119,121,123,125,127,129,131,133,135,137,139,141,-1,143,145,-1,147,149,151,153,155,157,159,161,163,165,167,169,171,173,175,177,-1,179,181,183,185,187,189,191,193,195,-1,197,199,201,203,205,207,209,211,213,215,217,219,221,-1,-1,223,225,-1,-1,-1,-1,-1,-1,-1,-1,-1,-1,-1,-1,-1,-1,-1,-1,-1,-1,-1,-1,-1,-1,-1,-1,-1,-1,-1,-1,-1,-1,-1,-1,-1,-1,-1,-1,-1,-1,-1,-1,-1,-1,-1,-1,-1,-1,-1,-1,-1,-1,-1,-1,-1,-1,-1,-1,-1,-1,-1,-1,-1,-1,-1,-1,-1,-1,-1,-1,-1,-1,-1,-1,-1,-1,-1,-1,-1,-1,-1,-1,-1,-1,-1,-1,-1,-1,-1,-1,-1,-1,-1,-1,-1,-1,-1,-1,-1,-1,-1,-1,-1,-1,-1,-1,-1,-1],"loss_changes":[1.8011496E1,9.2445755E0,6.6441345E0,4.051362E0,1.0673793E1,2.7937956E0,7.1853085E0,3.9711905E0,1.2848228E0,7.8980675E0,5.270593E0,3.1361537E0,3.9548435E0,5.4799633E0,4.0228197E-1,2.9125602E0,3.382124E0,6.783935E-1,1.2528638E0,7.2017825E-1,2.103773E0,2.866504E0,2.1551926E0,2.0370731E0,1.4329646E0,1.3141248E0,8.4592986E-1,1.8773255E0,2.4405937E0,4.2125154E-1,4.9936295E-1,1.7491442E0,2.8360147E0,3.426484E0,6.314953E-1,5.597327E-1,5.653246E-1,1.1455059E0,0E0,4.728713E-1,8.038862E-1,1.9062748E0,5.019951E-1,3.0208216E0,1.8557599E0,9.607587E-1,1.7644143E0,1.4687271E0,9.206073E-1,6.415911E-1,9.431393E-1,2.820758E-1,1.8924952E-1,1.2628901E0,6.7259276E-1,1.9671454E0,4.3426627E-1,6.9768558E0,2.930666E0,1.3404717E-1,0E0,2.2996008E-1,5.484257E-1,1.7898157E0,3.6328197E-1,3.681954E-1,2.4969702E0,6.05404E0,2.268178E0,4.4591266E-1,1.1014614E0,3.917992E-1,3.9209366E-1,0E0,4.2010322E-1,5.3163457E-1,0E0,5.847678E-1,1.6592912E-1,5.273942E-1,3.7169108E-1,2.2553508E0,1.0524464E0,2.2781034E-1,4.5882702E-1,1.9864407E0,2.6230865E0,1.3622968E0,8.393705E-1,5.484324E-1,4.9195182E-1,1.8690219E0,2.8332713E-1,0E0,7.0759964E-1,9.673089E-1,6.0907006E-1,5.566639E-1,1.4771527E-1,8.3823E-1,4.480095E-1,1.8089545E-1,4.9667618E-1,0E0,1.3288611E-1,1.6983287E0,1.4526888E0,8.0164844E-1,8.890322E-1,9.637627E-1,1.562757E0,1.5519488E-1,2.8512755E-1,2.9986887E0,5.2907604E-1,3.662435E0,1.9271469E0,0E0,0E0,1.3561386E-1,1.8822107E-1,0E0,0E0,0E0,0E0,0E0,0E0,0E0,0E0,0E0,0E0,0E0,0E0,0E0,0E0,0E0,0E0,0E0,0E0,0E0,0E0,0E0,0E0,0E0,0E0,0E0,0E0,0E0,0E0,0E0,0E0,0E0,0E0,0E0,0E0,0E0,0E0,0E0,0E0,0E0,0E0,0E0,0E0,0E0,0E0,0E0,0E0,0E0,0E0,0E0,0E0,0E0,0E0,0E0,0E0,0E0,0E0,0E0,0E0,0E0,0E0,0E0,0E0,0E0,0E0,0E0,0E0,0E0,0E0,0E0,0E0,0E0,0E0,0E0,0E0,0E0,0E0,0E0,0E0,0E0,0E0,0E0,0E0,0E0,0E0,0E0,0E0,0E0,0E0,0E0,0E0,0E0,0E0,0E0,0E0,0E0,0E0,0E0,0E0,0E0,0E0,0E0,0E0,0E0,0E0,0E0,0E0],"parents":[2147483647,0,0,1,1,2,2,3,3,4,4,5,5,6,6,7,7,8,8,9,9,10,10,11,11,12,12,13,13,14,14,15,15,16,16,17,17,18,18,19,19,20,20,21,21,22,22,23,23,24,24,25,25,26,26,27,27,28,28,29,29,30,30,31,31,32,32,33,33,34,34,35,35,36,36,37,37,39,39,40,40,41,41,42,42,43,43,44,44,45,45,46,46,47,47,48,48,49,49,50,50,51,51,52,52,53,53,54,54,55,55,56,56,57,57,58,58,59,59,61,61,62,62,63,63,64,64,65,65,66,66,67,67,68,68,69,69,70,70,71,71,72,72,74,74,75,75,77,77,78,78,79,79,80,80,81,81,82,82,83,83,84,84,85,85,86,86,87,87,88,88,89,89,90,90,91,91,92,92,94,94,95,95,96,96,97,97,98,98,99,99,100,100,101,101,102,102,104,104,105,105,106,106,107,107,108,108,109,109,110,110,111,111,112,112,113,113,114,114,115,115,116,116,119,119,120,120],"right_children":[2,4,6,8,10,12,14,16,18,20,22,24,26,28,30,32,34,36,38,40,42,44,46,48,50,52,54,56,58,60,62,64,66,68,70,72,74,76,-1,78,80,82,84,86,88,90,92,94,96,98,100,102,104,106,108,110,112,114,116,118,-1,120,122,124,126,128,130,132,134,136,138,140,142,-1,144,146,-1,148,150,152,154,156,158,160,162,164,166,168,170,172,174,176,178,-1,180,182,184,186,188,190,192,194,196,-1,198,200,202,204,206,208,210,212,214,216,218,220,222,-1,-1,224,226,-1,-1,-1,-1,-1,-1,-1,-1,-1,-1,-1,-1,-1,-1,-1,-1,-1,-1,-1,-1,-1,-1,-1,-1,-1,-1,-1,-1,-1,-1,-1,-1,-1,-1,-1,-1,-1,-1,-1,-1,-1,-1,-1,-1,-1,-1,-1,-1,-1,-1,-1,-1,-1,-1,-1,-1,-1,-1,-1,-1,-1,-1,-1,-1,-1,-1,-1,-1,-1,-1,-1,-1,-1,-1,-1,-1,-1,-1,-1,-1,-1,-1,-1,-1,-1,-1,-1,-1,-1,-1,-1,-1,-1,-1,-1,-1,-1,-1,-1,-1,-1,-1,-1,-1,-1,-1],"split_conditions":[1.6440387E-1,-5.119596E-2,-1.9052722E-2,-5.9737634E-2,-1.484677E-1,-9.248691E-2,2.5707856E-1,-1.2051924E-1,7.5607784E-3,-1.5194993E-1,1.0757595E0,-8.684115E-2,-1.089696E-1,9.687515E-1,3.282848E-1,-1.1029861E-1,9.3952514E-2,7.0482106E-3,9.262193E-1,-4.1470923E-2,9.254878E-2,2.5799808E-1,-7.255331E-2,-1.6757417E-1,6.025661E-1,6.0232943E-1,-1.2768073E-1,1.0075428E0,-4.245089E-2,2.1055107E0,3.7161672E-1,-2.4000237E-2,-1.7509508E-1,-1.9989212E-1,-7.198869E-2,9.013083E-3,-1.869112E-1,-1.8702927E-1,1.7307842E-2,-1.8383187E-1,-3.7917156E-2,-5.89069E-2,6.9729686E-1,-2.5779313E-1,3.3937588E0,-1.0141582E-1,9.730943E-2,-2.417489E-1,-9.12242E-2,1.4066869E0,6.228928E-1,-1.3169722E-1,6.474314E-2,-3.0273625E-1,3.5875392E-1,-5.2792266E-2,1.4952433E0,2.1189882E-1,-1.2327134E-1,3.273736E0,8.815887E-3,2.1111567E0,1.5744128E0,-1.7739126E-1,-2.6031914E-1,-8.804956E-2,-5.9329903E-1,8.475618E-2,-2.3262948E-1,-2.6746314E-2,-2.6537176E-2,-3.8690567E-1,-1.9004309E-1,7.0025674E-3,1.8098003E-1,7.53667E-1,1.7465495E-2,7.8852636E-1,-1.4000914E-1,-4.1205823E-2,-3.144476E-1,-5.218566E-2,-3.6637706E-1,-2.7704911E-2,-1.148423E-1,-8.9091194E-1,-3.1977158E-2,-3.0124104E-2,-9.1513894E-2,5.426757E-3,6.926732E-3,-2.1682434E-2,-2.0167915E-2,-3.9405455E-3,9.434916E-2,-5.443984E-1,1.0460757E0,-1.1705767E0,-3.6452938E-2,1.5986028E0,1.5466528E-1,3.0953807E-1,1.3470273E-1,-7.02978E-3,-4.571907E-1,-3.1824797E-2,3.036082E0,-2.1682434E-2,1.2605236E-1,-2.1883352E-1,-6.652307E-2,3.7936077E-1,2.4616895E0,1.2018151E0,1.4680604E0,3.3819254E-2,-3.6354065E-2,9.836073E-4,-5.3680856E-3,5.2715504E-1,8.494087E0,1.2634495E-2,-1.9479378E-3,-7.251454E-4,1.0203643E-3,-3.6746907E-5,-2.8781262E-3,1.6899114E-4,-1.5371899E-3,4.3082054E-4,3.295933E-3,3.2997618E-3,2.7199399E-2,5.598903E-3,1.9517243E-3,-3.9104847E-4,-3.407588E-3,1.272459E-3,1.606437E-2,6.5605077E-3,-1.9062433E-3,4.211797E-3,-7.117499E-4,1.0248533E-3,-1.4737148E-3,3.1532326E-3,-1.7428775E-3,-1.5706015E-3,4.5518804E-4,-2.9243514E-5,2.9154618E-3,1.519252E-3,1.1024546E-2,6.4550615E-3,1.3800031E-4,6.5240213E-3,-2.480021E-3,2.6433389E-3,-3.3618743E-3,5.276501E-3,-2.569252E-3,-2.5498788E-3,-6.4705624E-3,4.2774673E-3,3.3036078E-4,1.0681667E-4,-1.3319303E-3,1.9064656E-3,-2.0010383E-3,3.5217453E-3,2.5916312E-2,-7.033676E-4,4.1496553E-3,-4.3520555E-3,4.1060364E-3,2.4744582E-3,6.9387956E-3,-5.300463E-3,-4.0809734E-4,8.655748E-3,1.5557645E-2,6.051704E-3,-7.0856157E-4,6.9359005E-3,-4.2835185E-3,-3.6832571E-3,1.0391029E-3,-9.1608264E-4,-7.993274E-3,5.2633644E-3,-2.3103738E-3,2.214452E-2,4.6943654E-3,-3.4518582E-3,3.3686787E-3,4.824519E-3,-1.0018033E-3,9.413452E-4,-4.5555606E-3,-4.2027817E-4,1.1424228E-2,1.5603704E-3,1.1413766E-2,-6.1503437E-4,1.1513534E-2,2.8179162E-3,-7.0739404E-4,-4.1746683E-3,3.2254914E-3,-2.5872346E-3,8.617915E-3,1.294441E-4,-4.503237E-3,5.1824976E-4,8.123228E-3,7.2221733E-3,1.9290188E-2,7.471337E-7,-7.088822E-3,1.4826984E-2,-2.9939578E-3,2.5517294E-2,1.321336E-2,-5.9848735E-3,-5.1187485E-4,-2.787362E-4,-3.5720863E-3],"split_indices":[33,25,37,39,34,26,52,33,42,35,30,39,39,33,33,9,26,33,29,52,19,18,43,13,12,22,8,27,46,2,45,13,8,38,43,28,50,1,0,27,51,17,1,12,8,33,33,28,9,5,2,28,40,19,34,9,4,8,9,17,0,43,46,18,18,21,29,20,10,31,37,10,8,0,21,8,0,22,20,52,26,32,27,27,26,15,37,26,2,27,13,37,34,0,5,5,45,6,42,40,45,45,26,0,10,37,40,37,32,28,25,33,20,21,38,7,52,0,0,5,8,0,0,0,0,0,0,0,0,0,0,0,0,0,0,0,0,0,0,0,0,0,0,0,0,0,0,0,0,0,0,0,0,0,0,0,0,0,0,0,0,0,0,0,0,0,0,0,0,0,0,0,0,0,0,0,0,0,0,0,0,0,0,0,0,0,0,0,0,0,0,0,0,0,0,0,0,0,0,0,0,0,0,0,0,0,0,0,0,0,0,0,0,0,0,0,0,0,0,0,0,0,0,0,0,0,0],"split_type":[0,0,0,0,0,0,0,0,0,0,0,0,0,0,0,0,0,0,0,0,0,0,0,0,0,0,0,0,0,0,0,0,0,0,0,0,0,0,0,0,0,0,0,0,0,0,0,0,0,0,0,0,0,0,0,0,0,0,0,0,0,0,0,0,0,0,0,0,0,0,0,0,0,0,0,0,0,0,0,0,0,0,0,0,0,0,0,0,0,0,0,0,0,0,0,0,0,0,0,0,0,0,0,0,0,0,0,0,0,0,0,0,0,0,0,0,0,0,0,0,0,0,0,0,0,0,0,0,0,0,0,0,0,0,0,0,0,0,0,0,0,0,0,0,0,0,0,0,0,0,0,0,0,0,0,0,0,0,0,0,0,0,0,0,0,0,0,0,0,0,0,0,0,0,0,0,0,0,0,0,0,0,0,0,0,0,0,0,0,0,0,0,0,0,0,0,0,0,0,0,0,0,0,0,0,0,0,0,0,0,0,0,0,0,0,0,0,0,0,0,0,0,0,0,0,0,0],"sum_hessian":[2.1736E4,1.9207E4,2.529E3,7.637E3,1.157E4,1.834E3,6.95E2,6.016E3,1.621E3,3.424E3,8.146E3,5.76E2,1.258E3,5.74E2,1.21E2,4.089E3,1.927E3,1.535E3,8.6E1,1.35E3,2.074E3,7.236E3,9.1E2,2.33E2,3.43E2,2.61E2,9.97E2,3.14E2,2.6E2,1.9E1,1.02E2,2.502E3,1.587E3,1.493E3,4.34E2,1.272E3,2.63E2,8.2E1,4E0,1.198E3,1.52E2,1.764E3,3.1E2,6.641E3,5.95E2,1.7E2,7.4E2,7.8E1,1.55E2,2.59E2,8.4E1,1.7E2,9.1E1,4.39E2,5.58E2,2.38E2,7.6E1,1.35E2,1.25E2,1.4E1,5E0,9.4E1,8E0,2.195E3,3.07E2,4.54E2,1.133E3,4.4E1,1.449E3,3.79E2,5.5E1,7.5E2,5.22E2,1E1,2.53E2,7.9E1,3E0,7.83E2,4.15E2,2.1E1,1.31E2,1.05E2,1.659E3,2.3E1,2.87E2,7.97E2,5.844E3,5.89E2,6E0,9.4E1,7.6E1,6.32E2,1.08E2,6E0,7.2E1,8.3E1,7.2E1,2.46E2,1.3E1,7.8E1,6E0,4.9E1,1.21E2,4.3E1,4.8E1,4.6E1,3.93E2,2.63E2,2.95E2,1.15E2,1.23E2,3.1E1,4.5E1,7.9E1,5.6E1,4E1,8.5E1,1.1E1,3E0,3.2E1,6.2E1,3E0,5E0,1.31E3,8.85E2,4.8E1,2.59E2,2.29E2,2.25E2,4.63E2,6.7E2,3.1E1,1.3E1,1.74E2,1.275E3,3.29E2,5E1,5.1E1,4E0,4E0,7.46E2,1.4E1,5.08E2,1.55E2,9.8E1,4.4E1,3.5E1,6.22E2,1.61E2,3.98E2,1.7E1,1E1,1.1E1,8E0,1.23E2,3.9E1,6.6E1,2.6E1,1.633E3,3E0,2E1,3.2E1,2.55E2,1.38E2,6.59E2,1.553E3,4.291E3,4.94E2,9.5E1,3E0,3E0,6.4E1,3E1,7E1,6E0,5.32E2,1E2,1.1E1,9.7E1,5E1,2.2E1,2.8E1,5.5E1,6.8E1,4E0,2.4E1,2.22E2,4E0,9E0,6.2E1,1.6E1,3E0,3E0,4.6E1,3E0,1.4E1,1.07E2,4E0,4.4E1,1.7E1,2.9E1,3.8E2,1.3E1,2.59E2,4E0,2.01E2,9.4E1,1.8E1,9.7E1,1.2E1,1.11E2,9E0,2.2E1,4.1E1,4E0,4.7E1,3.2E1,4.5E1,1.1E1,1.9E1,2.1E1,1.5E1,7E1,2.7E1,5E0,3E1,3.2E1],"tree_param":{"num_deleted":"0","num_feature":"54","num_nodes":"227","size_leaf_vector":"1"}},{"base_weights":[2.827504E-4,-8.243112E-3,9.9916786E-2,3.8318615E-2,-1.7690856E-2,5.6406762E-2,1.6256028E-1,5.489511E-2,-1.5896395E-2,-4.510498E-2,2.9473423E-3,1.6072683E-1,2.7932655E-2,2.0058505E-1,-6.0521472E-2,3.346503E-1,5.037201E-2,-3.7189864E-2,4.4067916E-2,-1.792226E-2,-7.400792E-2,-8.107129E-2,1.399207E-2,5.51973E-2,2.8138256E-1,-1.07699856E-1,4.844273E-2,9.8432355E-2,2.577896E-1,-8.6570166E-2,5.190913E-2,1.4320983E-1,6.569332E-1,1.1644964E-2,6.796052E-2,-7.112126E-2,4.6239463E-3,5.2350666E-4,7.183621E-2,-3.540371E-2,1.1531887E-2,-1.00376695E-1,-4.2760476E-2,-2.2124805E-2,-1.3238718E-1,-1.7485984E-2,4.4998106E-2,1.4230095E-1,-6.436761E-2,3.5040247E-1,1.0635533E-1,3.3010364E-2,-5.6399503E-3,-6.285451E-3,8.7376066E-2,3.1080747E-2,2.8694424E-1,3.2107022E-1,1.22515194E-1,-3.69428E-2,-4.551414E-3,5.954135E-3,-4.227591E-2,-9.456297E-4,4.0022928E-1,1.3367791E-1,2.9727507E-2,-1.943279E-2,8.011903E-2,1.2602116E-1,5.2906837E-2,-7.888817E-2,9.36184E-2,2.732118E-1,-7.072064E-3,-7.345511E-2,1.6336602E-3,-2.3379622E-3,8.5303E-2,-4.9950153E-2,7.3804865E-3,3.418864E-2,-2.166184E-2,-4.4198312E-2,-1.2624729E-1,-6.629932E-2,2.180887E-2,9.489449E-2,-3.0074105E-2,-1.710634E-1,-7.022991E-2,1.9396033E-2,-2.9817682E-2,1.0448943E-1,3.18373E-2,2.1501949E-2,2.6976952E-1,-4.8052412E-3,-2.6376605E-2,2.694088E-1,6.1704236E-1,2.8380167E-1,3.4420742E-3,-1.6340248E-1,1.063735E-1,-1.2744655E-2,2.5574887E-1,1.3482998E-1,3.1723795E-3,1.649139E-2,3.4969065E-1,3.650644E-1,-2.1878371E-3,3.3734533E-1,-5.1634675E-3,4.780603E-1,8.713352E-2,-5.9854403E-2,4.1169827E-3,2.2102988E-3,-3.7186746E-3,1.1762229E-3,1.5921345E-2,7.1258363E-3,-1.07745676E-4,-7.8853115E-4,2.2826605E-3,-1.3873734E-3,2.777087E-3,4.437312E-3,1.0451842E-3,1.7719883E-3,-1.778355E-3,-2.6861746E-3,2.1156289E-4,8.548143E-3,-9.160581E-4,6.463469E-4,2.124728E-2,9.035491E-4,-1.0906652E-3,-2.0216976E-4,-4.85882E-3,1.4370143E-3,3.6377914E-3,-1.6887777E-3,2.656043E-4,1.8486376E-3,-5.360783E-4,2.494199E-3,6.388113E-4,3.5186617E-3,-8.113589E-4,2.5267808E-3,-1.8123263E-3,-2.880033E-3,-4.51031E-3,9.221881E-4,-2.2664492E-3,1.8424236E-3,-1.1742987E-3,5.7309144E-4,7.3422217E-3,-1.660802E-3,2.3638573E-4,-2.1978596E-3,-5.5613387E-3,-2.9934214E-3,-1.0439433E-4,-1.7787743E-3,1.2539818E-3,-1.6439289E-3,-1.8607904E-4,7.0402725E-3,1.7977516E-3,5.4065493E-4,2.4080046E-3,1.9071896E-3,-5.983462E-3,1.3962259E-3,1.0546231E-2,-4.2494372E-3,4.7201224E-4,1.2698182E-2,3.8012296E-3,2.4680909E-2,4.115053E-3,3.754071E-3,1.347521E-2,-3.628343E-3,2.3916916E-3,-8.628135E-3,-1.5403071E-3,-3.1058697E-3,5.3359955E-3,2.2919015E-4,-4.1031125E-3,1.1535509E-2,1.891307E-3,9.858841E-3,3.2689727E-3,-2.2129016E-3,2.3404267E-3,1.6545962E-3,-4.015155E-3,-2.3019451E-3,2.0660704E-2,1.3395325E-2,2.709092E-3,7.091884E-3,1.3116586E-2,2.9527303E-3,2.0428034E-2,-6.813628E-4,5.2925E-3,2.77698E-3,-2.590702E-3],"categories":[],"categories_nodes":[],"categories_segments":[],"categories_sizes":[],"default_left":[0,0,0,0,0,0,0,0,0,0,0,0,0,0,0,0,0,0,0,0,0,0,0,0,0,0,0,0,0,0,0,0,0,0,0,0,0,0,0,0,0,0,0,0,0,0,0,0,0,0,0,0,0,0,0,0,0,0,0,0,0,0,0,0,0,0,0,0,0,0,0,0,0,0,0,0,0,0,0,0,0,0,0,0,0,0,0,0,0,0,0,0,0,0,0,0,0,0,0,0,0,0,0,0,0,0,0,0,0,0,0,0,0,0,0,0,0,0,0,0,0,0,0,0,0,0,0,0,0,0,0,0,0,0,0,0,0,0,0,0,0,0,0,0,0,0,0,0,0,0,0,0,0,0,0,0,0,0,0,0,0,0,0,0,0,0,0,0,0,0,0,0,0,0,0,0,0,0,0,0,0,0,0,0,0,0,0,0,0,0,0,0,0,0,0,0,0,0,0,0,0,0,0,0,0,0,0,0,0,0,0,0,0,0,0,0,0],"id":7,"left_children":[1,3,5,7,9,11,13,15,17,19,21,23,25,27,29,31,33,35,37,39,41,43,45,47,49,51,53,55,57,59,61,63,65,67,69,71,73,75,77,79,81,83,85,87,89,91,93,95,97,99,101,103,-1,105,107,109,111,113,115,117,-1,-1,119,-1,121,123,-1,125,127,129,131,133,135,137,139,141,-1,-1,143,145,147,149,151,153,155,157,159,161,163,165,167,169,171,173,175,177,179,-1,181,183,185,187,189,191,193,195,197,199,201,203,205,207,-1,209,-1,211,213,215,-1,-1,-1,-1,-1,-1,-1,-1,-1,-1,-1,-1,-1,-1,-1,-1,-1,-1,-1,-1,-1,-1,-1,-1,-1,-1,-1,-1,-1,-1,-1,-1,-1,-1,-1,-1,-1,-1,-1,-1,-1,-1,-1,-1,-1,-1,-1,-1,-1,-1,-1,-1,-1,-1,-1,-1,-1,-1,-1,-1,-1,-1,-1,-1,-1,-1,-1,-1,-1,-1,-1,-1,-1,-1,-1,-1,-1,-1,-1,-1,-1,-1,-1,-1,-1,-1,-1,-1,-1,-1,-1,-1,-1,-1,-1,-1,-1,-1,-1],"loss_changes":[1.8470766E1,8.81194E0,4.6625423E0,3.037562E0,9.421471E0,3.0045466E0,5.9669456E0,3.2578964E0,1.0129026E0,5.6177177E0,8.81771E0,2.7474732E0,2.222338E0,3.4807835E0,3.0614692E-1,2.4355388E0,1.7347822E0,8.303275E-1,2.5146642E-1,1.8988491E0,2.8515434E0,3.3365498E0,8.197316E0,1.2276605E0,1.1828499E0,1.1925817E0,1.4771595E0,2.7462387E0,3.2478008E0,2.6595944E-1,2.844696E-1,1.2251648E0,2.4889178E0,1.6975892E0,1.5246267E0,4.2066967E-1,8.281221E-1,3.3116385E-1,2.6279402E-1,1.4405046E0,1.0340741E0,2.7252998E0,2.4150276E0,4.8191792E-1,1.4063511E0,1.8962593E0,3.30935E0,1.0412685E0,1.7776556E-1,1.3886862E0,5.468706E-1,5.793507E-1,0E0,4.9240157E-1,1.6178691E0,7.426116E-1,1.6290803E0,2.153019E0,1.518238E0,2.0375541E-1,0E0,0E0,1.3225557E-1,0E0,4.9736845E-1,1.0064107E-1,0E0,3.6130577E-1,3.9603496E-1,7.1336985E-1,9.6606326E-1,2.834741E-1,3.649963E-1,1.1890526E0,2.766277E-1,2.0557472E-1,0E0,0E0,1.5154159E-1,6.4459753E-1,8.0640626E-1,5.1393956E-1,4.205753E-1,1.2418481E0,9.228363E-1,1.0470257E0,1.0283648E0,3.7010774E-1,4.639685E-1,4.946146E-1,4.493872E-1,1.8446958E0,1.8425162E0,4.4300175E0,2.3175726E0,3.4732202E-1,5.860131E-1,0E0,1.818309E-1,1.1978917E0,1.4661646E0,2.3242038E-1,1.994091E-1,1.383307E-1,4.536047E-1,7.165204E-1,1.494588E-1,1.2624116E0,8.5218275E-1,9.0824574E-1,1.0647423E0,1.0114598E0,0E0,2.4474487E0,0E0,7.8018117E-1,1.1220462E0,1.8573149E-1,0E0,0E0,0E0,0E0,0E0,0E0,0E0,0E0,0E0,0E0,0E0,0E0,0E0,0E0,0E0,0E0,0E0,0E0,0E0,0E0,0E0,0E0,0E0,0E0,0E0,0E0,0E0,0E0,0E0,0E0,0E0,0E0,0E0,0E0,0E0,0E0,0E0,0E0,0E0,0E0,0E0,0E0,0E0,0E0,0E0,0E0,0E0,0E0,0E0,0E0,0E0,0E0,0E0,0E0,0E0,0E0,0E0,0E0,0E0,0E0,0E0,0E0,0E0,0E0,0E0,0E0,0E0,0E0,0E0,0E0,0E0,0E0,0E0,0E0,0E0,0E0,0E0,0E0,0E0,0E0,0E0,0E0,0E0,0E0,0E0,0E0,0E0,0E0,0E0,0E0,0E0,0E0,0E0,0E0,0E0,0E0,0E0,0E0,0E0],"parents":[2147483647,0,0,1,1,2,2,3,3,4,4,5,5,6,6,7,7,8,8,9,9,10,10,11,11,12,12,13,13,14,14,15,15,16,16,17,17,18,18,19,19,20,20,21,21,22,22,23,23,24,24,25,25,26,26,27,27,28,28,29,29,30,30,31,31,32,32,33,33,34,34,35,35,36,36,37,37,38,38,39,39,40,40,41,41,42,42,43,43,44,44,45,45,46,46,47,47,48,48,49,49,50,50,51,51,53,53,54,54,55,55,56,56,57,57,58,58,59,59,62,62,64,64,65,65,67,67,68,68,69,69,70,70,71,71,72,72,73,73,74,74,75,75,78,78,79,79,80,80,81,81,82,82,83,83,84,84,85,85,86,86,87,87,88,88,89,89,90,90,91,91,92,92,93,93,94,94,95,95,96,96,98,98,99,99,100,100,101,101,102,102,103,103,104,104,105,105,106,106,107,107,108,108,109,109,110,110,111,111,113,113,115,115,116,116,117,117],"right_children":[2,4,6,8,10,12,14,16,18,20,22,24,26,28,30,32,34,36,38,40,42,44,46,48,50,52,54,56,58,60,62,64,66,68,70,72,74,76,78,80,82,84,86,88,90,92,94,96,98,100,102,104,-1,106,108,110,112,114,116,118,-1,-1,120,-1,122,124,-1,126,128,130,132,134,136,138,140,142,-1,-1,144,146,148,150,152,154,156,158,160,162,164,166,168,170,172,174,176,178,180,-1,182,184,186,188,190,192,194,196,198,200,202,204,206,208,-1,210,-1,212,214,216,-1,-1,-1,-1,-1,-1,-1,-1,-1,-1,-1,-1,-1,-1,-1,-1,-1,-1,-1,-1,-1,-1,-1,-1,-1,-1,-1,-1,-1,-1,-1,-1,-1,-1,-1,-1,-1,-1,-1,-1,-1,-1,-1,-1,-1,-1,-1,-1,-1,-1,-1,-1,-1,-1,-1,-1,-1,-1,-1,-1,-1,-1,-1,-1,-1,-1,-1,-1,-1,-1,-1,-1,-1,-1,-1,-1,-1,-1,-1,-1,-1,-1,-1,-1,-1,-1,-1,-1,-1,-1,-1,-1,-1,-1,-1,-1,-1,-1,-1],"split_conditions":[1.2517668E0,-8.4335035E-1,-2.6171895E-2,1.8461448E-1,-6.993416E-2,-4.301052E-1,6.23036E-1,-3.2135543E-1,3.032482E-1,-6.046045E-2,-2.693978E-1,-6.8375975E-2,-7.238437E-2,-1.2154459E-1,2.5895092E0,-5.4214265E-2,-1.631678E-1,-1.0900582E0,-2.3624007E-1,-1.8669145E-1,-7.557805E-2,-5.930312E-2,-1.4999567E-1,2.7627027E-1,-1.307154E-1,3.6263993E-1,3.4707826E-1,3.3969793E0,4.9640942E-1,5.553218E-2,1.5744128E0,-4.8628587E-2,-1.17262594E-1,-1.5639028E-1,-6.997468E-2,6.7983735E-1,-2.6580086E-1,-1.4499029E0,3.0296776E-1,-1.7111441E-1,-6.7814454E-2,-5.0183095E-2,5.444304E-1,-2.879227E-1,-2.251613E-1,-3.1995103E-2,-2.565068E-1,-1.377097E-1,-3.5870723E-2,-3.4182448E-2,-9.715949E-1,-9.809071E-2,-5.6399503E-3,-4.1134886E-2,1.838664E0,3.0883694E0,1.1162281E-1,4.879721E0,-1.3385433E-1,3.242579E-1,-4.551414E-3,5.954135E-3,1.2241284E0,-9.456297E-4,-8.620041E-2,-1.3315947E-1,2.9727507E-2,-4.3487333E-2,-1.1542952E0,-4.995332E-2,5.163455E-1,1.0280036E0,-1.0301878E-1,-8.0666E-2,-1.4032401E0,-1.5263362E-2,1.6336602E-3,-2.3379622E-3,-1.8785733E0,3.2343534E-1,-1.3785863E-1,-3.0972984E-1,-9.124996E-1,-4.5060016E-2,1.4181721E-1,-9.8853934E-1,-1.3115698E-2,3.1139332E-1,-1.1626757E-1,-3.205511E-2,-1.3771647E-2,-7.7483106E-1,-2.3489916E-1,-2.2688065E-1,-2.9881395E-2,-2.3622777E-2,-7.457341E-1,-4.8052412E-3,-5.046373E-1,-1.11737184E-1,-4.977611E-1,8.059176E-1,-7.5014746E-1,3.2332355E-1,-4.2101253E-2,-9.288874E-2,1.317156E0,-2.9583007E-1,1.6842813E0,2.6584866E0,2.6973314E0,3.2775562E-2,-2.1878371E-3,-5.350233E-2,-5.1634675E-3,1.0863084E0,1.9756246E0,-3.3689037E-1,4.1169827E-3,2.2102988E-3,-3.7186746E-3,1.1762229E-3,1.5921345E-2,7.1258363E-3,-1.07745676E-4,-7.8853115E-4,2.2826605E-3,-1.3873734E-3,2.777087E-3,4.437312E-3,1.0451842E-3,1.7719883E-3,-1.778355E-3,-2.6861746E-3,2.1156289E-4,8.548143E-3,-9.160581E-4,6.463469E-4,2.124728E-2,